<?xml version="1.0"?>
<opencv_storage>
<opencv_ml_svm>
  <format>3</format>
  <svmType>C_SVC</svmType>
  <kernel>
    <type>POLY</type>
    <degree>1.</degree>
    <gamma>3.</gamma>
    <coef0>0.</coef0></kernel>
  <C>1.0000000000000001e-01</C>
  <term_criteria><iterations>10000</iterations></term_criteria>
  <var_count>513</var_count>
  <class_count>2</class_count>
  <class_labels type_id="opencv-matrix">
    <rows>2</rows>
    <cols>1</cols>
    <dt>i</dt>
    <data>
      -1 1</data></class_labels>
  <sv_total>109</sv_total>
  <support_vectors>
    <_>
      5.32063544e-02 7.97545165e-02 2.58652925e-01 2.01122493e-01
      6.48562089e-02 5.50115407e-02 1.41034588e-01 2.77226448e-01
      9.58219916e-02 1.70448616e-01 1.58228159e-01 2.74274617e-01
      2.11906523e-01 1.50320023e-01 1.41695753e-01 1.97898284e-01
      2.50180155e-01 1.86087847e-01 2.23911837e-01 1.95057437e-01
      2.22430006e-01 1.99563503e-01 1.58812523e-01 1.10377669e-01
      1.21096887e-01 1.77317962e-01 1.40756279e-01 2.44173452e-01
      1.52536020e-01 1.30933523e-01 1.11629002e-01 1.31491885e-01
      1.54317334e-01 1.20030604e-01 1.41373917e-01 1.59406185e-01
      1.64864346e-01 1.19235754e-01 1.27695560e-01 1.27634838e-01
      1.66463152e-01 1.66053057e-01 1.34504244e-01 1.14654467e-01
      1.22166641e-01 2.25225419e-01 1.75820917e-01 2.11128771e-01
      1.69224665e-01 1.74106807e-01 1.82591319e-01 2.05282390e-01
      2.04357013e-01 1.64520249e-01 1.70348302e-01 1.44953132e-01
      1.83424070e-01 1.33951113e-01 1.79768756e-01 1.63780108e-01
      1.58532619e-01 1.80513993e-01 1.66594714e-01 1.83369279e-01
      1.72953993e-01 1.75811604e-01 1.19215101e-01 1.55659378e-01
      2.14792296e-01 1.90935656e-01 1.55560225e-01 1.22802600e-01
      1.18880063e-01 1.35286853e-01 1.87628016e-01 1.80978641e-01
      1.21785395e-01 1.01942234e-01 1.28013894e-01 1.46919817e-01
      1.02565184e-01 3.53057116e-01 2.06625447e-01 1.04899473e-01
      1.83348969e-01 3.71357828e-01 2.93009549e-01 1.93574876e-01
      1.42338097e-01 1.66943088e-01 1.02745548e-01 1.10039644e-01
      1.02573961e-01 1.02299310e-01 1.75401524e-01 2.25734696e-01
      1.38860896e-01 8.16079080e-02 7.83065557e-02 1.68691561e-01
      1.25513673e-01 1.48886830e-01 1.74688414e-01 1.96328565e-01
      1.77211523e-01 1.37423098e-01 1.25752121e-01 1.34299323e-01
      1.68322682e-01 1.40779123e-01 1.62609011e-01 1.39428183e-01
      1.44758463e-01 1.43741876e-01 1.43469647e-01 1.37274593e-01
      1.24320820e-01 2.04858184e-01 1.53541237e-01 1.31045640e-01
      1.04920052e-01 1.47659659e-01 1.83030993e-01 1.73183516e-01
      1.47594854e-01 1.16458409e-01 1.99685827e-01 1.41771480e-01
      1.27804786e-01 1.37487888e-01 1.53134763e-01 1.72140002e-01
      1.36026174e-01 1.21625237e-01 1.15812361e-01 1.89880848e-01
      1.72774777e-01 3.60271633e-01 2.72206247e-01 1.27154544e-01
      8.04507956e-02 7.76967779e-02 2.07046360e-01 2.03719407e-01
      2.07889259e-01 1.73086807e-01 1.07181787e-01 8.83671194e-02
      1.34630442e-01 1.90180272e-01 1.65319666e-01 1.99875116e-01
      1.85571045e-01 2.74603158e-01 2.42107183e-01 8.81795064e-02
      5.93274832e-02 1.20663017e-01 2.60113120e-01 2.41279259e-01
      1.06995754e-01 9.48776528e-02 1.60879225e-01 1.79616913e-01
      1.70762286e-01 1.40680432e-01 1.46398917e-01 1.92159638e-01
      1.40099511e-01 9.55992937e-02 8.95646289e-02 1.28278196e-01
      6.63082302e-02 6.56789988e-02 8.97391438e-02 1.64028436e-01
      1.29687309e-01 7.32231885e-02 6.62993044e-02 9.20412466e-02
      1.60592228e-01 1.32443771e-01 1.16633825e-01 8.06993917e-02
      1.24214955e-01 1.71325386e-01 1.29932597e-01 1.14547774e-01
      1.05492026e-01 1.25173569e-01 1.37969419e-01 1.31656885e-01
      9.77299437e-02 1.24419868e-01 1.47265851e-01 1.16302624e-01
      1.11789539e-01 8.01837444e-02 1.29470140e-01 1.55700192e-01
      2.50036180e-01 3.02440435e-01 1.82889789e-01 1.27801478e-01
      8.99064243e-02 1.23494886e-01 1.33781984e-01 1.64024800e-01
      1.08950719e-01 1.22815959e-01 1.35158435e-01 1.77618951e-01
      1.38726175e-01 1.31580651e-01 2.30628997e-01 2.31488496e-01
      1.95135593e-01 1.04438178e-01 1.01277895e-01 1.22779928e-01
      2.02718794e-01 1.78922817e-01 1.49353042e-01 1.92933351e-01
      2.46050119e-01 1.22743726e-01 1.09337732e-01 1.06535062e-01
      1.46200120e-01 1.58531457e-01 1.56317696e-01 8.49911571e-02
      1.12489678e-01 1.07852034e-01 3.73128712e-01 2.10794032e-01
      1.06261045e-01 1.23146415e-01 2.22810507e-01 2.73386747e-01
      1.79743916e-01 8.55844095e-02 9.89383683e-02 4.02409077e-01
      1.99602917e-01 1.05840303e-01 1.61121264e-01 2.56252736e-01
      3.32720488e-01 1.82410240e-01 1.39152154e-01 1.84954405e-01
      1.32316306e-01 1.33340687e-01 1.24096729e-01 1.23674348e-01
      1.21746607e-01 1.26392707e-01 9.78222936e-02 7.40295574e-02
      7.31080100e-02 1.68265268e-01 1.30488530e-01 2.76464760e-01
      2.83988506e-01 2.30073065e-01 1.03053994e-01 9.17082205e-02
      1.26890272e-01 1.97397575e-01 1.03643537e-01 7.04068244e-02
      1.21355020e-01 1.78147063e-01 1.57501981e-01 1.03174999e-01
      1.49922356e-01 2.94444710e-01 2.14705884e-01 2.37133384e-01
      9.65360254e-02 4.25631963e-02 7.04521835e-02 1.97790906e-01
      2.44587213e-01 1.07393511e-01 1.03174374e-01 1.47835881e-01
      2.18294635e-01 2.13555321e-01 2.30236202e-01 1.71331763e-01
      1.02740519e-01 2.14576975e-01 1.70575246e-01 1.34044170e-01
      1.00704834e-01 1.84302017e-01 1.59130678e-01 1.20003343e-01
      1.26769617e-01 1.85965046e-01 1.97053209e-01 1.79589108e-01
      1.79773793e-01 1.59820870e-01 2.34773532e-01 2.20381647e-01
      1.59741044e-01 1.35243312e-01 1.72146320e-01 2.68809944e-01
      1.65715665e-01 1.74364284e-01 1.79246590e-01 1.38160169e-01
      1.36061624e-01 1.35548964e-01 1.19986363e-01 1.37486830e-01
      1.08202830e-01 9.27611738e-02 8.57875794e-02 8.78604054e-02
      1.84836730e-01 1.32509440e-01 2.32200235e-01 2.94349909e-01
      2.22916067e-01 1.16515957e-01 8.44022483e-02 1.09367236e-01
      1.66066900e-01 1.30896822e-01 8.37806314e-02 1.16539106e-01
      1.46774814e-01 1.78301588e-01 1.40371948e-01 1.66025862e-01
      2.79664427e-01 2.00108692e-01 2.67188251e-01 1.60504073e-01
      5.61748967e-02 7.23122954e-02 1.65387303e-01 2.49771103e-01
      1.21629216e-01 7.68946186e-02 1.40178695e-01 2.98682809e-01
      1.26467705e-01 7.74412155e-02 1.17081225e-01 1.73467100e-01
      2.10168868e-01 9.56584513e-02 1.35019436e-01 2.33958930e-01
      1.67339966e-01 1.83904707e-01 1.37361199e-01 1.43079504e-01
      1.68352112e-01 1.60742387e-01 8.23531076e-02 7.82033429e-02
      1.58153668e-01 2.62948483e-01 1.68707520e-01 8.91531184e-02
      1.24999583e-01 2.80690342e-01 2.18794435e-01 9.99738351e-02
      9.26608965e-02 1.58384755e-01 1.94689572e-01 1.24457642e-01
      1.04049452e-01 1.23752557e-01 1.79152757e-01 1.48204774e-01
      1.04183480e-01 1.12100363e-01 1.39240161e-01 1.96978971e-01
      1.42557248e-01 2.72812128e-01 2.78627217e-01 2.30244145e-01
      1.57142982e-01 1.43076196e-01 1.75569937e-01 1.55133203e-01
      1.23926550e-01 9.41183642e-02 1.19139865e-01 1.48156807e-01
      1.11115485e-01 7.03011751e-02 1.77511901e-01 2.46826902e-01
      1.77456170e-01 2.13524088e-01 1.02948129e-01 1.19143702e-01
      2.13716596e-01 2.23166272e-01 1.44175544e-01 9.82188135e-02
      2.03157887e-01 2.72909224e-01 1.91367388e-01 8.54928493e-02
      1.38512969e-01 2.87210524e-01 2.28144333e-01 9.14985389e-02
      5.21968529e-02 2.16284141e-01 2.70196706e-01 9.96739641e-02
      4.24240865e-02 7.82217979e-02 1.88310027e-01 1.89500466e-01
      6.73942566e-02 5.19903712e-02 1.66730404e-01 2.37173796e-01
      1.63630009e-01 1.24550089e-01 1.11332089e-01 1.16237655e-01
      2.89742231e-01 2.34297901e-01 1.43594772e-01 1.26633957e-01
      1.26942441e-01 1.86999366e-01 1.34007126e-01 1.06843650e-01
      9.37630981e-02 1.70425504e-01 2.02377722e-01 1.16000667e-01
      8.90707821e-02 8.68226960e-02 2.23520130e-01 1.21879153e-01
      1.75962031e-01 2.01306060e-01 2.06132188e-01 1.54114768e-01
      1.38562605e-01 1.90830573e-01 1.94893077e-01 1.73238322e-01
      1.77586406e-01 2.30256706e-01 3.00552756e-01 2.64134705e-01
      2.24015072e-01 2.11251304e-01 1.85906366e-01 1.52956903e-01
      1.86533362e-01 1.00061178e-01 8.42450857e-02 9.81573835e-02
      2.15476707e-01 1.81198373e-01 8.83862376e-02 1.00872807e-01
      1.90664992e-01 1.93327129e-01 1.19288094e-01 8.94660279e-02
      1.37556836e-01 2.09846765e-01 1.74496815e-01 9.20045450e-02
      9.55520943e-02 1.47349119e-01 1.78342730e-01 7.83548802e-02
      1.10882856e-01 1.36244461e-01 1.70305863e-01 1.55973703e-01
      1.19334638e-01 1.48862526e-01 2.05918312e-01 4.30964917e-01
      1.10288590e-01 1.00730039e-01 9.12226439e-02 1.94496170e-01
      1.86498731e-01 1.13718182e-01 8.67964402e-02 1.62504330e-01
      2.67486036e-01 1.63017109e-01 1.37969777e-01 1.32181957e-01
      1.64441273e-01 1.73143968e-01 1.19454071e-01 1.03192069e-01
      1.25348821e-01</_>
    <_>
      5.32063544e-02 7.97545165e-02 2.58652925e-01 2.01122493e-01
      6.48562089e-02 5.50115407e-02 1.41034588e-01 2.77226448e-01
      9.58219916e-02 1.70448616e-01 1.58228159e-01 2.74274617e-01
      2.11906523e-01 1.50320023e-01 1.41695753e-01 1.97898284e-01
      2.50180155e-01 1.86087847e-01 2.23911837e-01 1.95057437e-01
      2.22430006e-01 1.99563503e-01 1.58812523e-01 1.10377669e-01
      1.21096887e-01 1.77317962e-01 1.40756279e-01 2.44173452e-01
      1.52536020e-01 1.30933523e-01 1.11629002e-01 1.31491885e-01
      1.54317334e-01 1.20030604e-01 1.41373917e-01 1.59406185e-01
      1.64864346e-01 1.19235754e-01 1.27695560e-01 1.27634838e-01
      1.66463152e-01 1.66053057e-01 1.34504244e-01 1.14654467e-01
      1.22166641e-01 2.25225419e-01 1.75820917e-01 2.11128771e-01
      1.69224665e-01 1.74106807e-01 1.82591319e-01 2.05282390e-01
      2.04357013e-01 1.64520249e-01 1.70348302e-01 1.44953132e-01
      1.83424070e-01 1.33951113e-01 1.79768756e-01 1.63780108e-01
      1.58532619e-01 1.80513993e-01 1.66594714e-01 1.83369279e-01
      1.72953993e-01 1.75811604e-01 1.19215101e-01 1.55659378e-01
      2.14792296e-01 1.90935656e-01 1.55560225e-01 1.22802600e-01
      1.18880063e-01 1.35286853e-01 1.87628016e-01 1.80978641e-01
      1.21785395e-01 1.01942234e-01 1.28013894e-01 1.46919817e-01
      1.02565184e-01 3.53057116e-01 2.06625447e-01 1.04899473e-01
      1.83348969e-01 3.71357828e-01 2.93009549e-01 1.93574876e-01
      1.42338097e-01 1.66943088e-01 1.02745548e-01 1.10039644e-01
      1.02573961e-01 1.02299310e-01 1.75401524e-01 2.25734696e-01
      1.38860896e-01 8.16079080e-02 7.83065557e-02 1.68691561e-01
      1.25513673e-01 1.48886830e-01 1.74688414e-01 1.96328565e-01
      1.77211523e-01 1.37423098e-01 1.25752121e-01 1.34299323e-01
      1.68322682e-01 1.40779123e-01 1.62609011e-01 1.39428183e-01
      1.44758463e-01 1.43741876e-01 1.43469647e-01 1.37274593e-01
      1.24320820e-01 2.04858184e-01 1.53541237e-01 1.31045640e-01
      1.04920052e-01 1.47659659e-01 1.83030993e-01 1.73183516e-01
      1.47594854e-01 1.16458409e-01 1.99685827e-01 1.41771480e-01
      1.27804786e-01 1.37487888e-01 1.53134763e-01 1.72140002e-01
      1.36026174e-01 1.21625237e-01 1.15812361e-01 1.89880848e-01
      1.72774777e-01 3.60271633e-01 2.72206247e-01 1.27154544e-01
      8.04507956e-02 7.76967779e-02 2.07046360e-01 2.03719407e-01
      2.07889259e-01 1.73086807e-01 1.07181787e-01 8.83671194e-02
      1.34630442e-01 1.90180272e-01 1.65319666e-01 1.99875116e-01
      1.85571045e-01 2.74603158e-01 2.42107183e-01 8.81795064e-02
      5.93274832e-02 1.20663017e-01 2.60113120e-01 2.41279259e-01
      1.06995754e-01 9.48776528e-02 1.60879225e-01 1.79616913e-01
      1.70762286e-01 1.40680432e-01 1.46398917e-01 1.92159638e-01
      1.40099511e-01 9.55992937e-02 8.95646289e-02 1.28278196e-01
      6.63082302e-02 6.56789988e-02 8.97391438e-02 1.64028436e-01
      1.29687309e-01 7.32231885e-02 6.62993044e-02 9.20412466e-02
      1.60592228e-01 1.32443771e-01 1.16633825e-01 8.06993917e-02
      1.24214955e-01 1.71325386e-01 1.29932597e-01 1.14547774e-01
      1.05492026e-01 1.25173569e-01 1.37969419e-01 1.31656885e-01
      9.77299437e-02 1.24419868e-01 1.47265851e-01 1.16302624e-01
      1.11789539e-01 8.01837444e-02 1.29470140e-01 1.55700192e-01
      2.50036180e-01 3.02440435e-01 1.82889789e-01 1.27801478e-01
      8.99064243e-02 1.23494886e-01 1.33781984e-01 1.64024800e-01
      1.08950719e-01 1.22815959e-01 1.35158435e-01 1.77618951e-01
      1.38726175e-01 1.31580651e-01 2.30628997e-01 2.31488496e-01
      1.95135593e-01 1.04438178e-01 1.01277895e-01 1.22779928e-01
      2.02718794e-01 1.78922817e-01 1.49353042e-01 1.92933351e-01
      2.46050119e-01 1.22743726e-01 1.09337732e-01 1.06535062e-01
      1.46200120e-01 1.58531457e-01 1.56317696e-01 8.49911571e-02
      1.12489678e-01 1.07852034e-01 3.73128712e-01 2.10794032e-01
      1.06261045e-01 1.23146415e-01 2.22810507e-01 2.73386747e-01
      1.79743916e-01 8.55844095e-02 9.89383683e-02 4.02409077e-01
      1.99602917e-01 1.05840303e-01 1.61121264e-01 2.56252736e-01
      3.32720488e-01 1.82410240e-01 1.39152154e-01 1.84954405e-01
      1.32316306e-01 1.33340687e-01 1.24096729e-01 1.23674348e-01
      1.21746607e-01 1.26392707e-01 9.78222936e-02 7.40295574e-02
      7.31080100e-02 1.68265268e-01 1.30488530e-01 2.76464760e-01
      2.83988506e-01 2.30073065e-01 1.03053994e-01 9.17082205e-02
      1.26890272e-01 1.97397575e-01 1.03643537e-01 7.04068244e-02
      1.21355020e-01 1.78147063e-01 1.57501981e-01 1.03174999e-01
      1.49922356e-01 2.94444710e-01 2.14705884e-01 2.37133384e-01
      9.65360254e-02 4.25631963e-02 7.04521835e-02 1.97790906e-01
      2.44587213e-01 1.07393511e-01 1.03174374e-01 1.47835881e-01
      2.18294635e-01 2.13555321e-01 2.30236202e-01 1.71331763e-01
      1.02740519e-01 2.14576975e-01 1.70575246e-01 1.34044170e-01
      1.00704834e-01 1.84302017e-01 1.59130678e-01 1.20003343e-01
      1.26769617e-01 1.85965046e-01 1.97053209e-01 1.79589108e-01
      1.79773793e-01 1.59820870e-01 2.34773532e-01 2.20381647e-01
      1.59741044e-01 1.35243312e-01 1.72146320e-01 2.68809944e-01
      1.65715665e-01 1.74364284e-01 1.79246590e-01 1.38160169e-01
      1.36061624e-01 1.35548964e-01 1.19986363e-01 1.37486830e-01
      1.08202830e-01 9.27611738e-02 8.57875794e-02 8.78604054e-02
      1.84836730e-01 1.32509440e-01 2.32200235e-01 2.94349909e-01
      2.22916067e-01 1.16515957e-01 8.44022483e-02 1.09367236e-01
      1.66066900e-01 1.30896822e-01 8.37806314e-02 1.16539106e-01
      1.46774814e-01 1.78301588e-01 1.40371948e-01 1.66025862e-01
      2.79664427e-01 2.00108692e-01 2.67188251e-01 1.60504073e-01
      5.61748967e-02 7.23122954e-02 1.65387303e-01 2.49771103e-01
      1.21629216e-01 7.68946186e-02 1.40178695e-01 2.98682809e-01
      1.26467705e-01 7.74412155e-02 1.17081225e-01 1.73467100e-01
      2.10168868e-01 9.56584513e-02 1.35019436e-01 2.33958930e-01
      1.67339966e-01 1.83904707e-01 1.37361199e-01 1.43079504e-01
      1.68352112e-01 1.60742387e-01 8.23531076e-02 7.82033429e-02
      1.58153668e-01 2.62948483e-01 1.68707520e-01 8.91531184e-02
      1.24999583e-01 2.80690342e-01 2.18794435e-01 9.99738351e-02
      9.26608965e-02 1.58384755e-01 1.94689572e-01 1.24457642e-01
      1.04049452e-01 1.23752557e-01 1.79152757e-01 1.48204774e-01
      1.04183480e-01 1.12100363e-01 1.39240161e-01 1.96978971e-01
      1.42557248e-01 2.72812128e-01 2.78627217e-01 2.30244145e-01
      1.57142982e-01 1.43076196e-01 1.75569937e-01 1.55133203e-01
      1.23926550e-01 9.41183642e-02 1.19139865e-01 1.48156807e-01
      1.11115485e-01 7.03011751e-02 1.77511901e-01 2.46826902e-01
      1.77456170e-01 2.13524088e-01 1.02948129e-01 1.19143702e-01
      2.13716596e-01 2.23166272e-01 1.44175544e-01 9.82188135e-02
      2.03157887e-01 2.72909224e-01 1.91367388e-01 8.54928493e-02
      1.38512969e-01 2.87210524e-01 2.28144333e-01 9.14985389e-02
      5.21968529e-02 2.16284141e-01 2.70196706e-01 9.96739641e-02
      4.24240865e-02 7.82217979e-02 1.88310027e-01 1.89500466e-01
      6.73942566e-02 5.19903712e-02 1.66730404e-01 2.37173796e-01
      1.63630009e-01 1.24550089e-01 1.11332089e-01 1.16237655e-01
      2.89742231e-01 2.34297901e-01 1.43594772e-01 1.26633957e-01
      1.26942441e-01 1.86999366e-01 1.34007126e-01 1.06843650e-01
      9.37630981e-02 1.70425504e-01 2.02377722e-01 1.16000667e-01
      8.90707821e-02 8.68226960e-02 2.23520130e-01 1.21879153e-01
      1.75962031e-01 2.01306060e-01 2.06132188e-01 1.54114768e-01
      1.38562605e-01 1.90830573e-01 1.94893077e-01 1.73238322e-01
      1.77586406e-01 2.30256706e-01 3.00552756e-01 2.64134705e-01
      2.24015072e-01 2.11251304e-01 1.85906366e-01 1.52956903e-01
      1.86533362e-01 1.00061178e-01 8.42450857e-02 9.81573835e-02
      2.15476707e-01 1.81198373e-01 8.83862376e-02 1.00872807e-01
      1.90664992e-01 1.93327129e-01 1.19288094e-01 8.94660279e-02
      1.37556836e-01 2.09846765e-01 1.74496815e-01 9.20045450e-02
      9.55520943e-02 1.47349119e-01 1.78342730e-01 7.83548802e-02
      1.10882856e-01 1.36244461e-01 1.70305863e-01 1.55973703e-01
      1.19334638e-01 1.48862526e-01 2.05918312e-01 4.30964917e-01
      1.10288590e-01 1.00730039e-01 9.12226439e-02 1.94496170e-01
      1.86498731e-01 1.13718182e-01 8.67964402e-02 1.62504330e-01
      2.67486036e-01 1.63017109e-01 1.37969777e-01 1.32181957e-01
      1.64441273e-01 1.73143968e-01 1.19454071e-01 1.03192069e-01
      1.25348821e-01</_>
    <_>
      1.69476256e-01 7.11974576e-02 1.85049370e-01 1.77186027e-01
      1.26883671e-01 1.52039975e-01 1.80266783e-01 2.39477783e-01
      1.65664494e-01 8.97196457e-02 1.04368702e-01 1.97368518e-01
      1.65825292e-01 1.27829820e-01 7.21703544e-02 1.05733342e-01
      2.39012182e-01 8.81306306e-02 1.33947775e-01 8.51771310e-02
      1.55861065e-01 1.21440865e-01 1.18131250e-01 1.23061486e-01
      1.71800151e-01 1.62631691e-01 1.26013964e-01 7.63325021e-02
      4.43947539e-02 9.85452309e-02 7.29740486e-02 4.76225801e-02
      4.75315750e-02 7.35609978e-02 8.68401676e-02 4.43702228e-02
      2.70294156e-02 3.05058025e-02 5.08954525e-02 3.37644219e-02
      2.66650245e-02 5.62324114e-02 5.18194400e-02 4.84482236e-02
      3.92013080e-02 8.32117423e-02 3.34513187e-02 2.86395550e-02
      3.15468349e-02 7.89752156e-02 5.94717897e-02 5.19854240e-02
      4.31707911e-02 4.49858829e-02 4.47037108e-02 6.79551363e-02
      9.29786488e-02 8.25691894e-02 4.49222587e-02 7.75832310e-02
      8.90718475e-02 1.06316634e-01 5.80020212e-02 8.66237357e-02
      6.12930208e-02 9.63118672e-02 7.11857602e-02 5.69604337e-02
      7.49898329e-02 5.65562099e-02 5.05451187e-02 6.13775589e-02
      6.03665747e-02 8.05630311e-02 9.45010707e-02 8.53497535e-02
      5.95317073e-02 7.57212490e-02 8.73634070e-02 1.12624459e-01
      8.20799246e-02 9.68732759e-02 5.90490662e-02 5.76670058e-02
      5.70323430e-02 7.66801387e-02 7.56182075e-02 6.83303177e-02
      8.07203427e-02 8.34069178e-02 1.32053882e-01 2.32892931e-01
      9.94941369e-02 5.90425916e-02 7.11127222e-02 1.28583163e-01
      7.63261840e-02 5.62198721e-02 6.52022585e-02 1.48029625e-01
      2.58619845e-01 2.27614790e-01 6.02010973e-02 4.03002053e-02
      3.89588103e-02 9.28341150e-02 9.41785648e-02 1.12172954e-01
      3.15588087e-01 2.02307895e-01 1.90951064e-01 1.35560513e-01
      1.10216156e-01 1.90637290e-01 2.27768019e-01 2.26801097e-01
      1.71718642e-01 1.76824167e-01 2.05102280e-01 1.54089838e-01
      3.87157530e-01 1.87875554e-01 8.86630937e-02 2.26295352e-01
      5.16237557e-01 2.37024590e-01 7.07166344e-02 5.36500923e-02
      7.93879628e-02 6.87986091e-02 4.53171581e-02 6.84685558e-02
      4.63081300e-02 5.09859696e-02 4.42757420e-02 4.31725532e-02
      3.87358554e-02 5.00639714e-02 4.29700390e-02 4.57475819e-02
      4.20262888e-02 5.53895570e-02 6.66427612e-02 5.44085279e-02
      7.73315504e-02 2.93625236e-01 2.46009886e-01 1.09058946e-01
      2.48618666e-02 5.20549044e-02 5.47608919e-02 3.16640213e-02
      3.56643945e-02 4.59664792e-01 5.04640639e-01 1.69927001e-01
      8.49948600e-02 1.38230175e-01 1.63605958e-01 8.64908844e-02
      8.48337486e-02 7.69530237e-02 1.15378104e-01 5.70535809e-02
      3.45112309e-02 4.58848774e-02 5.38807884e-02 7.06513226e-02
      3.86387073e-02 8.64041001e-02 1.33259043e-01 1.55085281e-01
      4.73948158e-02 3.23214866e-02 6.21717051e-02 1.60806790e-01
      1.84821367e-01 8.38251933e-02 1.68318227e-01 2.40820572e-01
      2.06316754e-01 1.19625531e-01 1.44761145e-01 8.87976512e-02
      3.52968834e-02 8.81659761e-02 2.38828242e-01 1.44162387e-01
      9.27491933e-02 4.24279012e-02 5.55994101e-02 5.27052991e-02
      5.15086278e-02 6.03295900e-02 6.50833100e-02 4.59082276e-02
      4.76541333e-02 6.92976713e-02 3.82773094e-02 2.81429999e-02
      5.01726083e-02 3.70154157e-02 3.26695852e-02 3.21061611e-02
      5.54652549e-02 6.45639971e-02 6.29373267e-02 1.15680143e-01
      1.76183537e-01 4.57491934e-01 2.09137470e-01 1.44380823e-01
      1.03637487e-01 1.45935550e-01 8.01898167e-02 1.10592306e-01
      1.04258187e-01 9.26384106e-02 1.39640331e-01 1.84364378e-01
      1.78193077e-01 1.59178078e-01 1.07207648e-01 1.80048257e-01
      1.48489028e-01 4.43853624e-02 5.19732386e-02 5.21659888e-02
      6.68935776e-02 1.03379816e-01 8.45377594e-02 7.46170133e-02
      6.50176555e-02 6.24152608e-02 1.83427975e-01 1.26448557e-01
      5.46037182e-02 3.99458632e-02 1.18163973e-01 1.68763936e-01
      1.98178038e-01 1.28156692e-01 8.30722302e-02 5.25193691e-01
      1.32075265e-01 9.29478034e-02 6.20506331e-02 2.80286402e-01
      6.55851364e-01 1.71571091e-01 1.04169533e-01 1.45969003e-01
      4.89199571e-02 4.31523584e-02 8.75625089e-02 4.51819673e-02
      2.62878183e-02 4.78508659e-02 4.13193628e-02 4.32852097e-02
      3.62442136e-02 3.77988517e-02 2.99206749e-02 4.73807715e-02
      4.62473407e-02 4.68786247e-02 4.71858718e-02 4.84415777e-02
      7.65091628e-02 6.68265745e-02 1.77612320e-01 2.71950066e-01
      6.53558612e-01 1.39395654e-01 1.67034194e-01 1.53808147e-01
      1.20508373e-01 1.20391220e-01 8.83547217e-02 1.61835939e-01
      7.44344592e-02 4.83848043e-02 1.35656148e-01 1.98664248e-01
      1.71894923e-01 1.62901685e-01 1.79654658e-01 1.25559568e-01
      1.45828411e-01 8.72442052e-02 9.38930139e-02 5.81188761e-02
      1.00557402e-01 2.03510359e-01 1.30722106e-01 8.60350356e-02
      6.81601316e-02 1.91458479e-01 1.56836182e-01 6.11282066e-02
      6.39859885e-02 1.89224467e-01 3.29329938e-01 2.30751425e-01
      1.81274697e-01 8.92404541e-02 3.68894897e-02 8.71916339e-02
      1.97699085e-01 1.16556995e-01 3.87726538e-02 4.39558998e-02
      1.79534420e-01 2.02030599e-01 5.60620315e-02 6.31320849e-02
      4.71106768e-02 4.37340476e-02 4.62481268e-02 5.34523875e-02
      5.19111603e-02 6.60177022e-02 5.59475422e-02 5.12756519e-02
      6.95499256e-02 1.12952076e-01 6.22066617e-01 1.87328115e-01
      3.45122851e-02 4.95127141e-02 1.00941785e-01 1.23351194e-01
      5.50518073e-02 1.33653179e-01 1.29564106e-01 1.58515602e-01
      8.45652744e-02 1.86113477e-01 1.53576463e-01 8.21045488e-02
      8.68704021e-02 1.01614118e-01 2.09349826e-01 6.41509593e-02
      5.65023199e-02 1.02643318e-01 7.83777237e-02 1.15962781e-01
      7.73189664e-02 8.68071690e-02 1.42565161e-01 1.94799677e-01
      7.55680278e-02 5.90614974e-02 4.46424671e-02 1.30622417e-01
      1.91671565e-01 1.03664145e-01 5.79246432e-02 1.26178443e-01
      2.51735181e-01 1.61180913e-01 6.42757863e-02 9.31695625e-02
      1.66502103e-01 1.66215122e-01 1.60264149e-01 1.58973873e-01
      9.79554951e-02 2.92665899e-01 3.24624419e-01 1.66458100e-01
      8.90262574e-02 9.92047787e-02 4.18007493e-01 2.97169179e-01
      1.65288672e-01 1.11832902e-01 7.12992474e-02 2.89972425e-02
      3.30592096e-02 3.04370951e-02 3.18685882e-02 6.09380454e-02
      5.42903021e-02 4.97420020e-02 2.94911396e-02 8.95386487e-02
      7.33676031e-02 1.71117753e-01 3.66377354e-01 1.21971115e-01
      9.59654450e-02 7.32725710e-02 8.18791017e-02 8.98601115e-02
      5.89662008e-02 6.09858930e-02 8.67572799e-02 1.35313094e-01
      2.40763709e-01 3.33483696e-01 1.42625481e-01 9.32627767e-02
      5.96630871e-02 2.47877285e-01 9.09365192e-02 1.08637981e-01
      1.69309661e-01 4.27820355e-01 4.17686492e-01 1.78968355e-01
      4.80164327e-02 1.32268339e-01 1.56548694e-01 7.48531148e-02
      5.06332517e-02 3.00666988e-02 1.29464880e-01 3.75558674e-01
      1.81415915e-01 6.31782040e-02 9.78744552e-02 2.27315575e-01
      3.18756938e-01 9.30785537e-02 4.66338880e-02 2.48508677e-01
      3.06381702e-01 2.03024641e-01 1.00483663e-01 4.52762581e-02
      5.10376573e-01 2.32289091e-01 1.91800892e-01 1.35786861e-01
      2.90162772e-01 3.80833298e-01 2.19902068e-01 1.35231823e-01
      8.96241516e-02 1.03432313e-01 3.84004526e-02 5.01174591e-02
      4.52859551e-02 8.92329141e-02 1.17197469e-01 5.84447607e-02
      6.64810091e-02 7.18799233e-02 9.70900506e-02 8.44618678e-02
      6.76087961e-02 4.80352379e-02 9.01697055e-02 7.94667378e-02
      7.91122913e-02 1.19462043e-01 1.01180628e-01 4.36636433e-02
      4.71824072e-02 4.30053286e-02 3.61378901e-02 3.91886532e-02
      4.89263348e-02 9.22942683e-02 1.07347727e-01 5.14617823e-02
      5.55761084e-02 7.06791729e-02 9.27993581e-02 8.00941363e-02
      6.21377416e-02 3.47201675e-02 4.88753580e-02 4.48648967e-02
      3.56770307e-02 5.15208915e-02 3.68685648e-02 7.69514814e-02
      4.87348586e-02 4.88284640e-02 9.60366353e-02 6.86224625e-02
      6.46377355e-02 5.29095642e-02 1.64647758e-01 5.25438413e-02
      3.19220126e-02 4.74230945e-02 7.72063807e-02 9.93142277e-02
      1.61165491e-01 2.45835319e-01 1.22827917e-01 3.08847018e-02
      7.26878867e-02 4.22440082e-01 1.68604672e-01 4.14047055e-02
      4.81328741e-02 4.55374569e-02 3.14385779e-02 3.57025228e-02
      8.37702230e-02 3.65329534e-02 7.95815960e-02 6.49424717e-02
      8.02812949e-02 5.59123941e-02 9.26138461e-02 1.10111952e-01
      6.57762811e-02</_>
    <_>
      7.32276812e-02 1.11908644e-01 3.74352634e-01 2.55755901e-01
      6.37564883e-02 7.30099753e-02 2.27387533e-01 3.10954303e-01
      9.40437615e-02 7.70482272e-02 1.30695269e-01 3.37010801e-01
      2.55067647e-01 6.84028864e-02 4.70117778e-02 1.87945053e-01
      4.87337202e-01 1.38533697e-01 1.39648840e-01 1.86289519e-01
      2.63553202e-01 1.45719633e-01 5.24046086e-02 5.43957017e-02
      1.36419117e-01 2.53765315e-01 1.40276790e-01 1.08077101e-01
      1.03221469e-01 2.68114150e-01 1.21467508e-01 4.09877598e-02
      5.00043035e-02 1.27394944e-01 2.76056886e-01 1.35050967e-01
      1.21472254e-01 1.30717158e-01 3.09758186e-01 2.22120270e-01
      1.00729041e-01 1.07845217e-01 2.14525774e-01 4.10064161e-01
      1.72886118e-01 8.11127424e-02 1.07448511e-01 2.64098436e-01
      1.67281270e-01 7.64784142e-02 8.45998451e-02 2.30399936e-01
      2.94088572e-01 1.14521526e-01 6.70287684e-02 1.31970048e-01
      2.84760267e-01 2.04683974e-01 8.75201821e-02 8.92618746e-02
      2.27082491e-01 3.14885676e-01 1.00782923e-01 7.37318248e-02
      1.07700519e-01 2.57449925e-01 1.60912558e-01 7.65651166e-02
      6.67179301e-02 1.52963832e-01 1.96861774e-01 9.41103324e-02
      7.52269775e-02 1.67274341e-01 4.99492705e-01 2.12371513e-01
      3.58396843e-02 3.16382423e-02 8.85154977e-02 4.23791081e-01
      1.54028326e-01 1.15064546e-01 2.06361204e-01 1.19225413e-01
      7.20087513e-02 4.99932617e-02 6.94558546e-02 1.30190954e-01
      1.38481200e-01 6.24771304e-02 7.43480623e-02 1.21100619e-01
      2.66982019e-01 1.71347037e-01 1.18246287e-01 8.90366808e-02
      2.77976155e-01 5.06409883e-01 1.74114197e-01 4.30183820e-02
      7.73107633e-02 1.22187532e-01 6.81785494e-02 6.06262498e-02
      1.02609046e-01 1.88539505e-01 9.91714448e-02 3.80347595e-02
      6.09782897e-02 9.42371115e-02 1.86685115e-01 1.33274972e-01
      7.34056234e-02 7.91390017e-02 1.95691705e-01 3.13980848e-01
      1.47767171e-01 8.56383592e-02 1.13607608e-01 2.96995461e-01
      2.10753515e-01 8.39415714e-02 6.95268810e-02 2.22273156e-01
      2.94301629e-01 1.20920114e-01 6.29648417e-02 8.58551264e-02
      2.36605451e-01 2.21671775e-01 6.44897446e-02 6.02605082e-02
      1.19880334e-01 2.49476627e-01 9.68152732e-02 4.45123874e-02
      5.24862781e-02 1.42738402e-01 1.04872622e-01 4.30000275e-02
      4.96209115e-02 1.30651742e-01 2.28123680e-01 7.44166300e-02
      4.42086086e-02 1.01686895e-01 2.89760709e-01 1.71868071e-01
      7.40876645e-02 1.10028021e-01 2.53164709e-01 1.77065492e-01
      4.80751544e-02 4.95432802e-02 8.76261145e-02 1.86441004e-01
      1.31782636e-01 8.15116614e-02 9.56615210e-02 4.97505933e-01
      3.95676583e-01 8.31374303e-02 9.28019956e-02 1.59543335e-01
      1.96758345e-01 1.13185577e-01 6.92871809e-02 8.81670341e-02
      2.44985163e-01 1.88083589e-01 7.25857392e-02 7.69142881e-02
      7.63238147e-02 1.47348970e-01 9.58571434e-02 5.31114414e-02
      6.27376139e-02 1.47559479e-01 2.15012401e-01 1.15925841e-01
      5.69451563e-02 9.72526446e-02 2.45194852e-01 1.91216990e-01
      7.29508623e-02 5.61043471e-02 1.62486240e-01 2.67646790e-01
      1.04322396e-01 5.43052033e-02 7.42023364e-02 2.35788077e-01
      1.69736087e-01 6.43071085e-02 6.23282082e-02 1.69910043e-01
      2.48008028e-01 7.55780041e-02 2.87287533e-02 7.21947327e-02
      2.37117395e-01 1.81233421e-01 9.50771198e-02 8.72671008e-02
      2.50205159e-01 3.97296071e-01 7.91424736e-02 8.44385102e-02
      1.47244468e-01 2.72696912e-01 1.39379352e-01 9.56139788e-02
      1.27227530e-01 2.64589220e-01 2.45349184e-01 1.07679151e-01
      1.30319491e-01 1.46428183e-01 2.26277411e-01 1.39109462e-01
      8.51000473e-02 7.93997422e-02 1.81726173e-01 3.38921964e-01
      2.04790920e-01 2.00100839e-01 2.30573282e-01 1.71223029e-01
      9.12145674e-02 1.18349954e-01 1.89892098e-01 2.54696637e-01
      1.79520294e-01 1.18746266e-01 7.09146038e-02 5.45289144e-02
      8.39541629e-02 5.76514043e-02 5.13582379e-02 7.09763542e-02
      7.31001720e-02 8.17433149e-02 7.51134828e-02 2.17599481e-01
      1.25247210e-01 1.44354552e-01 1.26777858e-01 2.34322757e-01
      1.84266061e-01 1.02099791e-01 1.75984025e-01 1.68279260e-01
      1.99748009e-01 1.19046457e-01 1.44385844e-01 1.39459386e-01
      1.97209597e-01 1.62538022e-01 1.72358960e-01 2.08183870e-01
      1.91380635e-01 7.32250512e-02 1.04458384e-01 3.04644465e-01
      1.59882367e-01 5.00857830e-02 5.76165728e-02 1.83475241e-01
      4.59372818e-01 1.66998059e-01 1.21167101e-01 1.25732929e-01
      2.37487346e-01 2.04425156e-01 1.47350684e-01 1.38258591e-01
      1.91861764e-01 4.15638089e-01 2.57195204e-01 1.75642937e-01
      1.83046117e-01 1.99530870e-01 1.78810805e-01 1.91391647e-01
      1.50045991e-01 1.66170135e-01 2.99015015e-01 2.30914295e-01
      1.41358986e-01 1.31301656e-01 1.30878061e-01 1.05215371e-01
      8.06236118e-02 8.90873373e-02 1.21657126e-01 1.78521290e-01
      1.67530790e-01 8.58928114e-02 1.12285860e-01 1.16718903e-01
      5.14141209e-02 8.42388794e-02 1.20370708e-01 1.20476797e-01
      1.21947847e-01 7.89183751e-02 2.16836512e-01 1.26001388e-01
      1.49314269e-01 1.13906614e-01 2.23331556e-01 1.89716607e-01
      9.19806361e-02 1.38489261e-01 1.61670983e-01 1.60810977e-01
      9.08008218e-02 2.11836264e-01 1.50582224e-01 6.79563582e-02
      6.46112487e-02 1.55904844e-01 2.64716357e-01 1.78571135e-01
      7.15408698e-02 1.09426185e-01 2.94332594e-01 1.58042923e-01
      4.55157422e-02 6.47199154e-02 2.05547705e-01 4.38345969e-01
      1.31862760e-01 1.37362421e-01 1.13571897e-01 3.08602005e-01
      2.63851494e-01 6.28872588e-02 5.34417108e-02 1.70415729e-01
      5.48879981e-01 2.71666527e-01 1.07318543e-01 7.57961199e-02
      1.64137810e-01 1.37992188e-01 7.04462156e-02 4.98109162e-02
      9.08892676e-02 2.70962834e-01 2.24635765e-01 7.37532973e-02
      5.02960011e-02 6.95220083e-02 1.06111191e-01 5.71829341e-02
      5.00419401e-02 6.19667061e-02 1.33729935e-01 1.34614006e-01
      4.58553955e-02 3.68109569e-02 8.16289410e-02 9.48399082e-02
      5.06086536e-02 5.07639311e-02 1.64352521e-01 2.60441601e-01
      1.06298454e-01 8.74614641e-02 9.27645639e-02 2.20773265e-01
      1.89627707e-01 8.81902277e-02 7.47431293e-02 1.61308751e-01
      2.79739112e-01 1.27833307e-01 6.87315166e-02 6.05321154e-02
      2.55777299e-01 2.80736059e-01 1.69214353e-01 1.26045510e-01
      1.42273679e-01 2.68043756e-01 1.33935660e-01 1.75022241e-02
      1.74642988e-02 1.12360120e-01 1.72411576e-01 5.15783429e-02
      2.57942900e-02 5.31736650e-02 1.29698724e-01 3.34987193e-02
      1.79556236e-02 1.47701772e-02 2.60364674e-02 3.39842178e-02
      3.60337421e-02 3.52290533e-02 6.25812784e-02 8.71597007e-02
      4.73915078e-02 2.75749713e-02 1.60166714e-02 3.52361053e-02
      3.41721438e-02 2.37581786e-02 4.05262522e-02 5.20451479e-02
      8.53352696e-02 6.05607703e-02 5.12837581e-02 4.23672013e-02
      8.41939747e-02 6.33777156e-02 8.39137360e-02 1.45201400e-01
      1.81023195e-01 1.22804306e-01 7.95292333e-02 3.21301445e-02
      5.88173792e-02 1.76330402e-01 1.10542737e-01 5.73637933e-02
      1.01176277e-01 3.24441582e-01 2.53340214e-01 6.74490258e-02
      5.52144833e-02 6.90277666e-02 2.23977000e-01 1.84858918e-01
      8.73215422e-02 6.32834956e-02 1.35989472e-01 2.40980729e-01
      1.03927612e-01 8.04533586e-02 7.91949332e-02 2.39366814e-01
      2.21730322e-01 9.99128148e-02 7.11273327e-02 1.33487403e-01
      2.42074311e-01 1.48307830e-01 5.22558838e-02 8.22367966e-02
      3.53264958e-01 5.03306687e-01 2.04876646e-01 1.29051208e-01
      2.29088321e-01 3.53888422e-01 1.20583706e-01 4.56453897e-02
      5.88284247e-02 2.49207437e-01 2.86665708e-01 2.10173756e-01
      1.75626904e-01 2.77530462e-01 3.33380938e-01 7.78838396e-02
      5.22648133e-02 7.35174865e-02 2.00327739e-01 1.86302498e-01
      1.64947987e-01 2.41024643e-01 3.36478800e-01 2.85764426e-01
      1.06266662e-01 7.90965855e-02 7.90653080e-02 2.12423518e-01
      2.01825336e-01 1.29999653e-01 2.19771445e-01 3.44559491e-01
      3.12561393e-01 1.25610068e-01 2.81676855e-02 5.34061864e-02
      1.76405981e-01 1.39677569e-01 5.49022295e-02 5.24626411e-02
      1.08448692e-01 1.89215809e-01 5.40946200e-02 7.97450021e-02
      1.10522792e-01 2.43797660e-01 1.95817456e-01 8.66681263e-02
      8.77457857e-02 1.67296872e-01 3.07202727e-01 1.31287500e-01
      7.91442990e-02 9.37184393e-02 3.08641315e-01 2.48924911e-01
      1.06566377e-01 8.25452954e-02 1.42096058e-01 2.79065907e-01
      1.28517970e-01</_>
    <_>
      4.59118299e-02 6.59319609e-02 1.45674035e-01 5.74000739e-02
      3.55766490e-02 3.06650344e-02 8.05174932e-02 8.08128119e-02
      6.07950389e-02 9.99792740e-02 2.37082645e-01 1.84102729e-01
      8.21601376e-02 3.94965298e-02 2.94501856e-02 5.51661029e-02
      1.48782060e-01 1.20691895e-01 2.04482526e-01 3.51673901e-01
      1.97895408e-01 8.54537115e-02 1.06508963e-01 1.51908591e-01
      1.58875704e-01 1.67632878e-01 1.02907829e-01 1.83645576e-01
      2.99778998e-01 2.18636766e-01 8.77081454e-02 1.07430995e-01
      1.70081109e-01 2.08295092e-01 1.59814283e-01 1.35289982e-01
      1.82428151e-01 2.62205184e-01 2.54209965e-01 1.05052300e-01
      1.28627911e-01 1.48494735e-01 1.94415510e-01 2.94342041e-01
      1.52879298e-01 1.32538915e-01 1.49679586e-01 6.58373833e-02
      3.44824493e-02 3.66708152e-02 3.82961221e-02 1.07632041e-01
      2.27079123e-01 1.55263618e-01 1.04428139e-02 3.37205753e-02
      2.84907013e-01 1.09601215e-01 1.42466379e-02 1.57743506e-02
      9.81969684e-02 1.47838697e-01 2.56070793e-02 5.81354983e-02
      9.34208408e-02 3.19922447e-01 1.79784417e-01 5.50945438e-02
      6.65166676e-02 2.14820057e-01 3.05099517e-01 9.34212133e-02
      1.55547276e-01 1.96371391e-01 2.87748307e-01 2.50164956e-01
      1.29155412e-01 2.05103278e-01 3.18151474e-01 2.01177031e-01
      1.41507849e-01 3.17211449e-02 7.07341954e-02 1.95374101e-01
      1.70090333e-01 1.48665696e-01 2.11377084e-01 2.70400017e-01
      1.87224507e-01 9.10383388e-02 5.42435795e-02 1.31926998e-01
      2.38902032e-01 1.39802277e-01 1.26693293e-01 2.02743441e-01
      3.09876263e-01 1.50341645e-01 5.06956056e-02 8.85285139e-02
      1.94293812e-01 2.22201630e-01 9.95278284e-02 1.35242835e-01
      2.95895070e-01 2.71091312e-01 9.15699750e-02 5.43433130e-02
      5.01877591e-02 7.17190430e-02 1.29759058e-01 1.73044190e-01
      1.70313567e-01 1.45870879e-01 8.17866623e-02 3.94256897e-02
      3.23235691e-02 5.31756058e-02 5.39223440e-02 2.34206453e-01
      1.11846879e-01 2.59773470e-02 5.73386289e-02 1.70178458e-01
      2.21363544e-01 9.23850387e-02 5.72486259e-02 7.82071128e-02
      4.68697250e-01 2.20476121e-01 5.74180111e-02 6.23757280e-02
      2.65290201e-01 3.83071333e-01 1.08091593e-01 6.58997148e-02
      1.52799502e-01 2.52007097e-01 2.51467556e-01 1.34558767e-01
      7.30623007e-02 1.94747344e-01 2.41950080e-01 7.98304379e-02
      6.33829236e-02 1.25243410e-01 3.12567443e-01 1.77352428e-01
      5.55272214e-02 7.63746053e-02 3.21966082e-01 3.72098833e-01
      1.23231649e-01 1.07230790e-01 1.73763931e-01 1.89814404e-01
      9.06671062e-02 8.35725665e-02 1.41234592e-01 2.28555545e-01
      1.50649548e-01 8.85512903e-02 1.69919148e-01 2.26559117e-01
      1.55785024e-01 8.78069177e-02 1.10802256e-01 2.15851635e-01
      2.15893045e-01 1.02437846e-01 8.34721476e-02 1.14133172e-01
      1.10932812e-01 8.53170082e-02 6.04225732e-02 8.43470171e-02
      1.01465613e-01 6.84518591e-02 3.48407291e-02 3.76202688e-02
      9.87794623e-02 1.24812678e-01 2.03327224e-01 1.10737294e-01
      1.03021242e-01 1.11105897e-01 1.03667058e-01 1.42773375e-01
      8.59699473e-02 1.29603967e-01 1.47469178e-01 2.64932364e-01
      1.75434887e-01 7.52852857e-02 1.66281641e-01 2.62029618e-01
      2.65045375e-01 1.19898081e-01 1.09857485e-01 1.74484923e-01
      2.84594834e-01 1.58268914e-01 9.47373211e-02 8.42604488e-02
      1.16327688e-01 3.13823879e-01 2.24680662e-01 8.81370008e-02
      7.76401684e-02 1.47601515e-01 1.56510681e-01 7.32814148e-02
      6.71106949e-02 1.40200600e-01 2.31063366e-01 1.63497701e-01
      1.08805865e-01 1.16255447e-01 1.59697756e-01 1.67547211e-01
      1.07643388e-01 7.85880685e-02 1.13705747e-01 1.50762394e-01
      1.54250577e-01 2.39977643e-01 1.34523317e-01 1.01775870e-01
      2.19562113e-01 2.10464686e-01 1.53850645e-01 1.30706534e-01
      1.42669007e-01 2.53964722e-01 9.25259516e-02 9.09354091e-02
      6.06911033e-02 5.89944720e-02 8.49850923e-02 1.36459887e-01
      1.01162307e-01 6.47343844e-02 6.39134124e-02 6.97116181e-02
      5.38811535e-02 3.45746636e-01 1.78153962e-01 1.20931216e-01
      1.13231145e-01 1.36135727e-01 1.43198833e-01 8.14557970e-02
      6.70123398e-02 9.90688130e-02 3.16070288e-01 1.72185645e-01
      9.35311615e-02 1.78744897e-01 2.62781620e-01 4.07644302e-01
      1.39594391e-01 5.71991205e-02 8.21790546e-02 2.64754206e-01
      3.41184646e-01 9.17112753e-02 4.31624278e-02 5.20189330e-02
      2.31785834e-01 2.22851470e-01 1.32951826e-01 6.23558611e-02
      1.05665103e-01 1.39595717e-01 7.83993229e-02 5.33594638e-02
      8.20432976e-02 2.98537284e-01 3.76608402e-01 2.15731710e-01
      9.34863910e-02 1.02352761e-01 1.85276613e-01 1.91516191e-01
      1.20326571e-01 6.81771860e-02 1.58379957e-01 2.57070661e-01
      1.35155126e-01 8.26658905e-02 1.22326195e-01 2.55359799e-01
      2.03767404e-01 1.14651345e-01 1.22364938e-01 2.21554935e-01
      2.53981441e-01 5.81631400e-02 5.01265898e-02 8.71268585e-02
      7.62612224e-02 5.10457158e-02 5.21826074e-02 6.29949197e-02
      1.12917453e-01 9.34021026e-02 1.43976644e-01 6.32947981e-02
      1.43737167e-01 1.19523235e-01 1.15160517e-01 8.25674161e-02
      5.69810793e-02 7.63571933e-02 1.01907901e-01 1.14467256e-01
      9.00247917e-02 1.91622466e-01 1.30899683e-01 8.08689892e-02
      6.64262474e-02 1.50463700e-01 2.61716127e-01 1.47098273e-01
      2.47912593e-02 7.25683421e-02 4.13576812e-01 2.99115926e-01
      1.01480097e-01 9.56969559e-02 9.61821079e-02 7.30691403e-02
      2.34406721e-02 3.84118669e-02 2.48111952e-02 6.87159523e-02
      1.27129614e-01 7.86115080e-02 3.32792066e-02 1.24305002e-01
      3.70047241e-01 1.62770987e-01 1.11432433e-01 6.51502535e-02
      1.03292517e-01 1.84842765e-01 1.47469357e-01 1.17660247e-01
      1.16176426e-01 3.05755109e-01 2.41215795e-01 1.08341083e-01
      7.97263756e-02 1.52063191e-01 2.46248752e-01 1.61303252e-01
      8.30070674e-02 9.98896286e-02 3.12032819e-01 2.62049675e-01
      4.78016771e-02 4.18951139e-02 8.92131031e-02 1.13124475e-01
      7.31640905e-02 3.72656249e-02 4.62452285e-02 1.04124300e-01
      8.16221684e-02 1.30379379e-01 6.54439330e-02 2.28313476e-01
      1.18803717e-01 1.25011653e-01 8.64015073e-02 1.04454160e-01
      1.46044821e-01 7.01990500e-02 4.93208319e-02 8.38870034e-02
      3.23603690e-01 1.61701918e-01 7.10970536e-02 1.11281335e-01
      2.46789038e-01 3.69494051e-01 8.78152773e-02 2.45933626e-02
      5.57995662e-02 3.82717729e-01 2.98895687e-01 1.13397427e-01
      6.76199347e-02 8.91695991e-02 1.18835680e-01 2.06026677e-02
      3.83232236e-02 2.63986550e-02 8.46476629e-02 1.90933123e-01
      8.19753259e-02 3.61617729e-02 6.76988959e-02 2.45778233e-01
      1.42367363e-01 6.61173910e-02 4.24555019e-02 1.00430548e-01
      1.91362903e-01 9.55086797e-02 5.46073169e-02 8.35548043e-02
      2.81438708e-01 2.15998217e-01 9.09408107e-02 6.09832108e-02
      1.20502390e-01 1.86964467e-01 1.09407246e-01 7.10224956e-02
      9.83716622e-02 2.10098207e-01 1.59192249e-01 7.95704424e-02
      1.30483449e-01 2.27990285e-01 1.64146483e-01 5.88253140e-02
      3.42541523e-02 3.16919684e-02 1.09989129e-01 1.02203034e-01
      1.04320437e-01 4.05598693e-02 1.75409153e-01 9.44727957e-02
      7.41824657e-02 9.24118757e-02 9.66490582e-02 1.29167870e-01
      9.50941071e-02 8.90103430e-02 7.42587224e-02 3.52983505e-01
      1.77481249e-01 5.02407402e-02 5.87885231e-02 2.60858983e-01
      4.12791550e-01 1.51866749e-01 1.38527788e-02 1.59459077e-02
      3.22016865e-01 1.28743440e-01 9.29484796e-03 1.18196728e-02
      1.09377235e-01 3.44694018e-01 1.88850332e-02 6.33268058e-02
      5.69827296e-02 2.04181865e-01 2.74966091e-01 1.60136968e-01
      1.48471430e-01 1.24757744e-01 7.22766742e-02 6.13064878e-02
      9.25009549e-02 7.56600797e-02 2.36328587e-01 2.93950379e-01
      1.64090529e-01 1.60116717e-01 2.24419788e-01 3.08823198e-01
      2.23469794e-01 1.66336060e-01 1.42006874e-01 1.91435918e-01
      2.56664991e-01 1.99792802e-01 1.73248842e-01 1.91449165e-01
      2.47147039e-01 2.21781582e-01 1.28615528e-01 1.25459313e-01
      1.43918231e-01 1.54669404e-01 1.46243840e-01 1.72228307e-01
      2.08510667e-01 1.70805752e-01 8.89657289e-02 3.25998813e-02
      3.23264226e-02 2.06415921e-01 9.56665054e-02 3.89609598e-02
      3.91718559e-02 6.99987262e-02 7.16882944e-02 3.41453813e-02
      4.47948277e-02 7.41333291e-02 3.11755568e-01 1.72092050e-01
      4.38629650e-02 5.06182462e-02 2.24220201e-01 4.38806921e-01
      1.09080963e-01</_>
    <_>
      1.35455122e-02 1.87718850e-02 4.94438052e-01 1.59213677e-01
      6.21497631e-03 7.42651662e-03 8.82524997e-02 2.81020075e-01
      1.61381122e-02 3.59391049e-02 8.87267143e-02 2.63079941e-01
      8.83658305e-02 1.11290403e-02 1.62530318e-02 1.49100766e-01
      4.12646562e-01 3.56174372e-02 1.09460056e-01 1.26059651e-01
      4.08894271e-01 1.61603808e-01 2.37039141e-02 2.59598307e-02
      1.47700891e-01 4.40171033e-01 1.27122030e-01 2.16043800e-01
      1.59173906e-01 2.33652890e-01 1.29250109e-01 7.21131712e-02
      7.74638578e-02 1.00715578e-01 2.17983276e-01 1.52211696e-01
      8.97904187e-02 1.34644121e-01 3.21735144e-01 1.78268865e-01
      6.92394450e-02 7.46423900e-02 8.90418291e-02 1.64604887e-01
      1.41030699e-01 1.60508882e-02 3.23257037e-02 1.67819977e-01
      9.35357958e-02 3.26337777e-02 2.60880273e-02 1.16545938e-01
      2.49298573e-01 1.86675303e-02 3.51325125e-02 6.11533783e-02
      3.11135530e-01 1.80851579e-01 3.47907282e-02 3.49993967e-02
      1.68694720e-01 2.95890689e-01 7.72245452e-02 4.32093181e-02
      7.16236532e-02 3.13013047e-01 1.68466926e-01 6.21521547e-02
      5.68237677e-02 1.63602948e-01 2.72541285e-01 8.51974860e-02
      5.00540249e-02 1.68355063e-01 2.53612429e-01 4.49646078e-02
      1.37590216e-02 2.63792519e-02 1.01420999e-01 2.29207397e-01
      5.68107553e-02 1.12764955e-01 1.59964114e-01 1.54019222e-01
      6.91299587e-02 6.74826130e-02 2.00187907e-01 4.04699415e-01
      2.03947186e-01 8.06751400e-02 1.01022452e-01 1.55422524e-01
      1.59284145e-01 1.11942783e-01 1.48689017e-01 3.18781108e-01
      3.13554376e-01 1.02155179e-01 5.84103875e-02 4.00413349e-02
      8.98335949e-02 1.74528152e-01 2.04541132e-01 1.76649809e-01
      1.16009638e-01 9.02738497e-02 5.77366166e-02 2.78217960e-02
      2.85121538e-02 5.71101904e-02 1.94737747e-01 1.69771850e-01
      8.14037472e-02 6.65367320e-02 1.64141908e-01 2.85432577e-01
      8.77344683e-02 2.29443517e-02 5.63134253e-02 2.64842421e-01
      1.38855070e-01 3.51368971e-02 4.43092026e-02 1.55568451e-01
      2.13871703e-01 5.78296147e-02 5.87465651e-02 1.01190485e-01
      2.99059957e-01 1.74976274e-01 6.94793016e-02 8.11480880e-02
      1.92766830e-01 2.47275263e-01 9.53432396e-02 4.60470989e-02
      2.93378718e-02 4.65100892e-02 5.88974804e-02 1.23971641e-01
      2.15755105e-01 2.85017848e-01 1.56796664e-01 9.10808146e-02
      2.60916520e-02 7.28883818e-02 2.07702026e-01 1.83194578e-01
      1.22233041e-01 2.60291308e-01 4.76777345e-01 2.37964571e-01
      2.96871234e-02 1.53288290e-01 2.54050344e-01 2.83037931e-01
      1.33027747e-01 1.23377696e-01 2.83467650e-01 4.48372126e-01
      1.73104897e-01 8.35763663e-02 4.32230756e-02 8.70449245e-02
      1.09151222e-01 8.84298831e-02 7.19699636e-02 8.73492807e-02
      1.07766651e-01 5.63889220e-02 3.13934311e-02 1.64421782e-01
      1.22439660e-01 2.60004669e-01 2.35416934e-01 2.02151999e-01
      1.47170424e-01 1.41764298e-01 1.61162615e-01 9.74681377e-02
      6.57925382e-02 6.92251474e-02 2.79187202e-01 1.28700390e-01
      1.21272884e-01 1.03399113e-01 1.40272036e-01 2.61404157e-01
      8.21828991e-02 7.52067417e-02 1.09561950e-01 3.38420093e-01
      1.99394062e-01 8.13981146e-02 1.07938081e-01 2.23847568e-01
      3.40664148e-01 1.13546737e-01 6.49151877e-02 1.56454325e-01
      2.01562047e-01 1.17932893e-01 1.35342926e-01 1.21527694e-01
      2.39213869e-01 4.99114901e-01 2.21474499e-01 4.01803441e-02
      8.68851915e-02 2.79082865e-01 1.55348524e-01 4.16317880e-02
      4.68726978e-02 1.92174241e-01 3.35639656e-01 6.67395219e-02
      1.04530916e-01 1.45345122e-01 2.42066130e-01 1.38973087e-01
      9.29564387e-02 1.11404009e-01 2.18972042e-01 1.60227090e-01
      9.80361775e-02 8.96364152e-02 7.84420520e-02 6.41244575e-02
      6.62467033e-02 7.35142678e-02 7.26023391e-02 6.20135255e-02
      7.21165091e-02 7.10762516e-02 1.67075336e-01 1.25446767e-01
      1.94484442e-01 9.14651304e-02 8.36049542e-02 6.49150237e-02
      6.30626753e-02 1.00842029e-01 1.04734123e-01 3.07904124e-01
      1.64396405e-01 8.91086906e-02 7.31015056e-02 1.57407627e-01
      2.11855084e-01 8.47617835e-02 6.37003630e-02 6.23337589e-02
      1.16661176e-01 1.01172566e-01 2.39267215e-01 1.51851311e-01
      7.86380395e-02 1.69497311e-01 2.32818082e-01 2.50733197e-01
      8.43451992e-02 4.52046767e-02 4.48636413e-02 1.37255773e-01
      1.49672225e-01 7.45049119e-02 1.06363654e-01 2.20736831e-01
      2.41533086e-01 1.19051367e-01 7.25845098e-02 1.17805742e-01
      2.00315908e-01 1.34692147e-01 6.64837658e-02 7.06515461e-02
      1.81022748e-01 2.90099412e-01 9.70919803e-02 7.16414079e-02
      9.53634828e-02 1.62526920e-01 1.26544148e-01 9.08411816e-02
      6.72079623e-02 9.40295085e-02 1.75372005e-01 1.05044365e-01
      9.74543616e-02 7.89656192e-02 1.06915593e-01 9.51035023e-02
      9.79081690e-02 9.02420580e-02 9.11494270e-02 1.07745096e-01
      9.22982767e-02 1.20396569e-01 8.33672434e-02 1.53791726e-01
      8.53254944e-02 1.41027570e-01 2.32047155e-01 7.75109306e-02
      5.69455139e-02 6.58150986e-02 2.75824994e-01 1.47598460e-01
      6.93556368e-02 6.36957213e-02 1.81357130e-01 2.68927544e-01
      5.88082336e-02 3.62578444e-02 4.45044525e-02 8.87898132e-02
      7.79675394e-02 2.16608539e-01 1.26602829e-01 8.91235247e-02
      9.91565883e-02 1.39335603e-01 2.45401531e-01 1.66510388e-01
      1.24246903e-01 9.33056697e-02 1.27073452e-01 1.47772014e-01
      6.72995895e-02 8.18961188e-02 1.36089236e-01 3.71044725e-01
      3.19536597e-01 1.06986031e-01 9.98485610e-02 2.32743099e-01
      1.76376522e-01 6.02803230e-02 3.02807558e-02 1.05836369e-01
      2.90527165e-01 2.79060632e-01 9.09735039e-02 5.76805845e-02
      1.55135110e-01 2.15753242e-01 9.44219381e-02 3.99994738e-02
      5.02188690e-02 2.46382803e-01 2.51933008e-01 9.42783728e-02
      9.25894305e-02 1.44477218e-01 1.74176201e-01 7.22682551e-02
      4.50471677e-02 9.44353044e-02 2.18210801e-01 1.54890731e-01
      5.12071140e-02 8.06398019e-02 9.42004994e-02 5.70840612e-02
      5.57471663e-02 9.23412964e-02 1.20839261e-01 8.94073024e-02
      4.46000285e-02 1.55877443e-02 3.80872302e-02 2.98720270e-01
      1.51640445e-01 2.31446587e-02 1.93174295e-02 9.03369039e-02
      1.72217324e-01 3.11323646e-02 5.39922342e-02 6.89433515e-02
      2.66100883e-01 1.80021465e-01 6.09040819e-02 6.81314021e-02
      1.91784307e-01 3.67103934e-01 1.23892948e-01 2.51177531e-02
      2.43309587e-02 3.11251968e-01 4.96592820e-01 1.46086693e-01
      6.67435452e-02 9.87338424e-02 1.66482791e-01 7.59734958e-02
      1.05285287e-01 5.02337106e-02 6.75371587e-02 1.16598360e-01
      6.68261051e-02 3.49717401e-02 6.49047196e-02 2.09998757e-01
      2.30600461e-01 1.15627408e-01 8.42286199e-02 1.02842748e-01
      1.06354557e-01 1.03599660e-01 5.91549091e-02 5.11832945e-02
      1.76822558e-01 2.11479649e-01 1.89452007e-01 1.78599536e-01
      2.55496472e-01 2.75292635e-01 1.55769691e-01 1.43347934e-01
      2.47604445e-01 3.20360482e-01 2.75537074e-01 1.46160573e-02
      2.45289505e-02 4.78077084e-02 3.61006968e-02 2.33635791e-02
      2.35452782e-02 7.31847957e-02 1.10584579e-01 4.25676852e-02
      1.05166007e-02 5.22989333e-02 3.90384674e-01 1.26109183e-01
      1.40920402e-02 2.43733488e-02 1.38568729e-01 2.28782326e-01
      3.01088598e-02 6.08679950e-02 9.63099748e-02 2.46603146e-01
      1.52116552e-01 5.67008443e-02 7.36364722e-02 2.01170966e-01
      3.27390075e-01 1.05498932e-01 7.31278211e-03 7.66350143e-03
      1.96309015e-01 1.02522843e-01 4.20121886e-02 4.02400233e-02
      8.47578943e-02 1.48856387e-01 1.03793470e-02 7.72466287e-02
      1.04328051e-01 1.77138150e-01 2.40736932e-01 2.86668539e-01
      1.84084371e-01 1.18608251e-01 1.15958765e-01 8.56056437e-02
      8.61068219e-02 1.08213522e-01 3.17579806e-01 2.15137303e-01
      1.19149283e-01 1.49954408e-01 1.89414680e-01 2.81501353e-01
      1.43771976e-01 7.43368790e-02 7.88113475e-02 1.44161031e-01
      2.06510991e-01 1.32551476e-01 1.63055897e-01 3.27718168e-01
      4.10071850e-01 1.58291936e-01 1.71199460e-02 1.85522307e-02
      3.21603194e-02 2.55178008e-02 2.05970220e-02 2.31389571e-02
      2.11995821e-02 2.69584116e-02 1.62757654e-02 1.63049698e-02
      3.36555280e-02 2.53436774e-01 1.42319009e-01 1.76142380e-02
      1.94827728e-02 9.30013582e-02 1.54969826e-01 4.71072830e-02
      6.07185662e-02 9.81563628e-02 3.53192747e-01 1.95040479e-01
      5.11521548e-02 7.19845742e-02 2.19383448e-01 3.50591123e-01
      1.21852413e-01</_>
    <_>
      3.46274562e-02 4.30552438e-02 2.05283105e-01 1.19839758e-01
      4.40806188e-02 4.09276299e-02 9.88008156e-02 1.53932422e-01
      5.07622808e-02 9.64928418e-02 4.98337485e-02 1.49473488e-01
      2.43328705e-01 1.35921389e-01 6.52411804e-02 1.22208700e-01
      3.58093947e-01 3.16857070e-01 1.85830489e-01 7.12832734e-02
      1.15659438e-01 3.15614164e-01 2.62667388e-01 1.36601120e-01
      9.80612338e-02 1.88908786e-01 2.54915923e-01 2.75127947e-01
      1.09685659e-01 8.29086229e-02 1.97135791e-01 2.74833292e-01
      1.27362549e-01 1.36195451e-01 2.30720446e-01 2.58489400e-01
      2.86209971e-01 2.98091531e-01 1.99607283e-01 5.22461571e-02
      4.09042835e-02 7.39007741e-02 1.49018452e-01 1.40763387e-01
      1.19205222e-01 2.02982411e-01 2.11075112e-01 1.55475974e-01
      1.11844778e-01 1.18369468e-01 1.57879665e-01 1.76364958e-01
      2.40905657e-01 1.07423522e-01 1.21773131e-01 1.44560218e-01
      2.79440880e-01 2.13985786e-01 9.76991355e-02 7.61787668e-02
      1.42963618e-01 1.64405808e-01 1.30494460e-01 1.33588374e-01
      1.32536009e-01 2.68574238e-01 2.00864747e-01 1.48496434e-01
      1.70244753e-01 2.00116113e-01 2.69538671e-01 1.31373271e-01
      1.17833816e-01 2.00214803e-01 1.93669647e-01 2.04547003e-01
      1.04284793e-01 1.41311198e-01 2.49652788e-01 3.77808005e-01
      1.27600521e-01 2.34159023e-01 3.06064457e-01 8.44266713e-02
      1.22829057e-01 2.66878068e-01 2.54711807e-01 3.02259505e-01
      2.09139585e-01 1.65480107e-01 1.74906418e-01 2.59413451e-01
      3.11522186e-01 2.27871254e-01 2.68196732e-01 2.83934563e-01
      2.15851933e-01 1.20809957e-01 8.03332180e-02 7.59724304e-02
      1.11000612e-01 1.50737002e-01 2.00731233e-01 2.86528051e-01
      3.07088256e-01 2.15642601e-01 1.36259019e-01 1.04597233e-01
      1.80918291e-01 1.49472654e-01 1.74970001e-01 1.40160203e-01
      1.39171228e-01 1.39090583e-01 1.78717226e-01 2.09282041e-01
      1.64513618e-01 1.63927674e-01 1.69707716e-01 1.88573450e-01
      1.35547683e-01 1.55379042e-01 1.82301432e-01 1.78750679e-01
      1.49717316e-01 1.25448346e-01 1.41163066e-01 9.54495594e-02
      1.22902632e-01 1.20867126e-01 1.15894035e-01 1.41793609e-01
      1.85815319e-01 1.84924424e-01 1.14981905e-01 1.10450804e-01
      1.19158290e-01 1.07087120e-01 1.56709775e-01 2.02241480e-01
      1.64676756e-01 1.90018862e-01 2.96279252e-01 9.03982446e-02
      1.34311289e-01 1.83979005e-01 1.64829433e-01 1.02311365e-01
      3.10328126e-01 3.61318350e-01 3.77892315e-01 5.58871210e-01
      1.69521302e-01 1.55879661e-01 1.20654836e-01 1.33718297e-01
      1.57142431e-01 2.77145147e-01 2.76137322e-01 1.44921705e-01
      1.09618373e-01 1.16743080e-01 4.64982837e-02 5.90287596e-02
      9.42612588e-02 7.58932233e-02 1.00176670e-01 1.35418877e-01
      8.11855942e-02 5.42619936e-02 4.29380126e-02 8.10435265e-02
      1.47247434e-01 2.19821677e-01 1.94700018e-01 1.46134436e-01
      9.27143767e-02 1.00293845e-01 1.03692412e-01 6.27430305e-02
      1.84072271e-01 1.38226748e-01 1.77740991e-01 1.37851089e-01
      1.03927687e-01 1.02372184e-01 2.05534965e-01 1.98653042e-01
      1.24887176e-01 1.98281750e-01 1.60921887e-01 1.29956931e-01
      1.00362666e-01 9.38555747e-02 1.33741871e-01 2.05857083e-01
      2.02119187e-01 9.76708084e-02 8.98147300e-02 1.96711197e-01
      3.56281400e-01 1.58058077e-01 4.76152562e-02 7.08635673e-02
      2.38030881e-01 4.15536702e-01 2.05580339e-01 1.31492332e-01
      8.82904753e-02 5.22447042e-02 4.89361733e-02 1.10363655e-01
      9.24762264e-02 7.91410357e-02 1.39598146e-01 1.31297648e-01
      1.42157316e-01 1.10937752e-01 1.03509665e-01 1.01918548e-01
      1.01596795e-01 6.72965050e-02 5.90085201e-02 7.30602816e-02
      7.91200027e-02 8.52302983e-02 5.99671789e-02 7.48436972e-02
      8.44567195e-02 9.71267968e-02 6.75336048e-02 4.84807640e-02
      6.58640712e-02 9.13705677e-02 7.14052171e-02 1.68798208e-01
      1.83544606e-01 1.09123252e-01 9.19743106e-02 1.05080456e-01
      7.26706162e-02 6.70364648e-02 5.33014424e-02 2.86360353e-01
      1.73765868e-01 7.74567798e-02 6.21986873e-02 2.90877491e-01
      2.97749072e-01 9.82154533e-02 1.32411733e-01 1.68679297e-01
      1.60974622e-01 9.86648202e-02 1.54653385e-01 1.08025037e-01
      1.54120177e-01 2.49774575e-01 1.51641577e-01 1.37128115e-01
      1.11914471e-01 4.80187535e-02 9.47663933e-02 3.18066239e-01
      1.43991634e-01 4.71032448e-02 3.53919975e-02 1.72924697e-01
      3.27566266e-01 1.08491264e-01 1.72571227e-01 1.58843458e-01
      1.65302023e-01 8.27781260e-02 2.81014852e-02 3.47880907e-02
      1.24496244e-01 3.04085314e-01 2.59672314e-01 1.62436262e-01
      5.46773411e-02 6.88844472e-02 1.20896406e-01 1.56343952e-01
      9.25795510e-02 1.02078691e-01 2.66277641e-01 2.95323759e-01
      9.11033228e-02 8.94203261e-02 1.01461060e-01 7.38707706e-02
      5.25955223e-02 6.56189024e-02 3.28248404e-02 2.90852748e-02
      4.08719257e-02 1.90403745e-01 1.68931648e-01 2.71122664e-01
      1.73971474e-01 1.78906724e-01 2.69493848e-01 1.18197195e-01
      9.56050381e-02 1.03436075e-01 1.46916866e-01 1.49661884e-01
      8.37203711e-02 6.76162243e-02 1.12430803e-01 2.18001604e-01
      2.41526976e-01 2.25971863e-01 1.72187254e-01 2.24248484e-01
      1.72682837e-01 1.95936158e-01 1.64927348e-01 1.52187034e-01
      1.07849389e-01 1.50342196e-01 1.64881587e-01 1.54305354e-01
      5.66247143e-02 8.89728889e-02 3.70528013e-01 2.54748106e-01
      7.92372972e-02 6.61976263e-02 2.13850126e-01 4.79177237e-01
      1.12023935e-01 8.73636827e-02 1.38494402e-01 3.18083346e-01
      2.58781821e-01 1.26434863e-01 1.04047090e-01 1.98717400e-01
      3.37035894e-01 1.32582441e-01 2.42353097e-01 7.49790743e-02
      8.38908777e-02 2.08716035e-01 1.64320469e-01 1.13635927e-01
      1.49534181e-01 3.50888401e-01 3.72590065e-01 1.04770377e-01
      7.56052434e-02 1.11670166e-01 9.02671665e-02 7.32201561e-02
      7.09286779e-02 9.20809805e-02 1.21801682e-01 1.20383956e-01
      1.73282743e-01 2.61854231e-01 2.45383754e-01 1.10541508e-01
      7.36687928e-02 7.17564300e-02 1.28120467e-01 1.21385351e-01
      8.70381147e-02 1.26776770e-01 1.70472398e-01 1.27633318e-01
      8.09633955e-02 6.40410483e-02 1.32349297e-01 2.53158331e-01
      2.75799304e-01 1.26983657e-01 1.38702333e-01 9.33960229e-02
      1.47891745e-01 1.42908931e-01 1.23677798e-01 1.36472508e-01
      1.72110677e-01 1.57116339e-01 1.36997759e-01 1.16450101e-01
      1.17773585e-01 3.29097360e-01 2.71398902e-01 7.59668648e-02
      8.74076933e-02 1.61043167e-01 2.38228306e-01 1.55391634e-01
      9.43275243e-02 6.10737316e-02 1.09361470e-01 1.64077207e-01
      1.22930035e-01 7.62214139e-02 1.62493050e-01 3.58986884e-01
      2.49484792e-01 1.91355661e-01 1.21248126e-01 1.11024514e-01
      1.08178526e-01 1.70456201e-01 1.56388566e-01 1.01024553e-01
      1.76760077e-01 1.99556753e-01 1.68120652e-01 1.47721261e-01
      1.36332378e-01 8.48806351e-02 1.84068270e-02 6.48593009e-02
      1.11284196e-01 1.01635829e-01 1.45054981e-01 3.85492116e-01
      1.90564901e-01 1.78399682e-01 1.36611342e-01 2.89892256e-01
      2.58278608e-01 1.24371089e-01 1.55150190e-01 1.13532051e-01
      2.41330534e-01 1.49082035e-01 1.06819034e-01 7.42846429e-02
      1.51868522e-01 2.78725207e-01 2.23497182e-01 2.48132929e-01
      1.73882663e-01 1.05502561e-01 9.19786915e-02 1.82655185e-01
      1.27878591e-01 1.32184699e-01 9.74275246e-02 1.47274479e-01
      1.81676537e-01 1.28921181e-01 5.59790730e-02 9.49091390e-02
      2.62835950e-01 1.68576807e-01 5.01332395e-02 5.15107960e-02
      1.52332023e-01 2.03520164e-01 7.89369866e-02 9.53283608e-02
      1.03024602e-01 2.40384325e-01 1.54321328e-01 8.95729065e-02
      1.00488104e-01 2.08360642e-01 2.33132347e-01 1.22347310e-01
      1.58894271e-01 1.16737224e-01 2.00759992e-01 1.44080400e-01
      8.58111680e-02 9.37508792e-02 2.42901176e-01 2.80470550e-01
      1.40586317e-01 9.45271030e-02 1.09454818e-01 2.23407254e-01
      1.70877144e-01 8.98714736e-02 9.38159451e-02 1.60978958e-01
      1.76162750e-01 1.25557795e-01 1.26315281e-01 1.03401393e-01
      1.68148085e-01 2.07245737e-01 1.68921083e-01 1.38163179e-01
      1.85106590e-01 2.19766214e-01 1.60015658e-01 1.09106362e-01
      7.55080432e-02 1.53965577e-01 1.58969149e-01 9.55463797e-02
      1.23611420e-01 2.17072219e-01 2.58666247e-01 1.77790433e-01
      1.54529870e-01 1.64580598e-01 2.05944762e-01 1.70120969e-01
      1.58426449e-01 1.14548944e-01 1.48483887e-01 2.21638426e-01
      1.55460820e-01</_>
    <_>
      5.40371835e-02 8.95462036e-02 1.82465419e-01 1.18123174e-01
      6.09059408e-02 7.52651393e-02 1.44373387e-01 2.08147451e-01
      7.62205273e-02 7.36747608e-02 1.18428610e-01 2.84372628e-01
      1.77541077e-01 7.28866309e-02 7.73700923e-02 2.05249503e-01
      2.45130345e-01 1.09798603e-01 7.10907280e-02 7.00918585e-02
      1.47014543e-01 1.04393601e-01 6.83221370e-02 7.39265308e-02
      1.37534469e-01 2.13973776e-01 9.95401144e-02 1.16349578e-01
      1.05950907e-01 2.25215480e-01 1.39557391e-01 5.97919635e-02
      8.36132541e-02 1.52071625e-01 2.21693322e-01 1.26538873e-01
      5.65191582e-02 7.40605369e-02 2.90274262e-01 1.74417540e-01
      8.16096663e-02 9.27863568e-02 2.61824191e-01 2.89389133e-01
      9.62777063e-02 1.08808734e-01 1.53374091e-01 2.00790808e-01
      1.52813256e-01 1.06891625e-01 8.15942362e-02 1.67265534e-01
      2.76334167e-01 1.26377210e-01 9.86026749e-02 1.19322672e-01
      1.83619231e-01 1.90166712e-01 1.24931306e-01 1.50920346e-01
      2.23270655e-01 2.86297441e-01 1.92190960e-01 6.97455034e-02
      8.44889432e-02 2.47054353e-01 1.28991038e-01 7.36470595e-02
      9.79697704e-02 1.33671567e-01 1.96227521e-01 9.39092264e-02
      9.87205803e-02 1.60067230e-01 2.37030566e-01 9.64022726e-02
      5.68725206e-02 6.07326664e-02 1.18208811e-01 1.55558303e-01
      7.82723725e-02 8.25545490e-02 2.32761547e-01 3.07632625e-01
      9.95631963e-02 6.33726567e-02 9.02019739e-02 2.84745008e-01
      2.48280749e-01 5.46356253e-02 5.21880761e-02 5.73112443e-02
      1.62152454e-01 1.24713376e-01 8.35830048e-02 2.00089261e-01
      5.60489774e-01 2.86626041e-01 7.87989721e-02 6.13920838e-02
      7.81300142e-02 2.98453152e-01 1.95138797e-01 1.07538730e-01
      1.00930721e-01 1.94777414e-01 3.42768967e-01 1.06141269e-01
      1.31618723e-01 1.46039531e-01 2.81167328e-01 2.59819418e-01
      1.93391293e-01 1.59814626e-01 2.01230928e-01 2.80165106e-01
      1.25324264e-01 8.87913331e-02 1.11267321e-01 1.82502031e-01
      2.35461250e-01 1.52521953e-01 9.70343947e-02 2.65712500e-01
      3.28966796e-01 1.29021496e-01 1.01505272e-01 1.03142157e-01
      2.52162874e-01 1.76085681e-01 1.00380324e-01 9.52023640e-02
      1.13821521e-01 2.02738687e-01 1.40912339e-01 4.97885272e-02
      1.62930489e-01 2.95723170e-01 7.70406947e-02 4.40499261e-02
      6.53140545e-02 1.19431347e-01 1.58008859e-01 6.06813058e-02
      4.10703309e-02 5.55372164e-02 1.42115429e-01 1.44601867e-01
      8.67198631e-02 1.38162509e-01 3.76849771e-01 4.81400490e-01
      9.53969508e-02 6.29895702e-02 6.59529269e-02 1.34652361e-01
      1.61570281e-01 1.09493747e-01 1.39708966e-01 3.30611140e-01
      2.87675202e-01 1.00276180e-01 3.83856110e-02 5.71743026e-02
      2.35160813e-01 2.87548929e-01 1.29959762e-01 1.21224917e-01
      2.29406103e-01 2.23825142e-01 5.27268834e-02 5.68762608e-02
      1.04400754e-01 2.72230029e-01 1.66817188e-01 6.97804913e-02
      7.52888322e-02 2.14988261e-01 2.77760118e-01 1.04267903e-01
      3.10742885e-01 1.65984660e-01 1.56021446e-01 1.89290121e-01
      3.41886252e-01 2.10556075e-01 8.24136883e-02 6.74304143e-02
      1.81619540e-01 1.47450775e-01 8.04661438e-02 1.80427268e-01
      1.42399907e-01 1.67668834e-01 1.91262856e-01 1.57321021e-01
      2.13348702e-01 1.62094563e-01 3.71544771e-02 3.24648619e-02
      7.00736716e-02 5.02260588e-02 5.40850349e-02 1.17155783e-01
      2.71984518e-01 3.15806568e-01 9.07977074e-02 6.02380745e-02
      6.47636279e-02 2.26627991e-01 2.28697702e-01 1.83637962e-01
      2.10608765e-01 3.47009838e-01 4.22755063e-01 1.66026607e-01
      1.18418083e-01 8.88692141e-02 1.41102180e-01 1.09336019e-01
      8.89939666e-02 8.66972506e-02 1.53518915e-01 3.85548055e-01
      2.96144515e-01 3.14492099e-02 1.19404323e-01 2.41083503e-01
      7.12530911e-02 3.70081924e-02 4.35728952e-02 1.88672304e-01
      1.56357557e-01 4.14112285e-02 3.12631391e-02 4.10583839e-02
      9.80466679e-02 1.04151994e-01 6.06040210e-02 5.00241853e-02
      7.70120025e-02 9.41446349e-02 3.30577530e-02 2.33119115e-01
      2.67947882e-01 2.11187527e-01 1.68325335e-01 2.19888702e-01
      2.65916735e-01 2.06862181e-01 1.80608556e-01 1.44733176e-01
      9.31631848e-02 9.14205685e-02 1.79408848e-01 1.57271296e-01
      9.22035277e-02 9.63748544e-02 1.27295956e-01 1.40651107e-01
      7.52931163e-02 5.12117334e-02 4.25793231e-02 7.82198012e-02
      5.77337258e-02 6.04716912e-02 9.38078910e-02 2.40857378e-01
      3.59393388e-01 1.34280607e-01 1.10788755e-01 5.66526428e-02
      1.02960967e-01 1.31436273e-01 1.15566276e-01 9.10551697e-02
      1.51019409e-01 4.10958439e-01 2.89211273e-01 1.17895812e-01
      6.63039312e-02 1.41991392e-01 1.95098221e-01 2.86485344e-01
      1.49642691e-01 1.08959951e-01 1.67066917e-01 1.83536306e-01
      4.33951281e-02 3.00189536e-02 1.21785864e-01 1.26329094e-01
      5.42142913e-02 3.50172296e-02 7.81457871e-02 1.93789423e-01
      8.76899883e-02 2.80831069e-01 3.57821226e-01 1.64346233e-01
      8.17151740e-02 1.01675682e-01 2.97533751e-01 9.71313119e-02
      5.23293354e-02 5.04578017e-02 2.47481301e-01 1.45450592e-01
      1.23809367e-01 7.88134038e-02 1.42149493e-01 2.78457910e-01
      1.92946225e-01 2.27875218e-01 2.04997882e-01 6.87887743e-02
      6.00973703e-02 1.31257921e-01 1.41950071e-01 8.42263997e-02
      6.46921769e-02 9.23499763e-02 1.54698506e-01 8.50411728e-02
      4.94672805e-02 4.99046110e-02 1.76893905e-01 1.81850821e-01
      1.05649136e-01 6.68105632e-02 1.76220775e-01 3.59239429e-01
      1.15611792e-01 7.59246051e-02 4.73535061e-02 1.04633912e-01
      1.10349916e-01 8.56961310e-02 6.66865632e-02 1.44955456e-01
      4.62506115e-01 3.67605269e-01 1.68451414e-01 5.71321696e-02
      1.49052590e-01 2.01074764e-01 1.12307347e-01 9.60873589e-02
      1.11976735e-01 2.63237953e-01 2.92040914e-01 3.87154706e-02
      6.49819374e-02 1.21914223e-01 6.65362477e-02 3.09109502e-02
      2.25758739e-02 2.94993669e-02 5.84139451e-02 3.19049358e-02
      1.62509933e-01 2.24553227e-01 3.18305343e-01 2.30211914e-01
      1.67482823e-01 1.32477522e-01 1.79706663e-01 2.70439506e-01
      1.98970497e-01 9.83577743e-02 9.29223001e-02 1.38525754e-01
      1.55339912e-01 1.06212847e-01 1.00465879e-01 1.94274426e-01
      3.42049032e-01 1.70878679e-01 1.66286990e-01 6.55894130e-02
      1.66111514e-01 2.25833505e-01 1.56758532e-01 9.16266888e-02
      1.10327214e-01 2.14766264e-01 1.78029224e-01 8.65011737e-02
      8.16149488e-02 1.71758667e-01 1.99070185e-01 1.04094133e-01
      9.47923511e-02 2.29894415e-01 2.93665200e-01 1.58031017e-01
      9.99615416e-02 6.67828470e-02 1.10076390e-01 2.11095169e-01
      2.49503613e-01 1.46487579e-01 1.67128533e-01 2.98410773e-01
      2.47088879e-01 1.41570956e-01 4.25349399e-02 3.40445749e-02
      6.61644265e-02 1.39632538e-01 1.26611039e-01 1.05575211e-01
      2.10356683e-01 2.30664879e-01 6.65049553e-02 1.21805243e-01
      1.46363914e-01 1.60982624e-01 9.63920653e-02 6.98748380e-02
      6.80465996e-02 6.07434474e-02 5.60251661e-02 8.94758105e-02
      1.01465143e-01 2.13340044e-01 2.07393914e-01 1.70847639e-01
      1.19021118e-01 1.79266050e-01 2.34296948e-01 1.40994444e-01
      8.90420005e-02 6.50817752e-02 1.28983080e-01 1.22737035e-01
      8.17553625e-02 8.20316151e-02 1.69947460e-01 3.76815647e-01
      1.32753983e-01 1.05961494e-01 6.84144422e-02 1.64000884e-01
      1.75966218e-01 1.09613188e-01 7.65637457e-02 1.17650777e-01
      1.90457776e-01 1.14886716e-01 4.54047881e-02 8.58656019e-02
      3.12776595e-01 1.90658793e-01 6.68135360e-02 9.28416997e-02
      2.28675902e-01 3.82033885e-01 1.28768876e-01 1.50092542e-01
      1.22112095e-01 2.62033224e-01 1.77974612e-01 9.87197906e-02
      9.24769491e-02 1.72037259e-01 2.84794480e-01 2.72777319e-01
      3.31457347e-01 1.64052889e-01 1.10429063e-01 1.36857793e-01
      1.05146147e-01 1.15640536e-01 1.43347114e-01 2.51324624e-01
      2.45166525e-01 2.00715944e-01 1.46376714e-01 1.86660558e-01
      1.05384164e-01 6.82055354e-02 4.90389913e-02 6.68116063e-02
      1.56524211e-01 1.73713550e-01 2.64661342e-01 7.59679750e-02
      1.51815385e-01 1.87557504e-01 3.05454910e-01 1.52311400e-01
      1.14536226e-01 1.92913175e-01 2.73169518e-01 1.72926679e-01
      1.27024129e-01 1.92041799e-01 2.01512069e-01 1.27193362e-01
      1.41456947e-01 2.81712800e-01 3.30514610e-01 1.89633027e-01
      1.49878696e-01 1.29619136e-01 1.67892843e-01 1.65820003e-01
      1.07007727e-01 1.16804518e-01 1.50204077e-01 2.17829362e-01
      1.57907218e-01</_>
    <_>
      9.73470975e-03 1.52803855e-02 4.42336760e-02 1.75719447e-02
      7.09289778e-03 6.76899869e-03 2.43428256e-02 3.29033397e-02
      5.98971546e-03 1.02119431e-01 1.53823912e-01 1.48684770e-01
      5.29800169e-02 3.43536660e-02 3.93178649e-02 4.93946560e-02
      5.80012538e-02 8.44172314e-02 1.86544240e-01 3.47297043e-01
      1.59177810e-01 9.68749896e-02 1.25843227e-01 1.91647142e-01
      2.12307364e-01 1.68905288e-01 1.36072338e-01 1.81495547e-01
      1.24413148e-01 2.58676559e-01 2.00022072e-01 1.22025892e-01
      1.16425231e-01 2.06337363e-01 2.28256598e-01 2.44274482e-01
      5.94177097e-02 5.95243350e-02 1.46984160e-01 1.00996651e-01
      5.74281365e-02 7.06020966e-02 1.25975549e-01 2.41328090e-01
      9.40843672e-02 1.09493852e-01 1.14724189e-01 1.43138215e-01
      1.12644807e-01 1.11071885e-01 1.11778691e-01 1.09712385e-01
      1.38746083e-01 1.04418516e-01 8.12988281e-02 1.16485931e-01
      1.45031035e-01 1.22463524e-01 1.04672268e-01 7.59869441e-02
      9.60460901e-02 9.38219950e-02 6.58819377e-02 1.85640275e-01
      2.18428507e-01 2.40868181e-01 1.75390914e-01 1.63093224e-01
      1.94075748e-01 2.38690436e-01 2.05611378e-01 1.44339561e-01
      1.17901802e-01 2.04221189e-01 3.12109649e-01 2.12001666e-01
      1.33714706e-01 1.45178884e-01 2.38355383e-01 2.13030264e-01
      1.24704435e-01 1.80031687e-01 2.14074239e-01 1.40043870e-01
      1.13061890e-01 1.99265808e-01 2.63936579e-01 2.15616748e-01
      1.29165396e-01 1.49322629e-01 7.64717609e-02 7.56577849e-02
      1.20948985e-01 1.24806054e-01 1.28676236e-01 1.02541894e-01
      5.52865230e-02 6.50349706e-02 7.79895633e-02 3.09770107e-01
      1.36503860e-01 1.31568238e-01 1.62078366e-01 1.31564051e-01
      1.89754188e-01 2.21291065e-01 2.41918206e-01 2.40720883e-01
      1.26026049e-01 1.53560743e-01 1.49811998e-01 1.23561345e-01
      1.13266714e-01 1.34696946e-01 1.52816132e-01 1.31869316e-01
      1.09928802e-01 7.80698061e-02 9.98565629e-02 1.49479449e-01
      1.02966025e-01 8.29014033e-02 8.08245987e-02 8.20922107e-02
      7.22601488e-02 5.63459396e-02 2.01143563e-01 2.78927892e-01
      3.25128406e-01 1.80240780e-01 1.71583027e-01 2.56133527e-01
      2.81524450e-01 2.44016916e-01 1.70003638e-01 1.16884619e-01
      1.35942325e-01 2.64550000e-01 1.93186507e-01 6.17836267e-02
      6.95808008e-02 1.16945736e-01 1.00203440e-01 6.44758046e-02
      2.81516761e-01 1.69093400e-01 5.60366400e-02 3.83605659e-02
      1.14680849e-01 1.89430103e-01 9.68091711e-02 5.13886511e-02
      9.33983997e-02 3.40214163e-01 1.16995983e-01 5.66342771e-02
      6.25813156e-02 1.90633491e-01 2.09519133e-01 7.88188800e-02
      8.05382207e-02 2.27518290e-01 1.35276943e-01 6.15043901e-02
      5.43315932e-02 7.97616914e-02 1.80708930e-01 1.75797626e-01
      7.67775923e-02 8.16080645e-02 1.60944462e-01 1.27844855e-01
      1.33495152e-01 1.36937067e-01 1.14341468e-01 1.11006320e-01
      1.13811053e-01 1.41161844e-01 1.48273021e-01 1.06054500e-01
      8.11889395e-02 1.10580653e-01 1.35205299e-01 1.06136873e-01
      7.65010938e-02 7.94227868e-02 7.74932280e-02 7.47217759e-02
      6.32795095e-02 2.01899737e-01 2.18058497e-01 2.20138475e-01
      1.61811322e-01 1.93829626e-01 2.22071633e-01 2.29236737e-01
      2.02625841e-01 1.40893653e-01 4.45946082e-02 1.60071433e-01
      3.46014410e-01 1.09852850e-01 4.44597267e-02 8.04969519e-02
      1.19465642e-01 9.84834656e-02 4.26833853e-02 1.77253023e-01
      2.78580725e-01 1.12813212e-01 5.34092821e-02 9.10334960e-02
      2.43851557e-01 2.05581471e-01 7.97657371e-02 5.32453731e-02
      3.02084535e-01 2.01977700e-01 9.30044875e-02 7.97991455e-02
      2.37598404e-01 3.16624492e-01 1.61986023e-01 8.85449499e-02
      1.69721916e-01 3.69102150e-01 1.18417092e-01 1.02747366e-01
      1.74082845e-01 3.79216313e-01 2.95351088e-01 1.55492410e-01
      1.94975674e-01 4.40608799e-01 1.69164434e-01 8.19391310e-02
      8.02292600e-02 9.14125592e-02 1.48786277e-01 1.28749117e-01
      8.87257308e-02 1.05663940e-01 1.16941087e-01 1.42592758e-01
      1.71800792e-01 1.35404378e-01 8.80672559e-02 1.18499264e-01
      1.60430223e-01 1.29739702e-01 1.11886658e-01 9.66262370e-02
      2.03978941e-01 2.46491045e-01 2.73879647e-01 1.82570890e-01
      1.84780270e-01 2.09733650e-01 2.13072374e-01 1.68641672e-01
      1.30006984e-01 8.95973071e-02 1.37507766e-01 1.76510617e-01
      8.54122937e-02 6.06541187e-02 9.71213281e-02 1.25498325e-01
      1.09781280e-01 6.83099255e-02 1.61819667e-01 2.45292768e-01
      1.66013867e-01 7.14331716e-02 9.59537774e-02 2.38165870e-01
      2.24620908e-01 1.15390182e-01 6.86707199e-02 3.39452118e-01
      2.88151205e-01 1.05719790e-01 7.35587105e-02 1.91094324e-01
      4.19740528e-01 2.66269773e-01 1.70740023e-01 1.97667480e-01
      1.92442596e-01 1.58728361e-01 7.47880563e-02 7.49793947e-02
      1.81927070e-01 2.81088769e-01 1.33351982e-01 8.84656012e-02
      1.32679805e-01 1.20876573e-01 7.46213049e-02 1.02753729e-01
      1.32468030e-01 1.53035283e-01 1.12098180e-01 8.87216106e-02
      1.33792594e-01 1.58570141e-01 1.02492936e-01 1.21692054e-01
      1.36379778e-01 1.01640284e-01 1.46637589e-01 1.52407035e-01
      1.30709693e-01 1.39018983e-01 1.06945738e-01 1.81348264e-01
      2.42715552e-01 3.04616183e-01 2.33879223e-01 1.92076787e-01
      2.04018146e-01 2.03131467e-01 1.74800545e-01 1.44750997e-01
      8.72892663e-02 9.31911618e-02 1.01332858e-01 9.10484195e-02
      8.04596916e-02 1.17837712e-01 1.16429783e-01 9.76781547e-02
      7.31769055e-02 3.00063908e-01 2.80655205e-01 1.57000750e-01
      9.05907005e-02 2.01423049e-01 4.53513652e-01 2.99607843e-01
      1.18519828e-01 1.25788644e-01 2.32139543e-01 1.87424645e-01
      1.11036740e-01 9.80333611e-02 2.49939233e-01 4.08827662e-01
      2.38563314e-01 1.34074345e-01 1.54686868e-01 2.93839186e-01
      1.31310642e-01 5.10867126e-02 7.42796138e-02 2.45708302e-01
      2.29311019e-01 9.17498246e-02 8.93545598e-02 1.87494576e-01
      1.90707311e-01 1.49551705e-01 2.06367135e-01 1.99205995e-01
      2.17052102e-01 1.49950206e-01 9.30229276e-02 9.81034487e-02
      1.71287134e-01 2.36230329e-01 1.93967342e-01 1.65896356e-01
      1.51301652e-01 1.87054515e-01 2.47489154e-01 2.46262029e-01
      2.89948583e-01 2.44401723e-01 1.51612848e-01 1.78350389e-01
      2.42696583e-01 2.44266957e-01 2.10610062e-01 1.57397076e-01
      1.37870535e-01 1.34693354e-01 1.09613225e-01 1.54825702e-01
      1.70623645e-01 3.04182172e-01 3.58998179e-01 1.65670201e-01
      1.61807463e-01 2.33725876e-01 2.34203145e-01 1.36392921e-01
      3.82945359e-01 2.18249425e-01 1.25428081e-01 8.82465988e-02
      2.37932354e-01 4.26647544e-01 2.43511319e-01 1.60488114e-01
      2.29494154e-01 2.54836112e-01 9.72955376e-02 5.08091114e-02
      8.88921991e-02 2.29882434e-01 2.37704456e-01 1.25718087e-01
      9.05468613e-02 1.78812400e-01 1.14987560e-01 1.12194754e-01
      9.48788673e-02 9.14829522e-02 1.64255083e-01 1.41521648e-01
      1.09163553e-01 1.20028034e-01 1.31145224e-01 1.87877491e-01
      1.29664466e-01 7.29281679e-02 7.60200620e-02 1.06659614e-01
      1.53417140e-01 8.76272842e-02 6.38572052e-02 9.71049592e-02
      2.26997808e-01 1.64671972e-01 6.69378787e-02 6.56830072e-02
      1.10757723e-01 1.34645730e-01 1.13829173e-01 9.33804139e-02
      8.94229189e-02 9.67382863e-02 9.52254012e-02 1.31174922e-01
      1.26393452e-01 1.05324626e-01 1.11375540e-01 7.70910010e-02
      6.14075214e-02 6.27674460e-02 3.83872539e-02 4.54452634e-02
      1.00092411e-01 2.42283836e-01 1.15306817e-01 3.69661301e-02
      7.61132464e-02 1.47215992e-01 8.64047334e-02 1.36475116e-01
      6.02632537e-02 6.00925051e-02 1.01495661e-01 1.89835712e-01
      1.41575888e-01 7.74406344e-02 1.12369396e-01 1.70153961e-01
      2.41445437e-01 9.87027138e-02 8.24022964e-02 7.85240605e-02
      1.67941511e-01 2.54177809e-01 1.04478754e-01 7.88122192e-02
      1.70034409e-01 1.49351552e-01 2.27867991e-01 2.05907181e-01
      1.17824867e-01 1.14403769e-01 1.03529386e-01 1.43072650e-01
      1.50690019e-01 1.10194989e-01 2.75673658e-01 2.91565537e-01
      1.25701204e-01 1.08149633e-01 1.49315834e-01 1.40037552e-01
      1.17783047e-01 1.35391891e-01 2.03369021e-01 1.89330384e-01
      2.46535748e-01 2.63982266e-01 2.37550408e-01 2.76979715e-01
      2.26664677e-01 2.82899618e-01 2.94793963e-01 2.32644185e-01
      1.95555747e-01 1.27625659e-01 8.25634152e-02 8.91094878e-02
      1.44421503e-01 1.84356794e-01 1.66026622e-01 1.56554073e-01
      1.25009134e-01</_>
    <_>
      1.15407780e-01 1.45355612e-01 2.08181456e-01 2.14605242e-01
      1.24007918e-01 1.28910795e-01 1.48297146e-01 1.99776083e-01
      1.70650199e-01 1.67439014e-01 2.85467595e-01 2.10483238e-01
      1.68733269e-01 1.48181036e-01 1.52514905e-01 2.30154961e-01
      3.03916067e-01 1.92274883e-01 7.11778104e-02 1.12212241e-01
      2.40155816e-01 2.32342571e-01 1.53784379e-01 1.07741743e-01
      1.50870547e-01 1.37150839e-01 9.97783691e-02 1.08038686e-01
      1.00155696e-01 9.76538211e-02 1.10251784e-01 1.11608855e-01
      9.45791826e-02 1.40892431e-01 1.70798257e-01 1.36729971e-01
      2.21347719e-01 1.47115454e-01 1.53706625e-01 1.90396041e-01
      1.94304705e-01 1.60716102e-01 1.55687883e-01 1.64992377e-01
      2.43598595e-01 1.18658565e-01 1.03954509e-01 1.08158328e-01
      1.21676192e-01 1.53390989e-01 1.42960921e-01 1.53884679e-01
      1.75602898e-01 1.59951225e-01 1.78281173e-01 1.49772584e-01
      1.69004247e-01 1.81192040e-01 1.85810700e-01 1.50952131e-01
      1.59995079e-01 1.68445602e-01 1.82591140e-01 1.51866153e-01
      1.47721544e-01 1.71761647e-01 1.75897092e-01 1.36486202e-01
      1.30638972e-01 1.58041477e-01 1.72130406e-01 1.64548814e-01
      1.01458073e-01 9.83974263e-02 1.49261609e-01 1.62106380e-01
      1.26254365e-01 1.22868419e-01 1.99382648e-01 2.01759756e-01
      1.50776789e-01 1.11661032e-01 1.57854706e-01 1.35893285e-01
      1.22774221e-01 1.10029921e-01 1.54798895e-01 1.89451545e-01
      1.61853239e-01 1.49224892e-01 1.39641792e-01 1.84201628e-01
      1.42813936e-01 1.61134288e-01 1.73012674e-01 2.07496077e-01
      1.70879960e-01 1.77766651e-01 1.38270408e-01 1.43862680e-01
      1.58356905e-01 1.67671800e-01 1.69567183e-01 1.83591127e-01
      2.06635460e-01 2.14235455e-01 2.20678911e-01 1.73906729e-01
      8.60189572e-02 8.64021033e-02 1.35942370e-01 1.44719020e-01
      1.14198849e-01 1.06344059e-01 1.40626609e-01 1.57031760e-01
      1.23360120e-01 1.28986806e-01 1.33583874e-01 1.75351992e-01
      1.70882702e-01 1.36441067e-01 1.21944793e-01 1.36102185e-01
      1.56336129e-01 1.52692512e-01 1.40354276e-01 1.59945130e-01
      1.85194343e-01 1.72055781e-01 1.50742665e-01 1.44283667e-01
      1.43407479e-01 1.54927716e-01 1.42500609e-01 1.23251535e-01
      1.30819127e-01 1.62270710e-01 2.01351717e-01 1.59744114e-01
      1.12159625e-01 1.60578385e-01 1.65974557e-01 1.52082875e-01
      1.78558350e-01 2.96336740e-01 2.05058128e-01 9.90597680e-02
      1.09198667e-01 2.01021329e-01 2.64064699e-01 1.47014514e-01
      1.16474330e-01 1.58756942e-01 3.24599832e-01 2.14255318e-01
      7.61270449e-02 7.88341165e-02 2.04519123e-01 3.13280165e-01
      1.70552909e-01 8.94575641e-02 1.60521373e-01 1.55501366e-01
      1.61677688e-01 9.90993455e-02 1.06915049e-01 1.75878882e-01
      2.42394626e-01 1.96668074e-01 1.85658902e-01 1.26574680e-01
      1.67315692e-01 1.27781987e-01 9.36879069e-02 9.29108933e-02
      1.11788206e-01 1.43327236e-01 1.28295273e-01 1.06949627e-01
      1.50380388e-01 1.58675775e-01 2.16935158e-01 2.39257023e-01
      1.71378836e-01 1.22623913e-01 1.42739370e-01 1.88606054e-01
      1.96755245e-01 1.82656750e-01 1.65406212e-01 1.31483778e-01
      1.44934893e-01 1.75224066e-01 1.77539334e-01 1.69584557e-01
      1.47461936e-01 1.73369557e-01 1.40590563e-01 1.54349580e-01
      3.06890368e-01 3.58047366e-01 1.73665598e-01 1.46297917e-01
      1.86257392e-01 2.22675398e-01 1.74214274e-01 1.20415352e-01
      1.90575063e-01 1.92951128e-01 1.20891191e-01 8.55207741e-02
      1.42872870e-01 2.29732901e-01 1.75397381e-01 1.04411237e-01
      2.10332409e-01 2.04429746e-01 1.67238250e-01 1.43070966e-01
      1.56363875e-01 2.06161022e-01 2.20739126e-01 1.77293628e-01
      1.57071963e-01 2.22777084e-01 1.76591516e-01 8.46676230e-02
      6.73588589e-02 1.18512623e-01 2.18426585e-01 1.93311095e-01
      1.39660344e-01 1.77026123e-01 1.42580524e-01 1.32823974e-01
      1.28527373e-01 1.25913590e-01 1.58599228e-01 1.57296434e-01
      1.49955079e-01 1.51300505e-01 1.51158050e-01 1.63627490e-01
      1.71719849e-01 2.11717784e-01 2.23430663e-01 1.90096110e-01
      1.67309850e-01 1.81977481e-01 1.74001083e-01 1.91855088e-01
      1.90634951e-01 1.70046419e-01 1.81677088e-01 1.89507619e-01
      1.81717172e-01 1.68755993e-01 1.81995124e-01 1.85826391e-01
      1.68709397e-01 1.71407342e-01 1.82256162e-01 2.32219875e-01
      2.44741008e-01 1.68197513e-01 1.51592761e-01 1.90921724e-01
      2.30026096e-01 2.00519130e-01 9.22834128e-02 1.78418666e-01
      2.57806778e-01 2.69907147e-01 9.72836092e-02 1.12030543e-01
      1.85650617e-01 1.58395514e-01 1.04827419e-01 1.50490314e-01
      2.12717816e-01 1.86249822e-01 1.28099561e-01 1.16581976e-01
      1.59738973e-01 2.23747164e-01 1.80471778e-01 1.16464764e-01
      1.57652482e-01 1.50369138e-01 1.11496456e-01 9.78063792e-02
      1.35530040e-01 1.76098943e-01 1.57952562e-01 1.53283283e-01
      1.64801255e-01 1.49202675e-01 1.59995764e-01 1.55236751e-01
      1.79643393e-01 1.22485884e-01 1.40999749e-01 1.93338737e-01
      2.74750471e-01 2.21607864e-01 1.16036460e-01 1.48733363e-01
      1.90996170e-01 1.56109244e-01 1.41505748e-01 1.36064053e-01
      1.69684142e-01 1.62045375e-01 1.34386659e-01 1.58088073e-01
      1.50800422e-01 1.90813839e-01 2.42295921e-01 1.68034419e-01
      1.33764401e-01 2.00148687e-01 2.28007942e-01 1.92400262e-01
      1.54576778e-01 2.00684547e-01 2.67782927e-01 2.00086907e-01
      1.38150707e-01 1.75455377e-01 2.28596225e-01 2.08665311e-01
      1.61363035e-01 1.20419204e-01 1.52473494e-01 2.66261637e-01
      2.65339464e-01 1.59440413e-01 1.33075982e-01 1.63206413e-01
      1.76721036e-01 1.36047125e-01 1.15759127e-01 1.49264380e-01
      1.94888130e-01 1.45126298e-01 1.09438337e-01 1.12784445e-01
      1.92422062e-01 2.08430171e-01 1.36857435e-01 2.06691056e-01
      2.04183444e-01 1.40037596e-01 1.24152452e-01 1.44305021e-01
      2.09733620e-01 1.59673259e-01 1.30977795e-01 1.69991717e-01
      2.16573924e-01 1.80142179e-01 9.81334895e-02 7.42081329e-02
      9.89990830e-02 1.60316199e-01 1.84974492e-01 1.76042393e-01
      1.74009919e-01 1.51288927e-01 1.21110857e-01 1.49126679e-01
      1.67160869e-01 1.18723989e-01 1.01552695e-01 1.50982395e-01
      2.32281432e-01 2.42613643e-01 1.89410016e-01 1.85797289e-01
      2.60035634e-01 2.34440476e-01 1.74719915e-01 1.87959984e-01
      2.08233863e-01 2.08760083e-01 1.93228513e-01 1.14746965e-01
      1.49994090e-01 1.92872971e-01 1.76208720e-01 1.30858168e-01
      1.24522112e-01 1.58658698e-01 1.80976078e-01 1.44107133e-01
      1.25920206e-01 1.78489432e-01 2.78468430e-01 2.67828286e-01
      1.40991420e-01 1.29799575e-01 2.07479641e-01 2.22272605e-01
      1.43511981e-01 7.14376494e-02 1.17736027e-01 1.94642767e-01
      1.86404616e-01 1.00577578e-01 8.50976110e-02 1.75942153e-01
      2.01113984e-01 1.01105601e-01 1.53870523e-01 1.43407091e-01
      1.60704195e-01 1.95385173e-01 1.69440880e-01 1.51412576e-01
      1.40133873e-01 1.71542495e-01 1.96882799e-01 1.25512347e-01
      1.26520172e-01 9.70313624e-02 7.61222467e-02 8.47219005e-02
      1.50513470e-01 1.73049480e-01 1.10684499e-01 1.12819918e-01
      9.93819982e-02 1.22210503e-01 1.04770534e-01 5.82161881e-02
      6.94550350e-02 1.56730130e-01 2.30008647e-01 1.19876467e-01
      9.30461064e-02 1.54426455e-01 1.58555597e-01 1.59105003e-01
      1.75305501e-01 1.40923157e-01 1.72707349e-01 1.64607316e-01
      1.81743219e-01 1.48889735e-01 9.53965634e-02 1.34987354e-01
      1.58136800e-01 1.24748416e-01 8.48262012e-02 1.02797695e-01
      1.80515587e-01 1.82378322e-01 9.92798358e-02 1.37439430e-01
      2.22306266e-01 2.63778836e-01 1.87532082e-01 1.12285286e-01
      1.57747269e-01 2.79461890e-01 2.09276512e-01 1.10505164e-01
      1.31290168e-01 1.75552413e-01 2.88110942e-01 4.25320834e-01
      2.21753374e-01 1.27036512e-01 2.25846663e-01 2.65278459e-01
      1.65176392e-01 8.38096365e-02 7.51558170e-02 1.19103983e-01
      1.85608596e-01 1.78928420e-01 1.08112089e-01 1.13864049e-01
      1.68196857e-01 1.46665245e-01 1.38625607e-01 9.54030380e-02
      8.80693272e-02 1.00936383e-01 1.46469101e-01 2.39122212e-01
      1.99628875e-01 1.66371316e-01 1.54105410e-01 1.05760008e-01
      1.59487858e-01 1.56232774e-01 1.61441714e-01 1.29151776e-01
      1.50934517e-01 2.41220236e-01 1.87772766e-01 1.50510490e-01
      2.12248310e-01 1.83177233e-01 2.02629879e-01 2.23022655e-01
      2.16710240e-01 2.00784191e-01 1.92768559e-01 2.09236860e-01
      1.95482284e-01</_>
    <_>
      2.48066768e-01 2.41405889e-01 1.68471679e-01 1.09864905e-01
      1.25232622e-01 1.01991646e-01 7.81161040e-02 8.02251846e-02
      1.75905555e-01 2.01133862e-01 3.42484951e-01 2.42217168e-01
      2.63070822e-01 2.06606418e-01 1.65989861e-01 1.54476851e-01
      1.60398960e-01 1.57324716e-01 1.01659469e-01 5.84678613e-02
      6.42006770e-02 1.46453544e-01 2.23139927e-01 1.46543145e-01
      1.22198381e-01 1.67107701e-01 1.88807532e-01 2.95081049e-01
      1.15307257e-01 8.69199261e-02 1.03221051e-01 2.80077457e-01
      4.11843687e-01 1.53400794e-01 1.71348393e-01 3.81952196e-01
      3.52804959e-01 2.94688672e-01 1.34540781e-01 1.58978119e-01
      3.28458101e-01 3.00214320e-01 1.49718449e-01 1.08854651e-01
      1.22050472e-01 2.78487980e-01 1.64129779e-01 1.53060287e-01
      1.03005439e-01 3.04262280e-01 2.74577677e-01 1.24072902e-01
      1.00485027e-01 1.12375207e-01 2.33072996e-01 1.27369940e-01
      1.02990821e-01 1.09992586e-01 4.60974604e-01 3.63911510e-01
      2.17207462e-01 1.94356322e-01 1.12278387e-01 1.46757141e-01
      1.30892187e-01 1.12915516e-01 8.14575925e-02 1.16181411e-01
      1.40339315e-01 1.03505395e-01 6.74073920e-02 8.46054852e-02
      2.75409967e-01 2.19388753e-01 1.19320720e-01 1.00665875e-01
      1.95843697e-01 3.43766332e-01 2.44428501e-01 1.65287808e-01
      1.50720283e-01 1.73771635e-01 1.15257084e-01 1.07016765e-01
      1.44891068e-01 1.97576493e-01 1.74775839e-01 1.42462999e-01
      1.55916318e-01 1.27291441e-01 1.54075623e-01 1.03794828e-01
      1.22803673e-01 1.01084374e-01 2.10386395e-01 1.79458112e-01
      1.39724866e-01 1.32659584e-01 1.51162371e-01 2.19464764e-01
      1.18543610e-01 7.40173161e-02 6.69571310e-02 1.53742179e-01
      2.17995822e-01 1.41633302e-01 1.68019578e-01 1.60946593e-01
      1.70878276e-01 1.20295390e-01 1.02765881e-01 1.04709268e-01
      1.46710590e-01 1.55293703e-01 1.39055043e-01 1.16212659e-01
      1.12754270e-01 1.45820454e-01 1.73383102e-01 1.72719330e-01
      1.06543921e-01 1.53484836e-01 1.69980466e-01 9.81299356e-02
      1.21203505e-01 9.76428315e-02 2.18088388e-01 2.11712033e-01
      1.11278407e-01 9.70548838e-02 1.97587371e-01 2.12470233e-01
      1.60664484e-01 1.26017988e-01 1.14957675e-01 2.23179176e-01
      7.43909776e-02 5.61614744e-02 1.73005089e-02 1.93637237e-02
      7.89071470e-02 2.34462157e-01 3.41480613e-01 2.62100190e-01
      3.05329502e-01 2.06203058e-01 8.77606794e-02 4.67885956e-02
      8.99855793e-02 1.74689040e-01 1.64581165e-01 1.28991976e-01
      1.31336823e-01 1.78160086e-01 1.50688708e-01 1.05053075e-01
      6.10271432e-02 1.40442774e-01 2.80160636e-01 2.60031670e-01
      1.99657291e-01 1.60910115e-01 1.62661508e-01 1.35885984e-01
      1.22742623e-01 1.52704880e-01 1.78187683e-01 1.85635448e-01
      1.06144160e-01 8.11527893e-02 8.98051634e-02 2.32693762e-01
      1.36451721e-01 8.43925476e-02 5.83626479e-02 1.03299037e-01
      1.26735643e-01 1.15969680e-01 1.24527827e-01 9.73698348e-02
      2.60090530e-01 2.38722131e-01 1.01547867e-01 8.48367214e-02
      1.14045046e-01 1.63232595e-01 1.81795597e-01 1.37481391e-01
      8.72132182e-02 1.82631984e-01 1.36861250e-01 1.38064802e-01
      1.60418645e-01 1.60614401e-01 1.53355375e-01 1.15375698e-01
      1.22804016e-01 1.33218944e-01 1.23437002e-01 9.32335481e-02
      3.02545011e-01 2.00767532e-01 3.73753011e-02 9.57724899e-02
      1.81085378e-01 1.19213998e-01 1.06666438e-01 2.06669003e-01
      8.67325217e-02 2.36202199e-02 1.34984925e-02 3.06870379e-02
      1.68685287e-01 2.20100686e-01 1.68257818e-01 2.04395115e-01
      1.94738686e-01 4.69620787e-02 2.18022205e-02 3.30272578e-02
      9.48811918e-02 1.75807789e-01 1.30840123e-01 1.20787159e-01
      2.02426478e-01 1.40455216e-01 2.16532543e-01 1.18503824e-01
      1.63010433e-01 2.54730493e-01 1.76378682e-01 1.76980689e-01
      1.83223516e-01 1.57291189e-01 3.06999445e-01 1.41918629e-01
      8.50631520e-02 1.32243544e-01 3.21003914e-01 2.75186211e-01
      1.05246782e-01 8.62430930e-02 1.49336934e-01 2.32229561e-01
      1.87152609e-01 1.15798250e-01 8.45036656e-02 2.34668091e-01
      3.60110819e-01 1.89308360e-01 1.36482507e-01 1.35456815e-01
      2.33912379e-01 2.28196904e-01 1.70016006e-01 1.27735168e-01
      1.89753518e-01 2.67064065e-01 1.89616069e-01 1.34650454e-01
      1.20416187e-01 5.31998649e-02 5.59064373e-02 5.24812102e-01
      2.87702888e-01 3.03591527e-02 7.26367831e-02 1.42604411e-01
      1.16378881e-01 5.76758124e-02 1.20702475e-01 2.46631522e-02
      9.62072797e-03 9.47784260e-03 2.19278410e-02 1.01246551e-01
      1.99041724e-01 1.44122139e-01 1.20673850e-01 2.67565191e-01
      1.26942113e-01 3.03443000e-02 1.82718672e-02 6.70592338e-02
      2.21279830e-01 1.39868945e-01 8.67180154e-02 1.03768416e-01
      2.54908264e-01 1.03664249e-01 2.07098633e-01 1.55571222e-01
      8.27654749e-02 1.79668754e-01 1.35596573e-01 1.43980905e-01
      2.92495310e-01 8.48784894e-02 7.63038918e-02 1.09370150e-01
      7.87506998e-02 7.23818690e-02 9.80051458e-02 1.17938884e-01
      1.21217094e-01 7.77368248e-02 8.76727849e-02 7.07660988e-02
      6.53940886e-02 6.61558285e-02 1.02574997e-01 1.11204907e-01
      8.85210410e-02 8.49124044e-02 8.19112435e-02 1.28194973e-01
      1.29543126e-01 1.26144379e-01 1.03843071e-01 9.64162871e-02
      9.98855308e-02 8.58044103e-02 7.13254586e-02 5.80280013e-02
      4.03887704e-02 4.51202057e-02 4.03444856e-01 2.93337852e-01
      4.75821458e-02 5.42698279e-02 1.01308040e-01 9.95035619e-02
      5.09934314e-02 6.38898090e-02 4.23204899e-02 5.29036298e-02
      5.54269478e-02 5.02943844e-02 1.49860263e-01 2.21115500e-01
      1.73558637e-01 9.91254225e-02 1.28324956e-01 8.79876316e-02
      5.89123406e-02 3.91724370e-02 8.25967491e-02 1.89664528e-01
      2.02519819e-01 1.55254066e-01 1.11221060e-01 1.97116375e-01
      2.45202765e-01 1.19782127e-01 1.00236565e-01 1.76559806e-01
      2.70573646e-01 1.33808717e-01 6.47765696e-02 7.64999986e-02
      1.98472008e-01 1.23388730e-01 1.17507450e-01 1.11504510e-01
      1.65916637e-01 1.47451550e-01 1.25718862e-01 1.31552652e-01
      1.16254345e-01 4.79508817e-01 9.76918042e-02 4.61933278e-02
      6.02204427e-02 2.64237165e-01 1.97013751e-01 7.30640367e-02
      6.82900995e-02 9.72823799e-02 2.67616093e-01 2.38390878e-01
      9.70813185e-02 7.41927847e-02 1.69336408e-01 2.15999931e-01
      2.17829064e-01 1.18309334e-01 5.10724261e-02 7.05330446e-02
      4.34197634e-02 1.29728600e-01 5.37665784e-01 2.72998184e-01
      5.62388450e-02 6.18874058e-02 1.07675493e-01 1.30184293e-01
      2.03167975e-01 6.56589344e-02 4.64649759e-02 1.33355692e-01
      3.79531503e-01 1.68686032e-01 1.83615774e-01 2.88599014e-01
      2.83977985e-01 2.74742067e-01 1.46637037e-01 5.44616655e-02
      5.71948513e-02 1.58229560e-01 2.76798815e-01 1.37609616e-01
      7.36496150e-02 1.64908394e-01 4.22423750e-01 2.50994414e-01
      7.78417140e-02 7.32117072e-02 1.89218566e-01 4.79159683e-01
      1.35329470e-01 6.78559765e-02 2.12661326e-01 2.80186117e-01
      1.38158590e-01 1.11375377e-01 1.36299849e-01 2.09822506e-01
      1.03404388e-01 5.80230281e-02 6.73675686e-02 1.21303514e-01
      3.70457381e-01 6.59117252e-02 4.26978022e-02 4.27537858e-02
      1.65638968e-01 2.24848092e-01 1.20812513e-01 1.09653741e-01
      2.16504917e-01 2.90092915e-01 1.39064804e-01 1.03947550e-01
      1.02514587e-01 1.89490095e-01 1.80146977e-01 6.71966821e-02
      6.24808259e-02 9.21273232e-02 7.93973878e-02 7.47888759e-02
      7.79205114e-02 5.29626645e-02 5.61273396e-02 7.78582245e-02
      9.84342769e-02 8.43407065e-02 5.73460199e-02 6.44353330e-02
      6.87542483e-02 9.09532309e-02 7.87292197e-02 1.26626328e-01
      1.00065075e-01 7.38672987e-02 6.01200610e-02 5.76849431e-02
      1.08369268e-01 7.94596970e-02 6.07535839e-02 6.30461946e-02
      2.01273933e-01 1.53513640e-01 7.98545405e-02 7.57488683e-02
      1.06772609e-01 1.20715208e-01 9.01126042e-02 9.94488820e-02
      9.00161415e-02 1.20349437e-01 1.35075763e-01 8.74689147e-02
      8.79902691e-02 9.82991531e-02 1.13502949e-01 1.05742127e-01
      9.96389687e-02 9.58247408e-02 1.48627847e-01 1.53528094e-01
      1.62723094e-01 1.27117321e-01 9.74707454e-02 1.36719033e-01
      8.67430493e-02 6.31992668e-02 8.95333365e-02 3.70254159e-01
      2.29983866e-01 9.80220065e-02 1.04327753e-01 1.02958716e-01
      1.49484888e-01 1.31060123e-01 1.16048336e-01 1.07073814e-01
      2.28477493e-01 2.07733452e-01 1.50019810e-01 1.83459684e-01
      1.33910403e-01</_>
    <_>
      1.20099865e-01 9.09559056e-02 1.19477846e-01 1.06486343e-01
      1.46665931e-01 2.21246094e-01 1.34157524e-01 9.59546939e-02
      9.84531790e-02 9.75895524e-02 1.12946324e-01 1.24594770e-01
      9.83417183e-02 1.69352129e-01 3.24317366e-01 1.88833863e-01
      1.45830676e-01 9.18546841e-02 1.43710405e-01 1.19294748e-01
      1.46909833e-01 2.37892613e-01 4.32844400e-01 2.47202024e-01
      1.33252561e-01 1.40153483e-01 1.20429590e-01 1.56477928e-01
      9.45312977e-02 1.16032973e-01 1.73211008e-01 3.65222543e-01
      2.22170278e-01 1.25479892e-01 1.15542702e-01 1.12254120e-01
      1.79765180e-01 1.14624023e-01 9.90843847e-02 1.00945979e-01
      1.57063738e-01 1.59173891e-01 1.15868568e-01 1.21121936e-01
      1.12479128e-01 2.07760319e-01 1.40786484e-01 1.15444280e-01
      1.03873894e-01 1.74939707e-01 1.83688566e-01 1.21619381e-01
      1.09005198e-01 1.20866552e-01 2.26027876e-01 1.16485171e-01
      9.86604020e-02 1.02548890e-01 1.57152101e-01 2.55380332e-01
      1.75334707e-01 2.01411486e-01 2.16467634e-01 1.56965926e-01
      8.26421902e-02 9.13702399e-02 8.89259800e-02 1.27876773e-01
      1.38457745e-01 1.16907097e-01 1.47543654e-01 1.23292156e-01
      1.73922330e-01 1.88698307e-01 1.51155025e-01 1.46885201e-01
      1.97874337e-01 2.00526729e-01 1.75159231e-01 2.12522388e-01
      2.08766982e-01 1.56181127e-01 1.19234391e-01 8.53171349e-02
      8.26024935e-02 1.21419549e-01 1.65669352e-01 1.27880454e-01
      9.44706947e-02 1.07781693e-01 1.26052260e-01 1.60082966e-01
      1.52072966e-01 1.47205546e-01 2.21197158e-01 2.37033039e-01
      1.59405723e-01 1.13572180e-01 6.29658848e-02 1.13836586e-01
      1.03055552e-01 8.39980692e-02 1.23117588e-01 3.79544586e-01
      3.09164166e-01 1.20549634e-01 6.77260458e-02 6.83180094e-02
      1.30873337e-01 9.17858705e-02 1.33156776e-01 2.79061675e-01
      2.48361945e-01 1.28327698e-01 6.13566339e-02 4.85372208e-02
      7.41171911e-02 1.96542934e-01 9.19407904e-02 6.01059608e-02
      6.73157126e-02 1.16910227e-01 1.86182901e-01 1.37257084e-01
      1.22045904e-01 1.71334267e-01 2.01201901e-01 9.08393264e-02
      7.62080401e-02 9.54794064e-02 1.30931199e-01 1.39181271e-01
      9.87104401e-02 1.14993528e-01 1.42874569e-01 2.83788323e-01
      1.94812864e-01 2.20285133e-01 1.75682709e-01 1.96943715e-01
      1.42607242e-01 1.17550351e-01 2.03713715e-01 2.55451381e-01
      2.63642728e-01 1.41148970e-01 1.72733337e-01 1.39980182e-01
      1.73975363e-01 2.31298044e-01 2.43298635e-01 3.19083899e-01
      3.36305439e-01 2.16066226e-01 1.50269330e-01 1.23780996e-01
      9.37570632e-02 1.36568114e-01 1.94267035e-01 1.73462659e-01
      1.30255297e-01 1.45352349e-01 1.78099781e-01 1.31688833e-01
      8.02898780e-02 7.48060495e-02 1.38323411e-01 1.64302483e-01
      1.05797909e-01 7.69201517e-02 9.03420448e-02 6.86077997e-02
      7.87306502e-02 7.88319632e-02 8.60969350e-02 1.18645772e-01
      8.87876824e-02 5.62002957e-02 4.38093618e-02 3.68865728e-02
      3.96978229e-01 8.33916217e-02 4.48234454e-02 6.61620423e-02
      3.02261859e-01 2.76694775e-01 5.50622642e-02 4.21001464e-02
      8.78525898e-02 2.47619033e-01 1.38047025e-01 1.12164691e-01
      1.23487234e-01 1.57199368e-01 2.08558902e-01 1.46172062e-01
      1.10518940e-01 1.28916994e-01 1.49360344e-01 1.10835686e-01
      1.64689675e-01 1.38167515e-01 1.14296608e-01 1.00047678e-01
      1.18700273e-01 1.45707443e-01 1.57199532e-01 1.70100302e-01
      7.00986534e-02 6.05874322e-02 5.28832190e-02 7.79308379e-02
      1.27632245e-01 1.98146135e-01 2.67466038e-01 2.11850926e-01
      2.14167506e-01 1.45361573e-01 1.14413843e-01 8.89446661e-02
      1.06651574e-01 1.74643248e-01 1.70894966e-01 1.28808007e-01
      1.35457173e-01 2.28604987e-01 1.46835238e-01 9.26725119e-02
      8.46630111e-02 1.87192857e-01 1.83028921e-01 7.81209171e-02
      7.90438950e-02 1.35705277e-01 1.44854218e-01 9.73198786e-02
      1.48392677e-01 1.87226012e-01 1.33563802e-01 7.07379356e-02
      4.97090444e-02 6.15977868e-02 8.62460434e-02 2.45607764e-01
      1.39451742e-01 1.19535640e-01 1.66552573e-01 1.63837433e-01
      1.59465089e-01 1.10618964e-01 8.87390450e-02 1.18761629e-01
      2.36214325e-01 1.41435757e-01 1.13405786e-01 1.19578011e-01
      1.98992431e-01 2.22358763e-01 1.85941324e-01 1.89403549e-01
      1.90178484e-01 8.48442689e-02 8.71303305e-02 1.63046896e-01
      1.42703101e-01 9.98975635e-02 7.11351708e-02 7.10801333e-02
      8.60733315e-02 6.73190132e-02 2.01846629e-01 9.67447460e-02
      8.32447186e-02 9.81742665e-02 1.16095670e-01 1.43197134e-01
      1.87679827e-01 2.24491715e-01 2.52093405e-01 3.11243474e-01
      1.51164815e-01 1.17252402e-01 1.35296002e-01 2.64630914e-01
      2.73122370e-01 1.99612647e-01 2.23530009e-01 3.96755457e-01
      2.25101486e-01 1.39904827e-01 1.21498637e-01 1.14106812e-01
      1.97945580e-01 2.06827328e-01 1.42455846e-01 1.47913724e-01
      1.60801768e-01 1.00759566e-01 6.42441735e-02 3.51354703e-02
      3.37153040e-02 7.00987801e-02 9.33613926e-02 6.75169975e-02
      4.86000702e-02 4.80005331e-02 1.31735429e-01 1.20222203e-01
      2.03587949e-01 2.36572817e-01 1.20819099e-01 1.39138445e-01
      8.54634866e-02 6.54194281e-02 8.99888575e-02 2.05323488e-01
      1.28584877e-01 8.89156014e-02 9.20063257e-02 1.71467453e-01
      2.30779991e-01 1.61464259e-01 1.50878057e-01 1.85357213e-01
      1.64338753e-01 1.64579630e-01 2.29097471e-01 1.58405080e-01
      1.50920808e-01 1.49204656e-01 1.50896415e-01 1.36883214e-01
      1.08604223e-01 1.22547850e-01 5.88802062e-02 8.66235048e-02
      1.15331762e-01 1.80398241e-01 2.91258961e-01 2.78802484e-01
      2.34566167e-01 1.96140647e-01 2.08595395e-01 9.57193598e-02
      9.12106037e-02 1.29618272e-01 2.85348356e-01 2.77664453e-01
      1.90966800e-01 1.76496089e-01 2.10316285e-01 1.62699237e-01
      6.64450899e-02 7.26856589e-02 1.05985783e-01 1.67364314e-01
      1.50354728e-01 7.45193139e-02 1.00960016e-01 1.58454552e-01
      1.29697725e-01 1.16757534e-01 5.17774597e-02 4.88576330e-02
      1.14209592e-01 1.44598842e-01 3.96413542e-02 4.22929004e-02
      5.43605424e-02 2.31869474e-01 2.03384861e-01 1.45036355e-01
