<?xml version="1.0"?>
<opencv_storage>
<opencv_ml_svm>
  <format>3</format>
  <svmType>C_SVC</svmType>
  <kernel>
    <type>POLY</type>
    <degree>1.</degree>
    <gamma>6.</gamma>
    <coef0>0.</coef0></kernel>
  <C>1.0000000000000001e-01</C>
  <term_criteria><iterations>10000</iterations></term_criteria>
  <var_count>513</var_count>
  <class_count>2</class_count>
  <class_labels type_id="opencv-matrix">
    <rows>2</rows>
    <cols>1</cols>
    <dt>i</dt>
    <data>
      -1 1</data></class_labels>
  <sv_total>117</sv_total>
  <support_vectors>
    <_>
      4.33416031e-02 2.87896004e-02 6.66221008e-02 1.16027653e-01
      2.54637510e-01 3.46106857e-01 1.80093944e-01 7.20022321e-02
      3.84426750e-02 1.20617233e-01 9.46654379e-02 1.49183810e-01
      2.29766369e-01 2.72708505e-01 2.59241134e-01 2.01959625e-01
      1.54142350e-01 1.54134840e-01 1.45733312e-01 1.88798711e-01
      1.27153203e-01 1.02523282e-01 1.36128619e-01 1.93499014e-01
      1.63463175e-01 1.28640801e-01 1.26637295e-01 1.92718029e-01
      1.69944838e-01 1.11260265e-01 9.58203003e-02 1.23805873e-01
      1.19514987e-01 1.24717958e-01 1.20190285e-01 1.47066444e-01
      1.65738136e-01 1.31435335e-01 1.23595469e-01 1.25658810e-01
      1.13466337e-01 1.03503264e-01 1.03183739e-01 1.31035924e-01
      1.39353201e-01 1.64284334e-01 1.53879032e-01 2.03788325e-01
      2.37391695e-01 2.38612369e-01 2.02849925e-01 1.92523345e-01
      1.61917269e-01 1.54272556e-01 1.60544604e-01 1.46948799e-01
      1.49903879e-01 1.67071745e-01 2.02972457e-01 1.52345836e-01
      1.69081435e-01 1.78990230e-01 1.70790076e-01 2.03193903e-01
      1.87044218e-01 2.11612746e-01 1.79653853e-01 1.89692363e-01
      1.54906049e-01 1.14897057e-01 1.13726683e-01 1.29761830e-01
      1.00404680e-01 1.22077003e-01 1.40597641e-01 1.36795774e-01
      1.61627561e-01 1.78948626e-01 1.78103969e-01 1.40025258e-01
      9.17991176e-02 4.15845126e-01 3.34611058e-01 2.13390082e-01
      1.68291613e-01 1.50317356e-01 1.29253164e-01 1.42919987e-01
      2.64749825e-01 3.36522073e-01 2.23184660e-01 1.66976139e-01
      1.14046067e-01 1.14059433e-01 9.23338160e-02 9.80544761e-02
      8.98461863e-02 1.32300571e-01 1.87890783e-01 1.66723445e-01
      1.29241556e-01 9.97183472e-02 1.25693157e-01 1.46083608e-01
      1.59605101e-01 1.85880259e-01 2.10240066e-01 2.06834480e-01
      1.27768442e-01 1.35867640e-01 1.34346724e-01 1.44901127e-01
      1.36131957e-01 1.29354715e-01 1.23965256e-01 1.35052338e-01
      1.41089395e-01 1.65395319e-01 1.63018182e-01 1.81739077e-01
      1.80917829e-01 1.72373682e-01 1.43887103e-01 1.13372393e-01
      1.12549357e-01 1.47601321e-01 2.04625890e-01 1.50137514e-01
      1.64593518e-01 1.38674214e-01 1.08485289e-01 1.22581184e-01
      1.29490912e-01 1.26663983e-01 1.27647460e-01 1.59663916e-01
      9.09536108e-02 1.19217128e-01 1.61291122e-01 2.75728941e-01
      3.43203366e-01 2.78571039e-01 1.17470331e-01 1.12655379e-01
      1.39631465e-01 2.00647712e-01 2.46391803e-01 1.93321094e-01
      1.89432025e-01 1.51981384e-01 1.46516368e-01 1.57677889e-01
      1.43560424e-01 1.66887134e-01 2.56979197e-01 2.83228278e-01
      2.36398742e-01 1.27158493e-01 6.75685480e-02 5.12214303e-02
      7.12463558e-02 1.03946105e-01 1.01389274e-01 1.98450968e-01
      1.91005439e-01 1.32801384e-01 1.35161921e-01 1.60159767e-01
      1.31117448e-01 1.24755286e-01 1.16929963e-01 1.37682945e-01
      8.02233741e-02 6.89820126e-02 5.53873628e-02 5.41818142e-02
      5.57231978e-02 6.82860240e-02 9.57873613e-02 1.28683090e-01
      1.20591477e-01 1.26823857e-01 1.26276255e-01 1.18889675e-01
      9.41300392e-02 8.21990892e-02 8.18841979e-02 1.04514092e-01
      1.14157952e-01 1.09166533e-01 1.00374974e-01 1.12737067e-01
      1.19277254e-01 1.07637316e-01 9.69996527e-02 9.35170650e-02
      7.42139071e-02 8.03430900e-02 7.99638852e-02 1.10017382e-01
      9.20330659e-02 1.31609038e-01 2.40796432e-01 3.09184790e-01
      3.22845936e-01 1.64677516e-01 7.59648755e-02 1.21254779e-01
      9.94922668e-02 1.04231574e-01 1.21316530e-01 1.76091045e-01
      2.55531609e-01 2.45488688e-01 2.22036541e-01 1.74778789e-01
      1.49687603e-01 1.16030656e-01 1.26815066e-01 1.18030377e-01
      9.92394388e-02 1.11475088e-01 1.81529820e-01 2.00976938e-01
      1.98099464e-01 1.11521289e-01 1.21585488e-01 1.03361174e-01
      9.80959162e-02 1.16495453e-01 1.58250779e-01 1.30506948e-01
      1.35384068e-01 1.43358126e-01 3.89192313e-01 3.58041644e-01
      1.86829612e-01 1.38445422e-01 1.01530299e-01 6.12175837e-02
      7.43047297e-02 1.13681935e-01 2.17924684e-01 4.44040865e-01
      3.92594218e-01 2.27197468e-01 1.44903287e-01 1.03895426e-01
      1.15811467e-01 1.37258142e-01 1.93492696e-01 2.51072139e-01
      8.73069912e-02 9.44126546e-02 1.20108724e-01 1.01683177e-01
      8.26103464e-02 9.17657390e-02 9.53304842e-02 8.21924061e-02
      6.17923774e-02 1.00936688e-01 7.23712221e-02 9.13374349e-02
      1.27545148e-01 2.85590529e-01 2.82737821e-01 1.93320647e-01
      2.50053734e-01 1.67219386e-01 8.84993449e-02 6.21352345e-02
      6.53599501e-02 8.87311697e-02 1.56319395e-01 3.17620486e-01
      2.93514550e-01 1.83207601e-01 1.30260915e-01 2.46337205e-01
      2.47669071e-01 1.60601497e-01 6.49506003e-02 5.55384345e-02
      6.65661022e-02 8.47947150e-02 1.24052316e-01 1.51154518e-01
      1.48114055e-01 2.18943164e-01 1.97195515e-01 1.83985069e-01
      2.61670053e-01 2.55938947e-01 1.81941718e-01 9.01486278e-02
      1.02400988e-01 1.74269408e-01 1.81541428e-01 1.57807127e-01
      1.55572653e-01 1.85789555e-01 1.68657601e-01 1.53786123e-01
      1.48334041e-01 1.34283751e-01 2.31137440e-01 2.86760420e-01
      2.01451600e-01 1.68758869e-01 1.95991799e-01 2.08313450e-01
      1.57928288e-01 1.61213785e-01 1.59158945e-01 1.08694337e-01
      1.02097102e-01 1.09384619e-01 1.05265260e-01 9.20070335e-02
      9.97057632e-02 9.72935930e-02 9.54068825e-02 8.79166499e-02
      1.00941792e-01 8.74897167e-02 9.39345732e-02 8.05101916e-02
      2.05357358e-01 3.02414209e-01 2.60305226e-01 2.30357558e-01
      1.61945164e-01 1.09856784e-01 8.47579390e-02 7.96524063e-02
      1.04901224e-01 2.24367797e-01 2.46911556e-01 2.04138160e-01
      1.81797370e-01 1.41460806e-01 2.18958780e-01 2.70025134e-01
      2.04202935e-01 7.69439563e-02 5.26503474e-02 4.44631018e-02
      7.25494996e-02 1.23608440e-01 1.91757530e-01 2.04232678e-01
      1.96566179e-01 1.34045780e-01 6.61566705e-02 4.92192283e-02
      8.78165886e-02 1.67558670e-01 2.09401801e-01 2.08429784e-01
      1.06665462e-01 1.44539118e-01 1.98391378e-01 1.03372954e-01
      7.10954294e-02 9.35845375e-02 1.44226655e-01 1.72385976e-01
      1.22575589e-01 2.42894292e-01 1.80685699e-01 1.74633458e-01
      1.29280895e-01 8.93803015e-02 8.48086774e-02 1.13062128e-01
      2.11694092e-01 3.39843482e-01 1.71151042e-01 1.38793617e-01
      9.60154012e-02 8.12062919e-02 9.97837111e-02 1.02608211e-01
      1.24882601e-01 1.20973259e-01 1.51113108e-01 1.88124374e-01
      1.27479404e-01 1.18757620e-01 1.55288830e-01 2.60775506e-01
      2.84663558e-01 2.77101129e-01 1.70622155e-01 1.69722736e-01
      6.02729358e-02 5.20298667e-02 7.76035264e-02 1.20440021e-01
      2.43590042e-01 2.48911709e-01 2.39605427e-01 1.84192032e-01
      7.89018646e-02 1.34451389e-01 9.86908227e-02 7.77321830e-02
      6.30619079e-02 9.82837901e-02 1.67442650e-01 2.95757979e-01
      3.22014451e-01 2.26623788e-01 1.56328797e-01 7.43316710e-02
      5.02845608e-02 5.10561429e-02 9.53866392e-02 2.13725284e-01
      3.61953020e-01 2.44053647e-01 1.95972458e-01 6.38678744e-02
      3.94358598e-02 4.03351411e-02 4.36530039e-02 6.50693923e-02
      1.40786618e-01 2.94832170e-01 2.88877964e-01 1.34536505e-01
      3.03872168e-01 1.51349649e-01 1.17617711e-01 9.83103141e-02
      1.01639956e-01 1.07585616e-01 1.03873603e-01 1.48300231e-01
      3.52094024e-01 2.07422718e-01 1.71676397e-01 1.19305044e-01
      1.12644546e-01 1.05201788e-01 7.84841180e-02 7.69916624e-02
      8.48556831e-02 1.15839928e-01 1.36395395e-01 1.05953448e-01
      1.02667712e-01 1.31338403e-01 1.68786719e-01 1.80000708e-01
      1.86038703e-01 2.05703720e-01 1.84143648e-01 1.54155627e-01
      1.47954151e-01 1.67887777e-01 1.69366896e-01 2.01416492e-01
      2.51501262e-01 3.35957974e-01 2.52911568e-01 1.94658980e-01
      2.31659904e-01 1.63356036e-01 1.01854652e-01 8.40299129e-02
      8.06302205e-02 7.99925178e-02 1.05569474e-01 1.46070629e-01
      2.04342738e-01 1.92626163e-01 1.56508237e-01 1.19385183e-01
      7.88231045e-02 7.16300160e-02 6.90423399e-02 1.01506181e-01
      1.61511555e-01 1.96178362e-01 1.59946367e-01 9.89854187e-02
      9.17901769e-02 9.00974497e-02 1.17219955e-01 1.27249584e-01
      1.20254718e-01 1.37060195e-01 1.37555242e-01 4.56018984e-01
      1.52938381e-01 7.98562393e-02 7.59689063e-02 8.12589377e-02
      7.03500062e-02 6.90541565e-02 8.65020007e-02 3.11103880e-01
      2.26509854e-01 1.52375892e-01 1.40907094e-01 1.25849143e-01
      1.06463753e-01 1.03032783e-01 1.06284991e-01 1.09606333e-01
      1.40873775e-01</_>
    <_>
      2.04281449e-01 5.59213348e-02 1.44578978e-01 1.14267893e-01
      2.00266480e-01 2.94421017e-01 1.73336715e-01 1.40283778e-01
      7.04470649e-02 1.09374180e-01 4.37184498e-02 8.35992172e-02
      8.95598531e-02 2.38101810e-01 2.90621489e-01 1.21088527e-01
      1.19079314e-01 6.92749619e-02 1.62666649e-01 7.66820535e-02
      9.54265073e-02 1.29513666e-01 2.08163634e-01 1.86753109e-01
      9.86575037e-02 1.05316065e-01 9.55653936e-02 7.58514702e-02
      3.50926965e-02 5.03514074e-02 5.79416119e-02 1.25633597e-01
      1.27185255e-01 5.47158942e-02 3.72831449e-02 4.53798175e-02
      3.86733934e-02 3.35064195e-02 4.90977615e-02 4.94030230e-02
      5.85816577e-02 6.03567362e-02 3.46721485e-02 3.49923633e-02
      1.83762480e-02 7.86227286e-02 4.41692770e-02 4.58446965e-02
      3.41097079e-02 4.37652245e-02 4.27213497e-02 3.08788959e-02
      3.66238765e-02 8.15022960e-02 5.38601838e-02 5.74974157e-02
      7.92769045e-02 6.79662153e-02 9.36762765e-02 1.31626129e-01
      6.55118823e-02 4.58081923e-02 4.32727970e-02 8.39723647e-02
      5.50041758e-02 6.19314648e-02 6.33078367e-02 8.55167434e-02
      7.88143277e-02 6.79119229e-02 4.62000594e-02 4.17135321e-02
      6.22052811e-02 5.77891655e-02 7.32153282e-02 9.38224867e-02
      1.26762196e-01 1.19615167e-01 8.57705325e-02 8.74023438e-02
      4.32128049e-02 1.20542608e-01 5.29837348e-02 5.23727722e-02
      5.31578586e-02 8.47258344e-02 8.64390582e-02 6.26410320e-02
      6.82525560e-02 6.54259548e-02 1.07034519e-01 1.76175818e-01
      2.05496043e-01 1.48263231e-01 1.00711972e-01 8.26723576e-02
      5.43860085e-02 4.87152822e-02 5.67431264e-02 6.45668730e-02
      9.46094021e-02 1.87677860e-01 1.95671201e-01 2.11921155e-01
      1.43022835e-01 6.15806468e-02 6.72972202e-02 1.16580650e-01
      2.20009252e-01 2.32684121e-01 2.22350523e-01 1.77931890e-01
      2.48401389e-01 2.31173575e-01 1.40752643e-01 1.35282844e-01
      1.47902831e-01 1.21081427e-01 7.98807293e-02 1.53244197e-01
      1.53739169e-01 3.38130087e-01 4.92603928e-01 4.01092201e-01
      2.38326639e-01 1.80004120e-01 6.88397363e-02 5.56320064e-02
      5.56568764e-02 4.69914414e-02 6.14386350e-02 9.44038779e-02
      5.48671708e-02 3.67458537e-02 3.35565098e-02 5.14091253e-02
      2.49774586e-02 4.49378900e-02 4.49643470e-02 7.12199807e-02
      6.91467673e-02 4.51423638e-02 5.32251373e-02 3.78882363e-02
      3.61947268e-02 8.18116814e-02 2.38070816e-01 2.17912167e-01
      2.02496246e-01 1.21698394e-01 6.54607639e-02 2.52819192e-02
      2.44392920e-02 2.67802060e-01 5.46591580e-01 2.96676725e-01
      1.90738827e-01 1.37758628e-01 1.05559781e-01 6.97259605e-02
      7.65972808e-02 1.03724889e-01 9.99738798e-02 7.10185617e-02
      5.22332489e-02 3.45636569e-02 3.96846309e-02 7.57363886e-02
      9.63563994e-02 9.42583382e-02 6.39134645e-02 1.72633052e-01
      1.36584178e-01 7.05802068e-02 4.74546961e-02 5.35555519e-02
      1.18386649e-01 1.73826024e-01 1.72601238e-01 1.98345840e-01
      1.61592245e-01 1.64963558e-01 1.35403901e-01 1.71248570e-01
      2.29707628e-01 1.63390845e-01 8.57362151e-02 5.46198487e-02
      4.74928245e-02 5.73126562e-02 4.29030135e-02 6.33499846e-02
      4.40007299e-02 5.43919802e-02 5.61427027e-02 6.85870126e-02
      7.17538074e-02 3.27814072e-02 3.46088894e-02 1.95130818e-02
      3.78603898e-02 4.73835804e-02 5.99077009e-02 6.08943626e-02
      6.64597154e-02 4.76643331e-02 2.59929672e-02 1.01355851e-01
      9.62742120e-02 1.27050176e-01 2.57068425e-01 4.10345852e-01
      2.12538436e-01 1.35559157e-01 1.33461371e-01 1.31045386e-01
      1.41072780e-01 1.05018713e-01 8.93295780e-02 9.93020087e-02
      1.36487365e-01 2.51809895e-01 1.86741307e-01 1.40693784e-01
      1.38343975e-01 7.82556385e-02 5.26777282e-02 7.13056996e-02
      8.00458565e-02 5.92000075e-02 6.08508140e-02 8.74871835e-02
      7.81874284e-02 7.77217895e-02 1.88496873e-01 1.66890368e-01
      1.51427507e-01 1.79315016e-01 1.52792603e-01 7.89636523e-02
      4.36240993e-02 6.40090629e-02 1.05311610e-01 7.10070193e-01
      4.53058839e-01 2.02302963e-01 1.27564132e-01 1.58950165e-01
      8.99241865e-02 6.46588281e-02 6.91238418e-02 1.97490185e-01
      5.56250922e-02 3.26192752e-02 4.69635278e-02 5.82148358e-02
      7.66029283e-02 7.30621517e-02 4.01472561e-02 2.29989477e-02
      2.01831479e-02 5.02857976e-02 2.54068729e-02 3.52072977e-02
      4.18687426e-02 7.41016343e-02 7.39619955e-02 5.29759824e-02
      6.00633472e-02 3.50261666e-02 1.40262261e-01 1.69438049e-01
      1.24455914e-01 3.46366048e-01 6.03434801e-01 2.49297559e-01
      6.61967397e-02 7.87721276e-02 1.45185679e-01 1.77561641e-01
      1.42399564e-01 1.04908831e-01 1.11475609e-01 1.34885117e-01
      1.67480886e-01 1.68891773e-01 1.76068738e-01 1.47584185e-01
      1.71747044e-01 1.69108778e-01 1.21910058e-01 1.28068924e-01
      1.34856865e-01 1.02223322e-01 5.03503941e-02 4.99375090e-02
      8.59975666e-02 2.17534497e-01 2.48085648e-01 2.01790735e-01
      2.00026169e-01 1.71359926e-01 1.27626762e-01 6.50058240e-02
      8.89486969e-02 1.27031103e-01 2.95325108e-02 3.02645694e-02
      6.18766285e-02 1.55314699e-01 2.55734086e-01 2.39564672e-01
      8.51559117e-02 4.67924587e-02 2.48971824e-02 7.35674649e-02
      2.43846606e-02 3.88311110e-02 5.77627346e-02 5.79436161e-02
      5.67941330e-02 4.39836718e-02 3.86815295e-02 3.00474819e-02
      5.63115813e-02 3.68615761e-02 9.27669108e-02 1.79733664e-01
      5.92334688e-01 3.47019374e-01 8.02056268e-02 5.04211374e-02
      2.60562804e-02 2.24763647e-01 1.35327369e-01 1.12254903e-01
      1.22224815e-01 1.41183883e-01 1.08115040e-01 9.13612768e-02
      1.07427709e-01 1.46628514e-01 1.64310634e-01 1.02098741e-01
      9.25765187e-02 7.32775629e-02 6.32369965e-02 9.05508175e-02
      1.43245205e-01 9.08462331e-02 1.75386816e-01 1.81374907e-01
      1.47603840e-01 1.14361405e-01 8.21432620e-02 6.43087998e-02
      6.18600696e-02 6.66497648e-02 8.37736502e-02 1.49029031e-01
      2.39372969e-01 1.93450794e-01 1.42120957e-01 1.06863916e-01
      1.37190849e-01 1.38816968e-01 7.41604120e-02 7.68748969e-02
      1.52634680e-01 2.12072328e-01 4.50537592e-01 3.73133719e-01
      2.46223882e-01 1.97482839e-01 1.60855189e-01 9.51140746e-02
      6.24325909e-02 4.55778874e-02 7.91709051e-02 4.87358645e-02
      3.75273488e-02 3.75506394e-02 6.52668178e-02 4.88562100e-02
      2.81657279e-02 2.11261604e-02 1.95927713e-02 1.40847296e-01
      4.68688644e-02 5.75111806e-02 5.13364114e-02 1.18712299e-01
      2.78840870e-01 3.20366383e-01 1.50917873e-01 7.94393197e-02
      2.39275455e-01 2.12657705e-01 1.21744081e-01 1.01103462e-01
      1.17686585e-01 1.19056374e-01 1.20680094e-01 9.35079381e-02
      1.46029592e-01 2.94064432e-01 2.69868076e-01 2.73738295e-01
      1.38375983e-01 7.93884993e-02 9.85717252e-02 1.22686043e-01
      2.25914821e-01 3.97620678e-01 1.95388675e-01 2.69713551e-01
      2.52806336e-01 1.08550198e-01 7.39911497e-02 5.14646135e-02
      3.96898352e-02 7.52396509e-02 9.76093635e-02 2.14043021e-01
      3.84006083e-01 2.62142628e-01 2.16702059e-01 1.20877281e-01
      8.82687643e-02 3.54874395e-02 5.17674014e-02 1.35589242e-01
      6.14798725e-01 3.75502139e-01 1.78630799e-01 1.77004278e-01
      2.66322434e-01 1.31899327e-01 8.90523791e-02 1.14203379e-01
      1.08155176e-01 1.43440306e-01 6.44975007e-02 3.79013233e-02
      4.55587953e-02 5.36194965e-02 5.22737168e-02 5.60377054e-02
      5.18265404e-02 5.55800237e-02 1.36288032e-01 6.16466701e-02
      8.26675296e-02 7.68716410e-02 1.35690019e-01 1.36140972e-01
      7.47882277e-02 8.33060294e-02 6.84485063e-02 4.51135300e-02
      2.96576768e-02 6.31302968e-02 7.77922347e-02 1.15338348e-01
      1.05882332e-01 4.70507815e-02 4.71899398e-02 2.53552198e-02
      4.77499254e-02 2.94374675e-02 6.00762106e-02 6.89413771e-02
      9.55445096e-02 8.94828439e-02 5.84361665e-02 6.56051710e-02
      4.03665602e-02 6.36609793e-02 5.00410274e-02 4.56182435e-02
      6.05544001e-02 1.01379819e-01 7.98979923e-02 4.70000505e-02
      3.43591087e-02 3.89364474e-02 1.37597278e-01 7.15105906e-02
      5.41692674e-02 7.58584812e-02 2.22841948e-01 2.21591830e-01
      9.48241055e-02 6.37561083e-02 8.63733888e-02 2.95826029e-02
      3.79329324e-02 4.27670665e-02 7.07248151e-02 3.66565347e-01
      2.21194878e-01 7.20379800e-02 2.92872954e-02 1.69423595e-02
      9.29734334e-02 2.78791133e-02 2.89882682e-02 6.11986928e-02
      1.31288096e-01 1.15769885e-01 7.59228542e-02 5.02708629e-02
      4.79735658e-02</_>
    <_>
      7.11357445e-02 6.44776896e-02 9.77769345e-02 1.73188806e-01
      2.59917259e-01 4.10256386e-01 1.65508807e-01 9.63512287e-02
      6.76629767e-02 4.79934514e-02 8.34586099e-02 1.32901341e-01
      1.51804969e-01 3.19112003e-01 4.57784325e-01 2.47937083e-01
      8.89458507e-02 4.64200415e-02 1.10469848e-01 1.17418341e-01
      1.66387036e-01 1.89449489e-01 2.03106418e-01 2.03628972e-01
      1.28886461e-01 1.03787646e-01 8.66762623e-02 9.50401872e-02
      6.40576705e-02 7.34204724e-02 1.21740498e-01 2.33152553e-01
      2.32639357e-01 1.41254261e-01 8.89611468e-02 8.85173976e-02
      1.25254184e-01 9.86866131e-02 1.14968106e-01 1.58412099e-01
      3.46876979e-01 3.84317875e-01 2.36927152e-01 1.68015644e-01
      1.35842636e-01 6.95598498e-02 7.62052089e-02 1.17449582e-01
      1.93119407e-01 3.02509397e-01 2.61383265e-01 1.86337397e-01
      8.32463950e-02 6.93386197e-02 6.03274591e-02 6.32323697e-02
      1.13647059e-01 2.12163046e-01 3.27700347e-01 3.14202100e-01
      2.04328388e-01 1.00130849e-01 7.17875361e-02 6.41728491e-02
      6.10084087e-02 1.03258446e-01 1.58860505e-01 2.49701366e-01
      2.39781141e-01 1.24816768e-01 8.38133767e-02 6.03230372e-02
      4.37503383e-02 5.64377941e-02 1.22246824e-01 1.76366448e-01
      3.46466750e-01 5.73239863e-01 2.51295507e-01 3.82410847e-02
      3.21048163e-02 6.27215505e-02 1.10453613e-01 2.16277570e-01
      1.17496222e-01 1.12351574e-01 9.92362276e-02 5.33223413e-02
      4.84001450e-02 4.48207371e-02 7.22159669e-02 5.57333156e-02
      8.08540359e-02 2.13689059e-01 3.98371845e-01 4.39803630e-01
      2.50396252e-01 1.33451462e-01 7.51002505e-02 6.10117018e-02
      7.32109100e-02 1.31929576e-01 2.23195121e-01 1.60654575e-01
      6.69194832e-02 5.08533120e-02 5.08359075e-02 3.88510488e-02
      4.68502678e-02 5.75473048e-02 1.12628132e-01 1.65470883e-01
      2.45683193e-01 2.54287958e-01 1.95408911e-01 1.25735730e-01
      6.70888498e-02 7.42152184e-02 7.38125294e-02 1.01017654e-01
      2.15410784e-01 3.19889188e-01 3.04787844e-01 1.68549821e-01
      1.10862985e-01 8.61233249e-02 5.88451736e-02 4.39118892e-02
      6.56859130e-02 1.17752559e-01 1.99386224e-01 3.09803575e-01
      1.99326262e-01 9.14617851e-02 5.08634634e-02 3.04470323e-02
      3.61007601e-02 5.42193577e-02 8.26151371e-02 1.67021692e-01
      1.93613201e-01 9.68842506e-02 4.67919521e-02 3.17933150e-02
      5.25844321e-02 7.37369433e-02 1.22023866e-01 2.26884797e-01
      3.18592787e-01 2.39224985e-01 9.85687226e-02 5.56491762e-02
      3.71895246e-02 6.38789833e-02 7.14249462e-02 1.03926435e-01
      3.28386545e-01 5.97223222e-01 2.29629859e-01 1.18985027e-01
      6.24398217e-02 5.26801907e-02 7.70331025e-02 9.78998691e-02
      1.78654671e-01 2.55881995e-01 2.36812457e-01 1.33882508e-01
      8.23704079e-02 6.49224967e-02 4.72928397e-02 5.64781204e-02
      4.40755486e-02 7.21933842e-02 1.25988156e-01 1.63693145e-01
      1.84509441e-01 1.39741287e-01 9.67426747e-02 7.48586580e-02
      4.94833551e-02 4.96085808e-02 6.40000030e-02 1.29913926e-01
      2.20511585e-01 2.52173692e-01 1.80933550e-01 8.59059244e-02
      5.72958328e-02 6.26110956e-02 5.05078249e-02 6.30757362e-02
      1.33439168e-01 2.49984726e-01 2.59244710e-01 1.31328061e-01
      7.41729140e-02 4.46126647e-02 5.03824838e-02 5.65375760e-02
      8.12216774e-02 1.89176157e-01 3.72871041e-01 4.52254325e-01
      1.77259773e-01 6.81368336e-02 4.74983193e-02 9.48393717e-02
      8.23449045e-02 1.72733530e-01 3.22746456e-01 3.87314290e-01
      2.43318886e-01 1.06930025e-01 9.10874009e-02 9.12894011e-02
      1.02118991e-01 1.01619005e-01 1.18507572e-01 1.72988087e-01
      2.59238869e-01 2.80824900e-01 2.23503858e-01 1.49151862e-01
      1.11065574e-01 1.41382232e-01 2.16236159e-01 2.43671685e-01
      2.34244466e-01 1.69343874e-01 1.22492217e-01 9.43525285e-02
      8.81286711e-02 9.19657946e-02 5.98252490e-02 6.48762286e-02
      5.76560721e-02 6.40784353e-02 1.03364311e-01 1.04211636e-01
      7.98345655e-02 5.15100770e-02 4.51942161e-02 2.85353750e-01
      1.77900448e-01 8.37141052e-02 9.25980210e-02 1.11728042e-01
      1.56009570e-01 1.27880573e-01 1.39164314e-01 2.30070397e-01
      2.13013798e-01 1.62929043e-01 1.03399172e-01 1.43163770e-01
      1.57354057e-01 1.70157403e-01 1.82567224e-01 1.89355433e-01
      2.10101962e-01 5.81688359e-02 5.33543304e-02 7.48208910e-02
      1.54233679e-01 3.58387202e-01 4.03427780e-01 2.65159667e-01
      1.21540181e-01 6.50980324e-02 1.68005258e-01 1.36976868e-01
      1.19824030e-01 1.57720193e-01 2.28387073e-01 3.58226836e-01
      3.69638681e-01 1.78211525e-01 1.41283214e-01 1.68502748e-01
      1.61258832e-01 1.71897307e-01 1.41166329e-01 2.21965000e-01
      2.47379303e-01 2.21600354e-01 2.31082827e-01 1.50055423e-01
      1.23482063e-01 1.06751978e-01 1.01430722e-01 1.22861132e-01
      1.30892619e-01 1.31678879e-01 1.47668853e-01 1.29019499e-01
      1.14157043e-01 1.11098163e-01 1.27059862e-01 1.18863456e-01
      1.64860651e-01 1.86536238e-01 1.03830107e-01 7.40015432e-02
      5.74614778e-02 6.93935305e-02 2.61516243e-01 2.12311715e-01
      1.29217088e-01 9.11622867e-02 1.36091903e-01 1.50374219e-01
      1.45292699e-01 1.65847316e-01 2.63959914e-01 1.32585377e-01
      7.82838091e-02 7.78827518e-02 1.62987992e-01 2.44002312e-01
      2.62441546e-01 2.09334970e-01 1.42937869e-01 1.41190201e-01
      4.47295159e-02 4.30938005e-02 7.48642609e-02 1.52680963e-01
      3.33038986e-01 3.98200840e-01 1.81634173e-01 9.37920436e-02
      6.26081154e-02 1.01294316e-01 5.66290207e-02 8.33969191e-02
      1.13718413e-01 2.75423169e-01 5.15029907e-01 3.71732801e-01
      1.58437803e-01 1.27124697e-01 8.18163380e-02 4.13055941e-02
      5.50295748e-02 7.87143707e-02 1.48155436e-01 2.43103430e-01
      2.38037735e-01 1.70562431e-01 9.77327600e-02 5.63034825e-02
      4.26472686e-02 4.01125662e-02 4.10658233e-02 5.79016991e-02
      1.26551211e-01 1.62968159e-01 1.20760553e-01 7.55733252e-02
      3.76985148e-02 3.27645801e-02 5.43094799e-02 1.13451824e-01
      2.17219606e-01 2.30105519e-01 1.58012331e-01 8.25974047e-02
      4.51474674e-02 6.73026070e-02 6.80885017e-02 9.30841863e-02
      1.38598487e-01 2.44110048e-01 2.40268826e-01 2.08641350e-01
      1.30797535e-01 7.88896829e-02 1.12972379e-01 6.47802651e-02
      7.55468160e-02 1.08095422e-01 2.34128550e-01 3.40932041e-01
      3.13733846e-01 1.72616601e-01 1.09137468e-01 3.20276022e-02
      9.56995413e-03 1.82120837e-02 2.48236433e-02 8.24731067e-02
      2.01187134e-01 2.05870569e-01 7.28383586e-02 3.92609872e-02
      3.93112861e-02 1.62031353e-02 3.66348587e-02 4.24318872e-02
      6.43448532e-02 7.86752999e-02 7.19309747e-02 5.81228845e-02
      2.07513645e-02 4.66287807e-02 2.92901117e-02 5.14750704e-02
      4.30815518e-02 4.21059765e-02 6.48178533e-02 6.14162497e-02
      4.91067767e-02 2.25207172e-02 1.15046971e-01 1.17428973e-01
      1.70181736e-01 1.64832443e-01 1.16168842e-01 7.91894272e-02
      6.87757432e-02 5.66104129e-02 5.96312247e-02 3.78630273e-02
      4.34599295e-02 1.32307068e-01 3.04713219e-01 3.43127459e-01
      2.13902935e-01 1.21062145e-01 6.28881603e-02 4.46335673e-02
      7.88354352e-02 5.93464300e-02 6.45857379e-02 1.04092211e-01
      2.21830457e-01 2.42556065e-01 1.66299477e-01 1.05490044e-01
      7.31186047e-02 8.53353515e-02 7.15528131e-02 7.84764588e-02
      1.00674622e-01 1.67385712e-01 2.42707700e-01 2.27437705e-01
      1.71962366e-01 1.02030031e-01 9.34521854e-02 9.98429358e-02
      8.78186226e-02 1.27019376e-01 3.19864929e-01 4.35839355e-01
      4.90233451e-01 2.08331093e-01 1.32033959e-01 1.61734924e-01
      1.46185532e-01 1.11705258e-01 1.61420241e-01 3.66956204e-01
      3.19740236e-01 1.76200211e-01 2.00780705e-01 1.69373468e-01
      1.47435278e-01 2.04806656e-01 2.91678905e-01 2.64949709e-01
      2.51270056e-01 2.30751589e-01 1.68281823e-01 1.16121538e-01
      1.09540440e-01 1.13050014e-01 1.34156287e-01 2.11665913e-01
      2.64506489e-01 2.75007010e-01 2.36640215e-01 1.46845087e-01
      8.52752700e-02 7.78568387e-02 3.87274735e-02 3.58415470e-02
      4.70365696e-02 8.54246095e-02 1.83858067e-01 2.29516804e-01
      1.12438351e-01 5.24000339e-02 4.03498374e-02 7.18866885e-02
      7.35311434e-02 1.18603267e-01 1.38334453e-01 2.46568918e-01
      3.26695889e-01 2.45223477e-01 1.18582696e-01 7.67557323e-02
      9.44413021e-02 7.51549676e-02 7.41344839e-02 1.14796154e-01
      3.07657599e-01 3.54268879e-01 2.12320298e-01 1.24013141e-01
      1.02479704e-01</_>
    <_>
      4.79479097e-02 3.83940525e-02 4.18500826e-02 5.90359606e-02
      1.76384017e-01 4.51045707e-02 5.60644269e-02 5.62201962e-02
      3.70452255e-02 5.11534400e-02 8.79792422e-02 2.34218568e-01
      2.26758525e-01 8.16233531e-02 1.16158657e-01 1.33313060e-01
      4.61353809e-02 5.20609990e-02 2.43308827e-01 3.35127413e-01
      3.68006378e-01 1.91017449e-01 7.29691684e-02 8.20487663e-02
      8.93418416e-02 8.58401880e-02 1.04923308e-01 2.50820637e-01
      3.18849474e-01 3.47544819e-01 1.48912802e-01 9.75724906e-02
      6.06862605e-02 7.30675235e-02 1.12851091e-01 1.93265647e-01
      1.98526338e-01 2.49810457e-01 2.09191650e-01 1.87523618e-01
      1.34504810e-01 1.97040215e-01 1.69791996e-01 2.26398394e-01
      2.05150127e-01 9.00226384e-02 6.66831508e-02 4.49782312e-02
      3.15546244e-02 5.62618002e-02 1.07266173e-01 1.41238436e-01
      1.39124990e-01 1.20028257e-01 7.46513298e-03 1.29707046e-02
      2.65945159e-02 7.08540455e-02 3.18968207e-01 3.26671302e-01
      5.12739718e-02 2.11751070e-02 8.91774520e-03 5.20805828e-02
      4.30225022e-02 7.81024471e-02 1.61768645e-01 2.58053422e-01
      2.32247263e-01 1.21201031e-01 5.97564839e-02 3.90445255e-02
      1.37645304e-01 1.94086909e-01 3.10826957e-01 2.84863085e-01
      2.20981538e-01 2.81020373e-01 1.67114228e-01 1.21037044e-01
      1.40192375e-01 1.13291971e-01 1.22427411e-01 1.53898180e-01
      1.98825851e-01 1.75285637e-01 1.80827513e-01 1.88394502e-01
      1.26639009e-01 1.11959375e-01 1.06872991e-01 1.45028621e-01
      2.07846090e-01 2.91285038e-01 2.51160771e-01 1.26405299e-01
      1.09328352e-01 9.20874402e-02 8.86705220e-02 1.45531237e-01
      2.35563681e-01 2.83028424e-01 2.41056114e-01 1.72576666e-01
      1.10997096e-01 6.67688102e-02 6.78689778e-02 7.63662606e-02
      8.46063942e-02 7.64256269e-02 6.85003921e-02 5.09467460e-02
      4.82799746e-02 9.95182544e-02 1.21723466e-01 1.47215620e-01
      1.22658849e-01 2.34885924e-02 2.28249244e-02 6.93425834e-02
      1.18005276e-01 3.26074868e-01 3.86734277e-01 1.19097233e-01
      6.87315390e-02 3.35518532e-02 5.58166765e-02 3.27945538e-02
      6.26666397e-02 1.63837984e-01 4.48238552e-01 3.55908453e-01
      1.57025933e-01 7.12775439e-02 4.01457362e-02 6.41785935e-02
      6.31699413e-02 1.04238354e-01 1.74626291e-01 3.47997695e-01
      3.57713997e-01 2.04703376e-01 1.62650883e-01 8.37341696e-02
      5.00702709e-02 4.93795238e-02 1.02066696e-01 3.44414383e-01
      4.59148169e-01 3.62574458e-01 1.78792775e-01 8.47163498e-02
      5.84636666e-02 9.37961712e-02 1.27113536e-01 1.92364737e-01
      2.41437942e-01 1.81733415e-01 1.25270903e-01 8.24275911e-02
      7.62051269e-02 6.68872818e-02 1.70282632e-01 2.19874829e-01
      2.56162345e-01 1.85533389e-01 1.16286777e-01 7.46272132e-02
      7.14489818e-02 7.29847923e-02 1.06959902e-01 9.38227996e-02
      1.06970057e-01 9.05188248e-02 6.74856901e-02 5.58874235e-02
      4.70904969e-02 3.00534256e-02 3.20262276e-02 4.78379391e-02
      1.22508705e-01 1.45083785e-01 1.19654268e-01 1.20711796e-01
      2.27288350e-01 2.17377871e-01 1.27615973e-01 7.86813125e-02
      6.50829822e-02 1.29597649e-01 1.38283953e-01 1.77681774e-01
      2.10788995e-01 1.90655410e-01 2.48128131e-01 1.77024901e-01
      8.34607333e-02 1.02011502e-01 8.19233209e-02 7.02918842e-02
      9.37479362e-02 2.68014908e-01 2.06711784e-01 2.34453559e-01
      2.26822451e-01 1.85649320e-01 1.11887947e-01 6.51960894e-02
      4.41566482e-02 6.42907545e-02 1.20878227e-01 1.40301481e-01
      1.74858436e-01 1.66604787e-01 1.20832637e-01 8.15301090e-02
      1.21796742e-01 8.92948136e-02 1.03084244e-01 1.34040922e-01
      1.22004524e-01 1.26728922e-01 1.82023108e-01 1.73704207e-01
      1.21956632e-01 1.91550866e-01 1.54073805e-01 1.18831493e-01
      8.96719247e-02 8.36486816e-02 1.09917618e-01 2.05768406e-01
      3.44509393e-01 2.53879011e-01 8.22323710e-02 1.12722941e-01
      9.41059962e-02 7.16004148e-02 4.64299358e-02 3.77661623e-02
      4.91163284e-02 4.71955799e-02 5.28055988e-02 1.00276679e-01
      6.48005828e-02 7.28063583e-02 1.00630201e-01 3.79934669e-01
      3.75192732e-01 1.00957818e-01 7.74751082e-02 1.43412128e-01
      9.65449139e-02 1.52761102e-01 1.10597625e-01 1.57635808e-01
      2.80797809e-01 2.99928933e-01 1.75792992e-01 8.60094726e-02
      5.74074015e-02 3.36230099e-02 2.23773941e-02 3.28766629e-02
      5.31990305e-02 1.35619104e-01 3.34114194e-01 4.98373002e-01
      1.92182049e-01 4.00964245e-02 7.30352700e-02 4.44132313e-02
      4.72619832e-02 6.00665137e-02 9.15445983e-02 1.85496047e-01
      3.88681948e-01 3.09284180e-01 1.40049532e-01 2.11657584e-01
      1.12912469e-01 7.91569203e-02 7.50317052e-02 8.02895874e-02
      9.93433669e-02 1.89027414e-01 2.77946293e-01 2.60708719e-01
      1.35949254e-01 1.04927368e-01 8.47779289e-02 9.17536691e-02
      1.11733235e-01 1.54780477e-01 2.55937845e-01 3.03634197e-01
      1.85868040e-01 3.86155546e-02 2.49896292e-02 3.54526229e-02
      5.11368215e-02 6.19068407e-02 7.53337815e-02 9.62367728e-02
      7.49131069e-02 3.94538455e-02 1.60579473e-01 8.06524307e-02
      5.28261997e-02 5.68691678e-02 1.48255408e-01 1.81281477e-01
      9.62560326e-02 9.17411670e-02 1.49243250e-01 6.56449422e-02
      6.05605617e-02 6.19384721e-02 1.06510453e-01 2.10180029e-01
      2.42498532e-01 1.62958935e-01 1.27476484e-01 1.23116031e-01
      4.89359535e-02 4.28065173e-02 3.35271098e-02 6.65177703e-02
      3.10721844e-01 3.73715192e-01 1.73631027e-01 4.97558154e-02
      2.75618881e-02 2.41052192e-02 1.30364262e-02 1.65172648e-02
      3.70757021e-02 1.68312743e-01 3.41878653e-01 2.20856681e-01
      1.24315314e-01 4.80904877e-02 1.14398926e-01 8.64828303e-02
      8.58427510e-02 8.18703920e-02 1.37701422e-01 2.88765371e-01
      2.90232539e-01 2.11397529e-01 1.68145224e-01 1.02236412e-01
      6.77080825e-02 6.17943183e-02 6.58629388e-02 1.10868618e-01
      2.41190866e-01 2.85465986e-01 2.43258387e-01 1.70246318e-01
      3.07979882e-02 2.30614413e-02 2.40631141e-02 3.29394415e-02
      5.11058755e-02 7.62924105e-02 7.98993930e-02 7.14733526e-02
      4.88517582e-02 2.14963555e-01 5.05749546e-02 4.86803278e-02
      8.47498029e-02 2.46499702e-01 2.42114335e-01 6.47093356e-02
      6.19890206e-02 1.34290233e-01 8.76276270e-02 8.70814100e-02
      7.44448677e-02 1.22989535e-01 3.27623487e-01 3.13527405e-01
      1.04622535e-01 7.02512488e-02 5.16388267e-02 3.08431238e-02
      1.96939595e-02 2.68294215e-02 2.28673499e-02 2.25872785e-01
      4.24674064e-01 1.64631069e-01 1.02191776e-01 2.73691863e-02
      2.66404580e-02 1.75662097e-02 2.23849490e-02 2.93146130e-02
      7.95441940e-02 2.79007196e-01 3.40153009e-01 1.70169458e-01
      8.15523416e-02 5.86684197e-02 3.63986641e-02 3.49617526e-02
      5.09779155e-02 8.71717855e-02 2.17662424e-01 2.58950233e-01
      1.83090061e-01 1.01570457e-01 7.31622726e-02 5.34672849e-02
      6.62634894e-02 7.36262649e-02 1.26982123e-01 1.80632830e-01
      1.65649399e-01 1.54747844e-01 1.03162140e-01 4.26902696e-02
      4.47817892e-02 8.92674625e-02 1.28888011e-01 1.67523757e-01
      1.45595759e-01 1.12904347e-01 5.85118532e-02 3.82358842e-02
      1.21160045e-01 7.23419935e-02 4.82859574e-02 7.04255328e-02
      2.39654168e-01 2.61353225e-01 9.01207402e-02 6.42781779e-02
      7.36600384e-02 6.45436123e-02 5.71739972e-02 6.64145276e-02
      1.15980059e-01 4.32548970e-01 4.25233901e-01 1.51312515e-01
      8.80861878e-02 9.29744095e-02 1.36174392e-02 3.90885491e-03
      1.02879088e-02 1.35549270e-02 4.03670758e-01 4.90052611e-01
      1.27441976e-02 1.07285976e-02 3.81251168e-03 1.85254082e-01
      1.08952299e-01 5.79564944e-02 3.63850407e-02 5.79024106e-02
      1.69892430e-01 2.07667172e-01 1.62134364e-01 1.10063195e-01
      1.50937557e-01 1.00226119e-01 9.84656736e-02 1.27074480e-01
      1.67539060e-01 3.29674065e-01 3.78452301e-01 2.77830571e-01
      1.82771653e-01 1.91264704e-01 2.23950759e-01 1.60987899e-01
      1.61031723e-01 1.39711037e-01 1.55511990e-01 1.80589050e-01
      2.49288365e-01 2.21879214e-01 1.14030808e-01 1.60846382e-01
      1.77051842e-01 1.54930174e-01 1.32143676e-01 1.13910772e-01
      7.54619613e-02 5.11562377e-02 7.30433837e-02 3.46438698e-02
      1.85992215e-02 3.18102390e-02 5.49231693e-02 2.40135506e-01
      2.32230291e-01 4.62533534e-02 3.27175856e-02 3.45581621e-02
      3.14785577e-02 3.04358918e-02 5.86480573e-02 9.53620747e-02
      2.54660130e-01 4.06839401e-01 1.61472335e-01 5.72917797e-02
      3.32754701e-02</_>
    <_>
      3.48732248e-02 2.02133115e-02 2.85857320e-02 7.56030381e-02
      1.89711347e-01 2.16217831e-01 8.52926373e-02 3.24344859e-02
      2.12246887e-02 5.13577498e-02 3.37638631e-02 3.42989564e-02
      6.18189909e-02 1.70473963e-01 2.74847984e-01 4.53038931e-01
      2.89128333e-01 1.08480446e-01 1.68719649e-01 1.15849510e-01
      6.85487539e-02 4.73146997e-02 7.65821189e-02 1.65433943e-01
      3.37053955e-01 3.35909784e-01 2.48722062e-01 2.45625257e-01
      1.29220471e-01 8.84389728e-02 9.48061794e-02 1.63463667e-01
      1.82363138e-01 2.30381042e-01 3.01464885e-01 3.16892654e-01
      1.97548285e-01 2.10227013e-01 2.61178613e-01 2.45916352e-01
      2.13281155e-01 1.19131595e-01 6.68228343e-02 6.02244735e-02
      1.03570238e-01 1.96179673e-01 2.02595249e-01 2.03987092e-01
      1.72461793e-01 2.24983588e-01 2.42410868e-01 1.22671820e-01
      8.19952190e-02 8.60459283e-02 7.87596628e-02 8.10018927e-02
      1.28239349e-01 1.81005642e-01 2.28063121e-01 2.64942586e-01
      1.82083830e-01 1.25290513e-01 9.27060321e-02 1.32649690e-01
      1.31810263e-01 1.42820507e-01 1.96732715e-01 2.97814012e-01
      2.98968852e-01 1.83639973e-01 1.46215513e-01 9.81232002e-02
      1.06475852e-01 1.60366789e-01 2.01536208e-01 2.10634977e-01
      2.74623632e-01 3.65825087e-01 2.34765396e-01 1.03917204e-01
      6.26717284e-02 1.97591096e-01 3.17937732e-01 3.90933096e-01
      2.50645667e-01 1.98022991e-01 1.26124755e-01 1.33691505e-01
      1.91212863e-01 2.38640830e-01 2.30449334e-01 2.55148053e-01
      2.45002687e-01 2.76127487e-01 2.79126644e-01 1.97837800e-01
      1.43564284e-01 1.65075481e-01 1.89061090e-01 2.27992162e-01
      2.05049276e-01 2.25598231e-01 1.56897515e-01 1.30054295e-01
      1.80300400e-01 2.00605199e-01 1.73939317e-01 1.66998848e-01
      1.62878603e-01 1.23122953e-01 1.34545162e-01 1.64113790e-01
      1.99867055e-01 2.05933049e-01 1.44545391e-01 1.49437577e-01
      1.42258376e-01 1.64365396e-01 1.76207349e-01 1.89169645e-01
      1.90637827e-01 2.04949185e-01 1.54133350e-01 1.35928646e-01
      1.25236049e-01 1.13638088e-01 1.39695659e-01 1.08255088e-01
      1.27378106e-01 1.65539220e-01 1.76988348e-01 1.64424747e-01
      1.28836751e-01 1.11605018e-01 8.73816833e-02 1.25885054e-01
      1.48129746e-01 1.43604293e-01 1.23250455e-01 2.49133945e-01
      2.86309600e-01 1.40423700e-01 1.40381053e-01 1.36851966e-01
      3.33251536e-01 2.56616086e-01 2.54201412e-01 2.87433118e-01
      4.17126149e-01 4.22583163e-01 2.04885632e-01 1.12936564e-01
      2.55595893e-01 3.27063769e-01 1.58033401e-01 1.56863555e-01
      1.21437483e-01 1.29890665e-01 1.30570590e-01 1.12975650e-01
      1.54528290e-01 1.37495413e-01 1.08626097e-01 6.62126020e-02
      9.75910202e-02 7.43409246e-02 8.76806602e-02 8.92190561e-02
      4.89482395e-02 6.23128414e-02 3.19329128e-02 7.95900673e-02
      7.23408312e-02 1.18640117e-01 1.71589926e-01 2.08615884e-01
      1.98349327e-01 1.49074480e-01 1.12556852e-01 8.49230960e-02
      1.41233429e-01 1.28203541e-01 1.23939849e-01 1.87882617e-01
      2.05844834e-01 1.79419696e-01 1.26426905e-01 9.91730317e-02
      1.14770614e-01 1.62986904e-01 1.69079617e-01 1.60562351e-01
      1.86974585e-01 2.03329638e-01 1.44505322e-01 1.09110005e-01
      8.24389830e-02 7.33805075e-02 3.84111591e-02 4.25497144e-02
      1.41655564e-01 2.87465394e-01 3.33905816e-01 4.04244751e-01
      2.05126494e-01 1.14822909e-01 5.85710518e-02 1.67004660e-01
      1.01722024e-01 8.81577432e-02 6.45677149e-02 6.44587427e-02
      9.67341661e-02 1.15120016e-01 1.11850999e-01 1.17664143e-01
      1.53382957e-01 6.51661977e-02 9.85741466e-02 8.18226412e-02
      9.22372714e-02 1.05317198e-01 8.50410163e-02 1.00368351e-01
      5.92003986e-02 8.66279602e-02 4.39055711e-02 6.56167716e-02
      6.07294776e-02 7.21358433e-02 8.05470049e-02 1.01498485e-01
      1.08506963e-01 7.87158012e-02 1.02160752e-01 8.80912468e-02
      1.04339689e-01 1.94349498e-01 1.47168681e-01 9.63429138e-02
      7.03563392e-02 8.18987787e-02 5.89851886e-02 4.21489805e-01
      2.65684903e-01 1.51716903e-01 8.36103410e-02 8.76928866e-02
      1.04271933e-01 1.02523983e-01 1.26613334e-01 2.50416756e-01
      2.13779509e-01 1.83564767e-01 1.35380968e-01 1.23873048e-01
      1.64248928e-01 1.42956927e-01 1.08065896e-01 8.78951997e-02
      1.08638391e-01 2.47885957e-02 2.57282481e-02 3.07036936e-02
      1.43207192e-01 4.25509691e-01 3.27132225e-01 1.57229990e-01
      6.91423267e-02 3.81063968e-02 9.68006700e-02 1.00987904e-01
      1.17485374e-01 1.13375500e-01 2.11134568e-01 2.31729671e-01
      2.08756879e-01 1.75685212e-01 1.07872583e-01 1.28375158e-01
      6.16842583e-02 5.55094704e-02 6.41952381e-02 9.97739881e-02
      1.49674833e-01 2.35828653e-01 2.69906372e-01 1.93687066e-01
      8.58519822e-02 7.52543435e-02 9.03179124e-02 6.17492050e-02
      8.02593306e-02 6.52584583e-02 4.13234122e-02 4.67731804e-02
      4.54405546e-02 2.29135960e-01 2.48210967e-01 1.26287654e-01
      2.07451180e-01 2.30078235e-01 1.42018646e-01 1.47539273e-01
      1.24468878e-01 9.58927348e-02 1.18137158e-01 2.43667930e-01
      2.18813494e-01 1.86772734e-01 2.13689476e-01 1.60680041e-01
      1.32305518e-01 1.13798924e-01 7.76016787e-02 1.70415163e-01
      1.38436109e-01 1.39465973e-01 1.62877038e-01 1.95249006e-01
      1.82768255e-01 1.63472116e-01 1.55375823e-01 1.55188069e-01
      4.80703078e-02 4.17159274e-02 6.44778460e-02 1.36384174e-01
      4.39846069e-01 5.79779625e-01 2.23498076e-01 9.41152573e-02
      5.74108139e-02 8.37233067e-02 8.07395056e-02 1.36668637e-01
      1.97871760e-01 2.75045753e-01 3.68241489e-01 2.61006147e-01
      1.43145785e-01 8.41297880e-02 1.40742823e-01 8.97384584e-02
      5.85192591e-02 6.79576397e-02 1.18392766e-01 2.98143744e-01
      3.75907809e-01 2.75852948e-01 2.67877996e-01 7.08260015e-02
      6.31452277e-02 7.53180236e-02 9.73764956e-02 1.16896525e-01
      1.52501196e-01 1.13759421e-01 9.86161679e-02 7.24250004e-02
      7.89777189e-02 1.53968379e-01 2.02001318e-01 2.27828175e-01
      2.67692089e-01 1.59458324e-01 8.62326548e-02 7.02638552e-02
      6.94167539e-02 8.78632665e-02 1.14847660e-01 2.00587466e-01
      2.14177415e-01 2.82255441e-01 2.34795645e-01 1.33013442e-01
      7.58696198e-02 6.43139109e-02 1.38276219e-01 8.93971622e-02
      1.12790495e-01 1.31168723e-01 1.76756173e-01 1.71727046e-01
      1.38856798e-01 1.23655654e-01 1.00234523e-01 6.91418648e-02
      6.66764379e-02 1.19432218e-01 1.30282879e-01 2.57005006e-01
      3.67654860e-01 2.06337318e-01 1.24832198e-01 9.14520845e-02
      8.50220993e-02 5.23615256e-02 6.29452318e-02 1.03018470e-01
      1.26294747e-01 2.65740246e-01 3.29106957e-01 2.13854447e-01
      1.28557593e-01 2.37433136e-01 1.77105635e-01 1.26446009e-01
      9.52781141e-02 1.09729536e-01 1.11750372e-01 1.51096836e-01
      1.78307071e-01 1.72442019e-01 1.13762423e-01 1.27679124e-01
      1.28847450e-01 1.47029638e-01 1.30776316e-01 1.34597972e-01
      9.05961171e-02 9.74804908e-02 9.18491259e-02 4.35010284e-01
      3.22586149e-01 1.34025633e-01 1.04800820e-01 1.48934409e-01
      1.65786609e-01 1.09526291e-01 1.30191773e-01 2.01394513e-01
      2.87838161e-01 2.61679739e-01 1.64914832e-01 1.46311671e-01
      1.98671028e-01 1.78417727e-01 1.30775720e-01 1.09261200e-01
      1.35180578e-01 1.00802407e-01 5.19358553e-02 8.70699137e-02
      1.40248224e-01 2.17568427e-01 1.92098588e-01 1.33545175e-01
      1.24980666e-01 9.93073806e-02 3.73836607e-02 3.78447175e-02
      6.31598756e-02 1.30873919e-01 2.89669573e-01 2.73347199e-01
      1.14203788e-01 5.62177636e-02 3.73795219e-02 8.12548697e-02
      7.34097213e-02 9.35328156e-02 1.72983989e-01 3.09683114e-01
      2.50526458e-01 1.26974821e-01 8.24752375e-02 6.45441487e-02
      8.84901732e-02 8.14115107e-02 9.30969045e-02 1.70663938e-01
      3.08001161e-01 2.99905300e-01 1.37074888e-01 8.79437327e-02
      6.64955825e-02 5.90647720e-02 6.74594566e-02 9.08536986e-02
      1.43312827e-01 2.50796139e-01 2.08394960e-01 1.56735271e-01
      1.02540076e-01 5.83905205e-02 9.03488919e-02 9.69469398e-02
      1.09206297e-01 1.26675189e-01 2.21613467e-01 2.72278666e-01
      2.24799946e-01 1.77563146e-01 1.17332824e-01 6.56062737e-02
      7.76456222e-02 1.06972940e-01 1.62465170e-01 2.35216230e-01
      2.88534254e-01 2.11569503e-01 1.34527698e-01 8.83626938e-02
      1.21138752e-01 1.22758098e-01 1.26678869e-01 1.64123625e-01
      2.52921879e-01 2.25035012e-01 1.86807662e-01 1.48142472e-01
      1.10405169e-01</_>
    <_>
      6.27264827e-02 4.29152325e-02 7.35668615e-02 1.38996333e-01
      2.04712600e-01 1.91238642e-01 1.10869408e-01 6.25941977e-02
      4.17039096e-02 5.49520478e-02 5.20070568e-02 1.00679100e-01
      1.96154028e-01 2.91078150e-01 2.63051212e-01 1.40463024e-01
      9.11252871e-02 5.57847098e-02 5.36735170e-02 5.83754256e-02
      7.65729770e-02 9.58787724e-02 1.55160755e-01 1.73438266e-01
      9.96952280e-02 7.90116191e-02 5.80469072e-02 6.70309663e-02
      6.82542771e-02 9.50535834e-02 1.45796373e-01 2.23526955e-01
      2.14707747e-01 1.37797251e-01 8.38693455e-02 7.18532577e-02
      5.46304919e-02 4.61094230e-02 6.84054494e-02 2.02338368e-01
      3.87872308e-01 3.23029548e-01 1.27936915e-01 6.11214228e-02
      6.06862195e-02 8.55058655e-02 8.84399712e-02 1.03463322e-01
      1.75748348e-01 2.33033210e-01 2.50574470e-01 1.76624358e-01
      1.10356748e-01 8.63498598e-02 1.02134570e-01 1.03042997e-01
      1.39705762e-01 1.92175686e-01 2.51090169e-01 2.83654094e-01
      2.21731171e-01 1.55406773e-01 9.10707340e-02 6.98028207e-02
      6.27614260e-02 8.68893862e-02 1.27381206e-01 2.47484505e-01
      2.06870452e-01 1.12661615e-01 8.16832408e-02 5.39614521e-02
      7.12511837e-02 8.14305693e-02 1.08677104e-01 1.92088768e-01
      1.98096961e-01 1.29511550e-01 8.55442658e-02 5.55703603e-02
      4.24963422e-02 5.34082539e-02 8.82928595e-02 1.65594310e-01
      3.77113372e-01 4.01706040e-01 1.84174061e-01 6.53819367e-02
      4.61994559e-02 4.35120277e-02 5.34196869e-02 9.08235461e-02
      2.27661818e-01 4.85356987e-01 4.24142778e-01 1.82424232e-01
      1.14308469e-01 6.07150830e-02 4.33762595e-02 7.46253058e-02
      7.77541772e-02 7.73801804e-02 1.29767418e-01 3.17097247e-01
      3.58290672e-01 1.82021111e-01 8.96124020e-02 7.59655610e-02
      1.61873370e-01 1.04489900e-01 1.29881710e-01 1.85929477e-01
      2.88468033e-01 3.50028545e-01 2.24740610e-01 1.46495670e-01
      1.34430453e-01 6.44972399e-02 5.98816611e-02 1.02788754e-01
      2.25575328e-01 3.16921413e-01 2.46591538e-01 2.44746283e-01
      2.02896699e-01 7.55156726e-02 9.21521336e-02 6.66784495e-02
      8.11098069e-02 1.17956161e-01 2.09381685e-01 2.64957607e-01
      1.65998712e-01 1.02119535e-01 7.37885088e-02 3.73725705e-02
      5.21466769e-02 1.13759719e-01 2.87349075e-01 3.12445045e-01
      1.50233403e-01 5.49401194e-02 3.48748788e-02 2.69436389e-02
      6.05858751e-02 7.50802755e-02 1.51812106e-01 2.54897058e-01
      4.08164501e-01 4.09784466e-01 1.46969438e-01 7.96221569e-02
      5.47530949e-02 7.81846419e-02 7.59535432e-02 1.06716387e-01
      2.59113938e-01 2.48268858e-01 2.34740227e-01 1.64277449e-01
      1.14097826e-01 6.08566478e-02 8.50125924e-02 6.66313544e-02
      8.80564898e-02 1.34781003e-01 2.57858336e-01 2.87264556e-01
      1.57085344e-01 8.58359262e-02 6.71604052e-02 5.20867892e-02
      4.10104208e-02 8.97743851e-02 2.34469682e-01 3.26310545e-01
      2.93499023e-01 1.56084597e-01 6.83454052e-02 4.17037345e-02
      3.83613169e-01 1.62897348e-01 1.46156520e-01 1.13870256e-01
      1.13614574e-01 1.28250390e-01 1.20454319e-01 2.78438300e-01
      2.99378842e-01 1.88397765e-01 1.29416049e-01 1.02347054e-01
      1.39412373e-01 1.89731896e-01 1.89416409e-01 1.64714813e-01
      1.29514351e-01 1.21133156e-01 4.99554053e-02 5.83031885e-02
      8.64170045e-02 1.75037682e-01 3.23272437e-01 2.47252002e-01
      7.81199858e-02 5.06096706e-02 3.33777629e-02 1.10439442e-01
      1.40761256e-01 1.73108682e-01 2.44078740e-01 3.09368759e-01
      4.03739572e-01 2.57396132e-01 1.57273650e-01 1.21419847e-01
      9.14000496e-02 5.64133525e-02 9.12657231e-02 1.35662511e-01
      1.65650144e-01 2.95005649e-01 2.75333673e-01 2.30597019e-01
      1.15724206e-01 3.06647252e-02 1.42820487e-02 6.90160766e-02
      2.25570232e-01 2.80515701e-01 1.02016859e-01 4.32091169e-02
      3.05939987e-02 9.60300770e-03 4.85226773e-02 2.52158940e-02
      4.70754020e-02 6.03669621e-02 1.01342387e-01 1.14800736e-01
      7.23007843e-02 4.68354300e-02 3.66956629e-02 3.35476428e-01
      3.05212557e-01 2.11997449e-01 2.63964981e-01 2.19539747e-01
      1.75391227e-01 1.69232935e-01 1.36779279e-01 1.62195072e-01
      1.05218597e-01 6.72865435e-02 8.84959772e-02 1.05318539e-01
      1.56838194e-01 1.79827541e-01 1.26108617e-01 7.17448294e-02
      5.20319976e-02 5.20845316e-02 5.75127564e-02 6.44283369e-02
      1.33483723e-01 2.62953758e-01 2.95093954e-01 1.76337883e-01
      6.83038831e-02 4.95251268e-02 7.39290565e-02 3.53188254e-02
      5.75031005e-02 8.78148377e-02 1.70464694e-01 3.66754413e-01
      3.53448451e-01 2.15885937e-01 1.15457736e-01 1.70539483e-01
      6.74463660e-02 5.98338284e-02 6.82875514e-02 1.23460747e-01
      1.94252968e-01 2.15069816e-01 2.32848316e-01 2.19589964e-01
      3.35688032e-02 1.49630308e-02 3.06737591e-02 3.97035293e-02
      9.76867601e-02 2.03972816e-01 1.33973643e-01 6.98752329e-02
      3.52054723e-02 1.96963742e-01 4.69598055e-01 3.38479102e-01
      1.66396692e-01 1.25716418e-01 9.97004509e-02 4.85858843e-02
      4.01281528e-02 4.82992530e-02 2.51430869e-01 2.60638267e-01
      1.70561075e-01 1.54698074e-01 2.07802981e-01 1.85368970e-01
      1.58172965e-01 1.39468372e-01 1.35828555e-01 7.11529106e-02
      3.86605859e-02 5.62999621e-02 7.43788853e-02 1.16609536e-01
      1.72155932e-01 1.28725290e-01 9.85762775e-02 5.20610325e-02
      4.58996445e-02 4.37551066e-02 4.29975018e-02 8.29130262e-02
      3.19018066e-01 3.67748052e-01 2.03402236e-01 1.16500638e-01
      6.37975559e-02 4.64664474e-02 2.95777172e-02 4.30022888e-02
      7.79044330e-02 1.52379483e-01 3.60406429e-01 4.43163246e-01
      2.28071451e-01 8.28287974e-02 1.25082672e-01 5.59943244e-02
      5.49212284e-02 6.32333830e-02 1.06023058e-01 2.34666005e-01
      2.93949038e-01 2.62216687e-01 1.57159835e-01 4.11051810e-02
      1.77139509e-02 4.96317782e-02 8.06057975e-02 1.09543622e-01
      9.42221656e-02 4.37922068e-02 3.03405691e-02 1.78244449e-02
      1.27824023e-01 1.37945175e-01 1.92541733e-01 2.21849203e-01
      2.98055202e-01 3.47846776e-01 2.27618784e-01 1.68974072e-01
      1.47712842e-01 9.09122378e-02 8.92511755e-02 1.03611089e-01
      1.19884863e-01 2.13927671e-01 3.25439155e-01 2.30145723e-01
      1.29159898e-01 8.94732848e-02 1.39531672e-01 5.85766472e-02
      6.59275055e-02 9.28412676e-02 1.35113880e-01 2.14250222e-01
      2.94024318e-01 2.01716527e-01 1.51733905e-01 8.10002834e-02
      7.18735233e-02 7.85329118e-02 1.63161039e-01 2.49993071e-01
      3.18086565e-01 2.18205020e-01 1.42457739e-01 1.14102066e-01
      1.54307529e-01 9.35652778e-02 8.98739845e-02 1.01065241e-01
      1.36827394e-01 1.89506575e-01 2.70194083e-01 2.94062734e-01
      1.97877184e-01 1.60650760e-01 8.61857980e-02 8.03084448e-02
      6.00212999e-02 6.49200380e-02 1.35355175e-01 1.97020113e-01
      1.72942817e-01 1.64775535e-01 4.72279005e-02 5.22635132e-02
      1.22643284e-01 1.04833856e-01 1.08679600e-01 1.32529393e-01
      1.42658502e-01 1.06161267e-01 5.50287925e-02 9.64025110e-02
      7.84890279e-02 8.16412270e-02 1.49828359e-01 2.32698783e-01
      2.50400931e-01 2.11957484e-01 1.81672394e-01 1.32165611e-01
      7.97932968e-02 5.96313365e-02 5.59628494e-02 9.44266096e-02
      2.11716071e-01 3.36970687e-01 1.58250779e-01 1.10131584e-01
      7.90131092e-02 1.11218505e-01 5.68217300e-02 6.28218353e-02
      8.93170387e-02 1.67948917e-01 2.32072607e-01 1.56306401e-01
      1.08493067e-01 8.78621638e-02 5.11202253e-02 5.18536381e-02
      9.39666107e-02 1.82023540e-01 3.40025246e-01 3.54590952e-01
      1.88355088e-01 9.00013149e-02 4.64574583e-02 9.08647254e-02
      7.75902569e-02 8.95224810e-02 1.56486899e-01 3.02673340e-01
      3.60902071e-01 2.50402510e-01 1.83616742e-01 1.36738062e-01
      2.63436884e-01 1.90316603e-01 1.25890344e-01 1.21927723e-01
      1.77214652e-01 2.30389178e-01 2.37857193e-01 1.73753619e-01
      1.77883625e-01 1.43665686e-01 8.35610330e-02 9.00243968e-02
      1.23304546e-01 1.61450982e-01 1.69765353e-01 1.09806776e-01
      1.42677590e-01 1.53631493e-01 2.03998461e-01 7.33856335e-02
      7.94169679e-02 9.15968791e-02 1.66077867e-01 1.93856820e-01
      1.46836296e-01 2.83446729e-01 4.12358165e-01 1.50919512e-01
      1.35391653e-01 1.44864574e-01 1.93105102e-01 3.23381871e-01
      3.16852242e-01 2.12750942e-01 1.75210133e-01 1.51494578e-01
      1.25960827e-01 1.04392253e-01 1.21149115e-01 1.31105423e-01
      1.81576952e-01 2.31072366e-01 2.13393658e-01 1.33186802e-01
      1.05808534e-01</_>
    <_>
      1.05105685e-02 1.11483806e-03 1.07988873e-02 1.79129113e-02
      5.25823720e-02 3.17982920e-02 5.84467826e-03 6.86896406e-03
      1.14167249e-03 5.34267500e-02 6.85082078e-02 1.44855067e-01
      2.22210169e-01 1.45196378e-01 3.23978812e-02 2.28289906e-02
      5.79953156e-02 6.23359792e-02 2.06767738e-01 2.46422753e-01
      4.21686083e-01 2.47814938e-01 1.60597235e-01 9.73542109e-02
      7.30357319e-02 9.28507522e-02 1.25409558e-01 1.32593036e-01
      9.59166288e-02 8.66055638e-02 1.64781123e-01 3.11903030e-01
      3.07390958e-01 1.87373430e-01 1.85928553e-01 1.72787890e-01
      3.16928066e-02 3.06837056e-02 5.63220084e-02 8.29542726e-02
      1.74838573e-01 2.55418807e-01 1.12521641e-01 4.52614911e-02
      2.81149559e-02 7.38336071e-02 6.28807992e-02 8.03832188e-02
      1.02166824e-01 1.48291096e-01 1.50254354e-01 1.23242252e-01
      9.05606747e-02 7.21706077e-02 4.80913185e-02 4.29334901e-02
      7.62962177e-02 1.34105712e-01 1.79935053e-01 1.91050053e-01
      1.17034420e-01 7.39290938e-02 4.99619991e-02 1.50840759e-01
      1.49611652e-01 1.91186532e-01 2.66452044e-01 2.81026632e-01
      2.05209315e-01 1.60425797e-01 1.24863721e-01 1.21630885e-01
      4.91261706e-02 6.76434562e-02 1.45723507e-01 2.97289670e-01
      3.88488948e-01 3.30205977e-01 1.90585405e-01 9.57388729e-02
      5.84438629e-02 2.04106376e-01 2.62744069e-01 2.43244067e-01
      2.20268920e-01 1.21422835e-01 7.61010870e-02 7.29998425e-02
      9.13756862e-02 1.50131077e-01 1.01155169e-01 7.87492245e-02
      5.35964184e-02 5.43636754e-02 8.84678885e-02 1.26960829e-01
      1.00097440e-01 7.47507513e-02 7.03332499e-02 3.05922329e-01
      2.17442781e-01 1.95153683e-01 1.84674427e-01 1.54545575e-01
      2.10131019e-01 2.71171033e-01 2.59949774e-01 2.85727441e-01
      8.80773216e-02 1.01655163e-01 1.33014515e-01 1.61427051e-01
      1.66429460e-01 1.56464070e-01 1.09711215e-01 1.07786849e-01
      8.78156647e-02 5.45256212e-02 5.62118851e-02 7.51054510e-02
      1.15629815e-01 1.81455642e-01 1.64233893e-01 8.69034678e-02
      5.99846207e-02 5.33475839e-02 1.69773608e-01 1.93913922e-01
      2.85298556e-01 3.40047777e-01 3.55760366e-01 2.81635255e-01
      1.86866313e-01 1.35705367e-01 1.29048541e-01 5.40104471e-02
      6.62748590e-02 8.32209662e-02 1.71410099e-01 2.39312693e-01
      2.88746804e-01 1.61026314e-01 4.61917892e-02 3.46308053e-02
      2.62315571e-01 2.61047125e-01 1.33788645e-01 7.40565807e-02
      3.93028706e-02 3.17972265e-02 3.61926705e-02 4.45335917e-02
      1.26116633e-01 3.68735045e-01 1.53320536e-01 7.30332211e-02
      4.53469567e-02 4.73105162e-02 5.24443872e-02 8.56743455e-02
      2.23106667e-01 3.54030460e-01 1.68343946e-01 1.04008518e-01
      6.57428652e-02 4.24789377e-02 4.69522886e-02 4.92124222e-02
      8.57394934e-02 1.71309933e-01 2.05212429e-01 7.05794096e-02
      7.56255910e-02 9.12725925e-02 1.04880735e-01 1.26177862e-01
      1.31401554e-01 9.47296247e-02 8.24822858e-02 7.17514381e-02
      5.65808825e-02 6.12558536e-02 9.86655280e-02 1.22870803e-01
      1.48473069e-01 1.12148359e-01 7.89780170e-02 5.65920621e-02
      5.18934391e-02 1.68817595e-01 1.61194414e-01 1.69973984e-01
      2.20510706e-01 2.43216246e-01 1.72051087e-01 1.42476618e-01
      1.28263548e-01 1.26048595e-01 2.94949654e-02 4.36206535e-02
      8.09577554e-02 2.75045067e-01 4.66296703e-01 2.02258438e-01
      4.22875993e-02 2.16830280e-02 2.36621313e-02 1.17328241e-01
      2.93465793e-01 3.17118734e-01 1.83253676e-01 8.17165896e-02
      3.53546739e-02 2.94961650e-02 3.44827101e-02 5.97383156e-02
      3.31437349e-01 3.33892286e-01 1.92016050e-01 1.13042243e-01
      7.22428709e-02 5.24120629e-02 7.18883127e-02 1.27932176e-01
      2.05311254e-01 3.57607186e-01 2.11790130e-01 1.27841994e-01
      9.91247892e-02 1.20470382e-01 1.38796151e-01 2.44711697e-01
      4.45311129e-01 4.45484579e-01 2.30677515e-01 1.14669181e-01
      5.68924472e-02 6.27973378e-02 7.58744702e-02 8.19385126e-02
      7.84578249e-02 9.72100571e-02 1.69275135e-01 1.67971373e-01
      1.72437325e-01 1.94651827e-01 1.83395818e-01 1.71745792e-01
      1.62373737e-01 1.19479820e-01 7.59563595e-02 8.82719830e-02
      1.16662249e-01 1.19651340e-01 1.78212658e-01 2.37594560e-01
      2.43107155e-01 2.18668878e-01 1.80886537e-01 1.00877225e-01
      9.37254205e-02 7.83467814e-02 1.09948173e-01 1.31554022e-01
      1.47891298e-01 2.54932255e-01 1.56239837e-01 7.54798949e-02
      4.86561805e-02 4.91724685e-02 1.43788382e-01 2.15986475e-01
      2.65409738e-01 2.41885379e-01 1.52181059e-01 7.75561482e-02
      5.82186654e-02 6.80930465e-02 8.51211920e-02 4.51582968e-01
      4.49479729e-01 3.24172527e-01 1.79607123e-01 1.13632843e-01
      9.75783467e-02 1.43284395e-01 1.49700925e-01 2.07591131e-01
      2.02089593e-01 2.59152502e-01 2.08025619e-01 1.10162765e-01
      6.81167692e-02 7.91112557e-02 9.42216069e-02 1.34571046e-01
      1.52099982e-01 1.20889761e-01 7.23065659e-02 8.19658265e-02
      9.13801268e-02 1.07913971e-01 1.21812567e-01 1.64215922e-01
      1.31334946e-01 1.68809518e-01 1.85606554e-01 1.35830760e-01
      1.21429868e-01 1.46250188e-01 1.96860775e-01 1.72574177e-01
      1.00828603e-01 9.16611627e-02 2.03966364e-01 1.25463143e-01
      1.37936458e-01 1.77342504e-01 2.30122939e-01 3.27034682e-01
      2.89637655e-01 1.90391243e-01 1.06259733e-01 8.12452286e-02
      7.70138055e-02 1.04990937e-01 1.34613693e-01 1.07943706e-01
      1.15143158e-01 1.62923992e-01 8.44548121e-02 5.90034127e-02
      4.73825671e-02 3.18597108e-01 4.32590276e-01 4.06269729e-01
      2.46569440e-01 1.25358239e-01 1.02447383e-01 8.96533877e-02
      1.15945257e-01 1.93821058e-01 2.81965315e-01 3.35502803e-01
      2.35589489e-01 1.56033665e-01 1.24916866e-01 8.72748718e-02
      8.89584348e-02 1.37518868e-01 1.91813469e-01 2.92114586e-01
      2.26900637e-01 1.22323811e-01 7.85543919e-02 6.07158318e-02
      4.91398983e-02 6.55258298e-02 1.29443213e-01 2.35494763e-01
      1.55676380e-01 1.22084513e-01 1.07568122e-01 1.16491899e-01
      1.39823765e-01 1.72940254e-01 1.59491241e-01 1.98270947e-01
      1.80560082e-01 2.04705045e-01 1.79600999e-01 1.67275339e-01
      2.09642932e-01 2.57336080e-01 2.84643024e-01 2.23519981e-01
      1.44445837e-01 1.89898580e-01 1.24352194e-01 9.12057459e-02
      1.12372600e-01 1.42617211e-01 1.88579947e-01 2.41369754e-01
      2.70650536e-01 1.92322671e-01 1.25957683e-01 7.97188804e-02
      1.02564856e-01 1.15404233e-01 1.47620574e-01 3.09720963e-01
      5.26641846e-01 3.57718140e-01 1.41640618e-01 8.01075175e-02
      2.76407808e-01 3.58876556e-01 2.80156285e-01 2.22883165e-01
      1.76951811e-01 1.57707736e-01 1.52084544e-01 1.50057122e-01
      2.01260522e-01 2.39668056e-01 1.63121387e-01 1.08207114e-01
      7.64068663e-02 7.65368938e-02 7.89820850e-02 9.93121713e-02
      1.64799586e-01 2.19610557e-01 1.22609377e-01 1.12288646e-01
      1.25468925e-01 1.46319985e-01 1.43233672e-01 1.09624743e-01
      1.07841484e-01 1.11244649e-01 1.08696021e-01 1.89865068e-01
      2.25092128e-01 1.46366656e-01 8.92461538e-02 7.13690743e-02
      6.62524104e-02 6.30569458e-02 7.82413930e-02 1.09805159e-01
      1.88677594e-01 2.94901013e-01 9.22614336e-02 5.94680943e-02
      8.60171765e-02 9.20274109e-02 6.78144842e-02 6.02191575e-02
      7.37692043e-02 8.16806406e-02 6.58628047e-02 6.11186363e-02
      6.03449084e-02 8.90503600e-02 1.21043138e-01 8.36962014e-02
      5.28456531e-02 4.31255475e-02 2.90354863e-02 2.34238543e-02
      2.51945145e-02 4.58685942e-02 9.71215814e-02 1.51432633e-01
      3.00064623e-01 1.71696097e-01 3.45831923e-02 1.77620605e-01
      7.92527720e-02 6.26367107e-02 6.27819300e-02 8.28110352e-02
      1.05623566e-01 1.15922794e-01 1.78663865e-01 2.41479203e-01
      2.30025202e-01 2.32807294e-01 1.26731783e-01 7.61521608e-02
      8.92511681e-02 9.04217288e-02 8.11414719e-02 8.05205032e-02
      1.62108451e-01 1.09971739e-01 1.03266254e-01 1.64752379e-01
      2.19202906e-01 2.36725569e-01 1.50695100e-01 1.03614621e-01
      1.06152169e-01 1.28220588e-01 2.18802616e-01 2.73836225e-01
      2.00247109e-01 1.00322120e-01 9.47340652e-02 9.46953222e-02
      1.37348503e-01 1.86018422e-01 1.65023863e-01 1.16795264e-01
      1.12127878e-01 1.85778901e-01 2.81749457e-01 3.33410770e-01
      3.29903096e-01 2.75812387e-01 2.85794079e-01 2.10199848e-01
      2.06249222e-01 2.04622239e-01 2.00350940e-01 1.31574407e-01
      1.78674713e-01 1.13301024e-01 7.31979609e-02 7.34459460e-02
      1.54290795e-01</_>
    <_>
      6.79033175e-02 8.36248025e-02 1.27412021e-01 1.55679405e-01
      1.55261561e-01 2.40592256e-01 2.30423719e-01 1.20685942e-01
      7.34059289e-02 1.14256799e-01 1.80238128e-01 2.92591780e-01
      2.68778443e-01 2.56564826e-01 2.37714559e-01 1.46526977e-01
      1.19734250e-01 7.97129199e-02 8.83246511e-02 5.31894714e-02
      7.81456605e-02 1.30599096e-01 2.71506488e-01 2.42899537e-01
      2.50775307e-01 1.66293934e-01 1.20037831e-01 1.21816687e-01
      1.03846051e-01 8.91988277e-02 9.27424505e-02 9.78520960e-02
      1.07346892e-01 1.17151275e-01 1.40212730e-01 1.43188938e-01
      2.76375383e-01 2.78640211e-01 2.04337195e-01 1.61599770e-01
      1.23608105e-01 1.14139006e-01 9.72724035e-02 1.38517991e-01
      2.26394698e-01 1.35898709e-01 1.20063543e-01 1.38263986e-01
      2.06225008e-01 2.40034863e-01 1.78398266e-01 1.24083005e-01
      1.36382267e-01 1.81148574e-01 1.80748299e-01 1.16894551e-01
      1.29282951e-01 1.43540516e-01 1.63299382e-01 2.06083134e-01
      1.75823927e-01 2.18298942e-01 2.59668499e-01 1.58791736e-01
      1.27144665e-01 1.32350385e-01 1.43481016e-01 1.94275811e-01
      2.07555324e-01 1.76694602e-01 1.36862129e-01 1.17026582e-01
      1.09930024e-01 1.04568824e-01 1.62110731e-01 2.45968327e-01
      2.79500574e-01 2.80428320e-01 2.30779335e-01 1.34656459e-01
      1.06235653e-01 8.08407888e-02 1.20613784e-01 2.00943202e-01
      2.11704493e-01 1.94746330e-01 1.87056661e-01 1.55357748e-01
      1.10978171e-01 8.38628858e-02 1.73386917e-01 2.47944087e-01
      2.08195359e-01 1.39731601e-01 1.40758321e-01 1.89395949e-01
      2.03848958e-01 2.36480266e-01 1.98457226e-01 2.05632046e-01
      2.39180177e-01 1.73532963e-01 2.27454707e-01 1.85682893e-01
      1.69838116e-01 1.45527169e-01 1.12919070e-01 1.86764687e-01
      8.42731446e-02 7.40350559e-02 1.31537110e-01 1.39088765e-01
      1.53996944e-01 1.55675188e-01 1.25973478e-01 9.72908586e-02
      8.91944990e-02 1.22524999e-01 1.01629421e-01 1.01247229e-01
      1.34923860e-01 1.36918128e-01 1.49565056e-01 1.80898830e-01
      1.49626032e-01 1.39519319e-01 1.51906818e-01 1.35695606e-01
      1.42081693e-01 1.75907493e-01 2.03990355e-01 2.06557468e-01
      1.88470989e-01 1.62136763e-01 1.15881920e-01 9.67822745e-02
      6.94192126e-02 8.80866051e-02 8.55868384e-02 1.48241103e-01
      2.28131175e-01 2.69784838e-01 2.19758660e-01 1.39971808e-01
      1.70680270e-01 2.15295479e-01 3.25066805e-01 3.05559218e-01
      1.86085880e-01 1.10384643e-01 7.87685364e-02 8.93709436e-02
      1.09653175e-01 1.28948897e-01 1.85105994e-01 2.98592567e-01
      2.99698204e-01 1.73773617e-01 9.77749303e-02 7.86591992e-02
      7.36118406e-02 7.99970329e-02 1.11552477e-01 1.04923837e-01
      1.50043860e-01 1.82090327e-01 1.78117350e-01 1.81290776e-01
      1.66915253e-01 1.63897663e-01 1.40785888e-01 1.71259135e-01
      1.59255862e-01 1.52711332e-01 1.55743405e-01 1.55661196e-01
      1.41346961e-01 1.36108086e-01 1.23579532e-01 1.31050020e-01
      1.06650516e-01 1.03085846e-01 1.40323475e-01 1.84716403e-01
      2.22663045e-01 2.30887190e-01 2.40022197e-01 1.94007054e-01
      1.52068123e-01 2.02358618e-01 1.65662318e-01 1.74921304e-01
      1.76237464e-01 1.52843028e-01 1.48092255e-01 1.60542175e-01
      1.75824359e-01 1.82284623e-01 9.81954634e-02 1.00658499e-01
      9.55383256e-02 1.14944845e-01 2.90505409e-01 4.64865983e-01
      3.70176017e-01 1.61732092e-01 1.22184187e-01 9.16715339e-02
      1.12544402e-01 1.52970627e-01 1.66975960e-01 1.42273754e-01
      1.00878797e-01 7.21090883e-02 6.74906373e-02 6.98365644e-02
      2.01670364e-01 2.35932738e-01 2.28159845e-01 1.80824548e-01
      1.39497846e-01 8.89380053e-02 7.31059909e-02 8.46672505e-02
      1.14412606e-01 2.05035344e-01 2.04616517e-01 1.74043193e-01
      1.56220272e-01 1.14292346e-01 9.16195735e-02 1.40700936e-01
      2.01542675e-01 1.91188470e-01 1.58657968e-01 1.21012539e-01
      1.37068406e-01 1.17260754e-01 1.49528727e-01 1.45867735e-01
      1.77595764e-01 1.83400393e-01 2.15160817e-01 1.48063675e-01
      1.78678349e-01 1.71689510e-01 2.01631680e-01 2.59872586e-01
      2.14459360e-01 1.73182592e-01 1.76685765e-01 1.55573562e-01
      1.94607347e-01 1.68873370e-01 1.76796973e-01 1.78590834e-01
      1.63411260e-01 1.62806049e-01 1.60206735e-01 1.58068761e-01
      1.59847155e-01 1.43848047e-01 1.32995903e-01 1.54609352e-01
      1.79110512e-01 2.23192364e-01 2.69183248e-01 2.71915585e-01
      1.58832699e-01 1.48465604e-01 5.75850680e-02 8.14518481e-02
      1.17855042e-01 1.32168233e-01 1.71164706e-01 4.18182611e-01
      2.98714638e-01 8.10823068e-02 6.49787635e-02 1.70350939e-01
      2.30626255e-01 2.61146843e-01 2.01834247e-01 1.42025113e-01
      1.04844756e-01 7.78151229e-02 6.89553916e-02 9.58562419e-02
      1.94637090e-01 2.16336444e-01 1.72698349e-01 1.38325527e-01
      1.04154624e-01 8.08811486e-02 9.62964594e-02 1.15371257e-01
      1.37167573e-01 1.19233243e-01 1.51594505e-01 1.34120226e-01
      1.45531848e-01 2.18107998e-01 3.29503626e-01 2.50839978e-01
      1.65441871e-01 1.28083140e-01 1.04230568e-01 8.95855129e-02
      1.15725078e-01 1.39240757e-01 1.73674136e-01 1.88333571e-01
      1.72974691e-01 1.53889000e-01 1.13431960e-01 1.27195328e-01
      1.09760754e-01 1.34134427e-01 1.88981935e-01 2.11385563e-01
      2.39396527e-01 2.30812266e-01 1.83607131e-01 1.29772305e-01
      1.15865946e-01 1.02878518e-01 1.28469914e-01 1.59423977e-01
      2.28053197e-01 2.83491522e-01 2.45141566e-01 1.97180465e-01
      1.41174182e-01 8.48838985e-02 6.45128042e-02 1.19156636e-01
      1.56627446e-01 2.30622709e-01 4.15872455e-01 2.50877559e-01
      1.13895610e-01 1.09952979e-01 1.44197345e-01 1.68513909e-01
      1.95477873e-01 2.05207139e-01 1.35073677e-01 9.40906554e-02
      7.04749897e-02 8.63436237e-02 1.00693434e-01 2.23451540e-01
      2.49236062e-01 2.11842015e-01 1.44510999e-01 1.09292954e-01
      8.88579935e-02 8.65684003e-02 1.10206246e-01 1.34975925e-01
      1.77595213e-01 1.42867237e-01 1.51042655e-01 1.42317742e-01
      1.28327757e-01 1.41742125e-01 1.26237050e-01 1.42127201e-01
      1.88866764e-01 9.60615873e-02 7.90596232e-02 7.94712082e-02
      1.09528311e-01 1.67472079e-01 1.79964706e-01 2.30715215e-01
      1.93666399e-01 1.29746869e-01 1.64321125e-01 1.46655813e-01
      1.93402633e-01 2.03123778e-01 2.08026886e-01 1.79569617e-01
      1.67586237e-01 1.49289891e-01 1.38408095e-01 7.55824894e-02
      8.67711231e-02 1.22974858e-01 1.70648485e-01 2.09467247e-01
      2.14143470e-01 1.65977165e-01 1.29467726e-01 9.01322663e-02
      7.43620843e-02 8.95648524e-02 1.31251410e-01 1.69217452e-01
      2.18836024e-01 3.57245892e-01 2.72705287e-01 1.43722981e-01
      8.78768712e-02 5.80556430e-02 7.86390156e-02 1.00381173e-01
      1.25689104e-01 1.48251638e-01 2.46619090e-01 2.27806345e-01
      6.48841038e-02 5.60959652e-02 1.33886218e-01 1.48059338e-01
      1.52038544e-01 1.54123500e-01 1.09721608e-01 9.19417664e-02
      8.31098184e-02 1.13261774e-01 1.25355065e-01 9.29315388e-02
      1.04369253e-01 1.32303923e-01 1.41220868e-01 1.00358784e-01
      8.49883854e-02 6.95030391e-02 6.56582192e-02 6.70556650e-02
      9.85914990e-02 1.31514668e-01 2.21266940e-01 2.65737623e-01
      1.67717040e-01 1.05451427e-01 8.28953460e-02 6.39914945e-02
      6.56928346e-02 1.37160972e-01 2.33711004e-01 2.15035647e-01
      1.84188783e-01 1.88815266e-01 2.06665859e-01 1.50674865e-01
      1.12093054e-01 8.66342708e-02 7.46846497e-02 7.67897815e-02
      1.13423884e-01 1.32429868e-01 2.15696067e-01 2.21202180e-01
      1.36455998e-01 9.05528292e-02 7.20266625e-02 9.52920988e-02
      1.02272615e-01 1.53130874e-01 2.41413996e-01 2.79324383e-01
      2.10013077e-01 1.40148625e-01 1.16272718e-01 9.67295468e-02
      9.88481566e-02 9.24613997e-02 1.61168084e-01 1.81346849e-01
      2.29440421e-01 3.20024073e-01 4.98817652e-01 3.73689264e-01
      1.17728166e-01 9.77821797e-02 7.00612813e-02 7.87926018e-02
      9.65498388e-02 1.14954956e-01 1.14484124e-01 1.24078028e-01
      2.70441532e-01 1.42929167e-01 1.60356045e-01 1.85252488e-01
      2.03084648e-01 1.61556378e-01 1.37571424e-01 1.29376441e-01
      1.16488963e-01 1.04342163e-01 1.17326453e-01 7.23167285e-02
      1.07051209e-01 2.55950153e-01 2.77924389e-01 2.13061661e-01
      1.63510919e-01 1.50927901e-01 1.60964325e-01 8.66242275e-02
      1.69350520e-01 1.70160919e-01 1.54184833e-01 1.51695460e-01
      1.64751366e-01 1.39523908e-01 1.60389662e-01 1.92764774e-01
      1.49881303e-01</_>
    <_>
      1.02798648e-01 8.19711834e-02 8.37161541e-02 1.14727676e-01
      2.04646409e-01 1.84436902e-01 1.28174394e-01 7.36412704e-02
      4.93719131e-02 8.47492665e-02 9.02416632e-02 1.32951468e-01
      1.89735621e-01 3.31481278e-01 2.60250211e-01 1.47211418e-01
      8.90891328e-02 7.71207511e-02 9.93982404e-02 9.35690701e-02
      1.03509746e-01 2.01832056e-01 3.69391769e-01 3.27003151e-01
      1.46340400e-01 7.84635767e-02 6.87839016e-02 7.82307982e-02
      1.38061091e-01 1.99971780e-01 2.25756392e-01 3.47090930e-01
      2.90010899e-01 1.34717390e-01 1.05319493e-01 6.74798116e-02
      6.60108328e-02 6.32809028e-02 5.74896857e-02 6.10985793e-02
      1.64756566e-01 1.95791066e-01 7.69468620e-02 5.22443913e-02
      4.59893197e-02 4.25417684e-02 7.11435303e-02 8.18220749e-02
      1.12213761e-01 1.92096755e-01 1.78596184e-01 1.07554965e-01
      7.67657682e-02 3.53711657e-02 9.05947983e-02 1.10152379e-01
      1.31395116e-01 1.65308788e-01 2.20645845e-01 1.98179126e-01
      1.39045417e-01 9.50707942e-02 6.48511127e-02 1.20961010e-01
      9.61817503e-02 1.09125592e-01 2.03394234e-01 4.16503161e-01
      3.33909392e-01 8.91816169e-02 5.49654625e-02 5.50441220e-02
      1.21129334e-01 1.35107532e-01 1.62806496e-01 2.16757938e-01
      2.31134757e-01 3.09189498e-01 1.82468966e-01 1.00460432e-01
      9.19412076e-02 1.05859540e-01 1.07251570e-01 1.37819394e-01
      1.43295854e-01 1.92055672e-01 1.59620464e-01 8.45113322e-02
      6.24054037e-02 8.05830732e-02 1.31599233e-01 1.02364995e-01
      9.99553502e-02 8.89633447e-02 1.20724589e-01 1.83894053e-01
      1.60491779e-01 1.57495871e-01 1.82841137e-01 7.08524287e-02
      6.61656410e-02 7.08063990e-02 1.11946322e-01 1.50700390e-01
      1.05102189e-01 5.59558459e-02 4.72887605e-02 4.54414114e-02
      3.32053266e-02 3.23934108e-02 9.03335810e-02 2.14901209e-01
      3.49312246e-01 3.01728606e-01 1.38112336e-01 5.89423105e-02
      3.84525247e-02 7.90731981e-02 4.24247123e-02 3.78321707e-02
      5.94011657e-02 1.26913324e-01 8.91666785e-02 3.98880318e-02
      3.62527221e-02 3.79623547e-02 6.03206493e-02 4.66294587e-02
      5.81822433e-02 1.01918779e-01 1.21432789e-01 8.35538581e-02
      4.61722314e-02 3.94078642e-02 4.85251881e-02 8.17225426e-02
      9.71083343e-02 1.79106429e-01 1.86560765e-01 1.35553852e-01
      1.33853048e-01 1.26107529e-01 1.39251545e-01 1.09205745e-01
      2.37393901e-01 3.85447443e-01 3.11260641e-01 2.90099859e-01
      1.88453421e-01 1.25772208e-01 6.49820939e-02 4.98396009e-02
      6.47047684e-02 4.66410041e-01 2.69358307e-01 1.20948039e-01
      6.04343265e-02 4.71620560e-02 4.76328768e-02 3.51569802e-02
      5.70864528e-02 1.94388121e-01 4.57063049e-01 2.96428353e-01
      1.28934070e-01 8.53598639e-02 6.80087432e-02 5.19925579e-02
      4.54334356e-02 4.11719643e-02 1.57014251e-01 1.31936252e-01
      6.47067800e-02 1.23017281e-01 2.03477189e-01 1.88178122e-01
      1.14893250e-01 8.57065916e-02 8.75880942e-02 1.52752310e-01
      4.60041374e-01 1.56118408e-01 1.00223243e-01 1.59135118e-01
      2.19327405e-01 1.56975776e-01 1.06723011e-01 1.53483272e-01
      2.47637153e-01 5.92424087e-02 3.96099165e-02 1.13842286e-01
      1.62290335e-01 2.70083934e-01 2.31633931e-01 1.30844697e-01
      1.24285907e-01 8.06028694e-02 4.55580913e-02 8.62502977e-02
      2.58269161e-01 5.83088696e-01 3.31149906e-01 1.40265927e-01
      1.02485016e-01 6.78515434e-02 3.58542167e-02 2.03440607e-01
      2.12715775e-01 2.25485817e-01 1.98107600e-01 1.99399754e-01
      1.33686706e-01 8.59258324e-02 8.43038484e-02 1.60021886e-01
      1.02371335e-01 7.98008144e-02 1.21886685e-01 1.92965195e-01
      1.96473628e-01 2.21309319e-01 1.88606098e-01 1.15639247e-01
      9.68149230e-02 8.86875987e-02 7.42902830e-02 6.57761544e-02
      7.83643648e-02 1.24997385e-01 1.46142676e-01 8.02865997e-02
      5.48388809e-02 3.98788527e-02 1.12028018e-01 1.01628788e-01
      8.55482295e-02 9.22450498e-02 1.17603980e-01 1.10764384e-01
      1.27624556e-01 1.03632405e-01 1.12538390e-01 1.11004859e-01
      1.53333083e-01 2.54974246e-01 3.07954520e-01 1.21171959e-01
      2.09014580e-01 1.70634106e-01 8.51870105e-02 8.99726599e-02
      7.08671287e-02 5.74151054e-02 1.08345479e-01 1.02828383e-01
      1.08533174e-01 7.08378702e-02 4.10543121e-02 4.61344868e-02
      6.49254173e-02 8.53125304e-02 8.00771639e-02 1.22641675e-01
      1.82134688e-01 3.89124453e-01 2.32054994e-01 8.62789452e-02
      5.88742644e-02 5.61981574e-02 1.27696261e-01 8.33370611e-02
      1.28070027e-01 1.60490006e-01 1.86598212e-01 2.56060272e-01
      1.79572552e-01 1.38610989e-01 1.38016373e-01 1.10796280e-01
      9.02056023e-02 9.57139805e-02 1.17245167e-01 1.58956721e-01
      1.70722261e-01 1.22989014e-01 8.01988989e-02 8.95056352e-02
      7.56390616e-02 5.32099940e-02 5.46229593e-02 8.47439766e-02
      1.00365095e-01 1.05633408e-01 8.50475729e-02 8.50654691e-02
      7.72062242e-02 3.30940783e-02 3.89650837e-02 1.81912631e-01
      3.08360577e-01 2.34084204e-01 1.37856126e-01 9.01687443e-02
      1.10640146e-01 8.02253708e-02 5.66578984e-01 5.75736105e-01
      1.45406723e-01 1.24263108e-01 1.54916346e-01 8.14078227e-02
      7.71007761e-02 1.44407541e-01 2.26763859e-01 1.30083948e-01
      7.55653158e-02 7.16374665e-02 9.85793248e-02 1.07027031e-01
      1.19213872e-01 1.18478738e-01 1.00427106e-01 6.30935282e-02
      1.10760830e-01 9.33000743e-02 1.32334158e-01 1.41684979e-01
      1.89520463e-01 1.91496521e-01 1.85878098e-01 1.19916484e-01
      1.00721836e-01 9.21072587e-02 8.97001252e-02 8.67880508e-02
      6.54012859e-02 9.36492011e-02 1.79769278e-01 1.67484552e-01
      1.56863779e-01 1.39815927e-01 2.23952547e-01 2.28264660e-01
      1.45950571e-01 8.75399336e-02 7.18274042e-02 6.45718724e-02
      6.68200254e-02 6.69493377e-02 7.34349713e-02 4.70374763e-01
      1.64967075e-01 9.88167748e-02 9.68749151e-02 8.74258652e-02
      5.05677052e-02 7.65042603e-02 6.24812283e-02 1.68922842e-01
      1.22461058e-01 1.79799855e-01 3.12910408e-01 4.95668501e-01
      4.98476624e-01 1.73157185e-01 3.64694893e-02 3.34121324e-02
      5.04145510e-02 2.30731025e-01 3.29875022e-01 1.71632871e-01
      1.30165175e-01 2.49194995e-01 1.93531692e-01 7.63973594e-02
      4.22796085e-02 4.71313260e-02 1.68379560e-01 1.52663663e-01
      2.06100196e-01 2.57716358e-01 2.23288000e-01 1.09659918e-01
      8.82057771e-02 1.14917181e-01 9.76825580e-02 1.34322494e-01
      1.38361380e-01 9.91171598e-02 1.38466164e-01 2.52402157e-01
      2.62850881e-01 1.52354091e-01 1.49109304e-01 1.18472651e-01
      1.41999811e-01 1.26188695e-01 1.05067790e-01 1.58222750e-01
      1.79545552e-01 1.74759895e-01 1.94003999e-01 2.01658949e-01
      1.83395475e-01 1.65670022e-01 1.64006189e-01 2.14466825e-01
      2.16352239e-01 1.09728724e-01 1.18216380e-01 1.42327651e-01
      1.61114812e-01 1.61291540e-01 1.25108600e-01 1.67361215e-01
      1.86059967e-01 1.96371213e-01 2.65608281e-01 2.50199378e-01
      1.03692584e-01 1.25349104e-01 1.60415173e-01 1.07756205e-01
      9.88797396e-02 1.81471512e-01 2.60688126e-01 3.09985936e-01
      2.16336265e-01 1.28493056e-01 1.06980912e-01 7.39669055e-02
      4.07943092e-02 4.35958952e-02 8.15925375e-02 1.77808031e-01
      2.97265202e-01 3.18619639e-01 1.30247757e-01 6.21929653e-02
      1.65040158e-02 1.57671332e-01 1.52640641e-01 1.66800871e-01
      1.85859457e-01 2.46993974e-01 2.79238164e-01 2.09493414e-01
      1.42333090e-01 1.14411920e-01 5.91131002e-02 7.53600225e-02
      1.40658647e-01 2.13210627e-01 2.73525059e-01 2.57882237e-01
      1.74189776e-01 1.63440764e-01 8.95660594e-02 9.04977396e-02
      1.11755878e-01 1.53626189e-01 1.99272379e-01 2.77550638e-01
      3.28772843e-01 1.64082319e-01 8.53631496e-02 5.22717461e-02
      1.62286222e-01 1.20256722e-01 1.46487445e-01 1.94572642e-01
      2.13386059e-01 2.25228325e-01 1.67190224e-01 1.14205904e-01
      1.31880268e-01 8.67840797e-02 7.93471709e-02 1.00713670e-01
      1.20999269e-01 2.51057714e-01 3.83367330e-01 1.48814127e-01
      8.53823796e-02 5.99139556e-02 9.22482461e-02 1.02517404e-01
      1.59603998e-01 2.09729880e-01 3.99743855e-01 3.32381696e-01
      1.41192138e-01 7.28657618e-02 5.86148798e-02 3.66464108e-02
      1.12457648e-02 5.25638461e-02 1.47883400e-01 2.59863913e-01
      1.74689800e-01 9.46940854e-02 6.00758009e-02 7.35143246e-03
      2.46646732e-01 1.75868541e-01 1.49424568e-01 1.43373489e-01
      1.89152032e-01 2.25343823e-01 1.97565928e-01 1.16435342e-01
      9.92807373e-02</_>
    <_>
      4.55063395e-02 4.84654345e-02 1.04685925e-01 1.86827913e-01
      2.49769807e-01 2.63562441e-01 7.60649145e-02 6.02416992e-02
      4.09876853e-02 1.03838436e-01 9.46736857e-02 1.17057562e-01
      1.34034395e-01 2.55209118e-01 1.65795565e-01 9.29619893e-02
      1.30488917e-01 1.43167660e-01 9.87015069e-02 6.28618672e-02
      6.17902800e-02 1.20290421e-01 2.97736108e-01 2.28049099e-01
      8.60512480e-02 9.52138528e-02 9.32898596e-02 3.38854194e-02
      3.39172035e-02 6.16992079e-02 1.14929587e-01 3.27681899e-01
      3.61494184e-01 1.63777336e-01 8.13492611e-02 2.72645988e-02
      3.55508849e-02 4.05214764e-02 5.60082495e-02 8.38384554e-02
      1.29113927e-01 1.10112473e-01 6.61211908e-02 3.66627201e-02
      2.63868757e-02 2.65858825e-02 2.27831341e-02 5.97710274e-02
      8.60544890e-02 1.48947358e-01 2.02324361e-01 6.76990747e-02
      3.97310406e-02 2.53567826e-02 2.13457733e-01 2.11579546e-01
      1.66637748e-01 1.37365699e-01 1.79673940e-01 2.08101869e-01
      1.44349933e-01 1.74160302e-01 1.54378265e-01 1.47569507e-01
      1.13494419e-01 1.43113405e-01 1.63267672e-01 2.07463413e-01
      1.85275346e-01 1.04156949e-01 9.50648487e-02 7.87472501e-02
      8.09644535e-02 2.21058130e-01 2.42340147e-01 2.15572253e-01
      1.19895868e-01 1.33524686e-01 1.39744341e-01 7.11895525e-02
      5.38130179e-02 2.09799007e-01 3.60740989e-01 3.61035168e-01
      1.65516168e-01 1.06289186e-01 6.57129958e-02 6.79836348e-02
      6.91041425e-02 6.22217767e-02 3.95055622e-01 1.63805783e-01
      9.75792259e-02 1.13760903e-01 5.12889586e-02 5.07938489e-02
      1.08049698e-01 2.02371478e-01 2.79634684e-01 2.82508671e-01
      7.73294047e-02 5.07997610e-02 3.71795669e-02 3.19822431e-02
      6.13279305e-02 5.92095368e-02 1.13787547e-01 2.82130837e-01
      4.47018780e-02 7.85119981e-02 1.50283009e-01 2.80200243e-01
      5.09729743e-01 3.46197009e-01 1.17852233e-01 9.50434878e-02
      5.79516068e-02 4.33136448e-02 2.96705235e-02 4.74676564e-02
      5.59432395e-02 1.21792503e-01 9.81183127e-02 5.03722131e-02
      3.88548374e-02 2.65304763e-02 7.77117163e-02 5.55548221e-02
      7.57632926e-02 1.21353015e-01 1.79501981e-01 1.56146646e-01
      5.98824359e-02 2.31646579e-02 1.66788585e-02 2.76897401e-02
      5.83409332e-02 2.02682883e-01 4.87177819e-01 4.87835616e-01
      1.38881162e-01 5.11977971e-02 1.95739381e-02 1.64467711e-02
      1.03678815e-01 1.48721546e-01 1.38688743e-01 1.55115455e-01
      1.71488568e-01 2.05065385e-01 1.14379734e-01 5.69855087e-02
      4.33250703e-02 6.70640916e-02 5.47496006e-02 1.28031164e-01
      2.33546674e-01 2.48774573e-01 2.36914992e-01 1.32606193e-01
      6.54372498e-02 4.70495820e-02 7.63918459e-02 8.76317546e-02
      8.02260488e-02 1.05986536e-01 1.67468607e-01 1.35082945e-01
      7.93626830e-02 5.90781271e-02 5.62621020e-02 1.08107515e-01
      8.27205256e-02 5.57939783e-02 8.72366577e-02 2.36940160e-01
      1.79483011e-01 1.03821650e-01 1.16849750e-01 8.98145810e-02
      1.82713360e-01 1.98570397e-02 2.45921277e-02 3.01433094e-02
      6.07222058e-02 1.04830600e-01 2.48257145e-01 3.75690609e-01
      2.34497279e-01 3.56224477e-02 2.76016686e-02 4.88637201e-02
      9.43817794e-02 1.62155300e-01 2.47658208e-01 1.06903121e-01
      6.00755252e-02 3.27064879e-02 7.31594339e-02 6.25171065e-02
      1.12776712e-01 1.61449745e-01 3.10990393e-01 3.48917514e-01
      1.75962269e-01 6.63247108e-02 4.29393686e-02 8.97809342e-02
      8.06132406e-02 9.06411782e-02 1.47710010e-01 2.74483114e-01
      4.27354366e-01 2.01430351e-01 1.33709326e-01 1.00573018e-01
      9.82175171e-02 7.86539242e-02 7.85112157e-02 1.48828790e-01
      2.55752563e-01 2.90856183e-01 2.34098494e-01 1.79628149e-01
      1.05545662e-01 4.11933437e-02 4.24828120e-02 4.89384942e-02
      9.10037905e-02 1.56972647e-01 2.56381959e-01 1.26607716e-01
      5.88443764e-02 3.58904600e-02 4.37727757e-02 6.03405423e-02
      1.23823777e-01 1.77111074e-01 1.67828798e-01 8.60431418e-02
      1.03830911e-01 8.58600214e-02 4.84664254e-02 7.65886605e-02
      2.77777106e-01 3.54651183e-01 3.27911764e-01 3.50400984e-01
      1.90040380e-01 3.38662155e-02 3.30625549e-02 3.61644290e-02
      1.49580956e-01 9.16029140e-02 1.09882660e-01 1.36026308e-01
      1.43021137e-01 1.48255423e-01 1.07165590e-01 6.87895790e-02
      8.37087035e-02 8.54682475e-02 1.12848081e-01 1.54120937e-01
      1.61595076e-01 2.10079357e-01 2.32293770e-01 1.77295938e-01
      9.00424719e-02 6.46396577e-02 1.40716881e-01 8.98580849e-02
      1.20784000e-01 1.89647526e-01 2.44181678e-01 2.57358521e-01
      1.43126532e-01 1.20735623e-01 9.03160051e-02 1.32986218e-01
      7.31915385e-02 8.44564214e-02 1.49446711e-01 1.95443988e-01
      3.37683886e-01 3.01466078e-01 1.93654582e-01 1.62426054e-01
      8.55506957e-02 4.78137173e-02 4.57277857e-02 6.69324398e-02
      1.05654806e-01 7.38777444e-02 5.00302538e-02 5.22745699e-02
      5.20528480e-02 9.04165804e-02 1.00607835e-01 1.84599712e-01
      2.20711216e-01 2.83896387e-01 2.05514103e-01 2.24085540e-01
      1.23902291e-01 1.30144656e-01 1.64567873e-01 3.48157406e-01
      3.23029697e-01 1.66955113e-01 2.95635432e-01 1.80907592e-01
      8.66945311e-02 1.09905772e-01 1.67208612e-01 2.34499693e-01
      1.49104312e-01 1.01480052e-01 1.68738186e-01 3.34176809e-01
      1.99211270e-01 1.48792580e-01 1.19169831e-01 1.29015073e-01
      1.00895017e-01 1.00714475e-01 9.96094197e-02 1.02579407e-01
      1.65787205e-01 1.44850522e-01 9.27629471e-02 8.62499848e-02
      9.90284011e-02 6.37257025e-02 6.59304932e-02 7.37745687e-02
      1.31280720e-01 1.57405376e-01 1.39815807e-01 1.03575118e-01
      9.11935568e-02 7.08789006e-02 4.98536266e-02 3.97201069e-02
      5.74663542e-02 5.78906126e-02 5.07296175e-02 5.75027466e-02
      4.20419388e-02 5.13045155e-02 4.74921167e-02 6.33479953e-02
      5.50958999e-02 5.97049743e-02 1.21183380e-01 9.11800340e-02
      5.55711947e-02 4.86624837e-02 4.13856842e-02 4.79764678e-02
      1.68764293e-01 1.52448401e-01 1.41055018e-01 4.02488798e-01
      4.34752196e-01 1.01048715e-01 1.15890168e-01 5.26949838e-02
      8.23796391e-02 1.57922715e-01 1.03430517e-01 1.88162029e-01
      2.19977155e-01 1.70393527e-01 9.92561281e-02 7.13631660e-02
      2.52485331e-02 3.88734564e-02 1.14181615e-01 5.20813279e-02
      1.14648178e-01 3.56727034e-01 2.76977152e-01 2.02293426e-01
      1.74848169e-01 7.36675560e-02 6.38638437e-02 7.45301545e-02
      9.89389718e-02 1.66587874e-01 1.41139299e-01 1.70414701e-01
      3.30309272e-01 1.47695884e-01 1.15808919e-01 4.36319336e-02
      2.13564545e-01 1.23096824e-01 8.15797448e-02 1.14181265e-01
      1.59494251e-01 1.38079390e-01 9.82963666e-02 1.26943171e-01
      2.04346612e-01 4.19929355e-01 3.94755572e-01 1.21424049e-01
      5.25249019e-02 4.58843298e-02 3.80743071e-02 3.49777788e-02
      5.20695299e-02 1.67289615e-01 3.81035924e-01 5.27788103e-01
      2.63801247e-01 8.60281140e-02 4.34896834e-02 3.83620337e-02
      5.52370660e-02 6.14334121e-02 8.06452110e-02 1.38247401e-01
      2.30801910e-01 2.47598499e-01 2.61547655e-01 2.79781401e-01
      2.11264715e-01 7.42710009e-02 2.96854507e-02 3.30433473e-02
      5.98422289e-02 3.54099497e-02 1.05204515e-01 3.80729616e-01
      4.89071846e-01 1.43659979e-01 6.00045137e-02 3.55405100e-02
      3.36853787e-02 1.38409510e-01 6.11698702e-02 6.93443641e-02
      9.92048755e-02 1.89103574e-01 1.47196919e-01 8.10746476e-02
      6.57271594e-02 5.82134798e-02 6.53432012e-02 1.03327274e-01
      9.55724791e-02 1.45677447e-01 4.02869821e-01 1.95391312e-01
      9.23186764e-02 1.01234138e-01 7.31897801e-02 5.90626188e-02
      6.29675388e-02 9.45624039e-02 1.09919913e-01 1.49317428e-01
      2.20190272e-01 1.58195704e-01 1.19979724e-01 9.39442515e-02
      3.44575830e-02 4.90669534e-02 6.93568215e-02 8.84153172e-02
      1.24711670e-01 1.86613932e-01 8.59346464e-02 3.34655493e-02
      2.26800554e-02 3.03006414e-02 3.26733738e-02 3.89096327e-02
      5.18146791e-02 9.13652256e-02 1.05638437e-01 8.20925534e-02
      5.39469197e-02 2.31275279e-02 1.78276431e-02 2.14831755e-02
      5.40525205e-02 5.65958954e-02 2.30728701e-01 4.33171958e-01
      2.58138299e-01 6.79845065e-02 1.79464575e-02 1.21856719e-01
      1.26273066e-01 1.81236207e-01 2.65048504e-01 2.59440303e-01
      2.47935504e-01 1.84928477e-01 8.61451775e-02 5.79437427e-02
      1.66735664e-01 1.12720110e-01 1.38846159e-01 1.56753972e-01
      1.57544494e-01 1.54484689e-01 1.08914301e-01 7.21507668e-02
      7.93463811e-02</_>
    <_>
      1.41106308e-01 1.10623263e-01 1.12632573e-01 1.30130813e-01
      2.14273199e-01 2.35698387e-01 1.63790569e-01 1.32891417e-01
      1.24015719e-01 8.21869299e-02 7.09396452e-02 8.27460960e-02
      1.00173354e-01 1.04765698e-01 1.00450739e-01 1.23673119e-01
      8.31171945e-02 7.36515447e-02 1.12106293e-01 1.68176904e-01
      1.75695017e-01 1.37274623e-01 9.71721858e-02 8.77568647e-02
      9.40807313e-02 1.60140589e-01 1.06111966e-01 1.41130432e-01
      3.71865153e-01 2.60098189e-01 8.91229063e-02 1.12194568e-01
      1.30568668e-01 8.27718526e-02 8.57141018e-02 1.10772647e-01
      1.52917728e-01 1.72979027e-01 2.55866557e-01 3.41071516e-01
      2.98779488e-01 1.77780211e-01 1.63692847e-01 1.42033368e-01
      1.11184001e-01 1.32103860e-01 1.37008250e-01 1.89306244e-01
      2.28690743e-01 2.48812556e-01 1.92064404e-01 1.40301764e-01
      1.25043809e-01 1.14178218e-01 1.97351173e-01 1.91814095e-01
      2.09086001e-01 1.99710682e-01 2.09289387e-01 1.88478619e-01
      1.35909155e-01 1.57903820e-01 1.77599281e-01 1.93207055e-01
      1.96088031e-01 1.81828842e-01 1.59404352e-01 1.61220685e-01
      1.55843258e-01 1.36711985e-01 1.73565835e-01 1.89963996e-01
      7.02026412e-02 8.44300538e-02 9.10811648e-02 1.10297322e-01
      1.20762080e-01 1.02101788e-01 9.44821164e-02 6.63186535e-02
      5.22754863e-02 1.74778923e-01 1.44464001e-01 2.19637200e-01
      2.33904481e-01 2.34821886e-01 2.97487527e-01 3.51506382e-01
      2.35149905e-01 1.99514270e-01 1.95667595e-01 2.20561743e-01
      2.89287090e-01 3.28670651e-01 2.25638166e-01 1.00744754e-01
      9.16979238e-02 1.12322390e-01 1.47684485e-01 1.00930914e-01
      1.13680914e-01 1.31882414e-01 2.09862024e-01 2.47535855e-01
      1.66943148e-01 1.28282920e-01 7.59531409e-02 8.03304836e-02
      6.44798651e-02 7.16748834e-02 7.90277421e-02 8.92831981e-02
      8.17763358e-02 8.10355842e-02 7.37443566e-02 6.69569224e-02
      6.18137568e-02 1.05219871e-01 9.42323580e-02 9.89592522e-02
      8.06471631e-02 7.27872550e-02 6.60140291e-02 7.33176097e-02
      6.62763491e-02 7.44996443e-02 1.03573479e-01 7.89457113e-02
      8.29149708e-02 8.98039564e-02 8.88228267e-02 7.99554139e-02
      6.46077096e-02 5.79890423e-02 7.70864040e-02 6.87758699e-02
      6.60221651e-02 9.07915458e-02 1.51117116e-01 1.86729059e-01
      1.53806210e-01 1.08732864e-01 9.26114246e-02 6.73964992e-02
      1.70900285e-01 2.08967522e-01 2.78986990e-01 2.61713147e-01
      3.28781158e-01 3.28876019e-01 1.97464705e-01 1.42654955e-01
      1.22625239e-01 1.69616967e-01 1.03267722e-01 8.48917440e-02
      9.96437967e-02 8.76101628e-02 1.09174043e-01 1.33841470e-01
      1.46774441e-01 1.37275741e-01 7.00717196e-02 8.54975507e-02
      1.16439916e-01 1.52624592e-01 2.12643564e-01 2.17115521e-01
      1.53586581e-01 1.14004984e-01 8.63810107e-02 3.11360806e-01
      2.16741279e-01 7.47005045e-02 9.14452001e-02 1.02236703e-01
      8.50676745e-02 8.87915194e-02 1.29696324e-01 1.66430786e-01
      1.52506307e-01 5.74624836e-01 4.54199135e-01 2.05253407e-01
      1.93105236e-01 1.15750432e-01 6.33256361e-02 4.25642319e-02
      6.51957914e-02 1.04690023e-01 1.31091908e-01 2.39351988e-01
      1.62132800e-01 1.07947767e-01 1.12035796e-01 8.48634392e-02
      6.98558390e-02 7.90818557e-02 1.46853447e-01 1.56201363e-01
      3.50639910e-01 5.07755995e-01 3.57058287e-01 2.32621819e-01
      1.27381235e-01 1.07726559e-01 1.28580600e-01 1.10121377e-01
      1.06324501e-01 1.47153705e-01 1.99460462e-01 2.42132470e-01
      2.16843411e-01 1.63929150e-01 1.11310035e-01 1.03049979e-01
      7.07686841e-02 6.61866367e-02 8.46366957e-02 1.07428789e-01
      1.23686336e-01 1.03732824e-01 9.89033356e-02 9.23538581e-02
      7.92006254e-02 8.94221514e-02 9.39149112e-02 1.33809447e-01
      1.97003111e-01 2.54065812e-01 1.83396697e-01 1.02163948e-01
      9.61538032e-02 1.18208110e-01 6.95947111e-02 8.03174376e-02
      1.46773696e-01 1.94321707e-01 1.93847671e-01 1.81066275e-01
      1.08447231e-01 6.78910315e-02 6.54328242e-02 5.99775165e-02
      1.11829765e-01 1.49234042e-01 2.77565897e-01 2.77985245e-01
      1.79898694e-01 9.39303935e-02 5.07915467e-02 4.64355722e-02
      1.31418273e-01 9.42151174e-02 1.08355254e-01 1.17372543e-01
      1.34809509e-01 9.32003632e-02 6.94320649e-02 7.17888325e-02
      7.91767836e-02 9.31183770e-02 9.28671136e-02 1.53072253e-01
      3.02758574e-01 4.67048794e-01 3.21282566e-01 1.32457092e-01
      8.63294750e-02 7.48443678e-02 1.08051755e-01 7.72180408e-02
      8.44813287e-02 8.59064311e-02 1.12364605e-01 1.45912558e-01
      1.14444330e-01 1.39272258e-01 1.16692401e-01 8.45373720e-02
      9.01017785e-02 9.67903435e-02 9.52275842e-02 1.30803898e-01
      1.58099979e-01 1.37339726e-01 1.34409815e-01 8.63519982e-02
      1.90665662e-01 1.49164379e-01 1.87335670e-01 2.20864177e-01
      1.85467541e-01 1.15650266e-01 1.00667737e-01 1.41860038e-01
      1.94009706e-01 9.25733596e-02 6.14193864e-02 7.76808336e-02
      1.50426179e-01 2.11072296e-01 2.02080891e-01 3.37162763e-01
      2.40192190e-01 2.24012285e-01 7.04541728e-02 6.02474436e-02
      6.50864616e-02 1.12548955e-01 1.30970329e-01 2.60433465e-01
      4.22213912e-01 3.41903925e-01 1.17526673e-01 1.21988572e-01
      9.99049172e-02 9.54903066e-02 1.02209508e-01 1.02306820e-01
      9.69536230e-02 9.88173038e-02 7.70306736e-02 7.31906220e-02
      9.32229981e-02 7.36124590e-02 8.49753469e-02 1.24456219e-01
      1.52837038e-01 1.51191175e-01 1.41099006e-01 1.20008931e-01
      1.06770463e-01 4.79165949e-02 5.19956350e-02 8.12236741e-02
      9.99846682e-02 1.10555366e-01 7.85246938e-02 5.38649447e-02
      4.80976105e-02 4.37925868e-02 5.48145697e-02 8.62391815e-02
      1.94913238e-01 3.02297920e-01 1.71221063e-01 9.61812511e-02
      6.46589249e-02 3.73955481e-02 3.36392559e-02 1.75615534e-01
      1.46047831e-01 1.79455861e-01 2.98604876e-01 4.06755060e-01
      2.12698832e-01 1.18732743e-01 8.99611190e-02 1.64928436e-01
      4.93246466e-02 5.19517288e-02 8.40697736e-02 2.42529690e-01
      2.83725619e-01 1.11290969e-01 7.41420910e-02 7.09196851e-02
      4.75443639e-02 1.36110574e-01 1.42321229e-01 1.57828420e-01
      1.83177561e-01 3.32696438e-01 2.76112080e-01 2.60322243e-01
      2.37428412e-01 1.76978067e-01 1.03562325e-01 1.10576943e-01
      1.23347752e-01 1.68115288e-01 3.51675659e-01 2.34939799e-01
      1.39657542e-01 1.08532816e-01 7.87053555e-02 7.91828111e-02
      6.09673299e-02 6.17367066e-02 5.85036315e-02 8.05549324e-02
      1.15176387e-01 1.67974859e-01 1.56249806e-01 1.00691214e-01
      2.32026994e-01 1.76967353e-01 1.55523375e-01 1.12430476e-01
      8.39380696e-02 5.11914901e-02 4.54716459e-02 5.70158958e-02
      9.51920003e-02 1.43917009e-01 1.34714186e-01 1.59107953e-01
      1.97437301e-01 1.69634864e-01 1.56206697e-01 1.06067881e-01
      1.25480488e-01 9.90570635e-02 1.68624774e-01 8.29892382e-02
      8.85984004e-02 1.39622301e-01 1.84682474e-01 1.06290333e-01
      8.20743442e-02 1.20936252e-01 1.24925271e-01 7.49996379e-02
      8.36914852e-02 1.56367332e-01 2.26747543e-01 2.68627197e-01
      1.56858996e-01 6.62727654e-02 4.22192663e-02 4.74072248e-02
      1.63699806e-01 1.37214750e-01 1.54298589e-01 1.90354198e-01
      2.43284270e-01 1.94438294e-01 1.54305875e-01 1.45286262e-01
      1.35515988e-01 2.04736814e-01 1.59707665e-01 1.59159809e-01
      1.85137913e-01 2.44357422e-01 2.11786643e-01 1.33883357e-01
      1.09497570e-01 1.08904906e-01 1.37389630e-01 1.49416208e-01
      1.40876994e-01 1.61574721e-01 1.87209174e-01 1.61613628e-01
      1.14930801e-01 2.40323454e-01 2.58701891e-01 1.66400507e-01
      1.41947106e-01 8.54557306e-02 5.26656471e-02 7.59303346e-02
      3.38677764e-01 1.45231590e-01 9.53104869e-02 1.99487016e-01
      1.63878828e-01 1.52594358e-01 1.67023778e-01 1.53453529e-01
      2.22637355e-01 1.70289293e-01 8.96540135e-02 8.92071128e-02
      1.60053805e-01 5.45829117e-01 2.12049812e-01 1.18254550e-01
      1.19926326e-01 7.41535276e-02 5.63390926e-02 3.87371145e-02
      1.28699943e-01 3.43883365e-01 1.39921755e-01 2.27676064e-01
      2.14330241e-01 2.18902722e-01 2.80707598e-01 2.91162670e-01
      3.32050264e-01 2.13968173e-01 9.59170759e-02 1.42211109e-01
      1.28230825e-01 1.29701808e-01 1.50182411e-01 2.05555499e-01
      2.10931182e-01 1.49999857e-01 1.29135981e-01 1.32278204e-01
      1.91074118e-01 1.18470035e-01 1.31479815e-01 1.71125874e-01
      2.16358989e-01 1.94935650e-01 1.47171453e-01 1.22244507e-01
      1.50638163e-01</_>
    <_>
      1.59787953e-01 1.48982525e-01 7.07984716e-02 8.46794322e-02
      1.35922387e-01 1.47434175e-01 1.19585894e-01 1.09467447e-01
      1.09478705e-01 1.61583066e-01 1.60526723e-01 2.19993189e-01
      1.90294921e-01 1.10042632e-01 1.53810486e-01 8.40723440e-02
      7.06601217e-02 8.65051970e-02 5.53756580e-02 3.27047668e-02
      4.64919880e-02 9.44221392e-02 2.07711190e-01 3.70197415e-01
      4.71001357e-01 2.45966852e-01 1.28198415e-01 2.48008236e-01
      1.96659178e-01 1.33723676e-01 1.45830587e-01 1.11814000e-01
      7.87999704e-02 9.06037986e-02 1.63681865e-01 2.45006159e-01
      2.32594594e-01 2.38520235e-01 1.52648970e-01 8.04236680e-02
      6.12396151e-02 4.71432731e-02 5.03159203e-02 5.75854778e-02
      1.06434956e-01 6.50075898e-02 6.48619011e-02 6.26926720e-02
      5.71572743e-02 8.26285928e-02 1.28315702e-01 1.24678694e-01
      9.54605639e-02 6.18885830e-02 4.88539994e-01 1.90073028e-01
      8.65835845e-02 5.24916574e-02 7.80397505e-02 7.96248093e-02
      7.92272165e-02 8.37659240e-02 2.59215742e-01 3.43232393e-01
      2.27014691e-01 2.21821234e-01 8.25445578e-02 3.85737680e-02
      4.62649688e-02 5.05606607e-02 1.04425922e-01 2.77956247e-01
      1.24525554e-01 1.38461158e-01 1.43973708e-01 1.92520976e-01
      1.64193302e-01 1.42821535e-01 1.03147268e-01 6.57796264e-02
      1.13832399e-01 1.85271561e-01 1.42642274e-01 1.28354207e-01
      1.83204994e-01 2.47402132e-01 3.98511201e-01 1.34770513e-01
      1.60335734e-01 2.26636663e-01 2.15298012e-01 1.89237833e-01
      1.99259415e-01 1.74845204e-01 1.20386668e-01 1.42682225e-01
      1.87479571e-01 1.75884619e-01 2.82988250e-01 1.48537159e-01
      9.74756181e-02 7.66458213e-02 8.01048949e-02 1.01640634e-01
      1.04177654e-01 1.17148258e-01 1.56305924e-01 1.62251845e-01
      1.04740568e-01 2.68209219e-01 3.50494295e-01 1.87782168e-01
      1.02673344e-01 5.89813888e-02 4.60868478e-02 9.22242403e-02
      6.24440126e-02 2.03153834e-01 5.71736991e-01 1.78528801e-01
      4.39821631e-02 7.10491464e-02 9.43031460e-02 6.93244040e-02
      3.60943750e-02 3.91590409e-02 1.32864505e-01 1.39103815e-01
      2.94597685e-01 3.56754959e-01 2.72178054e-01 9.74019319e-02
      3.42800952e-02 2.75604110e-02 4.92114574e-02 1.87762558e-01
      2.37996191e-01 2.16106489e-01 1.52859747e-01 2.40543380e-01
      1.98776320e-01 1.32441431e-01 1.24135748e-01 1.50799051e-01
      1.63454905e-01 1.80781826e-01 2.29877129e-01 1.19384594e-01
      2.01161250e-01 2.17367962e-01 1.08053818e-01 1.40899152e-01
      1.57332763e-01 1.60890937e-01 1.40214399e-01 1.71133235e-01
      1.56661049e-01 2.16118544e-01 1.35329545e-01 9.44006145e-02
      9.90145877e-02 1.18350379e-01 1.10232286e-01 7.47933984e-02
      7.08278269e-02 9.19172317e-02 1.03468381e-01 8.73733088e-02
      8.47141668e-02 1.04948379e-01 1.27197191e-01 4.58327718e-02
      5.01252264e-02 9.02591199e-02 1.23182237e-01 1.75566763e-01
      2.17127711e-01 1.31254166e-01 9.05810818e-02 5.97255155e-02
      4.17720862e-02 7.24058077e-02 1.37155399e-01 1.83686838e-01
      2.19304174e-01 1.43542141e-01 5.95107786e-02 3.44405137e-02
      2.36289091e-02 9.98442918e-02 1.04540743e-01 1.07339799e-01
      1.04866564e-01 1.00458942e-01 1.01117529e-01 8.27600956e-02
      8.17359164e-02 8.13025460e-02 1.24426469e-01 4.68592077e-01
      2.74106085e-01 2.08114579e-01 4.59900081e-01 2.40508765e-01
      5.46395853e-02 2.60926764e-02 3.01242620e-02 5.02005927e-02
      3.59305106e-02 9.68441740e-02 4.10082728e-01 5.17027557e-01
      4.82167423e-01 3.62176418e-01 1.54491305e-01 7.59229809e-02
      1.61820158e-01 1.03794694e-01 7.31771886e-02 6.97929338e-02
      8.03216249e-02 8.47825333e-02 8.91125947e-02 1.31827936e-01
      1.50388300e-01 1.12445749e-01 1.34400487e-01 7.94203505e-02
      5.18496335e-02 6.90226331e-02 7.20313266e-02 8.44349191e-02
      1.51975915e-01 1.86269864e-01 3.51606399e-01 2.64010578e-01
      9.84467492e-02 5.08541502e-02 6.99138269e-02 1.25969112e-01
      8.06368887e-02 9.56542045e-02 1.06994413e-01 6.08966649e-01
      3.67152959e-01 4.23741154e-02 3.03402580e-02 8.21921378e-02
      1.26142323e-01 6.91676140e-02 5.98937310e-02 1.51551306e-01
      2.73549676e-01 2.91800380e-01 1.90947071e-01 1.46723896e-01
      1.75598472e-01 1.41485751e-01 4.76484410e-02 4.52132151e-02
      1.17255621e-01 8.80727917e-02 8.87485370e-02 1.29827037e-01
      5.21036565e-01 5.77297807e-01 2.17598841e-01 1.67561546e-01
      1.44453660e-01 7.58150071e-02 1.28643751e-01 6.61813915e-02
      7.24247769e-02 1.29931286e-01 2.07477361e-01 1.85274839e-01
      1.39576182e-01 1.04721844e-01 7.58410394e-02 5.86343110e-02
      2.88787130e-02 3.12758386e-02 3.05890013e-02 4.20059301e-02
      3.69917154e-02 3.97761911e-02 5.55517450e-02 4.92797419e-02
      4.63175848e-02 5.28904796e-02 1.14633270e-01 1.83333650e-01
      1.65939152e-01 1.20226108e-01 5.90488240e-02 3.65756862e-02
      4.64166440e-02 2.71801017e-02 3.25698853e-02 5.27792908e-02
      1.82062730e-01 3.03146690e-01 2.61175185e-01 1.13267206e-01
      4.24686186e-02 3.37420441e-02 2.62367297e-02 1.53850047e-02
      4.42032516e-02 1.45467401e-01 3.12142849e-01 1.66638419e-01
      5.43176346e-02 4.23966609e-02 2.09436603e-02 8.85607302e-02
      8.51955339e-02 7.75796995e-02 1.04230277e-01 1.25521407e-01
      7.76691139e-02 5.51450923e-02 5.52878641e-02 7.23328814e-02
      9.19889137e-02 8.73257816e-02 8.27383697e-02 9.15104374e-02
      2.03693375e-01 2.87363052e-01 1.92984655e-01 1.20217197e-01
      1.14867441e-01 5.84724359e-02 3.88133824e-02 5.22137582e-02
      5.73351346e-02 4.83053438e-02 4.43826914e-02 4.58341241e-02
      4.70174961e-02 4.27070335e-02 8.47215876e-02 1.01731658e-01
      1.09057359e-01 9.58998352e-02 5.01183979e-02 3.86532284e-02
      2.90329084e-02 3.93264517e-02 5.79719059e-02 5.37407994e-02
      1.35776073e-01 4.08633351e-01 3.30154359e-01 1.56746760e-01
      7.69608542e-02 3.32954451e-02 5.74964285e-02 7.31736198e-02
      9.54135433e-02 5.97177595e-02 6.18091896e-02 1.16217360e-01
      1.24292269e-01 8.50773305e-02 6.80697635e-02 1.11231573e-01
      1.31210938e-01 5.26746035e-01 5.46089172e-01 2.67694026e-01
