%YAML:1.0
---
opencv_ml_svm:
   format: 3
   svmType: C_SVC
   kernel:
      type: LINEAR
   C: 1.
   term_criteria: { iterations:100 }
   var_count: 117
   class_count: 2
   class_labels: !!opencv-matrix
      rows: 2
      cols: 1
      dt: i
      data: [ 1065353216, 1073741824 ]
   sv_total: 1
   support_vectors:
      - [ 1.01291180e-01, 2.10666284e-01, 2.77513891e-01, 3.84994239e-01,
          3.20280641e-01, 2.37962872e-01, 2.43891671e-01, 1.08877294e-01,
          1.40222058e-01, -1.87620938e-01, 5.28677814e-02,
          1.30696744e-01, 2.96912998e-01, 3.60003799e-01, 1.84901789e-01,
          2.30657712e-01, 2.98073769e-01, 1.20820120e-01,
          -4.19039756e-01, -2.89171308e-01, -9.08750966e-02,
          -7.24922866e-04, -3.28044862e-01, -3.73045892e-01,
          1.63564503e-01, 5.44899292e-02, -1.92246899e-01,
          -3.35358948e-01, -1.92292601e-01, -1.67944655e-01,
          -1.58846363e-01, -1.55022755e-01, -1.29122689e-01,
          1.60881072e-01, 1.09238446e-01, -1.22539721e-01,
          1.94030702e-01, 2.03911275e-01, 8.41765404e-02,
          -1.14477821e-01, -5.25036156e-01, -3.07618916e-01,
          3.20767850e-01, 3.24182987e-01, 3.01306427e-01, 2.56001115e-01,
          3.69245946e-01, 3.40253711e-01, 1.08626097e-01,
          -2.73653209e-01, -9.72055346e-02, 1.80475846e-01,
          2.59861290e-01, 3.39571357e-01, 4.24415708e-01, 3.85101914e-01,
          3.37937266e-01, 2.52662688e-01, 2.82120913e-01, 2.11676493e-01,
          1.85383663e-01, 2.02389747e-01, 2.95127869e-01, 1.74240410e-01,
          1.07511096e-01, -1.82084441e-02, -1.84256006e-02,
          9.00362134e-02, -1.08619057e-01, 1.91090643e-01,
          2.51200646e-01, 2.54772365e-01, 6.86982647e-02, 2.92189360e-01,
          2.67712146e-01, 2.35219702e-01, 1.08278565e-01,
          -7.46764764e-02, -6.51759505e-02, -2.85586026e-02,
          -5.04773594e-02, 1.21172950e-01, 9.61889978e-03,
          -7.36424280e-03, 2.12762833e-01, 2.34547734e-01,
          -5.85379824e-02, -1.02458522e-02, 7.77164176e-02,
          1.07226416e-01, 1.74536243e-01, 2.22370446e-01, 3.29725623e-01,
          2.19641820e-01, -3.98743093e-01, -4.03656870e-01,
          3.33567321e-01, 4.59890574e-01, 5.65671146e-01, 1.81646988e-01,
          2.71557301e-01, 4.52737749e-01, 2.45577812e-01,
          -2.76139617e-01, -4.70712423e-01, 2.87171900e-02,
          2.89062858e-01, 3.62324446e-01, 3.55053097e-01, 2.30438963e-01,
          1.52657986e-01, 1.03691362e-01, -1.35006070e-01,
          5.31504676e-02, 2.21489873e-02, 4.15886939e-02, 9.64988545e-02 ]
   uncompressed_sv_total: 17
   uncompressed_support_vectors:
      - [ 1.48964688e-01, 1.58457220e-01, 1.70828983e-01, 1.91407964e-01,
          3.10527951e-01, 3.61411870e-01, 1.99522659e-01, 1.07653864e-01,
          1.12267010e-01, 1.25519127e-01, 1.25333682e-01, 1.48246139e-01,
          1.96787357e-01, 2.48742312e-01, 2.52577901e-01, 1.86168656e-01,
          1.51894361e-01, 1.28871068e-01, 7.72843137e-02, 8.07795152e-02,
          9.92897302e-02, 1.44296065e-01, 2.90168345e-01, 3.96764219e-01,
          2.87581146e-01, 1.51472077e-01, 7.49053508e-02, 3.45681980e-02,
          2.26132926e-02, 4.46654372e-02, 6.27032965e-02, 1.23750329e-01,
          1.71904236e-01, 1.10544272e-01, 6.43586218e-02, 2.67890822e-02,
          2.01750532e-01, 1.79242611e-01, 1.39121071e-01, 1.28619745e-01,
          1.35317534e-01, 1.31991386e-01, 1.36683688e-01, 1.31577060e-01,
          1.59713775e-01, 1.20373890e-01, 9.58631486e-02, 9.14856344e-02,
          1.07362352e-01, 1.52841210e-01, 1.66273326e-01, 1.22805893e-01,
          1.12236716e-01, 1.26169220e-01, 7.80323073e-02, 6.87728524e-02,
          9.16188508e-02, 1.49098605e-01, 3.03104550e-01, 2.86980242e-01,
          1.53232440e-01, 8.93409029e-02, 6.30736500e-02, 1.28455445e-01,
          1.32940963e-01, 1.16918720e-01, 1.14983827e-01, 1.37005091e-01,
          1.22182287e-01, 1.21422619e-01, 1.12184487e-01, 1.14904918e-01,
          1.23316728e-01, 1.31891236e-01, 1.39739364e-01, 1.91209346e-01,
          2.99088687e-01, 2.60398537e-01, 1.33518353e-01, 9.10150334e-02,
          8.65474269e-02, 6.88639134e-02, 4.18395363e-02, 6.55718297e-02,
          1.54774234e-01, 3.19867074e-01, 2.55777687e-01, 1.66215777e-01,
          1.38415501e-01, 8.91077071e-02, 2.29029059e-01, 1.61697537e-01,
          1.19943224e-01, 1.33474812e-01, 1.64373606e-01, 2.10918099e-01,
          2.14972362e-01, 2.09502488e-01, 2.36462995e-01, 1.97445005e-01,
          1.34258121e-01, 1.43116757e-01, 1.64056644e-01, 2.26432905e-01,
          2.68383920e-01, 2.56817132e-01, 2.17831537e-01, 1.97843015e-01,
          9.10404921e-02, 7.90001377e-02, 8.37549195e-02, 1.14173837e-01,
          2.04424247e-01, 2.58486688e-01, 1.57832369e-01, 8.26268941e-02,
          7.65684023e-02 ]
      - [ 1.48964688e-01, 1.58457220e-01, 1.70828983e-01, 1.91407964e-01,
          3.10527951e-01, 3.61411870e-01, 1.99522659e-01, 1.07653864e-01,
          1.12267010e-01, 1.25519127e-01, 1.25333682e-01, 1.48246139e-01,
          1.96787357e-01, 2.48742312e-01, 2.52577901e-01, 1.86168656e-01,
          1.51894361e-01, 1.28871068e-01, 7.72843137e-02, 8.07795152e-02,
          9.92897302e-02, 1.44296065e-01, 2.90168345e-01, 3.96764219e-01,
          2.87581146e-01, 1.51472077e-01, 7.49053508e-02, 3.45681980e-02,
          2.26132926e-02, 4.46654372e-02, 6.27032965e-02, 1.23750329e-01,
          1.71904236e-01, 1.10544272e-01, 6.43586218e-02, 2.67890822e-02,
          2.01750532e-01, 1.79242611e-01, 1.39121071e-01, 1.28619745e-01,
          1.35317534e-01, 1.31991386e-01, 1.36683688e-01, 1.31577060e-01,
          1.59713775e-01, 1.20373890e-01, 9.58631486e-02, 9.14856344e-02,
          1.07362352e-01, 1.52841210e-01, 1.66273326e-01, 1.22805893e-01,
          1.12236716e-01, 1.26169220e-01, 7.80323073e-02, 6.87728524e-02,
          9.16188508e-02, 1.49098605e-01, 3.03104550e-01, 2.86980242e-01,
          1.53232440e-01, 8.93409029e-02, 6.30736500e-02, 1.28455445e-01,
          1.32940963e-01, 1.16918720e-01, 1.14983827e-01, 1.37005091e-01,
          1.22182287e-01, 1.21422619e-01, 1.12184487e-01, 1.14904918e-01,
          1.23316728e-01, 1.31891236e-01, 1.39739364e-01, 1.91209346e-01,
          2.99088687e-01, 2.60398537e-01, 1.33518353e-01, 9.10150334e-02,
          8.65474269e-02, 6.88639134e-02, 4.18395363e-02, 6.55718297e-02,
          1.54774234e-01, 3.19867074e-01, 2.55777687e-01, 1.66215777e-01,
          1.38415501e-01, 8.91077071e-02, 2.29029059e-01, 1.61697537e-01,
          1.19943224e-01, 1.33474812e-01, 1.64373606e-01, 2.10918099e-01,
          2.14972362e-01, 2.09502488e-01, 2.36462995e-01, 1.97445005e-01,
          1.34258121e-01, 1.43116757e-01, 1.64056644e-01, 2.26432905e-01,
          2.68383920e-01, 2.56817132e-01, 2.17831537e-01, 1.97843015e-01,
          9.10404921e-02, 7.90001377e-02, 8.37549195e-02, 1.14173837e-01,
          2.04424247e-01, 2.58486688e-01, 1.57832369e-01, 8.26268941e-02,
          7.65684023e-02 ]
      - [ 7.25382343e-02, 7.61101469e-02, 1.18534900e-01, 1.60151720e-01,
          2.97575951e-01, 3.01078588e-01, 1.45351157e-01, 8.03898349e-02,
          4.89807874e-02, 4.87176105e-02, 2.76167206e-02, 7.50036463e-02,
          1.74515843e-01, 3.69273692e-01, 2.90080100e-01, 1.78639919e-01,
          1.11381046e-01, 4.30422947e-02, 3.12365536e-02, 5.77383500e-04,
          2.71103550e-02, 1.40509140e-02, 9.90074724e-02, 9.85952392e-02,
          1.26832081e-02, 2.69611962e-02, 7.93902145e-04, 4.16647568e-02,
          1.29911245e-03, 4.24392931e-02, 3.64777595e-02, 1.32179558e-01,
          1.28612742e-01, 2.36282609e-02, 3.04260924e-02, 7.21729244e-04,
          9.53381583e-02, 7.19569325e-02, 8.88514891e-02, 1.39353767e-01,
          2.31182575e-01, 2.85204977e-01, 3.33194673e-01, 2.23348841e-01,
          1.24499679e-01, 1.76818341e-01, 1.66119501e-01, 1.53849557e-01,
          1.09279856e-01, 2.11570799e-01, 2.96794593e-01, 1.56465977e-01,
          1.33933321e-01, 1.72258601e-01, 8.85096863e-02, 8.59409198e-02,
          1.14258118e-01, 2.03722030e-01, 3.66032392e-01, 2.32823581e-01,
          9.65425596e-02, 6.45496845e-02, 5.31175323e-02, 9.53887925e-02,
          7.63553083e-02, 1.03423670e-01, 2.16820225e-01, 4.47231203e-01,
          3.92248958e-01, 2.50419974e-01, 1.61250502e-01, 1.10912018e-01,
          9.64410305e-02, 5.19239195e-02, 7.29786828e-02, 9.60848406e-02,
          1.97943479e-01, 2.60275751e-01, 1.15338609e-01, 6.90340400e-02,
          4.58542518e-02, 6.88843951e-02, 3.72177288e-02, 6.45632893e-02,
          1.29227191e-01, 4.05658245e-01, 3.79453003e-01, 1.75899282e-01,
          1.28484935e-01, 6.20570071e-02, 1.47085935e-01, 1.71275899e-01,
          1.68663606e-01, 1.99183971e-01, 2.67693579e-01, 2.17579007e-01,
          1.51039794e-01, 1.23053633e-01, 1.00247234e-01, 2.74451107e-01,
          2.75624096e-01, 2.78297991e-01, 1.87791795e-01, 1.92264065e-01,
          1.80984542e-01, 1.15718968e-01, 1.40730858e-01, 1.17896497e-01,
          6.78263009e-02, 4.40809429e-02, 1.07293725e-01, 1.90388635e-01,
          3.07855427e-01, 2.54280388e-01, 9.19995159e-02, 5.49661666e-02,
          2.79187895e-02 ]
      - [ 1.08541675e-01, 1.17331319e-01, 1.86885327e-01, 2.77790189e-01,
          3.57638210e-01, 2.31737345e-01, 1.02075070e-01, 6.94263652e-02,
          7.51645863e-02, 1.26190290e-01, 1.39814481e-01, 1.53489441e-01,
          2.65272230e-01, 3.86887163e-01, 3.20895463e-01, 2.47801185e-01,
          1.51776955e-01, 1.08336136e-01, 1.11376375e-01, 8.43241960e-02,
          1.10110149e-01, 1.95174754e-01, 3.79122347e-01, 3.60079050e-01,
          2.18467712e-01, 1.49859905e-01, 1.10676944e-01, 6.86586574e-02,
          2.25428492e-02, 5.32304607e-02, 7.35972598e-02, 1.49212345e-01,
          1.38194367e-01, 6.12762310e-02, 4.81906310e-02, 2.21708380e-02,
          1.22233875e-01, 1.60188064e-01, 1.80907264e-01, 2.07740977e-01,
          2.99777687e-01, 2.91969836e-01, 2.10504428e-01, 1.73641652e-01,
          1.21466391e-01, 1.67702854e-01, 1.67072505e-01, 1.87187359e-01,
          1.85917482e-01, 2.12518364e-01, 1.90145820e-01, 1.55068487e-01,
          1.35232091e-01, 1.21369347e-01, 1.27635568e-01, 8.94470587e-02,
          1.32097498e-01, 1.28628045e-01, 2.03081548e-01, 2.00179562e-01,
          2.26383820e-01, 1.67104930e-01, 9.26849842e-02, 1.12739831e-01,
          1.12254195e-01, 1.43423185e-01, 2.18747571e-01, 3.46169114e-01,
          3.52708668e-01, 1.91730067e-01, 1.36697054e-01, 1.20298743e-01,
          1.59957871e-01, 1.82308301e-01, 1.78032607e-01, 2.06636369e-01,
          2.73278952e-01, 2.00928122e-01, 1.00945726e-01, 9.44142491e-02,
          8.11405778e-02, 9.16732326e-02, 6.41794056e-02, 1.05780631e-01,
          1.99403435e-01, 3.01418781e-01, 1.75926000e-01, 8.68691504e-02,
          6.93140700e-02, 6.76136538e-02, 2.17353642e-01, 1.82130665e-01,
          1.79566219e-01, 1.82336599e-01, 1.86340958e-01, 1.87744841e-01,
          2.05662042e-01, 1.84151843e-01, 1.78959981e-01, 3.05584311e-01,
          2.54660040e-01, 2.13852838e-01, 2.49568805e-01, 3.75486791e-01,
          2.68846214e-01, 1.22619852e-01, 1.34064272e-01, 1.82799712e-01,
          7.10296854e-02, 3.85660194e-02, 7.62100294e-02, 1.17662683e-01,
          1.84087455e-01, 1.41234398e-01, 6.89172596e-02, 5.17726094e-02,
          2.89310329e-02 ]
      - [ 3.13661098e-02, 2.72438191e-02, 6.09037466e-02, 1.97388396e-01,
          5.04936635e-01, 3.52294266e-01, 1.05024017e-01, 4.46656980e-02,
          2.72422452e-02, 8.25950205e-02, 2.57597640e-02, 3.27200256e-02,
          4.86516841e-02, 2.58056432e-01, 2.84818441e-01, 1.50714800e-01,
          1.48640826e-01, 1.06539950e-01, 7.57829798e-03, 0.,
          1.52417487e-02, 9.97529365e-03, 1.21204235e-01, 1.16336405e-01,
          5.31862630e-03, 1.01621682e-02, 5.69070726e-05, 1.86938699e-02,
          6.22632913e-04, 3.22558805e-02, 4.30941358e-02, 1.69997424e-01,
          1.76068947e-01, 2.61082072e-02, 1.55436499e-02, 1.84297666e-03,
          5.20496964e-02, 2.74986718e-02, 5.01994006e-02, 9.61226597e-02,
          2.44199127e-01, 3.52393270e-01, 2.98117191e-01, 1.01676323e-01,
          5.09756505e-02, 1.21121861e-01, 1.06851004e-01, 1.41807258e-01,
          2.24292621e-01, 3.24638933e-01, 2.09639266e-01, 1.64076120e-01,
          1.66662425e-01, 1.17803745e-01, 1.07997909e-01, 1.35411382e-01,
          1.79876849e-01, 2.48034716e-01, 3.91880095e-01, 2.78352290e-01,
          7.89698437e-02, 5.81026785e-02, 5.85673936e-02, 5.04117161e-02,
          3.13820057e-02, 7.54473358e-02, 1.37709573e-01, 4.06559646e-01,
          3.79566520e-01, 1.54320732e-01, 9.27396640e-02, 5.24060428e-02,
          3.53673488e-01, 2.16758773e-01, 1.58480763e-01, 1.72732577e-01,
          1.91654772e-01, 1.52492821e-01, 9.20385644e-02, 1.00056790e-01,
          1.13486037e-01, 7.04839155e-02, 4.68055308e-02, 8.41714665e-02,
          1.16747983e-01, 2.83314615e-01, 3.95792335e-01, 1.21128418e-01,
          6.63929731e-02, 5.58796786e-02, 1.61917329e-01, 2.20101073e-01,
          2.62708306e-01, 3.09195280e-01, 3.27514052e-01, 2.22567230e-01,
          8.52031708e-02, 6.55642971e-02, 9.70486850e-02, 2.42592096e-01,
          2.44792521e-01, 2.52672851e-01, 2.13605046e-01, 1.80251598e-01,
          1.42331511e-01, 1.14298202e-01, 1.51982501e-01, 1.42135113e-01,
          3.14013697e-02, 6.27011526e-03, 3.47011238e-02, 7.91058913e-02,
          2.87149578e-01, 2.38967076e-01, 6.17918409e-02, 4.67973836e-02,
          6.43978734e-03 ]
      - [ 1.53579697e-01, 1.40743569e-01, 1.55928671e-01, 2.42209241e-01,
          3.86292517e-01, 3.94320548e-01, 2.66630888e-01, 1.64670408e-01,
          1.48039252e-01, 6.80653453e-02, 7.53259584e-02, 1.16041631e-01,
          1.94129139e-01, 2.85132647e-01, 2.69439727e-01, 1.55228660e-01,
          9.44299474e-02, 7.18823224e-02, 1.22854315e-01, 1.08684860e-01,
          1.08148709e-01, 1.43213704e-01, 1.99463293e-01, 1.81900024e-01,
          1.49343327e-01, 1.54565975e-01, 1.50568411e-01, 2.43195698e-01,
          1.72018841e-01, 1.28734052e-01, 1.15000166e-01, 1.30843490e-01,
          1.69879332e-01, 1.62917569e-01, 1.66188017e-01, 1.66863590e-01,
          7.07709193e-02, 6.62156940e-02, 7.44818002e-02, 1.19187251e-01,
          2.07012460e-01, 2.09514365e-01, 1.29226252e-01, 9.05944332e-02,
          7.14579448e-02, 8.56606513e-02, 1.14761412e-01, 1.08447075e-01,
          1.03606351e-01, 1.14926077e-01, 1.18697181e-01, 8.20703655e-02,
          7.10637048e-02, 7.43691772e-02, 4.87948805e-01, 2.81458527e-01,
          1.77609697e-01, 1.66886151e-01, 1.78044811e-01, 1.82587445e-01,
          1.33574605e-01, 1.66152254e-01, 3.01103204e-01, 6.83349371e-02,
          5.02288602e-02, 6.27024323e-02, 9.27223712e-02, 1.37274384e-01,
          1.53944016e-01, 1.10606246e-01, 6.33573160e-02, 4.94585745e-02,
          1.19725697e-01, 1.17026068e-01, 1.06142484e-01, 1.19673103e-01,
          1.63698390e-01, 1.89952672e-01, 1.49522215e-01, 1.29404783e-01,
          1.27718136e-01, 1.77257106e-01, 1.64635152e-01, 1.41966969e-01,
          1.44481763e-01, 1.92188054e-01, 1.72472060e-01, 1.22697756e-01,
          1.15753107e-01, 1.27312943e-01, 1.39076740e-01, 9.43113491e-02,
          1.05330966e-01, 1.55306816e-01, 2.32668683e-01, 2.22605139e-01,
          1.50356367e-01, 1.15955569e-01, 1.11875840e-01, 1.88958079e-01,
          1.72496617e-01, 1.59661233e-01, 1.32918030e-01, 1.75467983e-01,
          1.87790588e-01, 1.57384604e-01, 1.56076491e-01, 1.87068641e-01,
          2.98247814e-01, 2.37624124e-01, 1.71107501e-01, 1.72149971e-01,
          2.11771578e-01, 2.34605953e-01, 2.03522205e-01, 1.80101648e-01,
          1.86806858e-01 ]
      - [ 1.36339337e-01, 1.46401584e-01, 1.48079872e-01, 1.86345875e-01,
          3.19193542e-01, 2.70804942e-01, 1.80658132e-01, 1.36215016e-01,
          1.35744765e-01, 1.13815978e-01, 1.01547621e-01, 1.07881054e-01,
          1.49224252e-01, 2.37279221e-01, 2.68331081e-01, 1.51682660e-01,
          1.11427151e-01, 1.05092973e-01, 1.38371199e-01, 1.03656344e-01,
          9.58481058e-02, 1.14068002e-01, 1.58584639e-01, 1.76828831e-01,
          1.58330917e-01, 1.45891443e-01, 1.21977307e-01, 1.59841076e-01,
          1.53178439e-01, 1.44431159e-01, 1.60624534e-01, 1.95542037e-01,
          1.83783710e-01, 1.53977349e-01, 1.21419549e-01, 1.15350440e-01,
          1.26630783e-01, 1.02060191e-01, 9.08289105e-02, 1.09462157e-01,
          1.56836554e-01, 1.60640970e-01, 1.08335003e-01, 9.35802087e-02,
          1.07036024e-01, 1.46221459e-01, 1.14787489e-01, 1.28401190e-01,
          1.54247344e-01, 2.13762671e-01, 2.03883410e-01, 1.41224712e-01,
          1.20935611e-01, 1.28323883e-01, 1.79167584e-01, 1.53767467e-01,
          1.68999732e-01, 1.85856998e-01, 2.70540953e-01, 2.82672465e-01,
          2.19335482e-01, 1.96556002e-01, 1.94545969e-01, 1.16147846e-01,
          9.16701183e-02, 9.30099413e-02, 1.32794559e-01, 1.96682245e-01,
          1.78055659e-01, 1.80087209e-01, 1.45956993e-01, 1.16067328e-01,
          1.05016708e-01, 1.10932976e-01, 9.97356474e-02, 1.09705746e-01,
          2.02458277e-01, 2.03928187e-01, 1.15489885e-01, 8.36258158e-02,
          9.05854851e-02, 2.09212095e-01, 1.23766735e-01, 1.12405308e-01,
          1.34290189e-01, 1.89548016e-01, 2.18327388e-01, 2.24331185e-01,
          2.08178863e-01, 2.08466470e-01, 2.09603965e-01, 1.78616822e-01,
          1.36112437e-01, 1.61812335e-01, 2.47808188e-01, 2.49982551e-01,
          1.89316675e-01, 1.78075433e-01, 2.06455633e-01, 1.08909465e-01,
          8.59983489e-02, 8.63783807e-02, 9.24043581e-02, 2.08564058e-01,
          2.08885923e-01, 1.32378161e-01, 1.25188425e-01, 1.19536027e-01,
          4.21725154e-01, 2.70255119e-01, 1.48973405e-01, 1.10725135e-01,
          1.22773170e-01, 1.29875079e-01, 1.17702089e-01, 1.41457215e-01,
          2.54590064e-01 ]
      - [ 7.81991333e-02, 7.28172287e-02, 7.43461400e-02, 1.14983618e-01,
          2.35223055e-01, 2.76842386e-01, 1.57475680e-01, 9.42426473e-02,
          7.67396614e-02, 5.05969599e-02, 5.63184544e-02, 7.77578056e-02,
          1.45522505e-01, 3.21395636e-01, 3.25019509e-01, 1.26342744e-01,
          6.20522723e-02, 4.23061997e-02, 6.46130741e-02, 6.78281114e-02,
          8.30648690e-02, 1.31476700e-01, 2.99331307e-01, 2.99084455e-01,
          1.60435870e-01, 1.10824257e-01, 8.08674917e-02, 7.35698119e-02,
          7.44625181e-02, 8.98418501e-02, 1.50097951e-01, 2.41883561e-01,
          3.04082334e-01, 2.01275587e-01, 1.22433200e-01, 8.93850774e-02,
          5.89479469e-02, 6.13992065e-02, 9.79737043e-02, 1.73416823e-01,
          3.30348104e-01, 3.26472431e-01, 1.58304155e-01, 8.58745128e-02,
          6.30839393e-02, 7.99888596e-02, 6.07989095e-02, 8.27475265e-02,
          1.34987593e-01, 2.89722681e-01, 2.77692705e-01, 1.57285050e-01,
          1.20787345e-01, 9.34319496e-02, 1.61183760e-01, 1.00959748e-01,
          1.04816213e-01, 1.66412160e-01, 2.56785125e-01, 2.89625347e-01,
          1.66987568e-01, 1.12343259e-01, 1.26845092e-01, 3.90396081e-02,
          3.45652923e-02, 5.25096245e-02, 8.69526491e-02, 2.48994991e-01,
          3.19838405e-01, 1.44341007e-01, 7.27860034e-02, 4.30826582e-02,
          6.57220706e-02, 8.34199637e-02, 9.92648229e-02, 1.29452199e-01,
          2.45447740e-01, 2.05533504e-01, 9.29517001e-02, 6.98594600e-02,
          6.14875630e-02, 1.81036130e-01, 1.44541845e-01, 1.24994807e-01,
          1.48696646e-01, 2.61286616e-01, 3.24901342e-01, 2.24819094e-01,
          1.59952223e-01, 1.52564347e-01, 6.50370568e-02, 4.61524017e-02,
          6.26568049e-02, 9.84723121e-02, 2.03207657e-01, 2.93695480e-01,
          1.65915504e-01, 9.27148610e-02, 6.77924305e-02, 1.18221551e-01,
          1.11005411e-01, 1.09118164e-01, 1.74431920e-01, 2.82187372e-01,
          2.23681271e-01, 1.17361002e-01, 9.38804075e-02, 1.06019452e-01,
          1.20930254e-01, 1.10778116e-01, 9.92572606e-02, 1.51118770e-01,
          2.82927930e-01, 3.75896215e-01, 1.74696550e-01, 9.52945128e-02,
          9.83426273e-02 ]
      - [ 4.53359038e-02, 4.13641371e-02, 7.89544210e-02, 1.78037643e-01,
          4.07892376e-01, 3.49002212e-01, 1.22059606e-01, 7.86746442e-02,
          5.61235063e-02, 1.73796862e-01, 1.84912652e-01, 1.81078136e-01,
          1.71857759e-01, 1.90920621e-01, 1.64652735e-01, 1.60437539e-01,
          1.60885006e-01, 1.63082480e-01, 1.23523407e-01, 1.00734726e-01,
          1.10404603e-01, 1.90798059e-01, 2.83004194e-01, 2.50857770e-01,
          1.64378226e-01, 1.26197144e-01, 1.13779843e-01, 9.41850543e-02,
          8.84469226e-02, 1.27541557e-01, 2.23106474e-01, 3.21087033e-01,
          2.62134492e-01, 1.64492115e-01, 1.04837351e-01, 8.37565213e-02,
          1.41815037e-01, 1.34817660e-01, 1.26987010e-01, 1.28843814e-01,
          1.82012811e-01, 1.60198033e-01, 1.44720882e-01, 1.33524105e-01,
          1.11775249e-01, 1.68827087e-01, 1.34642571e-01, 1.00966431e-01,
          1.06086485e-01, 1.35182053e-01, 1.27583325e-01, 1.16353773e-01,
          1.65000990e-01, 1.68537736e-01, 2.48666674e-01, 2.06917807e-01,
          1.80674657e-01, 1.74749836e-01, 1.65280312e-01, 1.81904718e-01,
          1.59603894e-01, 1.38002470e-01, 1.83890790e-01, 1.98798984e-01,
          1.59913480e-01, 1.27941549e-01, 1.14764467e-01, 1.14637151e-01,
          1.30407631e-01, 1.39882386e-01, 1.47600785e-01, 1.52998105e-01,
          1.37060121e-01, 1.10384867e-01, 1.04211263e-01, 1.54817685e-01,
          2.51977354e-01, 2.34496295e-01, 1.15794979e-01, 9.04481336e-02,
          1.03523932e-01, 1.47962928e-01, 1.21286936e-01, 1.27537102e-01,
          1.82247266e-01, 2.76431620e-01, 2.52612025e-01, 1.53481081e-01,
          1.00246750e-01, 1.23971768e-01, 2.52531737e-01, 2.37566113e-01,
          1.52001381e-01, 1.44249007e-01, 1.90849617e-01, 1.69431180e-01,
          1.37304813e-01, 1.41533807e-01, 2.08087027e-01, 1.70192331e-01,
          1.64618999e-01, 1.50350347e-01, 1.89149559e-01, 2.04480857e-01,
          2.20697582e-01, 2.58086473e-01, 2.24579453e-01, 1.75938413e-01,
          1.56577095e-01, 1.26193270e-01, 1.36311203e-01, 1.81594640e-01,
          2.45018527e-01, 2.31957138e-01, 1.46374494e-01, 1.10868558e-01,
          1.13023065e-01 ]
      - [ 1.40941501e-01, 1.21295251e-01, 1.54797524e-01, 2.00231820e-01,
          2.93543905e-01, 2.77429730e-01, 1.61390409e-01, 1.13900721e-01,
          1.06133126e-01, 1.28118932e-01, 1.39804333e-01, 1.61176398e-01,
          1.79622993e-01, 1.76897720e-01, 1.49243772e-01, 1.13378815e-01,
          9.26867425e-02, 8.96213651e-02, 1.87738419e-01, 1.73790917e-01,
          1.59068406e-01, 1.51884377e-01, 1.49761170e-01, 1.24384411e-01,
          8.98971111e-02, 9.47552845e-02, 1.16083719e-01, 1.74017534e-01,
          1.43482178e-01, 1.37545332e-01, 1.62161574e-01, 1.99607313e-01,
          1.77268192e-01, 1.25932798e-01, 1.17658928e-01, 1.33138210e-01,
          1.36264563e-01, 1.30111739e-01, 1.43335313e-01, 1.78641930e-01,
          2.04069361e-01, 2.24466607e-01, 1.67342722e-01, 1.43056303e-01,
          1.17975354e-01, 1.27058700e-01, 1.28673226e-01, 1.68671310e-01,
          2.18746245e-01, 2.06757247e-01, 1.59381405e-01, 1.18543819e-01,
          1.00441441e-01, 1.02158554e-01, 1.87070519e-01, 1.64079130e-01,
          1.55794561e-01, 1.62421867e-01, 1.94567591e-01, 1.69520348e-01,
          1.28576249e-01, 1.13430515e-01, 1.32453844e-01, 1.32679820e-01,
          1.88421741e-01, 2.76383191e-01, 2.73954183e-01, 2.31703579e-01,
          1.65455505e-01, 1.10918559e-01, 9.67856348e-02, 1.00832120e-01,
          1.62410080e-01, 1.79989517e-01, 2.10591063e-01, 2.26445049e-01,
          2.13189051e-01, 1.65209278e-01, 1.19256079e-01, 1.05888136e-01,
          1.18333504e-01, 2.02896401e-01, 2.43155345e-01, 2.37139195e-01,
          1.90921709e-01, 2.29279459e-01, 1.94912538e-01, 1.41481876e-01,
          1.20091535e-01, 1.29651800e-01, 1.56433851e-01, 1.61382258e-01,
          1.99455932e-01, 2.40296677e-01, 2.40831688e-01, 1.70979604e-01,
          1.15925059e-01, 1.03797235e-01, 1.15428150e-01, 2.32625633e-01,
          2.27335647e-01, 2.00373307e-01, 1.82731271e-01, 1.79884672e-01,
          1.60294876e-01, 1.33898616e-01, 1.36001423e-01, 1.59546301e-01,
          1.62878484e-01, 1.41544268e-01, 1.34736001e-01, 1.56813562e-01,
          2.11416602e-01, 1.77031234e-01, 1.10949770e-01, 9.93366688e-02,
          1.09692082e-01 ]
      - [ 3.73647027e-02, 2.44966801e-02, 3.94194685e-02, 9.00715366e-02,
          3.40934694e-01, 3.09971720e-01, 9.72392932e-02, 4.38910984e-02,
          3.84451747e-02, 3.06458715e-02, 2.36732401e-02, 2.55233571e-02,
          5.03348559e-02, 2.07191229e-01, 2.62166679e-01, 8.78290832e-02,
          4.42118943e-02, 3.12098172e-02, 2.84668952e-02, 2.61693727e-02,
          3.74375992e-02, 8.38934928e-02, 5.22640944e-01, 5.94060659e-01,
          1.08251356e-01, 4.08596210e-02, 2.55783163e-02, 4.98120002e-02,
          3.30382399e-02, 2.69728564e-02, 3.07033118e-02, 1.23015888e-01,
          1.31815150e-01, 3.82923447e-02, 2.76751425e-02, 2.90839206e-02,
          1.60421748e-02, 1.10767018e-02, 1.76073387e-02, 5.08815944e-02,
          2.14355633e-01, 2.24756822e-01, 5.96315749e-02, 2.16856394e-02,
          1.32616367e-02, 4.45037931e-02, 4.13449779e-02, 5.10120168e-02,
          8.88007805e-02, 2.31027886e-01, 2.26132154e-01, 8.83175135e-02,
          5.05749993e-02, 4.41744998e-02, 5.68685681e-02, 3.65547016e-02,
          3.68148535e-02, 6.67094588e-02, 2.18725473e-01, 2.03627661e-01,
          5.05499579e-02, 3.47576439e-02, 3.57057378e-02, 2.85083950e-02,
          2.75926515e-02, 4.11478244e-02, 9.23374221e-02, 3.36890519e-01,
          3.60046327e-01, 9.51753929e-02, 3.71737964e-02, 2.44644247e-02,
          4.53964211e-02, 3.51842232e-02, 4.52547781e-02, 1.00228950e-01,
          3.10709596e-01, 2.61726648e-01, 1.11866482e-01, 6.34298101e-02,
          4.73644845e-02, 4.15186509e-02, 2.67494842e-02, 4.82129976e-02,
          1.22004285e-01, 4.25410569e-01, 4.53209609e-01, 8.90624002e-02,
          3.79087552e-02, 2.74623428e-02, 2.79562678e-02, 2.91538071e-02,
          4.41332534e-02, 1.08964249e-01, 4.21727747e-01, 4.04609472e-01,
          1.09295152e-01, 4.28155400e-02, 2.72004455e-02, 6.53076172e-02,
          5.10750078e-02, 5.69618233e-02, 1.19051158e-01, 3.60575199e-01,
          4.52893674e-01, 1.65348351e-01, 8.08129236e-02, 6.25605211e-02,
          2.77803056e-02, 1.97233986e-02, 3.13812271e-02, 8.80895704e-02,
          2.71741390e-01, 2.46307060e-01, 8.25306922e-02, 3.11784726e-02,
          2.30563562e-02 ]
      - [ 6.27876818e-02, 8.14109147e-02, 9.57489982e-02, 1.50024027e-01,
          2.44382337e-01, 1.94356099e-01, 5.82754128e-02, 3.36180739e-02,
          3.15279774e-02, 1.00842074e-01, 1.11411355e-01, 1.69814482e-01,
          2.13641003e-01, 2.30521098e-01, 2.07308158e-01, 1.59571394e-01,
          9.91492420e-02, 8.23781192e-02, 1.91120043e-01, 1.52853385e-01,
          1.50817126e-01, 1.92322686e-01, 3.05806875e-01, 3.64490509e-01,
          2.29270786e-01, 2.17159972e-01, 1.87991530e-01, 1.53740272e-01,
          1.21903487e-01, 1.54154792e-01, 1.97594658e-01, 2.17116982e-01,
          2.30084732e-01, 1.95829824e-01, 1.68611750e-01, 1.54451817e-01,
          5.78457862e-02, 1.07517764e-01, 1.51991427e-01, 2.04816923e-01,
          3.18197399e-01, 2.33243823e-01, 2.30959579e-01, 1.08248658e-01,
          5.93188293e-02, 6.68893009e-02, 4.42051515e-02, 6.21581972e-02,
          7.84784034e-02, 9.99831706e-02, 6.97040632e-02, 7.35823140e-02,
          6.16189986e-02, 4.30831015e-02, 1.15179867e-01, 8.19791630e-02,
          1.14237145e-01, 1.53250962e-01, 2.43553355e-01, 2.22641110e-01,
          1.82120025e-01, 1.22538090e-01, 1.00537762e-01, 8.33289251e-02,
          6.33456036e-02, 6.52215779e-02, 1.17130786e-01, 2.33117118e-01,
          3.75623137e-01, 2.64876515e-01, 1.26694515e-01, 7.24842623e-02,
          1.07675284e-01, 7.77279958e-02, 7.66214058e-02, 8.87195840e-02,
          1.30267635e-01, 1.78010151e-01, 2.09813267e-01, 2.08886400e-01,
          1.38596863e-01, 1.04926564e-01, 8.34505409e-02, 9.93664041e-02,
          1.20952070e-01, 2.11993545e-01, 3.33787441e-01, 2.42439061e-01,
          1.85009703e-01, 1.23757735e-01, 3.57378870e-02, 2.04068702e-02,
          2.70918738e-02, 5.91368750e-02, 3.74808222e-01, 4.80457187e-01,
          1.09215058e-01, 7.95341060e-02, 5.05018122e-02, 1.59247160e-01,
          1.40082031e-01, 1.20489672e-01, 1.44081682e-01, 2.52551496e-01,
          2.87093401e-01, 2.22116709e-01, 2.01334268e-01, 1.82277992e-01,
          2.11530417e-01, 1.40878499e-01, 1.19709559e-01, 1.19331457e-01,
          1.65455520e-01, 2.03911960e-01, 1.81367233e-01, 1.75537601e-01,
          1.94755718e-01 ]
      - [ 4.17694822e-02, 3.88821028e-02, 7.96645656e-02, 1.40006170e-01,
          4.12934124e-01, 3.71674329e-01, 1.47954762e-01, 5.09653948e-02,
          3.33214179e-02, 1.31613212e-02, 6.23324513e-03, 2.32954957e-02,
          6.63549528e-02, 2.39152253e-01, 2.45756730e-01, 5.31576760e-02,
          2.00878568e-02, 6.33715466e-03, 1.66387875e-02, 1.43166287e-02,
          3.03028692e-02, 9.18693095e-02, 4.07666266e-01, 3.30810249e-01,
          7.75639862e-02, 2.39648689e-02, 1.42875202e-02, 9.05732904e-03,
          6.58030529e-03, 2.74662878e-02, 9.01924074e-02, 4.26091135e-01,
          3.87760997e-01, 4.31797914e-02, 1.53861931e-02, 6.33972976e-03,
          2.66518556e-02, 1.56186381e-02, 3.19467969e-02, 8.21607411e-02,
          2.70357966e-01, 2.62767047e-01, 1.01716891e-01, 3.61659490e-02,
          1.27133811e-02, 3.28017324e-02, 2.42553893e-02, 3.99248190e-02,
          9.88732055e-02, 3.49995285e-01, 4.02103901e-01, 1.40059859e-01,
          5.43191247e-02, 3.32691632e-02, 3.98268774e-02, 3.91497649e-02,
          6.76905960e-02, 1.26591384e-01, 3.27310741e-01, 3.10202658e-01,
          1.07805453e-01, 4.50463444e-02, 3.50219458e-02, 3.20077650e-02,
          1.08512687e-02, 2.34183148e-02, 5.54027446e-02, 2.44393989e-01,
          3.41596246e-01, 1.09045886e-01, 4.45309393e-02, 2.52787434e-02,
          2.14518886e-02, 1.82085223e-02, 3.19705196e-02, 8.91725570e-02,
          2.58084059e-01, 3.50098819e-01, 1.13994211e-01, 3.18143480e-02,
          1.57381687e-02, 2.94452105e-02, 1.30904587e-02, 2.68176235e-02,
          6.56451732e-02, 3.27587366e-01, 3.53142798e-01, 1.40496820e-01,
          4.25296612e-02, 2.46639848e-02, 3.65323685e-02, 3.05413436e-02,
          6.44153580e-02, 1.34759709e-01, 3.11157644e-01, 3.24933141e-01,
          1.29311040e-01, 5.88664152e-02, 2.45644711e-02, 2.74979267e-02,
          3.54501568e-02, 5.46413288e-02, 9.11581144e-02, 2.43199646e-01,
          3.74762863e-01, 2.04033270e-01, 9.25490856e-02, 3.27937491e-02,
          1.91635396e-02, 1.15351146e-02, 3.17353010e-02, 1.21552631e-01,
          4.26550597e-01, 3.48020256e-01, 1.02827318e-01, 3.24329212e-02,
          1.27798300e-02 ]
      - [ 1.36419209e-02, 1.05706314e-02, 1.98528953e-02, 6.38327226e-02,
          3.00695360e-01, 3.61014277e-01, 6.48261532e-02, 1.89966783e-02,
          1.08720399e-02, 2.34102160e-02, 2.25272663e-02, 3.65433432e-02,
          9.61608216e-02, 2.73196638e-01, 2.36850113e-01, 8.86305571e-02,
          3.50271575e-02, 2.65746638e-02, 1.96283627e-02, 1.68866981e-02,
          3.46708521e-02, 1.09972425e-01, 3.36856812e-01, 3.98887634e-01,
          1.51660219e-01, 4.62194793e-02, 2.00211778e-02, 3.36670168e-02,
          3.49597111e-02, 3.20648067e-02, 4.36213613e-02, 1.37772679e-01,
          2.78562844e-01, 1.11010097e-01, 4.10567410e-02, 2.27227360e-02,
          4.73579392e-02, 4.36601974e-02, 5.18186241e-02, 1.17293894e-01,
          4.30599213e-01, 3.46258819e-01, 8.56094807e-02, 4.98287976e-02,
          4.23382707e-02, 1.66298021e-02, 1.53885735e-02, 3.29447426e-02,
          1.00041419e-01, 3.51126611e-01, 2.57620126e-01, 9.88790840e-02,
          4.71473113e-02, 1.73199158e-02, 5.59807941e-02, 2.98525300e-02,
          4.84576337e-02, 1.04970112e-01, 2.41317138e-01, 2.80994803e-01,
          1.23341002e-01, 5.93799204e-02, 4.80824038e-02, 1.13911899e-02,
          1.26312850e-02, 3.21958922e-02, 8.52669924e-02, 2.82995313e-01,
          3.05047870e-01, 6.63577616e-02, 1.98008046e-02, 9.21968929e-03,
          3.99946272e-02, 4.29342091e-02, 5.90313375e-02, 1.25566900e-01,
          4.91691411e-01, 4.53132182e-01, 7.60183483e-02, 3.83560769e-02,
          2.87895501e-02, 1.55906444e-02, 7.97316991e-03, 1.35152172e-02,
          3.00222281e-02, 1.77847177e-01, 1.83544353e-01, 2.35970989e-02,
          1.66603364e-02, 1.21236471e-02, 4.80422974e-02, 5.04034087e-02,
          6.83593675e-02, 1.24750659e-01, 3.27852458e-01, 3.25532258e-01,
          1.66097566e-01, 8.85964036e-02, 4.53513712e-02, 2.66186818e-02,
          1.91112272e-02, 3.32623981e-02, 9.84249189e-02, 5.01117349e-01,
          3.84471387e-01, 7.44496211e-02, 3.29543240e-02, 2.12500095e-02,
          8.76742322e-03, 1.60815194e-03, 6.71858853e-03, 1.44407898e-02,
          1.88611165e-01, 1.68903798e-01, 1.66440997e-02, 9.97849181e-03,
          6.05806476e-03 ]
      - [ 1.61801606e-01, 9.74381343e-02, 7.28764161e-02, 1.07515946e-01,
          2.35447809e-01, 2.00437486e-01, 1.53995886e-01, 1.48062304e-01,
          1.11115083e-01, 4.03671801e-01, 1.60375416e-01, 1.34073466e-01,
          1.21598847e-01, 1.92650124e-01, 1.42696694e-01, 1.24382362e-01,
          1.02411143e-01, 1.53100625e-01, 3.82690966e-01, 2.22511038e-01,
          1.07953310e-01, 5.76643609e-02, 4.72760573e-02, 6.69133589e-02,
          9.42950398e-02, 1.77636892e-01, 2.74395168e-01, 3.99579406e-01,
          1.21297799e-01, 5.64473495e-02, 2.69659311e-02, 2.53172554e-02,
          2.98822410e-02, 2.43079476e-02, 4.82615232e-02, 1.46960631e-01,
          2.07733408e-01, 9.33087394e-02, 6.07642755e-02, 1.06064580e-01,
          2.15726867e-01, 2.76368052e-01, 1.56524345e-01, 8.31587166e-02,
          7.44324550e-02, 3.04168165e-01, 1.43299162e-01, 7.03943744e-02,
          6.71499968e-02, 5.79064898e-02, 7.03402758e-02, 9.00339931e-02,
          1.55501425e-01, 1.84425294e-01, 2.80773252e-01, 1.54289424e-01,
          8.82744342e-02, 5.88530973e-02, 5.54810092e-02, 5.04660867e-02,
          5.15399650e-02, 1.23649471e-01, 1.81313366e-01, 8.09924528e-02,
          3.25774588e-02, 4.04371917e-02, 8.43660310e-02, 1.70033753e-01,
          2.21158758e-01, 1.35793984e-01, 9.37746093e-02, 4.99145240e-02,
          4.57665175e-01, 1.36359155e-01, 3.23068909e-02, 1.58161502e-02,
          1.77305955e-02, 1.85555350e-02, 1.91074703e-02, 5.03727160e-02,
          1.82846069e-01, 2.40135625e-01, 1.36913881e-01, 1.30809873e-01,
          1.02264673e-01, 7.13093430e-02, 6.30672947e-02, 9.69612598e-02,
          1.65953755e-01, 2.43694708e-01, 6.04302526e-01, 4.23188984e-01,
          9.80640650e-02, 5.43730147e-02, 6.05852641e-02, 1.19281940e-01,
          9.12004560e-02, 6.67477176e-02, 1.73171178e-01, 4.26959336e-01,
          2.36154124e-01, 7.44946077e-02, 9.74855945e-02, 1.35688320e-01,
          1.72993690e-01, 2.13316053e-01, 1.60168439e-01, 1.18201546e-01,
          2.15912893e-01, 1.61039650e-01, 1.24743514e-01, 1.18841775e-01,
          1.30046204e-01, 1.42323315e-01, 1.82111934e-01, 1.41949639e-01,
          1.61017999e-01 ]
      - [ 6.40226081e-02, 5.94724230e-02, 8.98908898e-02, 1.99098229e-01,
          4.40493584e-01, 4.05462414e-01, 1.29430711e-01, 6.58907592e-02,
          5.20115271e-02, 2.19344810e-01, 1.62560344e-01, 1.29751310e-01,
          1.55469835e-01, 1.78516641e-01, 1.75803721e-01, 1.72194868e-01,
          1.55456066e-01, 2.02166855e-01, 1.76075280e-01, 1.55044228e-01,
          1.12925589e-01, 1.00561887e-01, 1.57981589e-01, 1.82764292e-01,
          1.32206634e-01, 1.13136664e-01, 1.08684413e-01, 1.48140177e-01,
          2.05667511e-01, 3.05265665e-01, 3.33262503e-01, 2.01956347e-01,
          1.61381260e-01, 8.75049978e-02, 5.46467863e-02, 6.74228743e-02,
          4.44259606e-02, 3.22528519e-02, 5.99864274e-02, 1.44999236e-01,
          2.71874726e-01, 2.97574490e-01, 1.12978563e-01, 5.94219230e-02,
          3.46166305e-02, 3.92028242e-02, 4.28413339e-02, 7.77503923e-02,
          2.10980311e-01, 4.26314324e-01, 2.34004915e-01, 9.99861434e-02,
          5.22745736e-02, 3.21714282e-02, 1.29377186e-01, 9.31646228e-02,
          1.51660234e-01, 3.19793195e-01, 3.23095679e-01, 2.48119354e-01,
          2.02153608e-01, 1.33333206e-01, 1.07053854e-01, 1.43224701e-01,
          1.39972806e-01, 1.62622005e-01, 1.77698925e-01, 1.93691716e-01,
          1.67591855e-01, 1.33586973e-01, 1.18495256e-01, 1.07243963e-01,
          1.08380377e-01, 8.96599740e-02, 9.73155126e-02, 1.38352975e-01,
          2.13084266e-01, 2.24994004e-01, 1.75584063e-01, 1.19061843e-01,
          9.21415165e-02, 8.53699595e-02, 6.33163378e-02, 9.06690136e-02,
          1.44062564e-01, 2.86127657e-01, 3.57324779e-01, 2.68633574e-01,
          1.46177486e-01, 6.63535520e-02, 6.21810853e-02, 5.65860122e-02,
          1.11947358e-01, 2.41116583e-01, 3.91306043e-01, 2.88368791e-01,
          9.67663825e-02, 4.95078452e-02, 2.95796525e-02, 6.36565387e-02,
          5.67287244e-02, 9.46135968e-02, 1.73546925e-01, 3.30951989e-01,
          2.92513341e-01, 1.30838543e-01, 7.88241625e-02, 5.12076616e-02,
          5.34875505e-02, 3.39398459e-02, 6.61130995e-02, 1.59406528e-01,
          3.54179591e-01, 3.20826769e-01, 1.14936672e-01, 6.16995618e-02,
          2.71490216e-02 ]
      - [ 1.09981224e-01, 9.15132314e-02, 8.96704495e-02, 1.08390749e-01,
          2.04450548e-01, 2.25670174e-01, 1.86317250e-01, 1.54809177e-01,
          1.25700489e-01, 2.93215942e-02, 2.58223750e-02, 3.58120166e-02,
          7.69066736e-02, 3.50085676e-01, 5.28721809e-01, 2.54020602e-01,
          9.96065214e-02, 3.80443521e-02, 5.14954701e-02, 5.21959811e-02,
          8.19885880e-02, 1.44307330e-01, 3.31056207e-01, 3.66449594e-01,
          1.43178090e-01, 7.61617869e-02, 5.85220903e-02, 4.97522652e-02,
          4.40930165e-02, 6.37135133e-02, 1.17506579e-01, 2.80709535e-01,
          3.22855771e-01, 1.32587597e-01, 6.92601949e-02, 4.96210009e-02,
          1.23317331e-01, 1.35058314e-01, 1.98350683e-01, 2.80786544e-01,
          4.15056705e-01, 3.47216934e-01, 1.70901328e-01, 1.22070722e-01,
          1.18591845e-01, 9.83822793e-02, 6.11005612e-02, 6.57889545e-02,
          1.18142605e-01, 2.67349601e-01, 2.82711416e-01, 1.76136672e-01,
          2.00003326e-01, 1.47248432e-01, 7.62652755e-02, 6.35939837e-02,
          8.33731443e-02, 1.33889809e-01, 2.52485394e-01, 2.84277201e-01,
          1.60753995e-01, 9.69711095e-02, 7.24440664e-02, 8.31944346e-02,
          7.65470862e-02, 1.07853882e-01, 1.70907572e-01, 1.91716179e-01,
          1.59438431e-01, 1.02078214e-01, 8.06863904e-02, 6.81616291e-02,
          9.48664919e-02, 8.25260952e-02, 9.62720811e-02, 1.48920253e-01,
          2.19659925e-01, 2.39992067e-01, 1.42523229e-01, 1.09730728e-01,
          1.11283936e-01, 1.18802197e-01, 1.13048904e-01, 1.34854853e-01,
          1.58885032e-01, 2.44171590e-01, 3.24195594e-01, 2.48130426e-01,
          1.59842551e-01, 1.17295876e-01, 2.07062095e-01, 2.30129182e-01,
          1.75937980e-01, 1.52996182e-01, 1.60114810e-01, 1.53740779e-01,
          1.39593139e-01, 1.29028812e-01, 1.38837576e-01, 2.71123320e-01,
          2.55689651e-01, 1.81342781e-01, 1.85270742e-01, 2.12836623e-01,
          1.68783024e-01, 1.19097382e-01, 1.36391729e-01, 1.71493918e-01,
          1.32908016e-01, 1.23513967e-01, 1.29308164e-01, 1.59321621e-01,
          2.21110687e-01, 2.17946291e-01, 1.81145921e-01, 1.31479532e-01,
          1.32490233e-01 ]
   decision_functions:
      -
         sv_count: 1
         rho: 8.5286669678117200e-01
         alpha: [ 1. ]
         index: [ 0 ]
