<?xml version="1.0"?>
<opencv_storage>
<opencv_ml_svm>
  <format>3</format>
  <svmType>C_SVC</svmType>
  <kernel>
    <type>POLY</type>
    <degree>1.</degree>
    <gamma>3.</gamma>
    <coef0>0.</coef0></kernel>
  <C>1.0000000000000001e-01</C>
  <term_criteria><iterations>10000</iterations></term_criteria>
  <var_count>513</var_count>
  <class_count>2</class_count>
  <class_labels type_id="opencv-matrix">
    <rows>2</rows>
    <cols>1</cols>
    <dt>i</dt>
    <data>
      -1 1</data></class_labels>
  <sv_total>116</sv_total>
  <support_vectors>
    <_>
      3.83333825e-02 7.86454529e-02 2.65763074e-01 2.14991212e-01
      5.21063171e-02 4.27416787e-02 1.28235266e-01 2.68672943e-01
      8.59487355e-02 1.36821151e-01 1.60124704e-01 2.65376240e-01
      2.09923729e-01 1.20611638e-01 1.06920354e-01 2.10717201e-01
      2.42360786e-01 1.73674613e-01 1.95284128e-01 2.01529354e-01
      1.83878645e-01 1.99976787e-01 1.24907218e-01 8.25431868e-02
      6.78766146e-02 1.20504111e-01 1.12878717e-01 2.38437489e-01
      1.36837080e-01 1.01954639e-01 9.87114906e-02 9.05056000e-02
      1.05699167e-01 1.08922295e-01 1.31201014e-01 1.61228180e-01
      1.34690031e-01 1.08434767e-01 1.13846995e-01 1.28355041e-01
      1.45060241e-01 1.61837652e-01 1.25979096e-01 9.51811597e-02
      1.16886504e-01 1.83217138e-01 1.89253479e-01 2.29960009e-01
      1.75034523e-01 1.37665778e-01 1.59663200e-01 2.35723794e-01
      2.13168994e-01 1.81923032e-01 1.47046834e-01 1.39932796e-01
      1.93351984e-01 1.37451708e-01 1.64399832e-01 1.72261432e-01
      1.62342682e-01 1.83392152e-01 1.98560715e-01 1.71192721e-01
      1.70315340e-01 1.67460576e-01 1.24709256e-01 1.47324741e-01
      2.15428993e-01 2.13338912e-01 1.56665310e-01 1.18142597e-01
      1.03552550e-01 1.66530907e-01 1.76516354e-01 2.01774508e-01
      1.20050535e-01 8.75007659e-02 1.22800350e-01 1.31212622e-01
      1.07841939e-01 3.75762671e-01 2.34933481e-01 8.95111114e-02
      1.89273417e-01 4.19227570e-01 2.76924729e-01 2.09375918e-01
      1.81419969e-01 1.43843397e-01 1.03341743e-01 8.90925974e-02
      8.71701613e-02 1.17177568e-01 2.53403693e-01 2.36849368e-01
      1.27406627e-01 9.06207860e-02 9.56922770e-02 1.42604440e-01
      9.51071009e-02 1.51109293e-01 2.32965291e-01 2.36810789e-01
      1.49653867e-01 1.32155433e-01 1.32454842e-01 1.48519799e-01
      1.33509323e-01 1.51675031e-01 1.51710317e-01 1.32407039e-01
      1.33540586e-01 1.28723681e-01 1.19237617e-01 1.20852739e-01
      1.30000621e-01 1.73795179e-01 1.56675816e-01 1.28245324e-01
      1.10310607e-01 1.26641974e-01 1.68802425e-01 2.13698506e-01
      1.67870790e-01 1.30932048e-01 1.82823583e-01 1.48140177e-01
      1.22374564e-01 1.40642703e-01 1.47673413e-01 1.60334378e-01
      1.43246248e-01 1.06398501e-01 1.17688350e-01 1.63256988e-01
      1.92709997e-01 4.00635898e-01 2.80682564e-01 7.48603866e-02
      6.04386851e-02 5.39017282e-02 1.63009182e-01 1.75270796e-01
      1.73493415e-01 2.11177066e-01 1.02770299e-01 7.14282244e-02
      9.32148620e-02 1.82642683e-01 2.32772574e-01 2.40354106e-01
      2.09629044e-01 2.23992303e-01 2.30222762e-01 6.93041980e-02
      4.65214476e-02 7.37020224e-02 1.99358165e-01 3.03270996e-01
      1.06054038e-01 8.99132863e-02 1.29689351e-01 1.80506155e-01
      1.81334019e-01 1.80715054e-01 1.35592222e-01 1.66665465e-01
      1.36555165e-01 9.65031460e-02 9.43565443e-02 8.46189111e-02
      5.74144907e-02 5.53744473e-02 8.44466686e-02 1.58862174e-01
      1.17602937e-01 6.65789470e-02 5.25601655e-02 7.98034593e-02
      1.23277225e-01 1.02885447e-01 9.20397490e-02 7.82597810e-02
      1.03371501e-01 1.43365607e-01 1.29402548e-01 9.57843959e-02
      1.11683130e-01 8.16945732e-02 1.18039936e-01 1.25841022e-01
      1.01533845e-01 1.05228566e-01 1.18129082e-01 9.87595245e-02
      8.73286873e-02 6.74924776e-02 8.21136683e-02 1.13738373e-01
      3.47639084e-01 3.93231452e-01 9.92167667e-02 9.34720263e-02
      7.47724846e-02 1.09653294e-01 1.20513856e-01 1.21334665e-01
      9.15359110e-02 1.26572832e-01 1.45617813e-01 1.39681190e-01
      1.13461487e-01 1.49672180e-01 3.03425252e-01 2.76286870e-01
      1.29407361e-01 7.87373334e-02 5.50394878e-02 7.72825852e-02
      1.57527551e-01 1.62126809e-01 1.56633794e-01 1.91046432e-01
      2.65752584e-01 9.68326852e-02 1.16452292e-01 1.28031924e-01
      1.59672648e-01 1.66086212e-01 1.16114616e-01 9.73332375e-02
      1.27519190e-01 1.10862404e-01 4.19992507e-01 2.07489729e-01
      9.12740380e-02 1.15158290e-01 2.40075946e-01 2.58787543e-01
      1.75981283e-01 6.79545701e-02 8.20175931e-02 4.31602389e-01
      2.35750020e-01 7.08849654e-02 1.56479552e-01 2.49506325e-01
      3.37499350e-01 2.10065842e-01 1.28770173e-01 2.02502698e-01
      7.29466900e-02 1.36168450e-01 1.22186750e-01 1.31163627e-01
      9.66814458e-02 8.78944695e-02 7.51909316e-02 4.95458916e-02
      5.06265610e-02 1.02763906e-01 1.13309808e-01 3.74217123e-01
      2.99908042e-01 1.80162355e-01 6.54969439e-02 7.40742460e-02
      9.40930694e-02 1.58925638e-01 6.66460693e-02 3.75913605e-02
      8.40091780e-02 1.74272105e-01 1.39541656e-01 9.67491791e-02
      1.39687732e-01 3.94597411e-01 2.14696094e-01 1.91495165e-01
      9.55776945e-02 3.07536907e-02 4.15685400e-02 1.54647216e-01
      2.86624074e-01 1.21622950e-01 1.05202220e-01 1.60914138e-01
      1.93143472e-01 1.67064950e-01 3.03838998e-01 2.34827071e-01
      6.22632951e-02 1.93551674e-01 1.92069918e-01 1.40211567e-01
      1.12225033e-01 1.12305164e-01 1.56740963e-01 1.10975392e-01
      1.31427854e-01 1.88755184e-01 2.04305917e-01 1.86987594e-01
      2.28617504e-01 1.31963462e-01 2.05554307e-01 2.15207666e-01
      1.97416499e-01 1.40534714e-01 1.56609640e-01 2.89003789e-01
      1.66444302e-01 2.10086361e-01 1.98441550e-01 1.06466062e-01
      1.43284947e-01 1.37340471e-01 1.22937836e-01 1.13216706e-01
      8.19062069e-02 5.98677732e-02 7.09364340e-02 6.61673397e-02
      1.23687208e-01 9.69132110e-02 3.09085757e-01 3.91337544e-01
      1.55298784e-01 7.47615844e-02 6.53997362e-02 8.07766765e-02
      1.46473289e-01 9.76492018e-02 4.99911793e-02 8.83422643e-02
      1.26403660e-01 1.37995169e-01 1.16124503e-01 1.88796580e-01
      3.50395411e-01 2.05715686e-01 2.55673319e-01 1.70188382e-01
      3.31092030e-02 5.72764352e-02 1.47392884e-01 2.37464428e-01
      1.31704837e-01 7.53829703e-02 1.59744531e-01 2.74576336e-01
      1.08399399e-01 4.89082374e-02 1.08962253e-01 1.18612759e-01
      1.70173109e-01 1.03205390e-01 1.27204418e-01 2.75833428e-01
      1.15512609e-01 2.43547097e-01 1.31757215e-01 1.49882868e-01
      1.34376720e-01 1.16480269e-01 5.32320775e-02 6.85680211e-02
      1.69779062e-01 2.22384170e-01 1.90692782e-01 9.76271182e-02
      1.43820271e-01 3.21968049e-01 2.11815849e-01 1.14562444e-01
      1.00844368e-01 1.93678379e-01 1.68399692e-01 1.32104203e-01
      8.62136856e-02 1.18620411e-01 1.62372231e-01 1.08669259e-01
      8.66117701e-02 1.19480684e-01 1.25636235e-01 1.70868605e-01
      1.40756905e-01 3.04254323e-01 3.68412882e-01 1.80534363e-01
      1.26629800e-01 1.42114624e-01 1.44061536e-01 1.30944237e-01
      8.38956907e-02 6.89370558e-02 1.31132826e-01 1.71869263e-01
      7.42548704e-02 4.67905253e-02 1.86769366e-01 3.17363530e-01
      2.01705873e-01 1.59575433e-01 8.17573220e-02 1.02748655e-01
      2.31734872e-01 1.79915786e-01 1.09112546e-01 7.66009539e-02
      2.02573881e-01 3.64424855e-01 1.72645107e-01 8.23210776e-02
      1.50934607e-01 3.17800134e-01 1.84078768e-01 6.50765002e-02
      3.74481715e-02 1.92245319e-01 2.78492540e-01 5.70442230e-02
      3.78275290e-02 8.34470391e-02 2.02442557e-01 1.67160735e-01
      6.15934469e-02 4.75477427e-02 1.94291800e-01 3.01481843e-01
      2.24167451e-01 9.72259492e-02 9.41541269e-02 1.07652649e-01
      3.38184655e-01 2.36588210e-01 1.18196972e-01 1.20802604e-01
      1.85647830e-01 1.42157942e-01 1.24981917e-01 1.14130318e-01
      9.93777514e-02 1.68272033e-01 2.00974807e-01 1.09247789e-01
      7.47657940e-02 6.59463331e-02 1.46584451e-01 1.07996739e-01
      1.61275506e-01 1.89441696e-01 1.66210711e-01 1.06663786e-01
      1.29169777e-01 1.69455990e-01 1.89088136e-01 1.06977701e-01
      1.42121285e-01 2.09988773e-01 4.14534897e-01 2.56227225e-01
      1.82846695e-01 1.96635574e-01 1.70803025e-01 1.62875578e-01
      1.53593436e-01 9.86347795e-02 7.59008229e-02 8.01906884e-02
      2.24405602e-01 2.11314768e-01 9.40753296e-02 1.03883274e-01
      1.75184101e-01 1.58820435e-01 1.18193075e-01 7.41108134e-02
      1.18321456e-01 2.13994622e-01 1.80555269e-01 8.97383839e-02
      7.72372410e-02 1.46408945e-01 1.52631208e-01 6.46331087e-02
      9.20852721e-02 1.06704161e-01 1.30395189e-01 1.38475344e-01
      1.27006873e-01 1.54693112e-01 1.53812036e-01 4.49183911e-01
      7.15223029e-02 8.17595199e-02 8.00563022e-02 2.16710612e-01
      2.02457532e-01 9.15300623e-02 6.80080131e-02 1.57201111e-01
      2.56562948e-01 1.59682006e-01 1.25789821e-01 1.39975354e-01
      1.10928953e-01 1.35362118e-01 1.20064199e-01 7.71340877e-02
      1.17404826e-01</_>
    <_>
      3.83333825e-02 7.86454529e-02 2.65763074e-01 2.14991212e-01
      5.21063171e-02 4.27416787e-02 1.28235266e-01 2.68672943e-01
      8.59487355e-02 1.36821151e-01 1.60124704e-01 2.65376240e-01
      2.09923729e-01 1.20611638e-01 1.06920354e-01 2.10717201e-01
      2.42360786e-01 1.73674613e-01 1.95284128e-01 2.01529354e-01
      1.83878645e-01 1.99976787e-01 1.24907218e-01 8.25431868e-02
      6.78766146e-02 1.20504111e-01 1.12878717e-01 2.38437489e-01
      1.36837080e-01 1.01954639e-01 9.87114906e-02 9.05056000e-02
      1.05699167e-01 1.08922295e-01 1.31201014e-01 1.61228180e-01
      1.34690031e-01 1.08434767e-01 1.13846995e-01 1.28355041e-01
      1.45060241e-01 1.61837652e-01 1.25979096e-01 9.51811597e-02
      1.16886504e-01 1.83217138e-01 1.89253479e-01 2.29960009e-01
      1.75034523e-01 1.37665778e-01 1.59663200e-01 2.35723794e-01
      2.13168994e-01 1.81923032e-01 1.47046834e-01 1.39932796e-01
      1.93351984e-01 1.37451708e-01 1.64399832e-01 1.72261432e-01
      1.62342682e-01 1.83392152e-01 1.98560715e-01 1.71192721e-01
      1.70315340e-01 1.67460576e-01 1.24709256e-01 1.47324741e-01
      2.15428993e-01 2.13338912e-01 1.56665310e-01 1.18142597e-01
      1.03552550e-01 1.66530907e-01 1.76516354e-01 2.01774508e-01
      1.20050535e-01 8.75007659e-02 1.22800350e-01 1.31212622e-01
      1.07841939e-01 3.75762671e-01 2.34933481e-01 8.95111114e-02
      1.89273417e-01 4.19227570e-01 2.76924729e-01 2.09375918e-01
      1.81419969e-01 1.43843397e-01 1.03341743e-01 8.90925974e-02
      8.71701613e-02 1.17177568e-01 2.53403693e-01 2.36849368e-01
      1.27406627e-01 9.06207860e-02 9.56922770e-02 1.42604440e-01
      9.51071009e-02 1.51109293e-01 2.32965291e-01 2.36810789e-01
      1.49653867e-01 1.32155433e-01 1.32454842e-01 1.48519799e-01
      1.33509323e-01 1.51675031e-01 1.51710317e-01 1.32407039e-01
      1.33540586e-01 1.28723681e-01 1.19237617e-01 1.20852739e-01
      1.30000621e-01 1.73795179e-01 1.56675816e-01 1.28245324e-01
      1.10310607e-01 1.26641974e-01 1.68802425e-01 2.13698506e-01
      1.67870790e-01 1.30932048e-01 1.82823583e-01 1.48140177e-01
      1.22374564e-01 1.40642703e-01 1.47673413e-01 1.60334378e-01
      1.43246248e-01 1.06398501e-01 1.17688350e-01 1.63256988e-01
      1.92709997e-01 4.00635898e-01 2.80682564e-01 7.48603866e-02
      6.04386851e-02 5.39017282e-02 1.63009182e-01 1.75270796e-01
      1.73493415e-01 2.11177066e-01 1.02770299e-01 7.14282244e-02
      9.32148620e-02 1.82642683e-01 2.32772574e-01 2.40354106e-01
      2.09629044e-01 2.23992303e-01 2.30222762e-01 6.93041980e-02
      4.65214476e-02 7.37020224e-02 1.99358165e-01 3.03270996e-01
      1.06054038e-01 8.99132863e-02 1.29689351e-01 1.80506155e-01
      1.81334019e-01 1.80715054e-01 1.35592222e-01 1.66665465e-01
      1.36555165e-01 9.65031460e-02 9.43565443e-02 8.46189111e-02
      5.74144907e-02 5.53744473e-02 8.44466686e-02 1.58862174e-01
      1.17602937e-01 6.65789470e-02 5.25601655e-02 7.98034593e-02
      1.23277225e-01 1.02885447e-01 9.20397490e-02 7.82597810e-02
      1.03371501e-01 1.43365607e-01 1.29402548e-01 9.57843959e-02
      1.11683130e-01 8.16945732e-02 1.18039936e-01 1.25841022e-01
      1.01533845e-01 1.05228566e-01 1.18129082e-01 9.87595245e-02
      8.73286873e-02 6.74924776e-02 8.21136683e-02 1.13738373e-01
      3.47639084e-01 3.93231452e-01 9.92167667e-02 9.34720263e-02
      7.47724846e-02 1.09653294e-01 1.20513856e-01 1.21334665e-01
      9.15359110e-02 1.26572832e-01 1.45617813e-01 1.39681190e-01
      1.13461487e-01 1.49672180e-01 3.03425252e-01 2.76286870e-01
      1.29407361e-01 7.87373334e-02 5.50394878e-02 7.72825852e-02
      1.57527551e-01 1.62126809e-01 1.56633794e-01 1.91046432e-01
      2.65752584e-01 9.68326852e-02 1.16452292e-01 1.28031924e-01
      1.59672648e-01 1.66086212e-01 1.16114616e-01 9.73332375e-02
      1.27519190e-01 1.10862404e-01 4.19992507e-01 2.07489729e-01
      9.12740380e-02 1.15158290e-01 2.40075946e-01 2.58787543e-01
      1.75981283e-01 6.79545701e-02 8.20175931e-02 4.31602389e-01
      2.35750020e-01 7.08849654e-02 1.56479552e-01 2.49506325e-01
      3.37499350e-01 2.10065842e-01 1.28770173e-01 2.02502698e-01
      7.29466900e-02 1.36168450e-01 1.22186750e-01 1.31163627e-01
      9.66814458e-02 8.78944695e-02 7.51909316e-02 4.95458916e-02
      5.06265610e-02 1.02763906e-01 1.13309808e-01 3.74217123e-01
      2.99908042e-01 1.80162355e-01 6.54969439e-02 7.40742460e-02
      9.40930694e-02 1.58925638e-01 6.66460693e-02 3.75913605e-02
      8.40091780e-02 1.74272105e-01 1.39541656e-01 9.67491791e-02
      1.39687732e-01 3.94597411e-01 2.14696094e-01 1.91495165e-01
      9.55776945e-02 3.07536907e-02 4.15685400e-02 1.54647216e-01
      2.86624074e-01 1.21622950e-01 1.05202220e-01 1.60914138e-01
      1.93143472e-01 1.67064950e-01 3.03838998e-01 2.34827071e-01
      6.22632951e-02 1.93551674e-01 1.92069918e-01 1.40211567e-01
      1.12225033e-01 1.12305164e-01 1.56740963e-01 1.10975392e-01
      1.31427854e-01 1.88755184e-01 2.04305917e-01 1.86987594e-01
      2.28617504e-01 1.31963462e-01 2.05554307e-01 2.15207666e-01
      1.97416499e-01 1.40534714e-01 1.56609640e-01 2.89003789e-01
      1.66444302e-01 2.10086361e-01 1.98441550e-01 1.06466062e-01
      1.43284947e-01 1.37340471e-01 1.22937836e-01 1.13216706e-01
      8.19062069e-02 5.98677732e-02 7.09364340e-02 6.61673397e-02
      1.23687208e-01 9.69132110e-02 3.09085757e-01 3.91337544e-01
      1.55298784e-01 7.47615844e-02 6.53997362e-02 8.07766765e-02
      1.46473289e-01 9.76492018e-02 4.99911793e-02 8.83422643e-02
      1.26403660e-01 1.37995169e-01 1.16124503e-01 1.88796580e-01
      3.50395411e-01 2.05715686e-01 2.55673319e-01 1.70188382e-01
      3.31092030e-02 5.72764352e-02 1.47392884e-01 2.37464428e-01
      1.31704837e-01 7.53829703e-02 1.59744531e-01 2.74576336e-01
      1.08399399e-01 4.89082374e-02 1.08962253e-01 1.18612759e-01
      1.70173109e-01 1.03205390e-01 1.27204418e-01 2.75833428e-01
      1.15512609e-01 2.43547097e-01 1.31757215e-01 1.49882868e-01
      1.34376720e-01 1.16480269e-01 5.32320775e-02 6.85680211e-02
      1.69779062e-01 2.22384170e-01 1.90692782e-01 9.76271182e-02
      1.43820271e-01 3.21968049e-01 2.11815849e-01 1.14562444e-01
      1.00844368e-01 1.93678379e-01 1.68399692e-01 1.32104203e-01
      8.62136856e-02 1.18620411e-01 1.62372231e-01 1.08669259e-01
      8.66117701e-02 1.19480684e-01 1.25636235e-01 1.70868605e-01
      1.40756905e-01 3.04254323e-01 3.68412882e-01 1.80534363e-01
      1.26629800e-01 1.42114624e-01 1.44061536e-01 1.30944237e-01
      8.38956907e-02 6.89370558e-02 1.31132826e-01 1.71869263e-01
      7.42548704e-02 4.67905253e-02 1.86769366e-01 3.17363530e-01
      2.01705873e-01 1.59575433e-01 8.17573220e-02 1.02748655e-01
      2.31734872e-01 1.79915786e-01 1.09112546e-01 7.66009539e-02
      2.02573881e-01 3.64424855e-01 1.72645107e-01 8.23210776e-02
      1.50934607e-01 3.17800134e-01 1.84078768e-01 6.50765002e-02
      3.74481715e-02 1.92245319e-01 2.78492540e-01 5.70442230e-02
      3.78275290e-02 8.34470391e-02 2.02442557e-01 1.67160735e-01
      6.15934469e-02 4.75477427e-02 1.94291800e-01 3.01481843e-01
      2.24167451e-01 9.72259492e-02 9.41541269e-02 1.07652649e-01
      3.38184655e-01 2.36588210e-01 1.18196972e-01 1.20802604e-01
      1.85647830e-01 1.42157942e-01 1.24981917e-01 1.14130318e-01
      9.93777514e-02 1.68272033e-01 2.00974807e-01 1.09247789e-01
      7.47657940e-02 6.59463331e-02 1.46584451e-01 1.07996739e-01
      1.61275506e-01 1.89441696e-01 1.66210711e-01 1.06663786e-01
      1.29169777e-01 1.69455990e-01 1.89088136e-01 1.06977701e-01
      1.42121285e-01 2.09988773e-01 4.14534897e-01 2.56227225e-01
      1.82846695e-01 1.96635574e-01 1.70803025e-01 1.62875578e-01
      1.53593436e-01 9.86347795e-02 7.59008229e-02 8.01906884e-02
      2.24405602e-01 2.11314768e-01 9.40753296e-02 1.03883274e-01
      1.75184101e-01 1.58820435e-01 1.18193075e-01 7.41108134e-02
      1.18321456e-01 2.13994622e-01 1.80555269e-01 8.97383839e-02
      7.72372410e-02 1.46408945e-01 1.52631208e-01 6.46331087e-02
      9.20852721e-02 1.06704161e-01 1.30395189e-01 1.38475344e-01
      1.27006873e-01 1.54693112e-01 1.53812036e-01 4.49183911e-01
      7.15223029e-02 8.17595199e-02 8.00563022e-02 2.16710612e-01
      2.02457532e-01 9.15300623e-02 6.80080131e-02 1.57201111e-01
      2.56562948e-01 1.59682006e-01 1.25789821e-01 1.39975354e-01
      1.10928953e-01 1.35362118e-01 1.20064199e-01 7.71340877e-02
      1.17404826e-01</_>
    <_>
      1.48674518e-01 6.80364966e-02 1.91535085e-01 1.80410057e-01
      1.12998337e-01 1.36395082e-01 1.89090341e-01 2.65520334e-01
      1.53536990e-01 7.75947273e-02 1.03435069e-01 2.12702692e-01
      1.72422349e-01 1.20705701e-01 5.77206425e-02 1.05953947e-01
      2.63674647e-01 7.96767250e-02 1.26400188e-01 7.15923905e-02
      1.58637166e-01 1.20290838e-01 1.06481291e-01 1.07919805e-01
      1.79996863e-01 1.70237154e-01 1.13396995e-01 6.54155612e-02
      4.17429432e-02 1.03077412e-01 7.30093569e-02 4.08101194e-02
      4.06719521e-02 7.19305202e-02 9.15879980e-02 3.99818681e-02
      2.45034043e-02 2.85835247e-02 5.55599071e-02 3.27421874e-02
      2.43910011e-02 5.19656874e-02 5.59693128e-02 5.29530682e-02
      3.79232466e-02 7.06211329e-02 3.09872236e-02 2.99414080e-02
      3.21988910e-02 7.25523233e-02 5.57979010e-02 5.06360829e-02
      4.70824875e-02 4.21468504e-02 3.76115106e-02 6.32014796e-02
      9.08125192e-02 7.28243589e-02 4.81113866e-02 7.43001327e-02
      8.44056085e-02 1.05155237e-01 5.54274693e-02 7.19814375e-02
      5.72261252e-02 1.03065528e-01 6.95638508e-02 4.73721400e-02
      6.36311397e-02 5.58508597e-02 5.57312369e-02 5.38669415e-02
      4.63937223e-02 6.92471266e-02 9.42543894e-02 7.96211362e-02
      4.76636142e-02 6.50049374e-02 8.10704157e-02 1.16351046e-01
      7.22853988e-02 8.38156119e-02 4.89248484e-02 6.00257739e-02
      5.41043319e-02 6.40301928e-02 6.58982918e-02 6.16292059e-02
      8.68041292e-02 7.48334453e-02 1.12254485e-01 2.46429786e-01
      1.30481020e-01 5.13568707e-02 6.23805635e-02 1.10274635e-01
      8.39409307e-02 6.59987107e-02 5.56742959e-02 1.29071057e-01
      2.64593452e-01 2.54558563e-01 6.00180253e-02 3.64299715e-02
      3.09839007e-02 8.74402523e-02 1.12233527e-01 1.15473330e-01
      2.88349688e-01 1.94702342e-01 1.94168285e-01 1.27410889e-01
      9.26141292e-02 1.75865710e-01 2.30721250e-01 2.37443805e-01
      1.67040333e-01 1.45003587e-01 1.88742206e-01 1.72320396e-01
      3.95251811e-01 1.56878948e-01 7.20695481e-02 2.15644941e-01
      5.48373520e-01 2.28780776e-01 5.93809932e-02 4.93834317e-02
      8.31686705e-02 6.97195828e-02 3.86056155e-02 5.88027649e-02
      4.67239991e-02 5.42673990e-02 3.98299173e-02 3.64812911e-02
      3.14694718e-02 5.31472377e-02 4.01725657e-02 3.96504514e-02
      3.68932188e-02 5.01757078e-02 6.62724674e-02 4.90291603e-02
      5.49235456e-02 3.00462276e-01 2.97427088e-01 1.02215737e-01
      1.74659565e-02 4.73008305e-02 5.71770184e-02 3.43569554e-02
      2.82972511e-02 4.09035414e-01 5.43161094e-01 1.80254489e-01
      8.50451514e-02 1.27099916e-01 1.54909685e-01 8.37017447e-02
      9.06866640e-02 6.80308044e-02 9.74033624e-02 5.32259680e-02
      3.68093736e-02 4.47291397e-02 4.37435210e-02 6.33095726e-02
      3.82376797e-02 9.25439298e-02 1.28618419e-01 1.52495429e-01
      3.75272259e-02 2.73169093e-02 5.57879508e-02 1.45675406e-01
      1.79499820e-01 8.55094567e-02 1.94434136e-01 2.70762563e-01
      2.34450117e-01 1.47238493e-01 1.56654477e-01 8.71851221e-02
      2.88882516e-02 8.33093598e-02 2.53225207e-01 1.74049139e-01
      8.88230130e-02 3.99216041e-02 5.54675944e-02 6.11956380e-02
      5.91528229e-02 5.32793254e-02 6.06533661e-02 4.95862328e-02
      5.88116311e-02 6.92034513e-02 3.24338935e-02 2.37711910e-02
      4.82120849e-02 3.57497446e-02 2.52403561e-02 2.55788285e-02
      5.39867319e-02 6.94495142e-02 5.55527024e-02 1.09496422e-01
      1.73816919e-01 4.82069373e-01 2.11421832e-01 1.26237422e-01
      8.04609433e-02 1.33328736e-01 8.41299742e-02 9.27854478e-02
      9.63830054e-02 8.00106674e-02 1.47741839e-01 1.93190858e-01
      1.67169154e-01 1.34885296e-01 1.14536546e-01 2.01648176e-01
      1.37525573e-01 3.98335755e-02 4.48443964e-02 5.67621402e-02
      7.56077394e-02 1.09803490e-01 8.61898288e-02 8.62345472e-02
      7.12107345e-02 5.81703000e-02 1.54114828e-01 1.25374481e-01
      6.21210560e-02 4.33565862e-02 1.18829764e-01 1.96883500e-01
      2.34549135e-01 1.44850075e-01 7.12435395e-02 4.69661325e-01
      1.24108657e-01 1.16017751e-01 5.80548234e-02 2.69605935e-01
      6.64143980e-01 2.12405145e-01 1.20107315e-01 1.48272902e-01
      4.48972434e-02 4.97045442e-02 1.04130067e-01 4.58990224e-02
      2.49132216e-02 4.77236435e-02 4.46459837e-02 5.19587286e-02
      3.50125544e-02 2.84918472e-02 2.78800707e-02 5.50020598e-02
      4.18341942e-02 4.15811948e-02 4.14571315e-02 4.66272943e-02
      7.58798048e-02 5.98730296e-02 1.34506911e-01 2.47275606e-01
      7.07304239e-01 1.42723784e-01 1.42632142e-01 1.30534485e-01
      1.19145744e-01 1.16446331e-01 6.75892606e-02 1.55246705e-01
      6.92187026e-02 5.43864109e-02 1.52289584e-01 1.87846258e-01
      1.53468162e-01 1.81537479e-01 2.24281654e-01 1.31839484e-01
      1.46444350e-01 9.18027908e-02 1.18921213e-01 5.83948903e-02
      8.06023031e-02 1.91727966e-01 1.47865027e-01 9.82653424e-02
      6.75920546e-02 1.75722763e-01 1.50634363e-01 7.15948045e-02
      6.70725629e-02 1.53030992e-01 2.86263287e-01 2.77090937e-01
      2.00705901e-01 8.67675841e-02 3.02847307e-02 8.32551345e-02
      2.12697148e-01 1.22202985e-01 3.94287221e-02 3.27100530e-02
      1.83372557e-01 2.22091526e-01 4.74660434e-02 5.29410057e-02
      3.49583477e-02 4.77485135e-02 4.55014035e-02 4.41888720e-02
      4.37495969e-02 6.90999925e-02 6.34016767e-02 4.05617729e-02
      5.24750948e-02 1.28759637e-01 6.68109715e-01 1.84494138e-01
      2.91009750e-02 3.93837169e-02 9.20550004e-02 1.23607479e-01
      4.54397686e-02 1.21412560e-01 1.38577238e-01 1.57915056e-01
      8.99369344e-02 1.92850471e-01 1.55268505e-01 8.34894776e-02
      9.33642760e-02 9.89805236e-02 2.01622143e-01 6.25863969e-02
      6.98387399e-02 1.09537423e-01 8.28960687e-02 1.05063193e-01
      8.50884169e-02 9.27626342e-02 1.44293979e-01 1.67729706e-01
      6.39148951e-02 5.98161928e-02 4.92962115e-02 1.14739917e-01
      1.85495242e-01 1.19720474e-01 6.56470582e-02 1.28552794e-01
      2.25880161e-01 1.66660726e-01 7.27126151e-02 8.76831040e-02
      1.55212849e-01 1.68089807e-01 1.72717482e-01 1.72611967e-01
      1.03945531e-01 2.68373102e-01 3.45004410e-01 1.86656713e-01
      8.77601132e-02 7.44408146e-02 4.01235700e-01 3.36418688e-01
      1.78741455e-01 9.51613188e-02 6.73282146e-02 2.94193178e-02
      4.02011834e-02 3.14990990e-02 2.73110121e-02 6.35552779e-02
      6.56407475e-02 5.94557449e-02 2.88781859e-02 7.82956928e-02
      3.31651792e-02 1.64412916e-01 3.96454126e-01 1.13523193e-01
      8.46088976e-02 7.24859908e-02 9.47967917e-02 9.17422026e-02
      4.47317921e-02 4.51548360e-02 9.03674662e-02 1.48461670e-01
      2.37028182e-01 3.26513410e-01 1.49359286e-01 9.04754996e-02
      5.67583665e-02 2.16427594e-01 8.91178399e-02 1.09039389e-01
      1.97070539e-01 4.12389040e-01 3.91536683e-01 2.04805285e-01
      5.44502735e-02 1.28440514e-01 1.42996550e-01 7.06921592e-02
      5.37681654e-02 3.36302854e-02 1.11597642e-01 3.66150856e-01
      2.17355058e-01 6.15059547e-02 9.28821042e-02 1.94306552e-01
      3.31159502e-01 1.11194879e-01 5.06485030e-02 2.09166408e-01
      2.84273177e-01 2.09007278e-01 1.13531657e-01 3.87444124e-02
      4.59900349e-01 2.43824169e-01 2.22488597e-01 1.34193301e-01
      2.57226557e-01 3.69618744e-01 2.25262865e-01 1.42866194e-01
      8.65780190e-02 9.69291329e-02 3.32860127e-02 4.53997552e-02
      4.36224751e-02 7.80619010e-02 1.00706913e-01 5.35130911e-02
      6.95393682e-02 6.32426366e-02 8.49233791e-02 7.96519443e-02
      9.01416466e-02 4.65170704e-02 7.89804682e-02 7.34658837e-02
      8.08053613e-02 1.47585943e-01 9.44676325e-02 3.27999108e-02
      4.40348797e-02 5.12734875e-02 3.52814943e-02 3.15609761e-02
      4.42081094e-02 1.03666849e-01 1.32601038e-01 4.48109433e-02
      4.46155332e-02 6.30346313e-02 1.15025342e-01 9.08409357e-02
      5.58471493e-02 2.97091715e-02 4.83204648e-02 4.85621169e-02
      3.13354284e-02 4.56532314e-02 3.15691903e-02 7.85708874e-02
      4.12498787e-02 3.86185795e-02 7.08698258e-02 7.62939751e-02
      8.48032758e-02 4.76061925e-02 1.39382720e-01 4.33903039e-02
      7.09071159e-02 5.71348481e-02 6.47660345e-02 7.93247595e-02
      1.74418882e-01 3.10944289e-01 1.10849582e-01 2.00938191e-02
      5.56028709e-02 4.91664767e-01 1.72894850e-01 3.14744376e-02
      4.43876572e-02 4.66692336e-02 3.64321545e-02 2.50949841e-02
      6.40534759e-02 2.95140166e-02 9.19779241e-02 6.86581135e-02
      6.91542178e-02 4.77516986e-02 9.36788023e-02 1.33530766e-01
      6.05182610e-02</_>
    <_>
      7.87249655e-02 1.07892103e-01 3.21032405e-01 2.64090955e-01
      7.46636838e-02 7.21716136e-02 1.85126483e-01 2.48781040e-01
      9.91536006e-02 6.33806437e-02 1.83213130e-01 2.71109849e-01
      2.15241417e-01 5.73337972e-02 5.25224283e-02 1.69953719e-01
      4.53448653e-01 1.34811834e-01 1.67243615e-01 2.38470063e-01
      2.11353660e-01 1.08455092e-01 5.18923067e-02 4.33045588e-02
      1.19276948e-01 1.99671835e-01 1.29919276e-01 1.33344308e-01
      1.04031943e-01 2.20252469e-01 9.69314575e-02 2.82839686e-02
      4.75779250e-02 1.10366717e-01 2.29689971e-01 1.65398955e-01
      1.44987345e-01 1.16025627e-01 2.74634689e-01 2.20229656e-01
      1.06620610e-01 1.02699853e-01 2.22994909e-01 3.80629897e-01
      2.19080806e-01 6.67270645e-02 1.15245625e-01 2.31599346e-01
      1.50134340e-01 6.91937506e-02 9.16230306e-02 2.41809309e-01
      2.87616283e-01 1.32643431e-01 6.13591969e-02 1.19416669e-01
      2.81831354e-01 2.19943345e-01 8.34903121e-02 9.04771686e-02
      2.35870227e-01 3.12403798e-01 1.15487747e-01 7.04855770e-02
      1.25987262e-01 2.65902638e-01 1.70872435e-01 6.76172301e-02
      6.38446435e-02 1.55575931e-01 1.80466563e-01 8.61751512e-02
      6.66713193e-02 1.97814003e-01 4.98013318e-01 1.90109149e-01
      2.00910568e-02 2.89774109e-02 8.16340446e-02 4.39882666e-01
      1.46911144e-01 9.54546407e-02 2.35219911e-01 8.58887658e-02
      5.20888604e-02 3.58296074e-02 6.04759343e-02 1.15440309e-01
      1.13226250e-01 5.47799729e-02 5.00069335e-02 1.05775878e-01
      2.05855712e-01 1.59208730e-01 9.75050405e-02 7.61715174e-02
      2.58644581e-01 5.60227633e-01 1.68744206e-01 3.48724723e-02
      7.79246464e-02 1.29262328e-01 5.83586656e-02 5.90861663e-02
      1.26006171e-01 2.26441383e-01 8.86156410e-02 3.77116092e-02
      5.26468605e-02 1.01418294e-01 1.33575827e-01 1.18445382e-01
      7.21266195e-02 6.92087188e-02 2.26831868e-01 3.43436539e-01
      1.66129157e-01 8.74172971e-02 1.18422613e-01 2.93824822e-01
      1.97866783e-01 7.85603225e-02 8.37221071e-02 2.36534342e-01
      2.81464726e-01 1.34275451e-01 6.20158128e-02 8.73640031e-02
      2.40976110e-01 2.44977579e-01 6.09595329e-02 4.77733575e-02
      1.14470549e-01 2.20870078e-01 1.02511607e-01 3.84577438e-02
      4.18479517e-02 1.05158925e-01 8.50931332e-02 2.57362649e-02
      4.35920246e-02 1.33975804e-01 2.16454998e-01 7.02337623e-02
      2.92903390e-02 9.31388214e-02 2.97949523e-01 1.72909275e-01
      6.59088343e-02 1.09217465e-01 2.62556970e-01 1.56207949e-01
      3.79563235e-02 4.09237929e-02 7.84506947e-02 1.37659982e-01
      1.02522545e-01 7.53984004e-02 9.63369459e-02 5.58972299e-01
      4.44142640e-01 6.56950921e-02 9.06408131e-02 1.74358457e-01
      1.69556528e-01 9.31697041e-02 5.51852249e-02 9.08268914e-02
      2.71765769e-01 1.62112683e-01 6.07542619e-02 7.60387555e-02
      6.73907846e-02 1.18160233e-01 9.32741165e-02 4.24402170e-02
      5.29381633e-02 1.58063725e-01 2.19514579e-01 1.50526777e-01
      5.17792925e-02 9.05591846e-02 1.96503356e-01 1.85813412e-01
      6.89869970e-02 4.54166383e-02 1.35795757e-01 2.38309890e-01
      9.62457061e-02 5.45422956e-02 7.16868043e-02 2.00042024e-01
      1.76573336e-01 6.61755502e-02 5.87709323e-02 1.68955311e-01
      2.33334109e-01 5.81053644e-02 2.61102971e-02 5.71561828e-02
      2.54382640e-01 1.92670807e-01 8.19317624e-02 9.28686410e-02
      2.82361001e-01 4.60917473e-01 7.35002011e-02 8.31563622e-02
      1.57710284e-01 3.19964081e-01 1.20913796e-01 8.64315480e-02
      1.33783057e-01 3.17384422e-01 2.66251355e-01 1.10671088e-01
      1.27698690e-01 1.43622831e-01 1.90177575e-01 1.23258509e-01
      7.52072856e-02 8.76515508e-02 1.67720854e-01 3.54815066e-01
      2.17494741e-01 1.72583967e-01 2.30090529e-01 1.34116605e-01
      6.60667419e-02 8.59922767e-02 1.76967070e-01 2.54546285e-01
      1.64603814e-01 1.12386458e-01 5.69680966e-02 6.16902933e-02
      9.29261148e-02 6.06464073e-02 4.55466881e-02 6.52436987e-02
      7.22830892e-02 1.12701274e-01 7.25506321e-02 2.21640766e-01
      1.22888140e-01 1.16254240e-01 1.18506260e-01 2.41913989e-01
      1.87848955e-01 8.11253414e-02 1.58862159e-01 1.62009299e-01
      2.07933471e-01 1.00752309e-01 1.23440892e-01 1.28368735e-01
      2.10093021e-01 1.55979440e-01 1.83634624e-01 2.09660202e-01
      2.19411895e-01 7.62976408e-02 9.49534401e-02 2.75440216e-01
      1.39574349e-01 4.51998562e-02 5.14237434e-02 1.82190001e-01
      4.73461628e-01 2.09760711e-01 1.27906248e-01 1.15280889e-01
      1.89481840e-01 1.67595863e-01 1.45916283e-01 1.57935217e-01
      1.90318272e-01 4.35783416e-01 3.00324172e-01 1.67942569e-01
      1.94926798e-01 1.70603871e-01 1.58078462e-01 1.61618859e-01
      1.32242724e-01 1.52858362e-01 2.97196567e-01 2.43872970e-01
      1.52385145e-01 1.13325223e-01 1.10864624e-01 8.39086473e-02
      6.79082274e-02 7.49671012e-02 1.15104675e-01 1.58819631e-01
      1.72412097e-01 7.20495582e-02 1.32365927e-01 1.43717796e-01
      4.53210808e-02 8.03675354e-02 1.43227115e-01 1.55882508e-01
      1.43298864e-01 8.63469169e-02 2.32676253e-01 1.47419348e-01
      1.52846470e-01 1.31473899e-01 2.53203541e-01 2.23679870e-01
      8.66371244e-02 1.49708703e-01 1.94741398e-01 1.59829363e-01
      8.91089290e-02 2.06912681e-01 1.51310712e-01 1.06082149e-01
      7.99172595e-02 1.76811546e-01 2.97922313e-01 1.99253008e-01
      5.84821664e-02 9.55514163e-02 2.34190896e-01 1.33825496e-01
      3.99351157e-02 4.96048816e-02 1.80461019e-01 4.36268479e-01
      1.50798559e-01 1.48986787e-01 9.92930532e-02 2.17390731e-01
      2.14662790e-01 4.18295823e-02 3.96068878e-02 1.56904757e-01
      5.19240022e-01 3.07145506e-01 8.71141776e-02 6.44158348e-02
      1.30143613e-01 1.02111332e-01 5.72950430e-02 4.06743921e-02
      7.04875439e-02 2.65302002e-01 2.42408425e-01 6.52398467e-02
      3.50542739e-02 5.25730513e-02 1.00689813e-01 5.40066771e-02
      3.89202200e-02 4.89924848e-02 1.30966499e-01 1.41058952e-01
      3.29955965e-02 3.87779698e-02 5.24585545e-02 6.90272078e-02
      5.32075427e-02 4.51422483e-02 1.95931673e-01 3.42981070e-01
      1.14668198e-01 7.75023848e-02 9.21309516e-02 1.99515328e-01
      1.79522753e-01 8.32446441e-02 7.51075894e-02 1.72391251e-01
      2.67328918e-01 1.51578680e-01 6.75519630e-02 5.92614077e-02
      2.67304212e-01 3.19360465e-01 1.70109734e-01 1.15405098e-01
      1.25722304e-01 2.86720008e-01 1.54942423e-01 1.12272119e-02
      1.05865570e-02 1.01803675e-01 2.50649571e-01 7.35281780e-02
      2.52746977e-02 4.36572917e-02 1.15588620e-01 3.70940119e-02
      1.21028163e-02 9.04688798e-03 1.53986476e-02 3.48882675e-02
      4.06425148e-02 4.00241502e-02 7.33702034e-02 1.10951237e-01
      5.32778203e-02 2.50346996e-02 1.33820334e-02 2.11556740e-02
      1.90135911e-02 2.25044377e-02 5.46125546e-02 6.31659999e-02
      8.37801620e-02 6.56109825e-02 4.71712910e-02 3.49865481e-02
      6.53587505e-02 3.23291086e-02 7.66416416e-02 2.09413096e-01
      2.40202963e-01 1.09776475e-01 7.93830678e-02 2.33610198e-02
      5.53304590e-02 1.63405210e-01 1.21212423e-01 6.43746108e-02
      9.72452760e-02 4.40476120e-01 2.83772081e-01 6.36839420e-02
      5.84109686e-02 7.05502257e-02 2.10935012e-01 1.74264774e-01
      9.68425125e-02 7.80739784e-02 1.27784595e-01 2.19312221e-01
      1.14593357e-01 8.72377306e-02 8.08027759e-02 2.00274780e-01
      2.24787802e-01 1.10443518e-01 8.46082270e-02 1.05754882e-01
      2.01056093e-01 1.91285700e-01 3.89883593e-02 7.60439858e-02
      3.12948674e-01 5.57958305e-01 2.19240814e-01 1.34947449e-01
      1.69198409e-01 3.08801830e-01 1.27328783e-01 3.76391187e-02
      4.29676361e-02 2.10125268e-01 2.43254498e-01 2.72670925e-01
      2.20930114e-01 2.62305766e-01 2.86482483e-01 7.38273188e-02
      5.06243631e-02 5.79973012e-02 1.22315869e-01 1.45158336e-01
      1.61520898e-01 3.26061994e-01 4.03660059e-01 2.39312351e-01
      9.47508737e-02 6.20714314e-02 6.33061677e-02 1.49499029e-01
      1.37018859e-01 9.43453312e-02 2.27804184e-01 3.78441602e-01
      2.54752129e-01 9.20243189e-02 2.31809672e-02 4.97244708e-02
      1.76701128e-01 1.48163304e-01 5.91066927e-02 5.22822216e-02
      1.03199996e-01 1.70735136e-01 4.81361859e-02 8.18868205e-02
      1.15240514e-01 2.24037126e-01 2.27030769e-01 8.37836191e-02
      8.42747688e-02 1.74930140e-01 3.20533127e-01 1.48382708e-01
      8.89867246e-02 9.93968695e-02 3.13008875e-01 2.65999943e-01
      1.27095237e-01 7.85675645e-02 1.31763861e-01 2.83765733e-01
      1.15935013e-01</_>
    <_>
      5.34384996e-02 5.53292297e-02 1.38663456e-01 4.96143289e-02
      3.40826139e-02 2.93784533e-02 6.19800091e-02 6.71321675e-02
      5.83232418e-02 8.62048343e-02 3.40131730e-01 1.66096628e-01
      5.97375557e-02 2.55800281e-02 3.53500098e-02 4.01229486e-02
      1.41455740e-01 9.43879932e-02 2.48984993e-01 4.54500347e-01
      1.10896744e-01 5.32109104e-02 1.25989959e-01 2.18679592e-01
      1.04635112e-01 1.11664079e-01 1.04969800e-01 2.97142476e-01
      3.54398042e-01 1.01649836e-01 7.36163259e-02 1.54124975e-01
      2.24788502e-01 1.47228315e-01 7.55955428e-02 1.35739744e-01
      2.05019653e-01 2.64952093e-01 1.23967275e-01 9.24250633e-02
      1.78131849e-01 1.52798027e-01 9.81608182e-02 2.44802445e-01
      2.14022532e-01 1.58325538e-01 7.72445127e-02 1.28476564e-02
      2.57331301e-02 4.39385921e-02 1.74733941e-02 5.43544702e-02
      1.99038923e-01 2.42192239e-01 9.35918093e-03 4.05023433e-02
      3.74186575e-01 1.63714856e-01 1.27594145e-02 1.57197341e-02
      1.00584589e-01 1.70851141e-01 2.65920796e-02 4.64110896e-02
      9.21074301e-02 2.24472731e-01 1.38368264e-01 5.09894490e-02
      6.21047877e-02 1.93801403e-01 2.40975827e-01 8.18801224e-02
      1.58367947e-01 2.06222013e-01 2.72070795e-01 2.48520523e-01
      1.03926256e-01 2.55456895e-01 3.19397122e-01 1.52666986e-01
      1.40722647e-01 1.13235023e-02 3.04299444e-02 1.45327106e-01
      1.66859657e-01 1.95007652e-01 2.36451805e-01 2.75588632e-01
      1.78636938e-01 9.77852121e-02 3.30502838e-02 9.46322307e-02
      2.26833165e-01 1.38582811e-01 1.49068817e-01 2.48388737e-01
      3.20833296e-01 1.20288983e-01 4.80806269e-02 5.70108034e-02
      1.50886029e-01 1.96482718e-01 9.65212286e-02 1.25416353e-01
      3.17909807e-01 2.26748139e-01 6.43925518e-02 3.98770720e-02
      4.05662954e-02 5.81542403e-02 9.49683413e-02 2.29952186e-01
      2.17148125e-01 1.05254300e-01 5.39225526e-02 2.37622820e-02
      2.59928424e-02 3.76888961e-02 4.22146209e-02 3.08918178e-01
      1.44024417e-01 1.95037462e-02 3.98293026e-02 2.09724575e-01
      3.05078834e-01 1.27869397e-01 4.98990193e-02 6.29696101e-02
      4.03789341e-01 1.89688489e-01 5.19017130e-02 5.40710986e-02
      2.33868867e-01 3.23970646e-01 9.71674770e-02 5.88067733e-02
      1.47430852e-01 2.77633995e-01 3.13759178e-01 1.41863585e-01
      6.20832480e-02 1.83447585e-01 3.10485274e-01 6.62290156e-02
      6.50221780e-02 1.22937925e-01 3.07707697e-01 1.66256607e-01
      4.82803956e-02 5.92827350e-02 4.04439360e-01 4.16765273e-01
      1.24973975e-01 9.27661732e-02 1.79454818e-01 1.79926828e-01
      7.68836662e-02 6.97304383e-02 1.46897838e-01 2.28436798e-01
      1.36428624e-01 9.52251032e-02 1.67432114e-01 2.32053906e-01
      1.14816599e-01 7.70072266e-02 1.18004099e-01 2.17393979e-01
      1.93169817e-01 8.60935301e-02 7.62704164e-02 8.58014151e-02
      1.06290363e-01 8.20791572e-02 5.27593419e-02 6.73698708e-02
      8.88908356e-02 5.13140485e-02 2.16646381e-02 2.17939094e-02
      9.28637311e-02 1.48241431e-01 2.59651661e-01 1.35092348e-01
      9.61267948e-02 1.30588561e-01 1.08046331e-01 1.60272345e-01
      9.19114500e-02 1.39322132e-01 1.21962234e-01 1.94886670e-01
      1.63235009e-01 7.45083392e-02 1.71240896e-01 2.45148584e-01
      2.15587378e-01 1.30300820e-01 8.61790478e-02 1.70796737e-01
      2.86733657e-01 1.01980232e-01 8.65960494e-02 8.23633671e-02
      1.02983147e-01 2.79975116e-01 2.70062864e-01 7.97354057e-02
      6.13469034e-02 9.88525301e-02 1.04893588e-01 4.63678986e-02
      4.45837639e-02 1.33674830e-01 1.94766179e-01 1.63192704e-01
      1.19869553e-01 1.25596061e-01 1.44491479e-01 1.84843108e-01
      1.20107919e-01 9.55919996e-02 1.09963834e-01 1.12163574e-01
      1.76867187e-01 2.43316367e-01 1.06145255e-01 8.97433907e-02
      2.15894595e-01 2.27923140e-01 1.36726797e-01 1.15746051e-01
      1.21920757e-01 3.08671236e-01 6.70295879e-02 6.84137493e-02
      4.04476747e-02 4.44836318e-02 6.31843656e-02 1.29678488e-01
      8.96275789e-02 4.86089587e-02 4.94346544e-02 5.30511700e-02
      4.10498679e-02 4.38143730e-01 2.27743492e-01 1.48367211e-01
      1.19020179e-01 1.45308971e-01 1.55058354e-01 8.14017951e-02
      4.56517078e-02 6.87757060e-02 1.88591495e-01 1.15312196e-01
      8.23929310e-02 2.10405096e-01 2.22105369e-01 3.49893272e-01
      1.27997875e-01 3.01175974e-02 5.40313274e-02 2.52883822e-01
      3.97280604e-01 5.71951345e-02 2.03263760e-02 1.48328589e-02
      1.94998786e-01 2.39126459e-01 1.14946768e-01 4.27072905e-02
      5.51402420e-02 9.62709785e-02 4.58431654e-02 3.77873443e-02
      7.48774111e-02 3.10876459e-01 4.53765750e-01 2.38028780e-01
      8.65994766e-02 8.29135180e-02 1.55172944e-01 1.93619713e-01
      1.14065319e-01 7.56671876e-02 1.28821075e-01 3.01468074e-01
      1.29397899e-01 7.40869939e-02 8.32070187e-02 2.35833406e-01
      2.10487321e-01 1.24759801e-01 1.20817937e-01 2.00341374e-01
      2.62620747e-01 4.20464687e-02 3.66471559e-02 6.50116950e-02
      6.51070178e-02 3.74882594e-02 3.27745900e-02 5.17281666e-02
      9.55313668e-02 9.77372453e-02 1.63165525e-01 7.79296979e-02
      2.02367425e-01 1.54844552e-01 1.27897874e-01 7.73541480e-02
      5.80274202e-02 8.18152279e-02 1.17122799e-01 1.11805134e-01
      8.19608718e-02 1.53111801e-01 1.24639265e-01 7.56527930e-02
      4.06529903e-02 1.47628471e-01 2.84541667e-01 1.89735889e-01
      5.03942650e-03 3.19988914e-02 4.53347206e-01 3.36152434e-01
      6.67722151e-02 6.94127157e-02 4.10773568e-02 3.90341207e-02
      1.00457473e-02 1.54064437e-02 6.57532504e-03 2.27715112e-02
      7.77074099e-02 6.82886392e-02 2.38376670e-02 1.13251068e-01
      4.71093297e-01 1.56864062e-01 1.08140752e-01 5.08803502e-02
      7.84592256e-02 1.57813892e-01 1.45109460e-01 1.15991771e-01
      1.42426997e-01 3.60048592e-01 2.76837230e-01 1.05599724e-01
      6.17802963e-02 9.57054868e-02 1.84348240e-01 1.46234870e-01
      7.12009966e-02 7.71549866e-02 2.64719158e-01 2.69747496e-01
      3.15164663e-02 3.82764861e-02 6.70794621e-02 7.95495510e-02
      6.03620261e-02 2.25590840e-02 2.28433032e-02 7.27623254e-02
      6.72991499e-02 1.62550658e-01 7.20766112e-02 2.82028228e-01
      1.37800291e-01 1.37471199e-01 9.39520076e-02 9.97180343e-02
      1.47204056e-01 9.28170234e-02 5.01878075e-02 6.97145388e-02
      2.24221900e-01 1.22881629e-01 8.58005136e-02 1.24286011e-01
      2.13787884e-01 3.41950804e-01 9.01421160e-02 1.10861892e-02
      2.26515792e-02 3.51789743e-01 4.05390680e-01 9.18287858e-02
      3.62802595e-02 5.72537892e-02 1.24180637e-01 7.96027295e-03
      3.11831478e-02 2.29516253e-02 6.35309741e-02 2.65007019e-01
      1.21564396e-01 1.59944315e-02 5.80527857e-02 3.00014764e-01
      1.51523858e-01 6.76582232e-02 2.77369842e-02 5.86588234e-02
      1.24145679e-01 8.50223601e-02 4.68366854e-02 7.76270479e-02
      2.92714924e-01 2.47391537e-01 7.57581592e-02 5.10406755e-02
      1.01302288e-01 1.38800740e-01 9.92523581e-02 6.31337240e-02
      9.91676673e-02 1.81597307e-01 1.49301067e-01 5.79803437e-02
      1.59013197e-01 2.70057678e-01 1.31660417e-01 2.91811433e-02
      2.55390108e-02 2.47446317e-02 7.24499375e-02 7.85129294e-02
      9.53404829e-02 3.11746523e-02 2.47422919e-01 1.23580679e-01
      8.10631216e-02 1.07112288e-01 1.29116893e-01 1.82020321e-01
      1.04522742e-01 9.84180570e-02 6.81923851e-02 2.86453485e-01
      1.62795216e-01 4.85471077e-02 5.82300387e-02 2.40351215e-01
      4.66213137e-01 1.51274875e-01 1.20149143e-02 1.03659537e-02
      3.52752358e-01 1.32419795e-01 5.56743843e-03 6.56788982e-03
      1.12988994e-01 3.74327153e-01 1.38066160e-02 7.43094683e-02
      4.44826782e-02 1.34339854e-01 3.16718400e-01 2.21016243e-01
      1.65956050e-01 3.73633504e-02 3.51773798e-02 4.95477431e-02
      8.98249969e-02 4.26015928e-02 1.57473400e-01 3.48679960e-01
      2.33878165e-01 1.69340163e-01 1.96197525e-01 3.03669423e-01
      2.68383533e-01 1.96282417e-01 1.39697015e-01 1.28377408e-01
      1.87321246e-01 2.16952264e-01 2.10727513e-01 1.76168248e-01
      1.58193380e-01 2.05773205e-01 9.56865847e-02 1.07359268e-01
      1.11352175e-01 9.49135870e-02 9.67683718e-02 2.01722637e-01
      2.12835893e-01 1.10339411e-01 4.79504317e-02 2.14477349e-02
      2.91973781e-02 2.94068038e-01 1.31995901e-01 3.98513824e-02
      3.77176516e-02 7.58232996e-02 9.83438119e-02 3.93032171e-02
      3.39758284e-02 5.37243523e-02 1.98679134e-01 1.39414310e-01
      3.43916640e-02 4.61893715e-02 1.57652572e-01 4.24910069e-01
      1.05687074e-01</_>
    <_>
      2.59846337e-02 3.22024859e-02 2.13003755e-01 1.19940996e-01
      3.44355777e-02 3.23500708e-02 9.13552940e-02 1.51648208e-01
      4.29894514e-02 5.59186935e-02 3.12894098e-02 1.26327693e-01
      2.76397556e-01 1.21792711e-01 4.85536568e-02 1.06293701e-01
      3.77261877e-01 3.57709438e-01 1.72654569e-01 5.51174879e-02
      9.28608552e-02 3.23595971e-01 2.67591268e-01 1.33576065e-01
      6.94424510e-02 1.75381184e-01 2.74775892e-01 2.61345476e-01
      1.00662157e-01 7.23407269e-02 2.01677054e-01 2.71607608e-01
      1.07554711e-01 1.34144679e-01 2.49936849e-01 2.60480195e-01
      3.03057462e-01 3.42007220e-01 2.07965270e-01 4.08726968e-02
      2.83897109e-02 6.15955554e-02 1.66587606e-01 1.44108802e-01
      1.06117792e-01 1.94386706e-01 2.40576133e-01 1.54448763e-01
      1.10870406e-01 1.01687916e-01 1.57854497e-01 1.94885775e-01
      2.70276278e-01 1.02412842e-01 1.03057668e-01 1.59247965e-01
      3.01013350e-01 2.30734959e-01 8.06726888e-02 7.24097043e-02
      1.30486727e-01 1.55011550e-01 1.26799569e-01 1.03688419e-01
      1.26099423e-01 2.75633991e-01 2.10922331e-01 1.20257407e-01
      1.69637203e-01 2.17826098e-01 2.59744138e-01 1.41786754e-01
      1.02209575e-01 2.12805048e-01 1.85020551e-01 1.85468912e-01
      8.61639008e-02 1.35195166e-01 2.32404828e-01 4.00269270e-01
      1.24643430e-01 1.93846121e-01 3.35125178e-01 6.71723559e-02
      1.12929322e-01 2.51594126e-01 2.57230073e-01 3.35301012e-01
      2.14461282e-01 1.66204438e-01 1.36058107e-01 2.39277542e-01
      3.44635785e-01 2.28340730e-01 2.69125551e-01 2.70941138e-01
      1.92184672e-01 9.18944776e-02 7.29094520e-02 5.32938503e-02
      9.93309543e-02 1.32793903e-01 2.28663534e-01 2.91445345e-01
      3.27691197e-01 2.12335512e-01 1.32826954e-01 9.99915749e-02
      1.64617449e-01 1.39107391e-01 1.64095864e-01 1.40303865e-01
      1.22284703e-01 1.23199418e-01 1.75631478e-01 2.08608285e-01
      1.65857747e-01 1.42201781e-01 1.76876456e-01 2.00435996e-01
      1.33175477e-01 1.47036850e-01 1.76985756e-01 1.93716258e-01
      1.53392226e-01 1.16623662e-01 1.19727805e-01 9.43098888e-02
      1.11136988e-01 1.18307441e-01 1.03614494e-01 1.28063604e-01
      2.18157366e-01 1.91740379e-01 1.13545768e-01 8.96215588e-02
      1.19409807e-01 1.16238549e-01 1.56520978e-01 1.97827667e-01
      1.58319205e-01 2.07456574e-01 3.36369157e-01 7.67912716e-02
      1.29572600e-01 1.86430395e-01 1.16290264e-01 7.22199008e-02
      3.27346683e-01 3.39948326e-01 3.94260794e-01 5.90793431e-01
      1.57383114e-01 1.26610130e-01 1.08930044e-01 1.38767973e-01
      1.55603006e-01 2.57083029e-01 2.86336839e-01 1.37133822e-01
      1.07953042e-01 1.02266796e-01 2.94962600e-02 5.50483540e-02
      9.50038061e-02 7.91557059e-02 8.56304839e-02 1.23660825e-01
      8.39307681e-02 5.41116334e-02 2.87182350e-02 5.74675836e-02
      1.62100345e-01 2.69037068e-01 2.24810556e-01 1.33856341e-01
      7.72973299e-02 9.92203876e-02 1.15882494e-01 5.15449606e-02
      1.72462523e-01 1.47694156e-01 1.75170973e-01 1.11267783e-01
      8.84616077e-02 9.83667001e-02 1.96435034e-01 1.96486190e-01
      1.33361831e-01 1.75155550e-01 1.77439496e-01 1.12199433e-01
      9.10720974e-02 7.49190152e-02 1.35134548e-01 2.33856916e-01
      2.01374695e-01 1.03886366e-01 6.94111958e-02 1.80597156e-01
      3.39508295e-01 1.43851697e-01 3.02199833e-02 5.06864712e-02
      2.40120843e-01 4.20525014e-01 1.90045655e-01 1.30991861e-01
      8.33904073e-02 3.08188982e-02 3.57355922e-02 1.11065179e-01
      8.86361077e-02 7.59527907e-02 1.43162295e-01 1.39798924e-01
      1.26311123e-01 1.14514709e-01 1.14924744e-01 1.04650237e-01
      7.96503723e-02 5.46708405e-02 5.61108701e-02 6.61898479e-02
      7.62576163e-02 6.99838400e-02 6.16110526e-02 8.08322579e-02
      9.76600349e-02 8.78766105e-02 5.81399053e-02 5.23024648e-02
      7.13867694e-02 9.49319452e-02 5.98334149e-02 1.71545431e-01
      2.15255409e-01 1.10607572e-01 9.29156393e-02 1.03165500e-01
      6.79879859e-02 5.77581748e-02 5.10915518e-02 2.68800676e-01
      1.77442566e-01 5.89885637e-02 5.90668321e-02 2.98355848e-01
      3.02380204e-01 9.89205167e-02 1.52724147e-01 1.75709471e-01
      1.45110756e-01 9.31359380e-02 1.55101135e-01 1.11646749e-01
      1.29903018e-01 2.44322971e-01 1.49785161e-01 1.32275864e-01
      1.05824791e-01 3.79709601e-02 7.86043853e-02 3.43291163e-01
      1.64170265e-01 3.29673514e-02 2.33567450e-02 1.66801482e-01
      3.65333855e-01 9.78154764e-02 1.75315812e-01 1.63991287e-01
      1.26194909e-01 7.40305111e-02 2.32187845e-02 2.37812214e-02
      1.27804473e-01 3.12913775e-01 2.78956532e-01 1.23777218e-01
      3.53422500e-02 3.67804430e-02 9.46744680e-02 1.37911513e-01
      8.93452018e-02 1.01640731e-01 2.47610256e-01 3.36580366e-01
      9.08714756e-02 9.85896736e-02 1.14450768e-01 6.70224950e-02
      4.07961085e-02 6.19343929e-02 3.33032422e-02 2.50946246e-02
      3.96982804e-02 1.49164423e-01 1.68503374e-01 2.85242796e-01
      1.88689366e-01 1.43137440e-01 2.58999527e-01 1.12118907e-01
      8.54989141e-02 9.23599303e-02 1.30064189e-01 1.73543781e-01
      8.07226598e-02 5.22308461e-02 6.93780184e-02 2.21022621e-01
      2.71275461e-01 2.59249061e-01 1.61615148e-01 1.85206622e-01
      1.72150180e-01 1.97520137e-01 1.68356195e-01 1.36402160e-01
      1.01565123e-01 1.42973378e-01 1.54754668e-01 1.58024296e-01
      5.62864169e-02 7.20950440e-02 4.01417941e-01 2.71512657e-01
      5.95381483e-02 5.10132611e-02 2.15163410e-01 5.18874645e-01
      1.30580589e-01 7.29053319e-02 1.41219944e-01 2.94065177e-01
      2.62059808e-01 1.20930918e-01 9.36224312e-02 1.84849367e-01
      3.04552168e-01 1.32530704e-01 2.13347718e-01 4.96443324e-02
      4.77041677e-02 2.03945458e-01 1.41248897e-01 7.16481060e-02
      1.24900445e-01 3.97343010e-01 3.73338401e-01 7.66141191e-02
      7.28429705e-02 1.30873904e-01 9.60741714e-02 5.99107444e-02
      6.56589121e-02 9.75015983e-02 1.28091723e-01 1.27121091e-01
      1.42476425e-01 2.98000813e-01 2.94174016e-01 1.08391680e-01
      5.31110689e-02 5.58446199e-02 1.46210134e-01 1.33148953e-01
      7.62196630e-02 1.04508594e-01 1.59032643e-01 1.25193298e-01
      7.35071078e-02 5.12199104e-02 1.14419408e-01 3.02600145e-01
      3.21743250e-01 1.20583579e-01 1.19723454e-01 8.44151154e-02
      1.38332367e-01 1.36392757e-01 9.89203006e-02 1.14475437e-01
      1.66943461e-01 1.62599847e-01 1.31720528e-01 8.73707011e-02
      1.04068205e-01 3.26634765e-01 2.82011896e-01 7.41465166e-02
      8.20939541e-02 1.52580425e-01 2.00056538e-01 1.46778584e-01
      9.10483226e-02 4.58971336e-02 6.94683492e-02 1.45232126e-01
      1.14229418e-01 6.81118295e-02 1.49663970e-01 3.75055343e-01
      3.02803516e-01 2.32332066e-01 1.54490024e-01 8.98290351e-02
      9.53323990e-02 1.56488106e-01 1.44626647e-01 1.00914598e-01
      1.49806783e-01 2.19833061e-01 2.03858733e-01 1.67798474e-01
      1.46248668e-01 8.52773413e-02 1.08217187e-02 5.44126593e-02
      1.38307616e-01 1.03907168e-01 1.64306208e-01 3.74380589e-01
      2.13338569e-01 1.61510766e-01 1.33319646e-01 2.77749628e-01
      2.48967692e-01 1.03401244e-01 1.43774509e-01 1.14418678e-01
      2.38901362e-01 1.34616747e-01 7.84680396e-02 5.59998453e-02
      1.25338480e-01 2.77856916e-01 2.28719011e-01 2.70880997e-01
      1.78404406e-01 7.24193156e-02 8.57626945e-02 1.82887971e-01
      1.30027890e-01 1.15511000e-01 8.07486326e-02 1.47966906e-01
      1.95781991e-01 1.19472794e-01 4.39952463e-02 9.25022140e-02
      2.66072333e-01 1.62790462e-01 3.97452414e-02 3.26326080e-02
      1.42409250e-01 2.13739514e-01 6.28361925e-02 7.20479190e-02
      8.84278119e-02 2.48676255e-01 1.48328200e-01 7.34604001e-02
      9.00878161e-02 2.07871020e-01 2.33380154e-01 8.81534070e-02
      8.75086859e-02 8.20047781e-02 1.84075743e-01 1.36014670e-01
      6.98286295e-02 8.62876326e-02 2.48819098e-01 3.20612967e-01
      1.02305621e-01 6.50411472e-02 9.54115167e-02 2.27184355e-01
      1.79785639e-01 6.74062520e-02 7.29442462e-02 1.63871586e-01
      1.78066552e-01 1.01025328e-01 9.01960880e-02 7.33863637e-02
      1.78131014e-01 2.56185532e-01 1.46245196e-01 1.19166993e-01
      1.98281214e-01 2.46311337e-01 1.44117385e-01 7.31192157e-02
      6.34086877e-02 1.49970263e-01 1.56153217e-01 7.95776024e-02
      9.79634598e-02 2.38953233e-01 3.17228645e-01 1.74245000e-01
      1.26693815e-01 1.67723402e-01 2.34734058e-01 1.63126707e-01
      1.25889912e-01 9.02493820e-02 1.45287141e-01 2.31740624e-01
      1.50995985e-01</_>
    <_>
      4.30970900e-02 8.19880366e-02 1.77719638e-01 1.06998906e-01
      5.88001087e-02 6.54592514e-02 1.45507529e-01 2.00555667e-01
      7.61478245e-02 5.90830445e-02 1.13004312e-01 2.83639103e-01
      1.69683054e-01 5.88189997e-02 6.99472353e-02 2.04177648e-01
      2.33248174e-01 1.07985161e-01 5.65762222e-02 6.40697405e-02
      1.03975050e-01 8.08704793e-02 5.41082248e-02 6.38389140e-02
      1.27917111e-01 1.87827438e-01 9.57992971e-02 9.27985013e-02
      1.00162379e-01 2.10528001e-01 1.18988581e-01 4.26992923e-02
      6.14472516e-02 1.41421050e-01 1.97388113e-01 1.20547593e-01
      4.11233827e-02 6.70892447e-02 2.88855314e-01 1.75575554e-01
      7.52512738e-02 6.63798451e-02 2.94369996e-01 2.97082752e-01
      7.59818479e-02 1.01866089e-01 1.42519012e-01 1.85788676e-01
      1.56676531e-01 8.97762999e-02 7.11460039e-02 1.63368627e-01
      2.84782320e-01 1.19596250e-01 8.50949436e-02 1.06934831e-01
      1.81040391e-01 1.79097459e-01 1.11873582e-01 1.36486888e-01
      2.50561684e-01 3.16923052e-01 1.75459832e-01 5.57972677e-02
      7.81955570e-02 2.46127605e-01 1.21904597e-01 6.19173720e-02
      8.96807685e-02 1.29934594e-01 1.78047583e-01 9.02491659e-02
      8.62098634e-02 1.74419507e-01 2.19965905e-01 7.93374851e-02
      4.48796712e-02 5.14727384e-02 1.06803119e-01 1.30007207e-01
      6.40439391e-02 5.76546602e-02 2.33015880e-01 2.91986853e-01
      8.07290748e-02 5.24528623e-02 7.00688809e-02 2.91241109e-01
      2.26230428e-01 4.30679955e-02 3.63822579e-02 4.95198630e-02
      1.41154021e-01 1.13741502e-01 5.53174429e-02 1.75960928e-01
      6.71201706e-01 2.67464697e-01 6.14937097e-02 5.17328978e-02
      7.25564733e-02 2.77212858e-01 1.88938752e-01 1.05823100e-01
      1.09667748e-01 1.74111143e-01 3.40036750e-01 1.03507258e-01
      1.08018354e-01 1.41779572e-01 2.82232523e-01 2.80430287e-01
      1.84474245e-01 1.45351917e-01 1.99409068e-01 2.80488461e-01
      1.29808918e-01 6.89433962e-02 1.00066282e-01 1.65114775e-01
      2.49078780e-01 1.39467448e-01 7.04765990e-02 2.88223177e-01
      3.48425537e-01 1.14944078e-01 8.07758793e-02 9.68048051e-02
      2.44239807e-01 1.72171891e-01 8.09662268e-02 7.63724968e-02
      1.04635060e-01 1.95396051e-01 1.26841962e-01 2.78860964e-02
      1.73855916e-01 3.12991917e-01 4.89530824e-02 3.39717343e-02
      5.57074659e-02 1.38441160e-01 1.48495510e-01 4.12627868e-02
      3.00854277e-02 4.23660725e-02 9.23342779e-02 1.04978517e-01
      7.90769681e-02 1.30223557e-01 4.18818742e-01 5.13383985e-01
      7.19158128e-02 4.48667370e-02 5.48692271e-02 9.94943157e-02
      1.51867464e-01 9.66998488e-02 1.15837991e-01 3.52697462e-01
      2.97387391e-01 9.42099690e-02 3.03275734e-02 4.50853668e-02
      2.28182763e-01 2.69863605e-01 1.31110668e-01 1.29698932e-01
      2.15159550e-01 1.96812332e-01 3.70355323e-02 4.13872115e-02
      1.03345275e-01 2.92170048e-01 1.62673101e-01 5.22218794e-02
      6.67088479e-02 2.37935722e-01 2.84919381e-01 8.91667008e-02
      3.06087196e-01 1.69283256e-01 1.85518250e-01 2.10273311e-01
      3.55849832e-01 2.02090129e-01 7.31928647e-02 6.10860996e-02
      1.96096539e-01 1.33113027e-01 6.72116801e-02 1.72282919e-01
      1.29421324e-01 1.44728735e-01 1.86632529e-01 1.75109401e-01
      2.01076657e-01 1.54434234e-01 2.18517371e-02 2.27953158e-02
      4.66356911e-02 3.29850353e-02 3.72328162e-02 9.52050388e-02
      3.03795844e-01 3.54114413e-01 6.91195056e-02 4.15309146e-02
      6.11993782e-02 1.66480824e-01 1.91947356e-01 1.81810975e-01
      2.12907597e-01 3.53172064e-01 4.33712691e-01 1.38089985e-01
      9.48137790e-02 8.63839090e-02 1.12448946e-01 1.00835055e-01
      9.55149233e-02 8.22818875e-02 1.51494220e-01 4.25327420e-01
      3.25930417e-01 1.93899516e-02 1.14828713e-01 2.37198502e-01
      5.65478019e-02 2.35719811e-02 3.06880400e-02 1.87662885e-01
      1.40483841e-01 2.86565349e-02 2.66433675e-02 4.08190303e-02
      9.28571373e-02 1.00892171e-01 6.32815361e-02 4.49948385e-02
      7.10166395e-02 9.22102854e-02 2.60781310e-02 1.95634112e-01
      2.90820122e-01 2.25635469e-01 1.59282580e-01 2.47987464e-01
      3.11213315e-01 2.01940894e-01 1.84343785e-01 1.46306619e-01
      7.80318528e-02 7.95160681e-02 1.71907082e-01 1.55541047e-01
      7.42612109e-02 8.80264044e-02 1.11070745e-01 1.19297005e-01
      6.72181025e-02 3.69449332e-02 3.20054255e-02 6.19268827e-02
      4.39366698e-02 5.00692092e-02 7.78001770e-02 2.26785660e-01
      4.22308922e-01 1.24082670e-01 6.65247589e-02 3.73938307e-02
      7.49632865e-02 1.19989298e-01 9.10101160e-02 5.51017448e-02
      1.33224279e-01 4.69797581e-01 3.01205963e-01 9.40892473e-02
      4.05894555e-02 1.33591935e-01 2.25191504e-01 2.69438356e-01
      1.32099256e-01 9.36015472e-02 1.62531748e-01 2.01421306e-01
      2.76986510e-02 2.23066136e-02 9.40998718e-02 1.18904449e-01
      4.31951843e-02 2.91662924e-02 6.45688847e-02 1.83075830e-01
      8.74773338e-02 2.48392120e-01 4.30284888e-01 1.92823052e-01
      8.10328573e-02 7.89436921e-02 3.19140941e-01 9.61746052e-02
      5.67882583e-02 3.29864100e-02 2.45175421e-01 1.42066672e-01
      1.14948042e-01 6.70692772e-02 8.67968872e-02 2.67212093e-01
      2.09588006e-01 2.69961983e-01 2.27378502e-01 4.99611907e-02
      5.21495119e-02 1.09155849e-01 1.40666544e-01 7.47177303e-02
      5.43148853e-02 8.53146762e-02 1.44843847e-01 8.10834393e-02
      3.16875689e-02 3.83909605e-02 1.67876303e-01 1.98525459e-01
      9.39152017e-02 5.64788096e-02 1.78255588e-01 3.87038976e-01
      1.05293281e-01 4.72974107e-02 2.56367009e-02 5.19188382e-02
      8.61458182e-02 6.69601634e-02 4.21408638e-02 1.29704133e-01
      5.33348024e-01 3.71499747e-01 1.27977997e-01 3.80522721e-02
      9.34187099e-02 1.87460989e-01 8.31871778e-02 7.58946538e-02
      9.13464352e-02 2.34282926e-01 3.34466785e-01 3.44686918e-02
      7.70384967e-02 1.57348260e-01 6.36858717e-02 2.44422331e-02
      2.01267581e-02 2.64470112e-02 4.78982255e-02 2.93945707e-02
      1.38490289e-01 2.50932276e-01 3.17064732e-01 2.45804861e-01
      1.33021981e-01 1.15226969e-01 1.71550512e-01 2.84875631e-01
      1.89228207e-01 8.74894336e-02 7.81980082e-02 1.02581069e-01
      1.54997423e-01 9.02185515e-02 9.89028290e-02 2.01481998e-01
      3.83003563e-01 1.70378268e-01 1.36219606e-01 6.39761314e-02
      1.41174704e-01 2.50433862e-01 1.47413939e-01 7.75535256e-02
      9.72976685e-02 2.13964596e-01 2.01799765e-01 8.34407508e-02
      6.47880659e-02 1.61891550e-01 2.02252224e-01 1.01319917e-01
      8.95255208e-02 2.39877999e-01 3.29621255e-01 1.77917287e-01
      8.80048126e-02 6.39947802e-02 7.14177638e-02 1.74000606e-01
      2.57896781e-01 1.44591421e-01 1.38525978e-01 2.88395792e-01
      2.53689796e-01 1.22241557e-01 3.32677737e-02 1.44871129e-02
      4.69791405e-02 1.24938101e-01 1.26621723e-01 1.03753179e-01
      2.24159211e-01 2.46228084e-01 5.47241569e-02 1.22434549e-01
      1.61598712e-01 2.01364473e-01 8.91693011e-02 5.12889400e-02
      8.07522014e-02 6.23958819e-02 5.28128222e-02 7.65445232e-02
      8.07499513e-02 1.99188486e-01 2.40687251e-01 1.84721410e-01
      1.01421535e-01 1.76100701e-01 2.41463065e-01 1.27035528e-01
      7.76992813e-02 4.94418964e-02 9.39637050e-02 9.59764421e-02
      6.61331415e-02 6.96286857e-02 1.60141572e-01 4.03195500e-01
      1.51546463e-01 8.80158097e-02 6.75123334e-02 1.52068764e-01
      1.71341568e-01 9.93641540e-02 7.05869123e-02 1.08636267e-01
      1.90472320e-01 1.08425915e-01 3.64612564e-02 8.04506168e-02
      2.73492575e-01 1.71904892e-01 6.49509579e-02 8.51111785e-02
      2.23848328e-01 3.59340936e-01 1.15696296e-01 1.24442421e-01
      9.63331312e-02 2.76047528e-01 1.83869272e-01 7.17441216e-02
      7.51678869e-02 1.75976902e-01 3.25272411e-01 2.69460142e-01
      3.29375863e-01 1.56427652e-01 1.10122047e-01 1.40370801e-01
      9.29420292e-02 8.83120522e-02 1.49294525e-01 2.74409175e-01
      2.37067834e-01 2.18946159e-01 1.56871721e-01 1.81785911e-01
      1.13311261e-01 6.29859939e-02 3.65703925e-02 6.80115670e-02
      1.55297667e-01 1.90206319e-01 2.48489231e-01 5.78898229e-02
      1.39494553e-01 1.90911144e-01 3.00314486e-01 1.13179393e-01
      1.27367035e-01 1.91202760e-01 2.96889007e-01 1.61898389e-01
      1.19077943e-01 1.72204092e-01 1.93684325e-01 1.22802101e-01
      1.48395121e-01 2.93518156e-01 3.64568681e-01 2.00182125e-01
      1.41728759e-01 1.19668238e-01 1.68986276e-01 1.79915249e-01
      8.79501030e-02 9.86502618e-02 1.42693982e-01 2.21962884e-01
      1.65441871e-01</_>
    <_>
      6.61206152e-03 1.48873609e-02 4.22612652e-02 1.52231213e-02
      5.07152686e-03 3.98570625e-03 1.94712840e-02 2.76163835e-02
      3.99720808e-03 9.31225717e-02 2.19872519e-01 2.14957714e-01
      2.41225511e-02 1.50433918e-02 4.71437946e-02 7.74414912e-02
      3.28856483e-02 8.68739039e-02 2.27904662e-01 4.26693231e-01
      1.27092630e-01 5.70524856e-02 1.19132951e-01 1.96883142e-01
      2.51659781e-01 1.42472848e-01 1.18014164e-01 1.61459655e-01
      1.04959801e-01 2.84971148e-01 1.70121908e-01 1.06832393e-01
      8.89532864e-02 1.64322317e-01 2.68249542e-01 2.39951879e-01
      2.74964273e-02 3.76538597e-02 1.07840113e-01 6.83248863e-02
      2.95112617e-02 4.39922325e-02 1.22997977e-01 2.72975594e-01
      7.48381987e-02 6.60925955e-02 8.43886510e-02 1.45314306e-01
      1.14543669e-01 7.36811981e-02 6.79689050e-02 8.95036533e-02
      1.33444369e-01 9.24496651e-02 4.09090295e-02 1.05785348e-01
      2.37390876e-01 1.81017935e-01 7.25341961e-02 4.73552570e-02
      8.34193379e-02 9.64972302e-02 4.52875681e-02 1.42438427e-01
      2.04348445e-01 2.75542349e-01 1.62911713e-01 1.32874683e-01
      1.63295969e-01 2.29086965e-01 2.03698784e-01 1.31372228e-01
      5.23291528e-02 1.49762586e-01 4.22834158e-01 2.44242817e-01
      5.38385920e-02 9.70037505e-02 2.64543504e-01 2.17176944e-01
      1.11582123e-01 1.45790443e-01 2.07051516e-01 1.21876106e-01
      5.76355606e-02 1.68180749e-01 3.01994234e-01 2.25235969e-01
      9.99906734e-02 1.16061755e-01 5.37746996e-02 5.81353232e-02
      1.43160000e-01 1.46546081e-01 1.02867179e-01 1.02269098e-01
      3.78801823e-02 4.20281813e-02 5.59939034e-02 3.74098659e-01
      1.03090376e-01 9.09839794e-02 1.85520142e-01 1.55762911e-01
      2.20593691e-01 2.75569588e-01 2.74111897e-01 3.31201524e-01
      9.17132199e-02 1.20387763e-01 1.66500777e-01 1.17971867e-01
      8.22547674e-02 9.78400409e-02 1.51946247e-01 1.23662114e-01
      1.02627851e-01 4.86601815e-02 9.56988037e-02 2.44229913e-01
      1.47282541e-01 7.02582747e-02 5.48863634e-02 7.41017684e-02
      6.51750192e-02 3.98543961e-02 1.52141958e-01 2.80665547e-01
      3.67146820e-01 1.93806022e-01 1.47612453e-01 2.15814784e-01
      2.99231350e-01 2.59118974e-01 1.44731045e-01 8.63374621e-02
      1.39357254e-01 3.43698025e-01 2.54733324e-01 1.96826067e-02
      2.98670307e-02 9.75454524e-02 1.01991937e-01 5.19992337e-02
      3.32598567e-01 1.72616944e-01 3.45168449e-02 2.96323095e-02
      7.72333294e-02 1.59100816e-01 9.45697799e-02 4.40030918e-02
      9.06642824e-02 3.74039531e-01 6.99139535e-02 3.75111438e-02
      5.92129007e-02 2.06235304e-01 1.91206500e-01 6.24791719e-02
      7.70441070e-02 3.32905978e-01 1.07987285e-01 3.06873899e-02
      3.32425684e-02 5.60479648e-02 1.72595561e-01 1.67688787e-01
      6.84117898e-02 7.40334392e-02 2.11375862e-01 8.09455439e-02
      9.53735933e-02 1.12208791e-01 9.26372632e-02 6.57645315e-02
      6.78494871e-02 1.09400764e-01 1.27702102e-01 9.26970616e-02
      5.96318915e-02 1.28242269e-01 2.07891047e-01 1.13851875e-01
      5.33394665e-02 5.53301871e-02 5.98604493e-02 5.07398881e-02
      4.86476570e-02 1.56223416e-01 1.74415573e-01 1.99731141e-01
      1.68023378e-01 1.49909824e-01 1.54905394e-01 2.31843263e-01
      1.73247010e-01 1.04940981e-01 2.46672314e-02 1.39850914e-01
      5.71187973e-01 9.99446437e-02 2.71979757e-02 6.35124743e-02
      1.33509755e-01 9.97573957e-02 2.85878945e-02 1.58039272e-01
      2.85569131e-01 9.08970982e-02 3.55285890e-02 6.73852339e-02
      2.49443159e-01 2.07903534e-01 4.52160165e-02 4.12418395e-02
      2.92004049e-01 1.81559563e-01 5.99351116e-02 4.94149104e-02
      1.94530770e-01 3.24694276e-01 1.43027753e-01 8.38773027e-02
      1.70635894e-01 2.69918561e-01 9.81886685e-02 6.31875172e-02
      1.32131323e-01 3.70416641e-01 2.94862330e-01 1.48759499e-01
      2.36217082e-01 5.45358896e-01 2.03043386e-01 6.66683465e-02
      5.70220500e-02 7.80103207e-02 1.69706181e-01 1.15746826e-01
      8.55297893e-02 9.52135697e-02 1.09456897e-01 1.34486720e-01
      2.01152787e-01 1.83870032e-01 1.04332685e-01 1.12919107e-01
      1.78525954e-01 1.53492957e-01 1.57688722e-01 8.77112299e-02
      1.11111872e-01 2.03966334e-01 2.99186558e-01 2.29906246e-01
      1.15164250e-01 1.12613983e-01 1.74080953e-01 1.35836989e-01
      8.28834921e-02 8.74649286e-02 1.38911888e-01 2.68985838e-01
      8.73299539e-02 3.95159982e-02 1.05092272e-01 1.37620136e-01
      1.18043147e-01 7.49096945e-02 1.47790417e-01 2.29894236e-01
      1.52682677e-01 5.97183071e-02 7.66592398e-02 2.29364529e-01
      2.29780316e-01 9.36613530e-02 8.40906426e-02 3.53003979e-01
      2.20331073e-01 5.18624857e-02 5.31671643e-02 2.12348878e-01
      5.04498959e-01 2.81805724e-01 1.80969939e-01 2.38601416e-01
      1.66515470e-01 1.39047816e-01 5.81478179e-02 7.28760734e-02
      1.53686136e-01 2.95074970e-01 1.55112892e-01 1.04733989e-01
      1.50595590e-01 9.98439342e-02 6.62784949e-02 1.01866223e-01
      1.28270343e-01 1.49306342e-01 1.06536523e-01 9.37190950e-02
      1.37460545e-01 1.50365904e-01 1.63801521e-01 1.18745856e-01
      1.70424148e-01 1.00179918e-01 1.38804927e-01 1.71926141e-01
      1.28491566e-01 1.78195357e-01 1.26529917e-01 1.11204766e-01
      1.71127170e-01 3.96858215e-01 2.80067593e-01 9.70942304e-02
      1.51505083e-01 1.79086819e-01 1.27827048e-01 7.94873461e-02
      5.97635023e-02 8.08486789e-02 1.20540358e-01 1.13168061e-01
      5.86950518e-02 1.34524673e-01 1.47405297e-01 1.02951355e-01
      6.63033351e-02 2.73272127e-01 2.28142008e-01 1.27448931e-01
      7.19591826e-02 1.79908052e-01 5.06080568e-01 3.21212381e-01
      1.15049340e-01 1.57481745e-01 1.87500849e-01 1.28061414e-01
      4.97923344e-02 7.19682276e-02 2.16480553e-01 4.17118579e-01
      2.51039863e-01 1.46558210e-01 1.46278381e-01 2.43739292e-01
      1.16439387e-01 4.60639372e-02 5.14886454e-02 2.08292887e-01
      2.41029903e-01 1.00362293e-01 7.42671117e-02 1.70697719e-01
      1.31565571e-01 1.45868048e-01 2.23303959e-01 2.22321525e-01
      1.88697904e-01 1.22543946e-01 5.35620712e-02 6.95653185e-02
      1.62354156e-01 1.41244531e-01 1.21329069e-01 1.21553794e-01
      1.32278278e-01 2.07883254e-01 2.17524529e-01 2.81702548e-01
      3.72190952e-01 1.72997549e-01 8.20936710e-02 1.22586600e-01
      2.72165388e-01 3.66228253e-01 1.73379466e-01 1.18049510e-01
      8.76520649e-02 9.50173885e-02 9.83372629e-02 9.93415490e-02
      8.96790326e-02 3.66966873e-01 5.23631454e-01 8.47396106e-02
      9.65769216e-02 2.17762083e-01 2.33910084e-01 1.15995541e-01
      2.29656696e-01 1.49905741e-01 6.62513897e-02 7.41560832e-02
      1.79531947e-01 4.09974098e-01 3.35895270e-01 2.50152081e-01
      2.03208089e-01 1.93646535e-01 6.19028248e-02 3.70728187e-02
      7.24677071e-02 1.86138570e-01 2.09277913e-01 1.27157971e-01
      1.15276732e-01 1.95810929e-01 8.64360854e-02 1.23291969e-01
      1.24959849e-01 7.44397715e-02 1.19386137e-01 1.33696213e-01
      1.27306983e-01 1.42401174e-01 1.22032426e-01 2.19565570e-01
      1.74727961e-01 7.44369403e-02 7.40604624e-02 9.51828882e-02
      1.53387189e-01 9.13846493e-02 6.09319434e-02 8.45438614e-02
      2.64635116e-01 1.81129962e-01 3.93448956e-02 3.54957506e-02
      8.15126821e-02 1.04928039e-01 8.90046805e-02 1.35989726e-01
      7.75849074e-02 6.44414872e-02 6.84149861e-02 1.42217979e-01
      1.36174023e-01 6.25533238e-02 6.93627596e-02 4.27204482e-02
      3.54240350e-02 3.38707007e-02 2.25315914e-02 2.77695023e-02
      7.49543309e-02 3.30321848e-01 1.05001248e-01 2.80423257e-02
      5.99555932e-02 1.54929593e-01 5.95591590e-02 1.13067038e-01
      5.21472506e-02 4.68234792e-02 7.51043707e-02 2.31967375e-01
      1.24228694e-01 8.31908733e-02 1.44647762e-01 1.92129195e-01
      2.07200408e-01 7.20996410e-02 8.29149559e-02 6.82628229e-02
      9.95606035e-02 2.73558676e-01 1.12823240e-01 8.46362263e-02
      1.41517043e-01 1.34380847e-01 2.53208369e-01 2.52086937e-01
      1.21115200e-01 1.10269949e-01 5.71831577e-02 1.11988083e-01
      1.35524064e-01 1.06246240e-01 3.10502410e-01 2.87321150e-01
      8.77687111e-02 1.01329140e-01 1.08421326e-01 1.21652819e-01
      8.69198591e-02 1.28078610e-01 2.23360717e-01 1.14372984e-01
      1.98661089e-01 2.80498981e-01 2.76017249e-01 2.67291695e-01
      1.29116789e-01 2.75553912e-01 3.75014246e-01 2.03434765e-01
      2.18127564e-01 1.49340779e-01 6.22066371e-02 5.50330281e-02
      1.10481516e-01 2.07556978e-01 2.28114098e-01 1.79220811e-01
      1.18350603e-01</_>
    <_>
      7.09122047e-02 1.43148810e-01 1.95598051e-01 2.10738316e-01
      9.70912129e-02 7.83332065e-02 1.32268324e-01 1.96855858e-01
      1.28404409e-01 1.36860281e-01 3.55401695e-01 1.62902519e-01
      9.64685977e-02 8.90228972e-02 1.15080521e-01 2.24305212e-01
      3.22684675e-01 1.35982826e-01 5.36621027e-02 7.99487159e-02
      2.79506147e-01 3.46927434e-01 1.88170180e-01 7.64399245e-02
      1.29211709e-01 1.41512826e-01 5.95880002e-02 1.30098373e-01
      6.12058081e-02 4.29629907e-02 6.60986900e-02 1.09495908e-01
      1.13407627e-01 1.35608524e-01 1.63275048e-01 1.72800079e-01
      3.02245319e-01 2.09937632e-01 1.09104641e-01 9.75041091e-02
      1.80141941e-01 2.16535285e-01 1.79517448e-01 1.23255007e-01
      1.69348776e-01 1.24474004e-01 1.06868260e-01 1.07050076e-01
      1.03164300e-01 1.71461686e-01 1.50669590e-01 2.76695460e-01
      2.61582166e-01 1.43830478e-01 2.02999339e-01 1.26244962e-01
      1.67613670e-01 1.96785912e-01 2.33730152e-01 1.23832360e-01
      1.47955745e-01 1.92482755e-01 2.02505857e-01 1.60391971e-01
      1.52831972e-01 1.91784799e-01 1.83984622e-01 1.11118637e-01
      1.16932541e-01 1.44468606e-01 1.77449763e-01 1.55666724e-01
      9.45259482e-02 1.10496193e-01 1.99125364e-01 1.87895700e-01
      1.25918567e-01 1.41626313e-01 3.17568034e-01 3.03089976e-01
      1.59965619e-01 7.61497617e-02 1.63710728e-01 1.37970686e-01
      9.82804522e-02 8.62849653e-02 1.50108576e-01 2.39714444e-01
      2.43708655e-01 1.42011851e-01 1.37057036e-01 1.99650198e-01
      1.10892758e-01 1.90255880e-01 2.57457972e-01 2.37678096e-01
      1.60270751e-01 2.11225033e-01 1.77101612e-01 1.30472690e-01
      1.42773867e-01 1.22533895e-01 8.43903348e-02 2.02180728e-01
      2.83291698e-01 2.38788515e-01 2.33713433e-01 1.43966302e-01
      6.73271343e-02 7.13408291e-02 1.37328178e-01 1.20142937e-01
      1.00156188e-01 1.18032314e-01 1.74937055e-01 1.50270358e-01
      9.81278196e-02 1.25413492e-01 1.28931776e-01 1.67116538e-01
      1.79359183e-01 1.46650210e-01 8.78108218e-02 1.01567209e-01
      1.28498450e-01 1.37324363e-01 1.27732813e-01 1.69241026e-01
      2.35248521e-01 2.11031497e-01 1.50316045e-01 1.36711508e-01
      1.34682640e-01 1.66000843e-01 1.34386376e-01 1.25041142e-01
      6.76829144e-02 1.43658549e-01 3.25246722e-01 1.42818093e-01
      7.27027804e-02 1.26377985e-01 1.78633988e-01 1.55578196e-01
      2.10273027e-01 3.56963307e-01 1.75284147e-01 6.48208931e-02
      8.38345289e-02 1.74322695e-01 2.54036099e-01 1.55057892e-01
      1.18991919e-01 1.66051760e-01 2.75478899e-01 1.41636267e-01
      4.50603068e-02 4.90894057e-02 1.44084185e-01 2.75272220e-01
      1.37633011e-01 1.06002003e-01 1.43496782e-01 7.75536448e-02
      8.44139457e-02 7.56861940e-02 6.30211383e-02 1.29663512e-01
      2.48159572e-01 2.54042238e-01 2.35969037e-01 1.54198959e-01
      1.81381777e-01 1.38467938e-01 1.08600020e-01 1.37973815e-01
      1.33562595e-01 1.48468643e-01 1.62394717e-01 1.45404324e-01
      1.30421907e-01 1.91601232e-01 2.79189736e-01 2.66741037e-01
      1.56596392e-01 8.32773149e-02 1.08884931e-01 1.81032360e-01
      1.59606993e-01 1.88560307e-01 1.60002723e-01 1.21683098e-01
      1.33341625e-01 1.77207425e-01 1.69193998e-01 2.01961204e-01
      1.77950069e-01 1.92179650e-01 9.10314247e-02 1.03309624e-01
      3.80207479e-01 4.91244823e-01 1.47624090e-01 9.94615927e-02
      1.36404350e-01 2.18727127e-01 1.40666485e-01 1.09569237e-01
      1.29663736e-01 1.00716956e-01 5.99448048e-02 5.57579659e-02
      1.06435403e-01 1.91462606e-01 1.26538172e-01 8.46843943e-02
      2.21957400e-01 1.93705216e-01 9.25827026e-02 6.45206273e-02
      8.97084549e-02 1.97370991e-01 2.10565314e-01 1.16414763e-01
      1.00251503e-01 2.57519722e-01 1.11030266e-01 3.12227514e-02
      5.59169240e-02 9.93898138e-02 1.73965409e-01 2.39088193e-01
      1.71593234e-01 2.71063954e-01 1.80031568e-01 1.09498106e-01
      1.14086755e-01 1.27210736e-01 1.72228560e-01 1.27428502e-01
      1.48939028e-01 1.86962530e-01 2.14607999e-01 1.50666058e-01
      1.89507499e-01 2.70442307e-01 2.31532037e-01 1.86646074e-01
      1.62166625e-01 1.87426209e-01 1.71974838e-01 1.24951936e-01
      1.68512762e-01 1.78897783e-01 1.68730289e-01 1.75040573e-01
      1.79719537e-01 1.80980310e-01 1.69033781e-01 1.54659405e-01
      1.43532380e-01 1.44183993e-01 1.66089848e-01 2.42087066e-01
      2.62301087e-01 1.35650381e-01 1.35492653e-01 1.73351958e-01
      2.21453309e-01 1.95481658e-01 7.28117973e-02 1.31736174e-01
      2.93209076e-01 4.45006102e-01 6.21969514e-02 6.42173365e-02
      1.27718568e-01 1.25774458e-01 7.84206316e-02 1.83071986e-01
      2.12020427e-01 1.26288056e-01 6.70810938e-02 8.24531019e-02
      2.28300408e-01 2.27717713e-01 1.19196840e-01 9.77770239e-02
      1.78492069e-01 1.32897541e-01 6.26556948e-02 3.84277590e-02
      9.95174646e-02 2.14767575e-01 1.64477780e-01 1.30740538e-01
      1.65767387e-01 1.46611497e-01 1.10314548e-01 1.24684311e-01
      1.34016797e-01 8.12819377e-02 1.29021227e-01 2.07931966e-01
      3.76478523e-01 2.39890590e-01 9.73728895e-02 1.06771603e-01
      1.73763782e-01 1.95060536e-01 1.33974448e-01 1.00127026e-01
      1.40525147e-01 1.61249846e-01 1.18558988e-01 1.41785786e-01
      1.24545395e-01 1.87016383e-01 2.49345198e-01 1.20574668e-01
      1.13929473e-01 2.06656292e-01 2.09674910e-01 1.72084197e-01
      1.14157654e-01 1.31235361e-01 2.70945698e-01 2.52918482e-01
      1.37481853e-01 1.15316540e-01 1.53522983e-01 2.10463122e-01
      2.16957018e-01 8.82317200e-02 1.25124574e-01 3.44986171e-01
      3.99190128e-01 1.14543438e-01 7.94231817e-02 1.42831415e-01
      1.58283502e-01 9.08407718e-02 1.64606571e-01 1.87817886e-01
      1.12201929e-01 5.54553121e-02 7.45432302e-02 1.59406096e-01
      2.07363307e-01 1.29519776e-01 1.16595775e-01 2.24772200e-01
      2.07644582e-01 1.07923426e-01 6.55500218e-02 1.09375529e-01
      1.96564421e-01 1.35434166e-01 9.64146703e-02 1.34767398e-01
      2.33952492e-01 1.28721297e-01 4.71300073e-02 3.62451151e-02
      6.17480092e-02 1.10387132e-01 1.77610546e-01 2.18126163e-01
      2.33012527e-01 1.28773183e-01 8.41007307e-02 1.10731460e-01
      9.42150950e-02 6.95722699e-02 7.16867074e-02 1.26503244e-01
      2.65258223e-01 2.82816797e-01 1.70328498e-01 1.82216853e-01
      2.31593147e-01 1.92993373e-01 1.18827246e-01 1.56835586e-01
      1.74851775e-01 1.32685959e-01 1.50819466e-01 8.14391226e-02
      1.31435454e-01 2.28466541e-01 1.87704876e-01 9.76763889e-02
      9.50828269e-02 1.55461475e-01 1.74655944e-01 1.25160694e-01
      7.62219280e-02 1.31497756e-01 2.94451445e-01 3.41481298e-01
      1.09413482e-01 9.75429937e-02 1.54392973e-01 1.99797004e-01
      1.27585903e-01 5.92443831e-02 8.39598477e-02 1.51035100e-01
      2.58899957e-01 5.77735938e-02 8.21567327e-02 1.49356440e-01
      1.60755619e-01 7.17849657e-02 1.26501381e-01 1.38587311e-01
      1.09550081e-01 9.30279493e-02 1.13881014e-01 1.37449458e-01
      1.30330443e-01 8.24617222e-02 9.68320966e-02 9.07790735e-02
      8.18853080e-02 5.36820889e-02 4.11167070e-02 5.53648584e-02
      1.19314253e-01 1.76764116e-01 1.18725315e-01 8.49673972e-02
      9.57425460e-02 1.45611793e-01 8.57107639e-02 3.91885452e-02
      6.44814149e-02 1.62932292e-01 3.33186448e-01 1.75864235e-01
      9.50652286e-02 1.45551562e-01 1.85993865e-01 1.78812370e-01
      1.47222579e-01 1.11988544e-01 2.16176912e-01 2.07205266e-01
      2.07768038e-01 1.07867844e-01 8.20631683e-02 9.63455439e-02
      1.55835539e-01 1.28687754e-01 6.96531013e-02 8.67163762e-02
      1.80717513e-01 2.37197027e-01 1.06721856e-01 9.41249728e-02
      1.53251812e-01 2.63392657e-01 1.67538494e-01 1.11451253e-01
      1.11374877e-01 2.32801676e-01 1.87062085e-01 1.02086924e-01
      9.50582251e-02 1.35745361e-01 2.68868685e-01 6.23399198e-01
      2.36018568e-01 1.06042132e-01 1.88752294e-01 2.05796733e-01
      1.54893190e-01 6.33057132e-02 4.71584015e-02 7.43399039e-02
      1.87418237e-01 2.26805478e-01 9.63158682e-02 1.20592721e-01
      1.22616723e-01 8.87507051e-02 1.12951793e-01 5.36745302e-02
      4.45348099e-02 5.95536493e-02 1.12738483e-01 2.70934492e-01
      2.74935722e-01 1.95588484e-01 1.35599047e-01 7.22287744e-02
      1.80078104e-01 1.72079831e-01 1.41832247e-01 1.17334068e-01
      1.61523640e-01 2.98480451e-01 2.13000059e-01 1.25494257e-01
      1.56235367e-01 1.33951083e-01 1.52629614e-01 1.86012670e-01
      1.68630481e-01 1.84513494e-01 1.69753447e-01 1.38097599e-01
      1.56749651e-01</_>
    <_>
      2.05490783e-01 2.64480114e-01 1.92685559e-01 1.16196565e-01
      1.08227931e-01 7.50849023e-02 8.18113536e-02 7.86930323e-02
      1.97022304e-01 1.63790807e-01 3.72716546e-01 2.74488688e-01
      2.92265207e-01 2.01264963e-01 1.36771038e-01 1.56625152e-01
      1.66674078e-01 1.56543627e-01 6.87927902e-02 4.48776595e-02
      5.30566685e-02 1.64464578e-01 2.23914206e-01 1.18847705e-01
      1.30125895e-01 1.93102136e-01 1.90201804e-01 2.67907500e-01
      9.87223908e-02 7.64005631e-02 9.08253416e-02 2.65717804e-01
      4.29621458e-01 1.58121064e-01 1.80147454e-01 4.36973214e-01
      3.50162297e-01 3.17354798e-01 1.46999747e-01 1.89418837e-01
      3.16283613e-01 3.05063933e-01 1.53222963e-01 9.90063772e-02
      1.34431541e-01 2.37203255e-01 1.60909310e-01 1.85404345e-01
      1.17103107e-01 2.94533938e-01 2.56730020e-01 1.38736635e-01
      1.15804665e-01 1.08186588e-01 2.10024819e-01 1.20908454e-01
      1.11360721e-01 1.12983845e-01 4.94997978e-01 3.53509158e-01
      2.70558655e-01 2.14180723e-01 1.01987652e-01 1.18869267e-01
      1.34069219e-01 1.19494297e-01 8.38167742e-02 9.75786820e-02
      1.23981655e-01 1.10077381e-01 6.43588826e-02 8.18464682e-02
      2.55756199e-01 2.15645462e-01 1.05924532e-01 9.46365148e-02
      1.73176095e-01 3.31423700e-01 2.59625107e-01 1.83929741e-01
      1.56111404e-01 1.67470008e-01 1.18219964e-01 1.13507263e-01
      1.60642296e-01 1.99668393e-01 1.63719878e-01 1.46022573e-01
      1.84924260e-01 1.36085570e-01 1.23775788e-01 9.39454287e-02
      1.33783400e-01 1.05277799e-01 2.14775831e-01 1.49888769e-01
      1.62977278e-01 1.47739381e-01 1.61026180e-01 1.93905175e-01
      1.03193872e-01 7.52577633e-02 6.45195171e-02 1.42429635e-01
      2.01282099e-01 1.67821333e-01 1.98117629e-01 1.66195065e-01
      1.46971077e-01 1.15857400e-01 1.02712646e-01 1.00218087e-01
      1.28622547e-01 1.23601809e-01 1.45057842e-01 1.30615175e-01
      1.02421284e-01 1.06999792e-01 1.76445097e-01 2.13415965e-01
      1.23196706e-01 1.17614955e-01 1.42987609e-01 1.07165515e-01
      1.38661683e-01 9.48737934e-02 1.75457433e-01 2.18385324e-01
      1.20308883e-01 9.64005068e-02 1.77930117e-01 1.77007958e-01
      1.76787123e-01 1.41940787e-01 1.07595325e-01 1.76351979e-01
      5.49836494e-02 2.75873151e-02 5.38717164e-03 7.37665687e-03
      4.07538190e-02 2.17123091e-01 4.19607401e-01 2.67196745e-01
      2.75297433e-01 2.06908882e-01 6.69771358e-02 3.61717455e-02
      6.07209429e-02 1.28681466e-01 1.87282801e-01 1.39336377e-01
      1.25786886e-01 1.26628578e-01 1.30087882e-01 7.08998814e-02
      5.11198007e-02 1.11924782e-01 2.44509593e-01 2.75771111e-01
      2.21733868e-01 1.54803142e-01 1.28209054e-01 1.41896397e-01
      1.31279171e-01 1.74403697e-01 1.66170701e-01 1.65786371e-01
      1.07084952e-01 9.14965346e-02 8.21440965e-02 2.26101398e-01
      1.38306960e-01 9.50923562e-02 5.65061048e-02 9.90475416e-02
      1.07079290e-01 1.21840119e-01 1.36086076e-01 1.08230628e-01
      2.50893831e-01 2.75834322e-01 9.33791026e-02 8.50754753e-02
      1.23077244e-01 1.77407891e-01 2.20806703e-01 1.53997287e-01
      7.64532164e-02 1.37120292e-01 1.15703151e-01 1.54482111e-01
      2.02292249e-01 1.38884544e-01 1.14393219e-01 1.21303983e-01
      1.35851726e-01 1.39410213e-01 8.23953897e-02 7.63539374e-02
      3.19417596e-01 2.15804636e-01 1.60471853e-02 6.07697256e-02
      1.76562622e-01 1.25437230e-01 8.95640999e-02 1.80376008e-01
      6.05384484e-02 7.92548526e-03 6.28905836e-03 1.05731264e-02
      1.09771214e-01 2.73309320e-01 1.93686888e-01 2.22460136e-01
      1.48384109e-01 2.77574770e-02 9.97103751e-03 2.02910434e-02
      7.10390210e-02 1.43336654e-01 1.44844830e-01 1.35210678e-01
      2.30021238e-01 8.63731652e-02 2.60891855e-01 1.47731215e-01
      1.88360021e-01 2.37541765e-01 1.53524965e-01 2.13799670e-01
      2.35263780e-01 1.64628744e-01 2.50878781e-01 1.44175872e-01
      1.01227358e-01 1.69475347e-01 3.17897677e-01 2.62392789e-01
      1.24265783e-01 1.07432812e-01 1.50897160e-01 2.08040327e-01
      1.98727712e-01 1.51709646e-01 9.02230963e-02 2.19375148e-01
      3.47729832e-01 2.27673844e-01 1.78627223e-01 1.49804503e-01
      1.80974707e-01 2.52397001e-01 1.97430685e-01 1.24942429e-01
      1.54751688e-01 2.48236388e-01 2.10488752e-01 1.47186220e-01
      1.11926101e-01 3.45186107e-02 3.28246951e-02 5.61750948e-01
      2.84453958e-01 1.05470438e-02 4.06010523e-02 1.36752203e-01
      1.06268950e-01 4.73113023e-02 1.06008880e-01 1.13670016e-02
      4.28772345e-03 4.79588658e-03 1.29374666e-02 7.94679597e-02
      2.41572753e-01 1.82948291e-01 1.18418068e-01 2.69446105e-01
      1.28723621e-01 3.05383038e-02 8.40343256e-03 3.58587354e-02
      2.31494695e-01 1.75091863e-01 1.00911409e-01 8.76768976e-02
      2.25707054e-01 8.89454708e-02 2.38478720e-01 1.70576707e-01
      6.53976128e-02 1.57992810e-01 1.42388061e-01 1.68921784e-01
      3.36762309e-01 5.96592389e-02 6.94064274e-02 1.08146787e-01
      7.19034225e-02 4.41153497e-02 7.83652961e-02 1.21868938e-01
      1.22766279e-01 7.26796985e-02 6.30459487e-02 5.94018511e-02
      6.18163534e-02 6.22748025e-02 7.25989640e-02 8.48207995e-02
      9.60693881e-02 8.90022367e-02 7.52745941e-02 9.29760262e-02
      1.27936333e-01 1.29074976e-01 1.05193101e-01 7.80479237e-02
      7.25390166e-02 7.35504925e-02 6.47601485e-02 4.59858440e-02
      2.24677622e-02 3.20136622e-02 4.33607042e-01 3.05821806e-01
      2.71146782e-02 4.13383804e-02 9.86755490e-02 9.50881690e-02
      4.31477763e-02 3.97215821e-02 2.60959584e-02 4.03181762e-02
      5.48059419e-02 3.81535627e-02 1.16880380e-01 2.50714332e-01
      2.04479232e-01 9.92203131e-02 9.30935666e-02 8.22875351e-02
      4.88013402e-02 2.90988162e-02 5.81536703e-02 1.59573719e-01
      2.27775842e-01 1.92619964e-01 1.18512943e-01 1.41236067e-01
      2.74440348e-01 1.29775360e-01 9.99188274e-02 1.56828463e-01
      2.40915075e-01 1.53173611e-01 6.03451021e-02 6.40456155e-02
      1.71145752e-01 1.25778988e-01 1.27220079e-01 1.21657744e-01
      1.67014524e-01 1.37730107e-01 1.33504778e-01 1.48826674e-01
      1.17271483e-01 4.60317224e-01 8.94283056e-02 4.40540425e-02
      6.50896579e-02 3.04862082e-01 2.43439823e-01 7.31480196e-02
      7.12210461e-02 9.62619260e-02 2.44647771e-01 2.49543771e-01
      8.85342881e-02 7.62823522e-02 2.08328933e-01 2.21637383e-01
      2.43565112e-01 1.30725637e-01 4.61957417e-02 4.92816307e-02
      3.29388715e-02 1.06729642e-01 6.06923044e-01 2.25437522e-01
      3.05792280e-02 5.94313219e-02 1.09401651e-01 1.20724611e-01
      1.61605418e-01 3.45463902e-02 2.90026553e-02 1.66814730e-01
      4.43224907e-01 1.52199253e-01 1.64863601e-01 3.44610572e-01
      3.01445812e-01 2.64060378e-01 1.49961814e-01 5.46859875e-02
      6.72433823e-02 1.23802133e-01 2.64745206e-01 1.56839371e-01
      8.13079923e-02 2.19997540e-01 4.11533177e-01 2.67581075e-01
      8.01493600e-02 8.20066184e-02 1.56886697e-01 4.96441543e-01
      1.52439579e-01 6.99659735e-02 2.34334946e-01 2.73901731e-01
      1.54224277e-01 1.27825364e-01 1.67646781e-01 2.39949584e-01
      1.01451948e-01 7.01325089e-02 7.76281431e-02 1.25971049e-01
      3.94246668e-01 6.87865317e-02 4.23125252e-02 4.75124903e-02
      1.27985224e-01 1.43469959e-01 1.36733904e-01 1.50755495e-01
      2.46486753e-01 2.83187926e-01 1.44923076e-01 1.16836525e-01
      1.21445127e-01 1.70421481e-01 1.68722034e-01 1.11532845e-01
      5.71561493e-02 9.65927020e-02 5.35116941e-02 6.12867214e-02
      7.00414181e-02 4.36064601e-02 3.84742208e-02 5.42371012e-02
      8.62347558e-02 8.23310912e-02 4.85895984e-02 4.05229628e-02
      5.89455217e-02 1.00594297e-01 7.46499449e-02 6.29287586e-02
      5.46668321e-02 8.02606866e-02 6.99363649e-02 5.06682210e-02
      5.31232581e-02 6.31677061e-02 7.95261338e-02 7.26021975e-02
      2.06243798e-01 1.53014258e-01 9.69491303e-02 9.59055200e-02
      6.73332661e-02 6.90733418e-02 7.17212930e-02 1.10481858e-01
      9.81066227e-02 9.07617882e-02 1.17256582e-01 9.95289609e-02
      9.76560116e-02 8.45577717e-02 7.96592236e-02 9.44230184e-02
      1.24184735e-01 9.63403508e-02 7.96520710e-02 1.14951104e-01
      1.73846275e-01 1.51688173e-01 9.35636312e-02 9.48413685e-02
      7.22213686e-02 7.94931725e-02 1.05328217e-01 3.69204760e-01
      1.95311785e-01 1.21737190e-01 1.46236613e-01 1.10674188e-01
      1.23533972e-01 1.39017716e-01 1.44965917e-01 1.13590948e-01
      2.08628640e-01 1.36831373e-01 1.43588886e-01 2.39314929e-01
      1.46023333e-01</_>
    <_>
      6.74708635e-02 7.34793097e-02 1.12176746e-01 9.47214141e-02
      1.18582882e-01 2.17553496e-01 1.46927208e-01 8.17328840e-02
      7.81576410e-02 5.75866997e-02 1.00394540e-01 1.13543816e-01
      9.08938944e-02 1.55171961e-01 3.75160605e-01 2.12909773e-01
      1.42715037e-01 7.75323883e-02 8.95058289e-02 8.18710551e-02
      1.33399054e-01 2.70502180e-01 5.35276115e-01 2.16233328e-01
      1.19967423e-01 1.21878095e-01 9.98784378e-02 9.84955579e-02
      7.08251670e-02 8.30785111e-02 1.85841933e-01 4.42874014e-01
      2.05948144e-01 1.02710389e-01 1.00063846e-01 8.76863748e-02
      1.16551340e-01 9.63445455e-02 8.24218690e-02 8.34506527e-02
      1.05796672e-01 1.20205492e-01 1.14196055e-01 1.02088980e-01
      8.73423442e-02 1.46194473e-01 1.24932699e-01 1.00328177e-01
      8.99817348e-02 1.32658094e-01 1.48830324e-01 1.07743524e-01
      9.46356505e-02 1.02577657e-01 1.60656869e-01 9.39804465e-02
      7.41199926e-02 6.83213025e-02 1.02254413e-01 2.21193284e-01
      2.34931618e-01 2.87029803e-01 2.31744021e-01 1.25635490e-01
      7.69404545e-02 6.83555976e-02 8.08305889e-02 1.03302665e-01
      1.35447219e-01 1.37004972e-01 1.72667846e-01 1.35212913e-01
      1.46453589e-01 1.93275452e-01 1.72331929e-01 1.33436069e-01
      1.84384167e-01 1.82833880e-01 2.05041870e-01 2.59462833e-01
      2.06079975e-01 1.43484041e-01 1.26600429e-01 7.67713860e-02
      7.80995637e-02 1.00439489e-01 1.60623431e-01 1.39355525e-01
      9.44860280e-02 1.20627023e-01 8.63008499e-02 1.31817639e-01
      1.18382521e-01 1.32725433e-01 2.42847979e-01 2.19226882e-01
      1.27372637e-01 7.31786266e-02 4.27657180e-02 6.15005158e-02
      7.46686235e-02 5.93225770e-02 1.08079225e-01 4.31336641e-01
      3.03232282e-01 8.49152431e-02 4.99538891e-02 4.57251109e-02
      8.93214121e-02 6.72699735e-02 1.62046373e-01 4.01144117e-01
      2.63770491e-01 8.77023190e-02 3.85120027e-02 3.77280079e-02
      6.83861524e-02 1.45054385e-01 6.27991855e-02 3.76355052e-02
      5.08293025e-02 7.17959404e-02 1.46223724e-01 1.62509233e-01
      1.52290821e-01 1.97840855e-01 1.54321358e-01 7.73278326e-02
      6.02389947e-02 7.97100663e-02 9.70116258e-02 1.06307521e-01
      1.00133851e-01 1.24290228e-01 1.53729171e-01 2.85342455e-01
      2.36166865e-01 1.88555181e-01 1.52322978e-01 1.97896376e-01
      1.05746552e-01 1.08325958e-01 1.61757946e-01 2.88839996e-01
      1.62069276e-01 1.07547298e-01 1.16846129e-01 9.71931517e-02
      1.06154345e-01 1.56395391e-01 2.72159815e-01 3.68091106e-01
      3.74169677e-01 1.88953862e-01 1.37298182e-01 1.05599135e-01
      8.00264552e-02 1.08633123e-01 1.83954075e-01 1.95111409e-01
      1.43290907e-01 1.71664745e-01 1.41728818e-01 1.20315291e-01
      5.82256056e-02 5.27981818e-02 1.07506014e-01 1.40199304e-01
      8.34039599e-02 5.44444174e-02 6.98217526e-02 4.30571213e-02
      6.70925826e-02 8.36678669e-02 1.02909364e-01 1.33115962e-01
      6.81234002e-02 4.78776433e-02 3.31662558e-02 2.98977345e-02
      4.09087092e-01 8.41229036e-02 4.64790426e-02 9.34979692e-02
      3.29285264e-01 3.12966973e-01 5.43319359e-02 4.65164594e-02
      8.40928182e-02 2.19683468e-01 1.31643593e-01 1.25779301e-01
      1.25049353e-01 1.40591905e-01 1.89223692e-01 1.67187899e-01
      1.24187663e-01 1.28783807e-01 8.71052966e-02 9.57017988e-02
      1.55393928e-01 1.43166602e-01 6.38252124e-02 5.37098311e-02
      9.26788300e-02 1.44046113e-01 1.47935793e-01 9.81535837e-02
      4.30831499e-02 2.14199219e-02 2.46693362e-02 4.57865000e-02
      7.84211829e-02 2.09587172e-01 3.65103036e-01 2.57871777e-01
      1.77323133e-01 1.35064125e-01 9.60570648e-02 7.06751570e-02
      8.38386789e-02 1.31356403e-01 1.88543692e-01 1.32642254e-01
      1.46300137e-01 1.99259952e-01 1.56202123e-01 7.10633025e-02
      7.46523067e-02 1.64211690e-01 1.62049174e-01 6.52433112e-02
      6.12895787e-02 1.21400721e-01 1.21992417e-01 8.48856717e-02
      2.01599464e-01 2.49636084e-01 9.11576599e-02 5.16747497e-02
      3.30843553e-02 5.17237894e-02 9.16463286e-02 2.11779565e-01
      1.64336666e-01 1.38352990e-01 2.04301536e-01 1.21321015e-01
      1.13393039e-01 1.08293943e-01 8.64115655e-02 1.13302931e-01
      1.71210170e-01 1.28710255e-01 1.04372613e-01 1.12046748e-01
      1.52407378e-01 1.42749861e-01 2.36639768e-01 2.51041889e-01
      2.03766868e-01 5.28593920e-02 6.50385767e-02 2.03213871e-01
      1.56425089e-01 7.14223534e-02 4.48285565e-02 5.84560074e-02
      7.31341168e-02 5.47759011e-02 1.85408086e-01 9.10451710e-02
      5.74509576e-02 8.39914232e-02 9.36456248e-02 1.00100331e-01
      2.08328381e-01 2.91621000e-01 2.50369877e-01 3.45232606e-01
      1.20938815e-01 6.47852048e-02 8.88839662e-02 2.33950302e-01
      2.59498626e-01 2.24616423e-01 2.59621948e-01 4.81915474e-01
      1.96642071e-01 1.24263562e-01 8.62921178e-02 9.01361331e-02
      1.67501986e-01 2.08329648e-01 1.36536583e-01 1.30067647e-01
      1.58322498e-01 6.75198138e-02 5.89946546e-02 2.30565239e-02
      2.60433853e-02 4.84961681e-02 8.67392048e-02 7.16611743e-02
      4.78261709e-02 3.60186882e-02 1.05103910e-01 1.03017151e-01
      2.99289554e-01 3.31469297e-01 8.78374130e-02 1.17213428e-01
      9.28272530e-02 5.14825247e-02 8.49313438e-02 1.43424645e-01
      9.13878158e-02 6.58095330e-02 7.09184930e-02 1.13443665e-01
      2.03562349e-01 1.94644183e-01 1.67244896e-01 1.76175460e-01
      1.27730936e-01 1.32987425e-01 2.56557822e-01 1.72924459e-01
      9.62033495e-02 1.06125019e-01 1.44811049e-01 1.18145891e-01
      9.47110802e-02 6.76662177e-02 3.40327658e-02 5.54539375e-02
      7.41281584e-02 1.77069753e-01 3.05454493e-01 3.36723775e-01
      3.10960621e-01 1.96483150e-01 1.44771963e-01 5.86283207e-02
      5.70225902e-02 1.03416301e-01 2.79783428e-01 3.33940625e-01
      2.15292767e-01 1.67738572e-01 2.06461221e-01 1.17903225e-01
      4.60063219e-02 4.70364466e-02 7.98644274e-02 1.37128860e-01
      1.13094583e-01 6.55790791e-02 7.44510144e-02 1.37612268e-01
      1.08530946e-01 1.50582924e-01 5.17289564e-02 4.24813442e-02
      1.11131340e-01 1.49198338e-01 3.79131436e-02 4.07213084e-02
      4.68374565e-02 1.73683211e-01 2.64512628e-01 2.24803343e-01
      1.66374668e-01 2.33854011e-01 2.45507300e-01 6.52260333e-02
      5.17044887e-02 6.77751377e-02 1.86654329e-01 1.05830766e-01
      6.27630129e-02 7.50456378e-02 1.30834609e-01 1.46497875e-01
      1.60621956e-01 1.93963245e-01 2.01714084e-01 6.96648210e-02
      9.86729786e-02 1.75506651e-01 1.66051611e-01 8.87099504e-02
      9.44201201e-02 1.17373079e-01 1.97101533e-01 9.15486366e-02
      7.74894580e-02 5.57515807e-02 6.61438331e-02 9.16693285e-02
      5.88863418e-02 5.91114536e-02 1.76751480e-01 4.16835874e-01
      2.39419818e-01 1.48078412e-01 4.79785725e-02 3.36567834e-02
      6.83441311e-02 1.29248872e-01 1.09324276e-01 7.69991204e-02
      1.30124331e-01 2.17870712e-01 1.53402150e-01 7.28181899e-02
      3.75783071e-02 6.55408204e-02 1.31884277e-01 5.75030558e-02
      2.45872233e-02 4.00026031e-02 1.24049455e-01 1.43137127e-01
      7.08501264e-02 3.18676196e-02 2.67329086e-02 3.97312567e-02
      3.91363762e-02 2.23603994e-02 4.87265065e-02 1.16935074e-01
      2.63903409e-01 1.85926706e-01 1.61762774e-01 2.11498991e-01
      3.15744907e-01 1.52966306e-01 3.30472104e-02 2.79948767e-02
      7.84702450e-02 1.40162587e-01 8.23857561e-02 7.41961896e-02
      8.03317204e-02 1.50448442e-01 1.99536815e-01 1.85869232e-01
      1.33431077e-01 1.37896225e-01 1.94382638e-01 1.44343778e-01
      1.55759335e-01 1.45164922e-01 1.52550980e-01 1.57103732e-01
      1.35696143e-01 1.05276436e-01 1.18074618e-01 2.07634851e-01
      7.99328834e-02 7.70228729e-02 1.01089358e-01 1.38085574e-01
      1.16062060e-01 4.18912396e-02 1.04292177e-01 2.60609478e-01
      4.13136363e-01 2.02777460e-01 9.10922959e-02 7.51340240e-02
      1.77426875e-01 1.50750056e-01 5.84173352e-02 7.16537014e-02
      2.67601430e-01 4.71851885e-01 1.73760206e-01 8.69366080e-02
      7.92762339e-02 1.30827114e-01 1.89810082e-01 5.97460940e-02
      5.19323908e-02 1.89314276e-01 3.57852519e-01 1.43170491e-01
      5.68026491e-02 4.91509102e-02 1.97782457e-01 2.20412239e-01
      4.78244983e-02 6.50128573e-02 2.10578024e-01 4.21345890e-01
      1.57227322e-01 6.06092550e-02 9.86652523e-02 1.98122814e-01
      1.28399834e-01 9.36418995e-02 1.03026763e-01 2.13669419e-01
      2.27653161e-01 1.33699432e-01 7.12010115e-02 7.08409771e-02
      1.51974380e-01 1.60698831e-01 1.19332686e-01 1.29093602e-01
      1.59685150e-01</_>
    <_>
      8.96551311e-02 7.66086578e-02 1.76384434e-01 1.00959793e-01
      5.20297252e-02 1.02010347e-01 1.48655608e-01 1.95286378e-01
      1.12616763e-01 9.23203975e-02 1.25735298e-01 2.36193016e-01
      1.40954137e-01 7.15145171e-02 1.07475452e-01 2.48756513e-01
      2.87647367e-01 1.18919328e-01 8.54707584e-02 1.43604130e-01
      4.03007686e-01 2.03194261e-01 7.79031515e-02 9.44832340e-02
      1.45236522e-01 2.06850946e-01 7.99018592e-02 9.52059254e-02
      8.64400938e-02 1.26915097e-01 5.25399707e-02 2.66407207e-02
      1.85895249e-01 3.64159197e-01 4.03168529e-01 1.75479367e-01
      4.20416109e-02 4.60871793e-02 9.94369909e-02 8.59910846e-02
      5.81915565e-02 7.75933638e-02 1.15889564e-01 1.88440785e-01
      5.99374399e-02 6.24394678e-02 8.87792706e-02 1.07253261e-01
      9.95282382e-02 4.34019119e-02 4.61388677e-02 1.54344097e-01
      2.10675746e-01 7.04290569e-02 1.02408342e-01 1.63620874e-01
      2.73337036e-01 1.36253253e-01 7.14679882e-02 9.13111269e-02
      1.34857118e-01 1.50788814e-01 1.26496762e-01 9.56561416e-02
      1.53710261e-01 3.90866399e-01 1.73020318e-01 8.99391249e-02
      1.02529489e-01 2.12005943e-01 2.57318556e-01 4.71880175e-02
      9.82350484e-02 1.46778345e-01 2.49568030e-01 1.70886427e-01
      1.04100019e-01 1.44106045e-01 2.07535222e-01 2.48976067e-01
      1.28323331e-01 9.14841592e-02 1.09566443e-01 1.41215071e-01
      8.58024806e-02 7.92502537e-02 1.14201054e-01 1.63580641e-01
      1.58514753e-01 6.62871748e-02 1.46905050e-01 6.66084364e-02
      1.01990730e-01 8.77108276e-02 8.92200470e-02 1.28669664e-01
      1.03883296e-01 2.03905940e-01 2.36097366e-01 6.52902946e-02
      8.96037370e-02 1.19141459e-01 5.64594865e-02 4.94272299e-02
      5.91749325e-02 9.65206474e-02 1.14912607e-01 4.61052954e-02
      4.66404036e-02 1.47308931e-01 2.75756001e-01 4.31322604e-02
      2.21920740e-02 2.48175133e-02 1.40405133e-01 3.75527114e-01
      1.12050772e-01 3.82837579e-02 3.39112952e-02 9.24201086e-02
      5.36392480e-02 5.73825538e-02 5.69182895e-02 6.90050945e-02
      7.31105804e-02 2.55848132e-02 4.41457108e-02 7.26761073e-02
      1.20275900e-01 7.36029074e-02 5.80602624e-02 4.06263918e-02
      7.57438987e-02 4.50432897e-02 2.22371258e-02 8.64972174e-02
      1.74175784e-01 1.65269837e-01 8.91624019e-02 7.70426765e-02
      1.11167379e-01 1.35494128e-01 1.26471683e-01 1.75066844e-01
      3.32183331e-01 5.08305848e-01 2.27927998e-01 8.26583132e-02
      8.13538656e-02 1.05313756e-01 1.12162419e-01 1.18141919e-01
      3.21891531e-02 5.28072536e-01 1.44492581e-01 3.88717353e-02
      5.95699884e-02 1.06608108e-01 1.37230411e-01 9.35692340e-02
      3.15156318e-02 8.80195946e-02 5.28514922e-01 1.37962133e-01
      5.70473336e-02 4.47133891e-02 4.66783904e-02 1.68900862e-01
      1.13028593e-01 4.49420661e-02 1.02827698e-01 1.69697151e-01
      1.50138572e-01 2.14585379e-01 8.11374336e-02 4.98033129e-02
      5.67235574e-02 9.02607366e-02 9.69753861e-02 1.17378213e-01
      5.06773531e-01 1.36691019e-01 1.48009405e-01 9.13671926e-02
      8.48545805e-02 7.19198659e-02 1.40506610e-01 1.62451372e-01
      2.06476390e-01 7.84547925e-02 6.42044097e-02 6.93157539e-02
      4.22427170e-02 2.73307711e-02 5.12931906e-02 2.41257653e-01
      3.21609586e-01 1.71611041e-01 4.30192947e-02 4.36604053e-01
      5.24153411e-01 8.04806054e-02 4.98554334e-02 1.09199576e-01
      1.79817528e-01 1.58960447e-01 8.12259540e-02 1.16029158e-01
      1.26056790e-01 1.27743647e-01 1.28666073e-01 1.99330717e-01
      2.82432497e-01 2.90439546e-01 1.14538871e-01 6.89546168e-02
      3.85112725e-02 8.46328065e-02 1.84082016e-01 2.13380530e-01
      1.62767410e-01 1.40862510e-01 1.99458763e-01 1.90875977e-01
      6.72531724e-02 9.02514532e-02 1.00667939e-01 1.21515162e-01
      8.01483095e-02 4.15538251e-02 3.60864028e-02 5.44958524e-02
      1.13073625e-01 5.83000071e-02 5.59826009e-02 1.58010889e-02
      3.76191586e-02 1.20047949e-01 1.42522469e-01 1.57077760e-01
      1.66699067e-01 1.38811722e-01 7.57403895e-02 2.89345272e-02
      1.25339879e-02 6.20802045e-02 1.96739599e-01 1.34322852e-01
      3.11520725e-01 4.56933081e-01 1.87202856e-01 5.52970544e-02
      4.17606086e-02 5.41819334e-02 1.25775009e-01 6.83878586e-02
      8.34195837e-02 1.01284392e-01 1.06071107e-01 3.79065983e-02
      2.64093429e-02 4.18850407e-02 5.55707850e-02 2.94989944e-01
      1.47302806e-01 8.43335092e-02 1.40947342e-01 2.75945425e-01
      1.91521436e-01 4.54033166e-02 1.42271578e-01 1.30277485e-01
      1.83576852e-01 1.61329910e-01 7.90145770e-02 7.36628622e-02
      1.51587471e-01 1.91177249e-01 1.80496693e-01 1.24766894e-01
      1.46987423e-01 1.84450015e-01 1.28847688e-01 8.17107335e-02
      3.62350084e-02 5.14360555e-02 1.16014615e-01 6.84316382e-02
      5.06287403e-02 3.41852382e-02 7.10096732e-02 6.55777752e-02
      7.09866211e-02 7.50600174e-02 9.73765329e-02 1.06774658e-01
      9.04534161e-02 6.89607039e-02 7.81898424e-02 1.22900277e-01
      2.16740500e-02 1.31665962e-02 1.08729213e-01 3.71179074e-01
      2.39882633e-01 1.79917917e-01 4.89278346e-01 2.37392217e-01
      2.06673250e-01 8.13320279e-02 2.39195943e-01 5.60234725e-01
      8.58695433e-02 7.91544095e-02 2.13902995e-01 7.03441426e-02
      8.25324282e-02 1.10807545e-01 7.24444240e-02 9.49237347e-02
      1.20364673e-01 8.50478336e-02 1.52071774e-01 1.36243522e-01
      7.90961534e-02 9.76255983e-02 2.01768517e-01 2.20645219e-01
      1.31110668e-01 1.32656127e-01 1.42486900e-01 1.39293984e-01
      8.62450227e-02 8.06614012e-02 7.72244930e-02 1.38739318e-01
      2.47451410e-01 1.73469618e-01 8.10644180e-02 6.35231808e-02
      6.66695982e-02 6.33496493e-02 4.83351760e-02 3.45980190e-02
      4.55867425e-02 5.12817949e-02 1.45956740e-01 3.31873953e-01
      1.39523759e-01 7.30974525e-02 5.92773333e-02 2.48583127e-02
      9.13323555e-03 1.75849516e-02 6.73307702e-02 3.65600824e-01
      3.95682216e-01 1.62969589e-01 8.13764408e-02 4.22793590e-02
      9.10087898e-02 1.25990435e-01 1.54349372e-01 4.73642908e-02
      6.67175576e-02 2.61716992e-01 7.05418646e-01 3.10695469e-01
      3.74808758e-02 1.43903524e-01 1.62963554e-01 2.18075559e-01
