<?xml version="1.0"?>
<opencv_storage>
<opencv_ml_svm>
  <format>3</format>
  <svmType>C_SVC</svmType>
  <kernel>
    <type>POLY</type>
    <degree>3.</degree>
    <gamma>3.</gamma>
    <coef0>0.</coef0></kernel>
  <C>1.</C>
  <term_criteria><iterations>10000</iterations></term_criteria>
  <var_count>513</var_count>
  <class_count>2</class_count>
  <class_labels type_id="opencv-matrix">
    <rows>2</rows>
    <cols>1</cols>
    <dt>i</dt>
    <data>
      -1 1</data></class_labels>
  <sv_total>62</sv_total>
  <support_vectors>
    <_>
      1.35219604e-01 7.77490959e-02 7.01264963e-02 1.14383928e-01
      2.16151118e-01 2.99982786e-01 1.87685028e-01 1.07880585e-01
      9.34537053e-02 2.02797756e-01 2.16977164e-01 1.56899452e-01
      1.25830546e-01 1.68382868e-01 1.70526385e-01 9.38285515e-02
      9.96743515e-02 1.25677347e-01 2.48637974e-01 1.58647954e-01
      1.15150467e-01 1.35776997e-01 2.23742783e-01 2.22359315e-01
      1.37953639e-01 1.09274343e-01 2.08645076e-01 3.08804631e-01
      1.36171192e-01 1.26571149e-01 1.24230370e-01 1.14288628e-01
      1.21174686e-01 1.61379978e-01 1.86292186e-01 1.91634014e-01
      2.50416696e-01 1.55315876e-01 7.91705549e-02 6.03711046e-02
      6.33088276e-02 5.68797998e-02 5.55505529e-02 1.29529938e-01
      1.79303795e-01 1.07265495e-01 7.70685896e-02 9.26292390e-02
      1.01854764e-01 1.69002116e-01 2.26123556e-01 1.51458576e-01
      1.07463844e-01 1.14237785e-01 1.27107546e-01 1.05196461e-01
      1.21633671e-01 1.86383992e-01 3.22542280e-01 2.38191113e-01
      1.51687190e-01 1.58712298e-01 9.11002755e-02 1.55497000e-01
      9.61780995e-02 1.25828385e-01 1.82934567e-01 2.87652254e-01
      2.16066703e-01 1.14195816e-01 1.10892184e-01 1.13090053e-01
      2.82832712e-01 2.14268148e-01 1.75611824e-01 2.13976547e-01
      2.48772368e-01 2.12871194e-01 1.59787342e-01 2.03651831e-01
      2.08560139e-01 2.15685725e-01 2.02224910e-01 1.52780592e-01
      2.01925159e-01 2.58289695e-01 2.03120574e-01 2.47420534e-01
      2.81885207e-01 2.37729430e-01 2.08343595e-01 2.12396741e-01
      1.81141481e-01 1.93392709e-01 2.34525159e-01 1.28005743e-01
      1.18035004e-01 1.45015225e-01 1.32328615e-01 1.32524371e-01
      2.01450482e-01 2.08490252e-01 2.29254514e-01 1.74107090e-01
      1.07863210e-01 9.90485549e-02 1.10800311e-01 9.88283902e-02
      1.21162049e-01 1.06601059e-01 1.78529128e-01 2.25177541e-01
      2.45793909e-01 2.59617954e-01 3.02152455e-01 2.06512854e-01
      1.40220121e-01 5.14621660e-02 3.35281380e-02 5.03887795e-02
      6.71142116e-02 1.14737935e-01 1.55154094e-01 9.83143672e-02
      6.72349632e-02 4.31644209e-02 7.30927289e-02 7.32752830e-02
      8.15027952e-02 8.42136145e-02 9.27648619e-02 8.60733986e-02
      5.24079688e-02 3.59504968e-02 2.83570625e-02 2.77282745e-01
      2.00371608e-01 2.36868382e-01 2.42094308e-01 1.86281502e-01
      1.59696817e-01 1.80607691e-01 1.77841634e-01 1.54396474e-01
      1.04792953e-01 8.31545070e-02 1.06562406e-01 1.22351632e-01
      1.89578772e-01 2.78595686e-01 2.16418192e-01 1.38932317e-01
      8.81216303e-02 8.26440975e-02 1.09886341e-01 2.08098397e-01
      2.29750052e-01 2.47139037e-01 1.51972622e-01 9.97662768e-02
      9.95058492e-02 6.30270988e-02 2.22212061e-01 2.32421070e-01
      3.05670559e-01 2.72795290e-01 2.50871092e-01 2.23315328e-01
      1.41424984e-01 1.38983190e-01 1.62816271e-01 1.92800537e-01
      2.46349394e-01 2.21471637e-01 2.35080540e-01 2.33177170e-01
      1.76832750e-01 1.70849815e-01 1.86518833e-01 1.47003889e-01
      3.55422080e-01 1.22744627e-01 6.93698898e-02 8.38483199e-02
      6.27422258e-02 6.74418882e-02 9.17873830e-02 1.38277337e-01
      2.77824908e-01 3.65323216e-01 3.64035577e-01 1.89816833e-01
      1.14806592e-01 6.69007450e-02 8.56205672e-02 1.19236216e-01
      1.36304751e-01 1.52370304e-01 1.39232978e-01 1.37296066e-01
      1.96365312e-01 1.87882930e-01 1.94301829e-01 1.90977916e-01
      1.35547191e-01 9.81177911e-02 1.00378953e-01 2.26175249e-01
      1.60550177e-01 1.49288699e-01 1.33315653e-01 1.39853463e-01
      1.25500768e-01 1.12189509e-01 1.74502745e-01 1.93108305e-01
      1.77438259e-01 2.35712633e-01 2.87060291e-01 2.95619637e-01
      1.78563714e-01 2.01797590e-01 1.76168516e-01 1.11123003e-01
      1.27011567e-01 2.33914211e-01 2.56516159e-01 2.58151382e-01
      1.71671361e-01 1.81343570e-01 1.61874890e-01 1.25571147e-01
      1.15125641e-01 1.45166174e-01 1.97013050e-01 1.31229296e-01
      1.25305116e-01 1.32054612e-01 1.54896244e-01 1.32821679e-01
      9.34074447e-02 1.03612885e-01 1.03829414e-01 3.15496564e-01
      1.20370097e-01 6.63180649e-02 1.11739099e-01 1.52354464e-01
      1.48759410e-01 1.26860544e-01 1.54511109e-01 1.36770219e-01
      5.88429630e-01 3.22973222e-01 1.79026648e-01 1.25909582e-01
      1.53856084e-01 1.25060305e-01 8.82102549e-02 1.33068159e-01
      2.97095329e-01 7.65885413e-02 9.08597782e-02 1.26156181e-01
      2.25268468e-01 4.02191460e-01 3.30867946e-01 1.45147741e-01
      6.37366399e-02 4.75810468e-02 2.02276185e-01 1.22794770e-01
      1.24589697e-01 1.33805469e-01 1.93621844e-01 1.75441012e-01
      1.31495297e-01 1.23782627e-01 1.35047197e-01 1.61873162e-01
      9.43776593e-02 1.09057672e-01 1.06084228e-01 1.27697513e-01
      1.16794683e-01 1.05198160e-01 1.12530202e-01 9.91005599e-02
      2.15405658e-01 1.59625828e-01 1.59307569e-01 1.27242744e-01
      1.17632158e-01 1.18894756e-01 1.18230172e-01 1.31242797e-01
      1.51822776e-01 2.11890355e-01 1.45727888e-01 1.74118996e-01
      2.66875386e-01 2.65890688e-01 1.90258116e-01 1.61386818e-01
      1.87074870e-01 1.87048808e-01 1.36105031e-01 8.50093886e-02
      1.47620901e-01 1.42390177e-01 1.73737496e-01 2.05555260e-01
      1.33067310e-01 1.10803857e-01 8.03056285e-02 1.59768820e-01
      8.68549198e-02 1.48391783e-01 1.67386055e-01 3.05389762e-01
      2.29264155e-01 1.31961569e-01 9.91422236e-02 7.17933774e-02
      6.04895614e-02 5.84617108e-02 1.61003292e-01 2.60052860e-01
      3.61933082e-01 2.50035077e-01 1.02681547e-01 7.76838139e-02
      8.46913904e-02 1.56228825e-01 1.00349888e-01 1.24624670e-01
      1.23654470e-01 1.08289242e-01 1.48586303e-01 1.94918334e-01
      2.04163074e-01 1.35854065e-01 2.23126233e-01 1.17211528e-01
      1.21029250e-01 1.25776097e-01 8.24703798e-02 6.17901906e-02
      8.20765421e-02 1.41241238e-01 2.11646557e-01 1.78408623e-01
      1.47525817e-01 1.16137192e-01 1.27116129e-01 1.57361582e-01
      1.32256672e-01 1.37384772e-01 1.27219379e-01 1.24518201e-01
      1.18876331e-01 9.01368037e-02 1.35161370e-01 2.19831318e-01
      3.43368649e-01 2.95046508e-01 1.54795706e-01 9.17972028e-02
      5.89719079e-02 9.69505385e-02 7.05473721e-02 1.04904793e-01
      1.55571938e-01 2.31236324e-01 1.67722613e-01 9.93430018e-02
      7.75311142e-02 3.55827473e-02 1.11241907e-01 4.03442308e-02
      1.09176323e-01 1.52456418e-01 3.14075470e-01 3.36893320e-01
      1.81182012e-01 1.21223532e-01 6.51284903e-02 8.29901770e-02
      8.12823400e-02 9.45721492e-02 1.30469605e-01 1.38251588e-01
      1.90860122e-01 1.77601337e-01 1.18662313e-01 7.18519464e-02
      1.11497089e-01 9.43477228e-02 6.71411529e-02 7.70396516e-02
      8.20327848e-02 1.26486272e-01 1.38739169e-01 1.41624048e-01
      1.30284756e-01 2.45878458e-01 1.59171104e-01 7.46175274e-02
      5.63291647e-02 5.45741171e-02 6.14153147e-02 5.18751554e-02
      1.03569292e-01 1.68799341e-01 2.64921755e-01 1.63644060e-01
      1.34608626e-01 9.46822912e-02 6.04227856e-02 4.32978831e-02
      6.21203072e-02 1.14120312e-01 1.29532889e-01 1.51914343e-01
      1.54323190e-01 1.26731038e-01 1.12553582e-01 1.66334078e-01
      1.41032070e-01 8.31612274e-02 7.84018487e-02 9.69132110e-02
      2.20246270e-01 1.23695433e-01 1.81600183e-01 1.88222632e-01
      1.64317667e-01 1.44029081e-01 1.10095762e-01 1.04435511e-01
      1.09574355e-01 1.06064059e-01 1.17518395e-01 1.47405863e-01
      1.34093553e-01 2.17035353e-01 1.58570945e-01 1.02182984e-01
      1.11185327e-01 7.39762411e-02 1.51691973e-01 1.09155744e-01
      1.66163713e-01 1.59634367e-01 1.90841675e-01 2.92663693e-01
      1.93896666e-01 1.23190150e-01 1.84035838e-01 3.62434804e-01
      4.43477243e-01 2.86654562e-01 2.05394581e-01 2.67432868e-01
      1.90478742e-01 9.51739475e-02 1.41272008e-01 1.92384109e-01
      3.09740871e-01 3.32632899e-01 2.34405220e-01 1.40735269e-01
      8.58292952e-02 1.29280254e-01 1.66214585e-01 1.67900145e-01
      1.46602273e-01 3.70232910e-01 2.36643866e-01 1.69379830e-01
      1.86328575e-01 1.48415253e-01 1.38759866e-01 2.02544734e-01
      1.79848388e-01 2.17620239e-01 2.50413030e-01 1.11728631e-01
      1.22471191e-01 1.38642699e-01 1.77211493e-01 2.46298060e-01
      3.20647001e-01 4.71187234e-01 3.26449096e-01 3.14934790e-01
      2.56143391e-01 2.17035696e-01 1.72089428e-01 2.18612969e-01
      2.01262310e-01 1.48330390e-01 1.63452715e-01 2.23504335e-01
      1.28901720e-01 9.83846933e-02 1.04460768e-01 1.80581525e-01
      3.09782773e-01 2.45069936e-01 1.54169589e-01 8.36550221e-02
      7.37917349e-02</_>
    <_>
      1.12469539e-01 7.49703869e-02 1.10777058e-01 2.07186848e-01
      5.69485486e-01 3.25675577e-01 1.19527735e-01 8.52078944e-02
      5.63842542e-02 2.02404067e-01 9.33192223e-02 5.73826283e-02
      4.05734293e-02 6.47626594e-02 7.98313841e-02 9.75835770e-02
      1.18469410e-01 1.77437782e-01 2.08126575e-01 1.29117459e-01
      1.03049248e-01 9.32982787e-02 1.03790753e-01 1.33645147e-01
      1.89021364e-01 2.44239792e-01 2.66001910e-01 1.80959210e-01
      1.26386836e-01 9.72449481e-02 1.08282410e-01 1.12874202e-01
      1.45658746e-01 1.62075922e-01 1.71335235e-01 1.70844883e-01
      2.21665323e-01 2.62095213e-01 1.57391042e-01 9.57626700e-02
      7.14436918e-02 7.23738894e-02 9.22191739e-02 1.10123575e-01
      1.16496623e-01 1.53343141e-01 2.17742875e-01 2.59457946e-01
      2.74000168e-01 1.84705585e-01 2.72463650e-01 2.47230083e-01
      1.80791855e-01 1.39800280e-01 4.08858865e-01 2.46872514e-01
      6.45917580e-02 2.56488752e-02 4.36353050e-02 3.30512114e-02
      5.45493439e-02 2.01906696e-01 3.47376525e-01 1.87939420e-01
      8.80683735e-02 8.03899989e-02 8.60146806e-02 1.17425948e-01
      1.16307497e-01 1.14095323e-01 1.08236089e-01 1.64279908e-01
      1.77110016e-01 1.14571355e-01 9.88105386e-02 9.31056440e-02
      1.00893371e-01 1.34983465e-01 1.64637044e-01 1.66496649e-01
      1.49436146e-01 2.43503258e-01 1.82181880e-01 1.62011787e-01
      1.25364959e-01 1.00514993e-01 8.89169946e-02 1.23681314e-01
      1.71164647e-01 2.27849215e-01 1.54611543e-01 9.93275940e-02
      7.94421881e-02 6.65086657e-02 9.19534788e-02 1.07058562e-01
      9.93894786e-02 1.05633266e-01 1.25413179e-01 2.05704227e-01
      1.14923060e-01 9.13659558e-02 7.86510333e-02 8.41983035e-02
      1.35715187e-01 1.52474314e-01 2.09869012e-01 2.43003845e-01
      1.81920931e-01 1.16685137e-01 9.44987461e-02 9.34359208e-02
      9.78188068e-02 1.75034165e-01 2.23150879e-01 2.16511518e-01
      1.85670644e-01 8.37400854e-02 7.87362829e-02 9.03915465e-02
      1.39438108e-01 2.36149460e-01 2.48423219e-01 2.06244826e-01
      1.50235757e-01 1.16714463e-01 2.30846494e-01 1.93529889e-01
      1.44211739e-01 1.34683549e-01 1.09340131e-01 1.08011842e-01
      1.07562460e-01 1.48711592e-01 1.86137050e-01 8.91092122e-02
      8.06716308e-02 8.69848728e-02 1.00218274e-01 1.00514352e-01
      9.52474102e-02 6.27170876e-02 5.94337545e-02 4.44486253e-02
      1.72240540e-01 9.87388417e-02 7.27737844e-02 5.57917245e-02
      5.13287224e-02 6.33271709e-02 7.77057111e-02 1.12620637e-01
      1.60854191e-01 2.05081135e-01 1.21439308e-01 9.08871442e-02
      8.13313201e-02 9.66469198e-02 9.52291489e-02 1.08339392e-01
      1.53342098e-01 2.24466711e-01 2.66654730e-01 1.50201395e-01
      9.51501578e-02 8.08744133e-02 1.06304921e-01 1.26478329e-01
      1.72132611e-01 2.45362863e-01 2.99296051e-01 3.33048970e-01
      1.49550602e-01 7.35434592e-02 6.93660155e-02 6.19803816e-02
      7.33953491e-02 1.17300101e-01 1.65523082e-01 2.85965204e-01
      1.35598794e-01 1.67877674e-01 1.98566765e-01 1.58486485e-01
      9.68433544e-02 7.51252323e-02 6.49611875e-02 7.79548213e-02
      1.06139354e-01 2.03740835e-01 2.48856187e-01 2.10132033e-01
      1.52904078e-01 1.33804262e-01 1.45632118e-01 1.82558447e-01
      1.76774949e-01 1.24829985e-01 1.81855753e-01 7.97470883e-02
      7.81987086e-02 5.38660996e-02 6.44162074e-02 4.85858805e-02
      4.27783430e-02 6.66285008e-02 1.11583449e-01 1.85554311e-01
      1.18953548e-01 8.23675916e-02 7.51812235e-02 7.66563639e-02
      6.46858662e-02 9.34270322e-02 1.29691824e-01 1.71723247e-01
      4.16776448e-01 2.10075691e-01 1.08359933e-01 7.93261304e-02
      8.57364759e-02 9.53328535e-02 1.61879271e-01 2.02903375e-01
      2.85047084e-01 2.20069751e-01 1.27728000e-01 9.60517824e-02
      8.69178623e-02 1.07504256e-01 1.40698910e-01 1.54058978e-01
      1.91247001e-01 2.47127712e-01 1.42468274e-01 8.83502141e-02
      7.32668191e-02 8.64017233e-02 1.29670322e-01 1.46271035e-01
      1.13380514e-01 1.02350593e-01 1.17043927e-01 2.84032494e-01
      2.71933466e-01 1.46155462e-01 1.02717854e-01 1.43293649e-01
      8.72292072e-02 6.34887218e-02 1.01881161e-01 1.48268461e-01
      1.48412123e-01 1.51619673e-01 1.17960609e-01 9.33643430e-02
      7.89211392e-02 8.84887204e-02 9.11342204e-02 1.12543784e-01
      1.33391961e-01 6.67041019e-02 3.85481790e-02 5.27433231e-02
      5.35082258e-02 7.87356347e-02 8.20443407e-02 5.91561794e-02
      5.12168966e-02 3.31312902e-02 1.85666278e-01 1.11707568e-01
      8.26491937e-02 6.57593161e-02 7.06286356e-02 7.65013248e-02
      9.53864828e-02 1.36356503e-01 1.80388555e-01 3.40907305e-01
      1.36155084e-01 7.50418305e-02 6.06157295e-02 7.64033794e-02
      1.31169304e-01 1.79084837e-01 2.17269018e-01 2.71708876e-01
      2.75624335e-01 1.46806866e-01 9.01998803e-02 8.11225101e-02
      9.36314613e-02 1.09134197e-01 1.51120797e-01 2.03288853e-01
      2.39463776e-01 3.70589435e-01 1.66405782e-01 7.40164444e-02
      5.68831787e-02 6.05883077e-02 6.34788945e-02 9.39318165e-02
      1.33088306e-01 2.49524534e-01 2.71816999e-01 1.90333530e-01
      1.06423080e-01 9.48452801e-02 9.91102234e-02 1.44166172e-01
      1.50463909e-01 1.36046603e-01 2.13063926e-01 3.30510795e-01
      2.02423066e-01 1.50350884e-01 1.32246673e-01 1.50921553e-01
      1.45446524e-01 1.13920860e-01 1.64580226e-01 2.69093007e-01
      1.52110696e-01 1.47963017e-01 1.37217745e-01 1.44429833e-01
      1.59731284e-01 1.22301735e-01 1.03227615e-01 1.08178869e-01
      9.72405300e-02 3.00538898e-01 1.97160900e-01 1.18153274e-01
      1.16830036e-01 1.02422141e-01 1.03884459e-01 1.20442055e-01
      1.61861017e-01 2.54622787e-01 3.25098366e-01 1.98664188e-01
      1.22516721e-01 9.68708694e-02 9.03126448e-02 9.37561467e-02
      9.34545994e-02 1.15975745e-01 2.09562138e-01 3.39199066e-01
      1.61806434e-01 1.00076422e-01 5.56257330e-02 4.46603559e-02
      5.89076877e-02 7.81418160e-02 1.55750543e-01 2.82047331e-01
      1.88884094e-01 1.27402812e-01 5.87106198e-02 5.65422103e-02
      6.52927905e-02 7.41631836e-02 7.84217864e-02 8.51195455e-02
      1.50505424e-01 2.12680444e-01 2.72366077e-01 1.59972727e-01
      8.27238187e-02 6.35908991e-02 7.45534450e-02 6.70129061e-02
      7.68591017e-02 9.60163102e-02 2.06074342e-01 3.38370293e-01
      2.45447800e-01 1.19057707e-01 1.71649054e-01 1.47174522e-01
      1.09376326e-01 1.10008582e-01 1.22172818e-01 1.36942312e-01
      9.34131444e-02 6.03568591e-02 5.90500124e-02 8.78423229e-02
      1.10501163e-01 1.03260912e-01 9.72879305e-02 1.18064538e-01
      1.78322226e-01 1.38248697e-01 8.67715701e-02 5.80810942e-02
      6.16465323e-02 6.15768731e-02 6.74985349e-02 9.99528468e-02
      1.69068366e-01 1.50440842e-01 1.12369455e-01 6.51992038e-02
      4.56849672e-02 5.63241057e-02 6.48289770e-02 6.33468926e-02
      9.53240618e-02 1.23009846e-01 1.32596418e-01 1.03094444e-01
      7.25090727e-02 5.42447567e-02 3.73955406e-02 5.56681529e-02
      7.65852779e-02 9.13745314e-02 1.33938029e-01 2.01278210e-01
      1.43311709e-01 1.01852573e-01 9.24761072e-02 1.07099131e-01
      1.06003828e-01 1.03153713e-01 1.44858435e-01 2.12444544e-01
      2.65214950e-01 2.21341416e-01 1.28568500e-01 8.73758718e-02
      7.62115791e-02 9.06002820e-02 1.29913673e-01 1.50141045e-01
      1.86383650e-01 1.74219161e-01 2.46757060e-01 2.09305316e-01
      1.22552723e-01 1.16422102e-01 1.12929285e-01 7.32002035e-02
      9.43156630e-02 1.22029208e-01 2.22759992e-01 5.30100092e-02
      3.21584046e-02 3.10356021e-02 3.98115441e-02 5.31461202e-02
      9.36019197e-02 2.84410864e-01 3.16526145e-01 4.62207109e-01
      1.82967305e-01 6.80964217e-02 5.22098690e-02 3.38521451e-02
      3.59200872e-02 4.01475839e-02 8.11586231e-02 2.21356973e-01
      4.55391437e-01 2.60706604e-01 1.34126857e-01 9.27543119e-02
      6.92487061e-02 6.79746494e-02 9.83430147e-02 1.37487367e-01
      2.74390280e-01 2.16361389e-01 1.78846091e-01 1.72481000e-01
      1.62399739e-01 1.14570670e-01 8.80030096e-02 1.62208751e-01
      3.08497250e-01 2.79656351e-01 3.87409925e-01 1.35732502e-01
      6.64197877e-02 7.23047853e-02 9.68655422e-02 9.57201645e-02
      1.99088708e-01 3.72580647e-01 3.67561221e-01 3.66982967e-01
      2.21410513e-01 1.21213406e-01 7.27340654e-02 5.92146926e-02
      6.17758930e-02 8.77134353e-02 1.54462978e-01 2.52200931e-01
      2.27964476e-01 1.92423791e-01 1.67825103e-01 1.15751937e-01
      1.28683597e-01 2.10186064e-01 1.89996034e-01 2.12347642e-01
      2.16984347e-01</_>
    <_>
      8.77169296e-02 8.68450403e-02 1.10260487e-01 1.71486542e-01
      2.27147296e-01 2.17873663e-01 1.76369622e-01 1.88474864e-01
      9.51615274e-02 3.39958638e-01 2.20528424e-01 1.33174151e-01
      6.99804053e-02 5.86885102e-02 1.41949758e-01 1.15071915e-01
      1.25722155e-01 2.82454967e-01 2.53782064e-01 1.29823610e-01
      5.76478541e-02 4.57828008e-02 6.49545118e-02 4.78979908e-02
      9.90732536e-02 2.47954816e-01 3.34483713e-01 1.39892623e-01
      8.30343515e-02 5.71088567e-02 3.52601632e-02 4.03636992e-02
      6.26623631e-02 9.38034132e-02 1.59143835e-01 1.83123440e-01
      2.24366173e-01 9.40697864e-02 8.28809962e-02 7.92758837e-02
      7.07682222e-02 8.47222880e-02 9.31654200e-02 1.18884727e-01
      1.35812625e-01 1.88208863e-01 2.00864807e-01 1.49689272e-01
      1.29529163e-01 2.17494592e-01 2.65175074e-01 2.18866214e-01
      1.59575492e-01 1.51250809e-01 1.39018223e-01 9.66085568e-02
      1.17051102e-01 1.33537859e-01 1.45508826e-01 1.24080129e-01
      1.02381557e-01 8.17904994e-02 7.89806396e-02 2.12054640e-01
      1.37494117e-01 1.49915338e-01 1.75087214e-01 2.07211018e-01
      2.06725642e-01 1.62639275e-01 1.69496492e-01 1.80838034e-01
      2.30051979e-01 2.24218875e-01 1.84779137e-01 1.13140114e-01
      1.13716491e-01 8.03264081e-02 6.27030283e-02 1.00267358e-01
      1.30621985e-01 2.35961765e-01 2.92161316e-01 2.97451019e-01
      2.32454434e-01 1.93878829e-01 1.96880862e-01 2.37106413e-01
      1.73033491e-01 2.19300866e-01 1.66588768e-01 1.29982874e-01
      1.87845707e-01 2.65564352e-01 2.10587218e-01 1.11760765e-01
      8.95299390e-02 9.13329720e-02 1.38316125e-01 2.26767182e-01
      1.88233778e-01 1.54220909e-01 1.55779734e-01 1.55727923e-01
      1.69275150e-01 2.08783463e-01 3.29111844e-01 3.17120075e-01
      1.17754616e-01 9.01410058e-02 9.06358659e-02 8.06674585e-02
      1.00959182e-01 1.61849856e-01 1.84960052e-01 1.46630108e-01
      1.02610901e-01 5.38683943e-02 5.00483662e-02 6.90114275e-02
      7.53537193e-02 7.90520832e-02 8.19843262e-02 7.36058205e-02
      5.78291826e-02 3.29211652e-02 1.66524768e-01 1.29414752e-01
      1.06448151e-01 1.18790887e-01 1.24722630e-01 1.02877341e-01
      9.55181792e-02 1.18611261e-01 1.25933632e-01 2.36585468e-01
      1.74177110e-01 1.12536646e-01 7.79196769e-02 8.75765458e-02
      1.25186831e-01 1.62764326e-01 2.15427712e-01 2.37557262e-01
      2.95356870e-01 2.21542791e-01 1.76195741e-01 1.15330108e-01
      9.29882228e-02 7.92426765e-02 9.28539634e-02 1.18180208e-01
      1.89969048e-01 2.88275868e-01 1.88421205e-01 1.53593972e-01
      1.63713425e-01 1.93267569e-01 1.20002873e-01 1.20482951e-01
      2.06246108e-01 2.48707294e-01 2.26478845e-01 1.86771691e-01
      1.94696188e-01 2.59473205e-01 2.85893232e-01 2.38622740e-01
      1.86035305e-01 1.37596548e-01 1.71374112e-01 1.78843662e-01
      1.87906474e-01 1.65112168e-01 2.15983897e-01 2.37611786e-01
      2.29937345e-01 1.88886389e-01 1.42679095e-01 1.20267853e-01
      3.66007388e-01 2.17678830e-01 1.03833415e-01 6.52741343e-02
      6.39553666e-02 6.55188113e-02 6.79294989e-02 7.56536424e-02
      1.35900944e-01 5.30451894e-01 2.98874855e-01 1.57443196e-01
      1.15347870e-01 1.16220176e-01 1.02204695e-01 1.00634657e-01
      1.42217994e-01 2.60849565e-01 1.26368448e-01 1.11726142e-01
      1.12357169e-01 1.07429981e-01 1.36798814e-01 1.61931112e-01
      1.85552016e-01 1.63335994e-01 1.17609799e-01 2.41616562e-01
      1.64824039e-01 1.25011638e-01 8.40745941e-02 7.64073581e-02
      8.27144906e-02 1.04670644e-01 1.30296037e-01 1.79902136e-01
      2.54967809e-01 1.54520720e-01 1.47340626e-01 1.77340999e-01
      1.94068238e-01 1.23043992e-01 9.59508941e-02 1.33575737e-01
      2.27774560e-01 2.02585042e-01 1.94012895e-01 2.26785213e-01
      1.70682564e-01 1.44597515e-01 1.32503629e-01 1.43196940e-01
      1.33980408e-01 1.39730617e-01 1.98154539e-01 1.36955574e-01
      1.55257091e-01 1.86973870e-01 2.16832951e-01 2.63472438e-01
      1.47877559e-01 1.08925849e-01 1.18569613e-01 1.76980689e-01
      1.29601762e-01 1.02723219e-01 9.48009863e-02 1.05439216e-01
      1.11415312e-01 1.17606916e-01 1.20657556e-01 1.40096992e-01
      3.53496194e-01 2.40116596e-01 1.52544469e-01 1.37029365e-01
      1.52670890e-01 1.16125323e-01 1.26920342e-01 1.75143093e-01
      2.65556127e-01 1.44295946e-01 1.54616907e-01 1.89196959e-01
      2.14470416e-01 2.17199117e-01 1.99689388e-01 1.79993168e-01
      1.57441676e-01 1.35537103e-01 2.76669145e-01 1.72930226e-01
      1.37554258e-01 1.28593758e-01 1.26592502e-01 1.17139563e-01
      1.29839987e-01 1.68946773e-01 2.44956940e-01 4.37192678e-01
      3.23507369e-01 1.79209322e-01 1.46583200e-01 1.11009687e-01
      8.59769881e-02 8.91318172e-02 1.18755132e-01 2.13525116e-01
      2.54720718e-01 1.88704014e-01 1.24206945e-01 1.05003648e-01
      1.28982797e-01 1.31128818e-01 1.08295791e-01 1.12627484e-01
      1.39210477e-01 1.97924525e-01 6.10672906e-02 6.55106828e-02
      7.11267963e-02 2.06142053e-01 2.02847466e-01 1.14631787e-01
      1.05747283e-01 1.54036567e-01 1.28476679e-01 1.06575683e-01
      9.84717458e-02 1.06943503e-01 1.19354360e-01 1.18610963e-01
      1.01313964e-01 1.09828770e-01 1.07740760e-01 1.72835663e-01
      1.82132885e-01 2.10605174e-01 1.89626738e-01 1.64504275e-01
      1.63328290e-01 1.31824970e-01 1.29048094e-01 1.08404897e-01
      1.76446691e-01 1.55663535e-01 1.54312357e-01 2.10631639e-01
      2.63595968e-01 2.02832699e-01 1.46155521e-01 1.39946371e-01
      1.48629054e-01 1.43669575e-01 1.01571053e-01 1.11507930e-01
      1.03978470e-01 1.21049553e-01 1.30773142e-01 1.32271752e-01
      1.39929146e-01 1.53742045e-01 2.55682558e-01 2.03197032e-01
      1.25281081e-01 9.99718457e-02 9.60300118e-02 8.74349624e-02
      8.81815851e-02 1.03290528e-01 1.41949669e-01 1.40739441e-01
      1.52233541e-01 1.70017928e-01 1.58122987e-01 1.44282699e-01
      1.01981260e-01 9.96223986e-02 9.72893536e-02 8.55625942e-02
      4.31590825e-01 2.74267823e-01 1.45792589e-01 1.31356433e-01
      1.26388788e-01 1.22455455e-01 1.61344677e-01 2.07997501e-01
      3.38890672e-01 3.35570097e-01 1.90083131e-01 1.28557399e-01
      1.24497563e-01 1.45510808e-01 1.60335332e-01 1.38471916e-01
      1.27659097e-01 1.80090353e-01 3.33387405e-01 3.55316430e-01
      2.93411046e-01 1.89428702e-01 1.31265745e-01 1.05304189e-01
      1.03030279e-01 1.21208541e-01 1.42063081e-01 2.23757744e-01
      1.86219051e-01 1.49952456e-01 1.18081823e-01 1.12435102e-01
      9.80166569e-02 1.11348189e-01 1.12560578e-01 1.38222381e-01
      2.76523411e-01 1.68494686e-01 1.06880814e-01 7.39423484e-02
      6.27999753e-02 7.24234134e-02 7.81844780e-02 1.16787799e-01
      2.00721204e-01 2.39935949e-01 2.39747986e-01 1.80825874e-01
      1.14149898e-01 1.03226915e-01 1.16276629e-01 9.44949314e-02
      1.19022220e-01 1.60383761e-01 1.78076282e-01 1.63581386e-01
      1.47658870e-01 1.18709780e-01 1.26682937e-01 1.49756476e-01
      1.85325354e-01 2.00255275e-01 2.23844260e-01 1.95871174e-01
      9.92713794e-02 1.50450349e-01 1.62249431e-01 1.16217181e-01
      8.39305669e-02 6.55475929e-02 7.49228150e-02 1.28594145e-01
      1.16962634e-01 7.72685260e-02 6.46017715e-02 7.44689554e-02
      8.38135257e-02 8.03082064e-02 7.09222555e-02 8.05095881e-02
      8.02316144e-02 1.74475044e-01 1.41289815e-01 1.34250611e-01
      9.88863707e-02 1.08004592e-01 9.73448753e-02 1.05230041e-01
      1.17431425e-01 1.23518303e-01 2.33196795e-01 1.62161306e-01
      1.12963073e-01 1.00147925e-01 1.28207996e-01 1.62914783e-01
      1.97100013e-01 2.60791183e-01 2.67141402e-01 2.21789852e-01
      1.77722201e-01 1.27494112e-01 1.22477658e-01 1.61556333e-01
      1.91593096e-01 1.70844391e-01 1.95112139e-01 2.60701686e-01
      2.53415942e-01 1.52075484e-01 1.29996121e-01 1.42479256e-01
      1.71781331e-01 2.03725740e-01 2.41722658e-01 3.23144197e-01
      3.51628870e-01 2.27635428e-01 1.75150558e-01 1.38688266e-01
      1.36715740e-01 1.33893147e-01 1.37414694e-01 2.11446330e-01
      2.09756210e-01 2.16870636e-01 3.00583333e-01 2.67168164e-01
      1.28797039e-01 1.41182348e-01 1.18499450e-01 1.18764170e-01
      1.56574294e-01 1.87756062e-01 2.17701614e-01 4.77265924e-01
      1.57494634e-01 8.17402899e-02 6.03882857e-02 5.49673475e-02
      5.46053201e-02 9.49023888e-02 1.96229994e-01 4.02943224e-01
      3.79828900e-01 1.66862324e-01 1.24539502e-01 1.31452486e-01
      8.88892636e-02 6.64419681e-02 7.58439824e-02 1.54173926e-01
      3.75474393e-01</_>
    <_>
      2.08438858e-01 1.21711783e-01 1.94979444e-01 1.42767638e-01
      1.18682317e-01 1.49607703e-01 1.47238091e-01 1.93544403e-01
      1.21191844e-01 6.39524236e-02 5.89106865e-02 8.68952721e-02
      9.89294052e-02 1.71675980e-01 2.01019749e-01 1.75136879e-01
      1.31762892e-01 6.45154417e-02 7.11873695e-02 3.72729860e-02
      4.78918962e-02 5.23023084e-02 9.25287679e-02 8.88430849e-02
      6.60506114e-02 6.35276213e-02 3.18203121e-02 5.72662503e-02
      8.38118792e-02 9.00880769e-02 6.03188463e-02 5.39633967e-02
      7.33761787e-02 7.64662921e-02 7.16478899e-02 4.81371842e-02
      1.04759850e-01 2.62735605e-01 2.44388536e-01 5.63569367e-02
      3.12801264e-02 3.21853645e-02 4.25689481e-02 5.59262298e-02
      5.47338873e-02 1.50427550e-01 1.67650163e-01 1.77198380e-01
      2.44401336e-01 2.04721227e-01 1.29991993e-01 1.42845601e-01
      7.84814879e-02 7.99596906e-02 4.08107221e-01 9.49235409e-02
      6.43678159e-02 6.85291290e-02 3.75914611e-02 3.04003339e-02
      5.17593063e-02 1.85245499e-01 5.84978461e-01 2.38388658e-01
      1.49260730e-01 9.85401645e-02 6.81215227e-02 4.81242575e-02
      6.55472055e-02 1.18005522e-01 1.60343468e-01 2.05184877e-01
      8.00349563e-02 9.25507173e-02 1.16268754e-01 9.01694521e-02
      8.05329084e-02 7.03184083e-02 5.49903810e-02 7.74822608e-02
      4.22716215e-02 1.57822549e-01 2.95426190e-01 2.34131321e-01
      1.45061493e-01 5.06365635e-02 3.42092551e-02 2.13293210e-02
      2.82039177e-02 3.50130834e-02 1.82545394e-01 5.45224130e-01
      4.76590216e-01 1.19043544e-01 2.40510330e-02 1.25947818e-02
      1.02141388e-02 1.70876235e-02 4.62747663e-02 9.19402316e-02
      2.14143500e-01 2.24133283e-01 1.34112507e-01 8.27215761e-02
      3.84508930e-02 2.00120155e-02 2.19114237e-02 2.27722712e-02
      3.37935798e-02 1.14691935e-01 2.66746700e-01 2.03630954e-01
      8.13310593e-02 5.92110381e-02 1.02529086e-01 7.12387040e-02
      3.28811482e-02 2.16278195e-01 1.72281682e-01 8.07876736e-02
      7.05351904e-02 6.61818981e-02 6.32104576e-02 6.22388721e-02
      4.38718386e-02 4.86447625e-02 1.29277691e-01 1.03459440e-01
      9.87859070e-02 1.05665594e-01 6.66235462e-02 5.84495142e-02
      5.35849556e-02 9.15680081e-02 6.70419633e-02 5.05250506e-02
      1.23969063e-01 3.54913235e-01 3.17963868e-01 2.17451811e-01
      1.02993168e-01 6.03937916e-02 3.61781642e-02 1.01049319e-02
      1.91050425e-01 2.73788065e-01 2.89897680e-01 1.99622050e-01
      1.44321769e-01 9.91943851e-02 9.73518416e-02 1.04438163e-01
      1.32172346e-01 1.38777405e-01 1.58676162e-01 1.96013480e-01
      1.73068911e-01 1.13647334e-01 1.28100976e-01 2.27730140e-01
      2.16150627e-01 1.41669616e-01 1.19640164e-01 6.97382689e-02
      3.41668278e-02 3.48745398e-02 5.63307889e-02 5.33645824e-02
      3.86481211e-02 3.15187015e-02 2.98509672e-02 2.16758311e-01
      4.02914941e-01 1.59130529e-01 1.24623299e-01 1.08326353e-01
      7.76944011e-02 3.25193219e-02 3.50654349e-02 2.49337256e-02
      4.95868802e-01 6.11111403e-01 9.01293457e-02 3.06712259e-02
      2.44212430e-02 1.11978790e-02 1.62300020e-02 2.60174479e-02
      2.73382850e-02 3.59143078e-01 1.91841587e-01 4.02804501e-02
      8.81238505e-02 3.57331447e-02 4.81207781e-02 3.90350893e-02
      7.84258991e-02 1.26479909e-01 2.43024938e-02 6.57072961e-02
      9.70209762e-02 1.98451445e-01 4.26829666e-01 4.23572809e-01
      1.56222150e-01 6.60500154e-02 3.25178877e-02 1.80384219e-01
      1.44745886e-01 1.72099203e-01 1.27915636e-01 1.20836318e-01
      1.94273442e-01 2.13187799e-01 2.13316768e-01 1.81514204e-01
      1.29619017e-01 1.19679980e-01 8.76688361e-02 9.63026211e-02
      1.10160820e-01 1.01791672e-01 1.05555810e-01 1.19528614e-01
      1.17739782e-01 1.20112181e-01 8.89888704e-02 3.98383811e-02
      5.61148413e-02 2.11332649e-01 1.12379707e-01 7.82921165e-02
      6.55955225e-02 6.33715838e-02 6.70890629e-01 2.93004334e-01
      1.70367524e-01 9.57936123e-02 1.18537843e-01 4.22623120e-02
      2.88010929e-02 3.95570844e-02 2.20396608e-01 5.44848979e-01
      2.13143557e-01 5.81592433e-02 2.94367969e-02 3.90637182e-02
      3.92057002e-02 5.34104928e-02 1.33507788e-01 3.49401385e-01
      2.07000047e-01 2.74222344e-01 1.55176684e-01 8.95404518e-02
      1.01393700e-01 1.04344144e-01 6.93428889e-02 3.83493640e-02
      4.90466729e-02 2.33742837e-02 3.99535112e-02 1.17317200e-01
      1.81656867e-01 3.08777273e-01 2.97741979e-01 1.47972271e-01
      5.17549291e-02 1.32307345e-02 4.77845035e-02 6.79266900e-02
      1.54459521e-01 1.58630803e-01 2.31115952e-01 2.54770219e-01
      1.40489295e-01 6.34363815e-02 3.54328528e-02 2.39180382e-02
      7.26107657e-02 5.52442223e-02 9.52332839e-02 1.83807239e-01
      1.57200456e-01 9.27527919e-02 5.84305972e-02 1.16147501e-02
      9.65297520e-02 8.35871771e-02 5.52133545e-02 7.35345334e-02
      1.71223968e-01 5.02708018e-01 2.02546939e-01 3.62108387e-02
      2.57437546e-02 5.20398617e-01 2.42142156e-01 1.24454044e-01
      8.44797492e-02 1.84035510e-01 2.54620045e-01 1.23771854e-01
      1.18451625e-01 1.49157882e-01 3.42447758e-01 1.16861075e-01
      8.90010297e-02 6.32957891e-02 6.18450791e-02 7.35575259e-02
      8.31509456e-02 1.24771968e-01 1.24629356e-01 3.35095525e-01
      3.09240907e-01 1.38530031e-01 1.13439865e-01 9.61813405e-02
      1.06935665e-01 1.71196178e-01 2.00933561e-01 2.42851615e-01
      3.12403310e-02 4.08071242e-02 1.26200140e-01 2.25916743e-01
      2.90163577e-01 2.21752509e-01 9.49060842e-02 3.71737480e-02
      1.49632748e-02 2.78627072e-02 7.84348845e-02 2.59759754e-01
      2.83731252e-01 3.14142257e-01 2.40711525e-01 8.15897509e-02
      2.86490172e-02 1.92063805e-02 1.08672149e-01 6.80024102e-02
      1.06107369e-01 8.86435136e-02 8.90081525e-02 8.55641216e-02
      7.26336464e-02 8.25539529e-02 5.70488647e-02 2.92293012e-01
      2.44787142e-01 1.68593258e-01 1.22305445e-01 2.77574927e-01
      1.40329450e-01 5.11163324e-02 5.35381585e-02 9.44626182e-02
      7.81109408e-02 6.79692477e-02 5.76029643e-02 5.57990111e-02
      8.99565667e-02 3.55029106e-02 2.75003929e-02 3.14850956e-02
      2.85687000e-02 1.49415612e-01 4.91418391e-02 4.25835326e-02
      3.87997925e-02 3.90442051e-02 3.61063853e-02 4.79975417e-02
      5.97177893e-02 5.58518395e-02 1.96038887e-01 1.12985961e-01
      6.83577210e-02 4.91248183e-02 9.37300324e-02 1.08277544e-01
      8.50772560e-02 6.43461496e-02 9.15711001e-02 6.89555332e-02
      6.72842935e-02 9.46700200e-02 1.18775465e-01 1.41243726e-01
      1.01554185e-01 4.91991155e-02 5.78462072e-02 4.52285334e-02
      6.22401424e-02 2.92666741e-02 3.51742133e-02 6.58400208e-02
      1.39685199e-01 9.36338231e-02 4.99406941e-02 5.16139753e-02
      4.26254608e-02 4.01251540e-02 4.70575243e-02 4.46229838e-02
      3.92451659e-02 2.77570225e-02 1.70403793e-02 3.68815437e-02
      1.18312791e-01 1.09475620e-01 1.76044688e-01 4.22117375e-02
      9.85512435e-02 1.39233798e-01 1.36392117e-01 5.84553033e-02
      9.13909972e-02 9.40438956e-02 7.31609017e-02 4.12164241e-01
      2.07974523e-01 5.67644797e-02 2.25031935e-02 1.40157947e-02
      1.46146333e-02 2.58026551e-02 3.24552804e-02 8.55676010e-02
      2.29221359e-01 4.55136597e-01 1.85299441e-01 4.99871485e-02
      2.36212164e-02 1.58037841e-02 1.35235060e-02 2.10198089e-02
      5.13390936e-02 1.92635074e-01 1.28506824e-01 6.03420362e-02
      2.84908284e-02 2.74400134e-02 3.23824659e-02 4.00221087e-02
      6.61804900e-02 1.05405696e-01 4.69923168e-02 3.61997150e-02
      9.36141089e-02 1.84032127e-01 1.35589793e-01 1.36296377e-01
      2.02092186e-01 2.56937683e-01 1.78116500e-01 4.32512730e-01
      1.37208790e-01 6.38578981e-02 4.67593633e-02 2.65761930e-02
      1.46198394e-02 1.38397831e-02 2.62303911e-02 1.76987991e-01
      6.64974451e-01 2.06781343e-01 2.42714472e-02 9.84216109e-03
      4.61071404e-03 8.52451473e-03 1.50944376e-02 4.63358983e-02
      1.67460769e-01 6.82699442e-01 1.93607315e-01 5.00986651e-02
      1.40392343e-02 7.12753786e-03 8.36032443e-03 1.08632762e-02
      3.63604017e-02 2.28860423e-01 3.94969344e-01 1.84555441e-01
      1.61072239e-01 8.29253197e-02 3.07853129e-02 1.32246930e-02
      1.46973422e-02 2.62342971e-02 1.03676528e-01 6.89440072e-01
      1.17701463e-01 3.28198634e-02 1.17226420e-02 8.96157883e-03
      8.37056898e-03 1.52173676e-02 5.96410632e-02 2.70595342e-01
      2.25043923e-01 6.80863485e-02 5.05818166e-02 4.06788774e-02
      3.10687032e-02 3.94206345e-02 4.64976542e-02 8.25639367e-02
      1.66049257e-01</_>
    <_>
      6.17923260e-01 4.87232000e-01 2.93456614e-01 8.70918483e-02
      5.19670397e-02 4.86681685e-02 2.83472519e-02 4.29719649e-02
      3.74129079e-02 1.08900949e-01 5.96574321e-02 7.51704052e-02
      3.10684256e-02 8.38458911e-02 8.96075740e-02 6.89886138e-02
      9.84005928e-02 1.55659579e-02 6.24788366e-02 1.39834387e-02
      5.88906258e-02 6.98759556e-02 1.19590469e-01 1.13745257e-01
      4.68312316e-02 4.80026864e-02 2.01609987e-03 2.25269511e-01
      7.49856755e-02 5.00031412e-02 3.78185958e-02 1.17914699e-01
      2.12869287e-01 1.53060406e-01 9.11143199e-02 2.48004302e-01
      6.80952966e-02 1.14807039e-02 4.88294587e-02 6.54355437e-02
      1.27442285e-01 1.15740910e-01 8.67483690e-02 1.01582445e-01
      9.58423615e-02 2.66434383e-02 2.07514893e-02 5.48524819e-02
      9.35580954e-02 3.36868256e-01 6.39091372e-01 1.74017608e-01
      7.99487233e-02 4.67405096e-02 1.29174769e-01 1.08914852e-01
      1.18314885e-01 6.17712028e-02 1.10264890e-01 2.09626853e-01
      1.45619929e-01 1.03906028e-01 8.25180635e-02 5.55853024e-02
      2.41868254e-02 6.83065578e-02 4.48482111e-02 9.48321819e-02
      1.23477504e-01 7.92500004e-02 7.52976239e-02 7.66161364e-03
      3.83595750e-02 8.47475976e-03 1.11721985e-01 1.42811790e-01
      1.07889831e-01 8.75161067e-02 5.58754094e-02 4.92119193e-02
      1.37896379e-02 1.22368626e-01 4.03172493e-01 5.30997217e-01
      2.89238453e-01 8.26588199e-02 5.36230430e-02 3.55449729e-02
      4.65405509e-02 2.94070411e-02 3.99103522e-01 3.67911726e-01
      3.16800296e-01 1.06347844e-01 6.37695417e-02 4.70074825e-02
      2.29105428e-02 1.00418359e-01 3.13004375e-01 1.38492703e-01
      9.47189927e-02 1.33136570e-01 9.78421643e-02 7.70288855e-02
      6.29444271e-02 4.11380045e-02 1.96427837e-01 2.46688366e-01
      4.97867353e-02 1.25583231e-01 1.82800680e-01 1.40613124e-01
      6.92078322e-02 6.31938502e-02 1.12641297e-01 1.53846204e-01
      3.60522009e-02 2.85886467e-01 1.99933201e-01 1.34174570e-01
      1.89850852e-01 2.75018752e-01 4.02729630e-01 1.55385494e-01
      9.83417407e-02 1.14291802e-01 1.08673245e-01 7.47781843e-02
      1.03408933e-01 1.19613402e-01 1.68928325e-01 2.04060212e-01
      1.39202818e-01 1.03914067e-01 6.49862811e-02 2.77582258e-02
      2.82809809e-02 1.08706884e-01 4.51955140e-01 6.32705986e-01
      1.34642243e-01 2.18779352e-02 1.85916517e-02 8.51901434e-03
      1.19324103e-01 2.28900015e-02 1.30111024e-01 2.45788857e-01
      3.16684783e-01 2.57735729e-01 1.60434276e-01 1.49487227e-01
      2.02082992e-02 1.76930025e-01 6.38225256e-03 2.48410195e-01
      1.39955029e-01 2.20616058e-01 1.76522419e-01 1.53420269e-02
      5.16638085e-02 1.22447051e-02 2.41303071e-02 9.99512710e-03
      9.92430747e-02 1.19851813e-01 1.31520703e-01 1.01382107e-01
      3.40451896e-02 4.29254808e-02 3.39494064e-03 1.21272556e-01
      9.47448611e-02 1.24519721e-01 3.06593001e-01 4.35849905e-01
      1.98939949e-01 1.30622104e-01 9.49483439e-02 7.18521625e-02
      2.90413350e-01 2.86327153e-01 1.63673401e-01 2.57890671e-01
      3.00136358e-01 1.79124683e-01 1.16704427e-01 2.02936620e-01
      2.80627966e-01 1.64272904e-01 1.37451306e-01 1.65744126e-01
      1.22470230e-01 1.73290342e-01 1.79188624e-01 9.42675099e-02
      7.79690444e-02 7.29852021e-02 3.41021679e-02 5.21985143e-02
      3.34445447e-01 4.66932952e-01 3.21113020e-01 1.84811503e-01
      8.06811824e-02 1.98980756e-02 4.53654304e-03 1.37027716e-02 0.
      4.20390926e-02 7.75478408e-02 3.49537909e-01 4.61047471e-01
      1.69597372e-01 4.82209623e-02 3.21553322e-04 8.81666765e-02 0.
      6.61678538e-02 2.71243863e-02 8.61851797e-02 9.28842053e-02
      6.11988306e-02 1.13226138e-01 5.54027210e-04 5.13448827e-02
      4.93314769e-03 4.27787676e-02 3.31496969e-02 8.54714587e-02
      8.51242766e-02 4.90853824e-02 6.33925349e-02 9.16818995e-03
      4.09211405e-02 3.26865986e-02 8.94338414e-02 2.16078401e-01
      4.26822692e-01 3.80944490e-01 1.28708065e-01 4.22799215e-02
      2.03304403e-02 2.42817253e-01 1.97969809e-01 1.59234673e-01
      1.25977352e-01 9.36210603e-02 1.05485156e-01 1.16122581e-01
      1.39207602e-01 1.60574093e-01 1.20161451e-01 1.04615688e-01
      1.05753504e-01 1.09276474e-01 1.93064213e-01 1.77105650e-01
      9.38747898e-02 8.06104615e-02 3.03200893e-02 2.08982490e-02
      2.17286940e-03 3.26262377e-02 7.17007816e-02 3.20988834e-01
      5.60816646e-01 2.22348541e-01 4.89627905e-02 3.38001875e-03
      4.53711599e-02 2.67841108e-03 5.16580716e-02 4.70059998e-02
      2.36164331e-01 3.79220694e-01 2.22302571e-01 8.65143836e-02
      2.80925967e-02 7.46260509e-02 1.29678147e-02 8.01912844e-02
      9.10115391e-02 1.84035420e-01 1.41165510e-01 2.38254890e-02
      3.50485072e-02 3.30710481e-03 1.15639314e-01 2.80092955e-01
      2.70612359e-01 3.19765806e-01 2.30800614e-01 8.92657042e-02
      1.94496233e-02 2.45742183e-02 1.91163477e-02 1.49542376e-01
      1.43357128e-01 1.90214217e-01 1.76043287e-01 1.91263571e-01
      1.17424294e-01 9.06442329e-02 1.09149672e-01 1.32874444e-01
      4.11026865e-01 2.29541510e-01 1.21172450e-01 7.30220526e-02
      8.10021758e-02 7.52565116e-02 2.09759604e-02 4.82638068e-02
      2.06533983e-01 1.32647142e-01 8.64361972e-02 1.58361167e-01
      1.60463050e-01 1.33243307e-01 1.12040333e-01 6.48330972e-02
      5.64538725e-02 2.82047298e-02 4.24278416e-02 3.81230470e-03
      7.40276948e-02 8.50210190e-02 2.04153895e-01 2.60615855e-01
      1.64405078e-01 8.35410729e-02 3.53999715e-03 2.82043777e-02
      3.49918380e-03 5.04193082e-02 1.09203652e-01 1.78575322e-01
      1.97002947e-01 1.34012312e-01 6.01608641e-02 8.75100214e-03
      5.57786413e-02 6.79614693e-02 1.74747065e-01 2.01540202e-01
      2.37031400e-01 1.53492734e-01 5.70364557e-02 4.83640730e-02
      2.56223604e-02 4.42319848e-02 8.87028277e-02 2.28222534e-01
      1.80470780e-01 2.27575749e-01 1.23196162e-01 5.57149425e-02
      4.32121307e-02 1.02635138e-02 5.95363267e-02 9.68797058e-02
      1.78068802e-01 1.46956503e-01 2.03984410e-01 1.86557218e-01
      5.02959341e-02 2.86171660e-02 1.56956166e-02 1.60617813e-01
      1.76427722e-01 2.12076798e-01 2.52986729e-01 2.88447976e-01
      2.15616390e-01 1.89333752e-01 1.35639146e-01 7.73017779e-02
      1.41214669e-01 5.39881736e-02 5.55189885e-02 1.11805663e-01
      2.78651386e-01 2.38581106e-01 1.33583486e-01 9.38206017e-02
      2.34931502e-02 2.93445457e-02 2.49098917e-03 4.02236581e-02
      2.49580443e-02 9.60796177e-02 2.17226133e-01 1.92796573e-01
      1.32279024e-01 1.73247922e-02 2.89910268e-02 4.42202855e-03
      4.47722077e-02 1.06525853e-01 2.61142939e-01 2.09617242e-01
      7.14728609e-02 3.77067178e-02 1.19054620e-03 8.63060763e-04
      2.27901665e-03 5.56005202e-02 2.07314119e-01 5.75115144e-01
      4.21100020e-01 9.26058441e-02 5.75516792e-03 1.29618193e-03
      8.00733119e-02 7.65794963e-02 1.69692457e-01 1.89716443e-01
      1.75857842e-01 9.78760496e-02 4.11073528e-02 4.02015820e-02
      2.66620405e-02 6.48896039e-01 3.92241687e-01 1.09086618e-01
      6.91297054e-02 9.11026448e-02 6.80181459e-02 6.06612861e-02
      5.15915714e-02 2.21073598e-01 3.22227687e-01 1.87982380e-01
      1.23465352e-01 4.92439009e-02 5.25330119e-02 5.82664683e-02
      1.16893679e-01 1.24995321e-01 2.12593287e-01 1.53839812e-01
      6.85295910e-02 3.45977135e-02 4.04119082e-02 1.62046194e-01
      2.73180753e-01 2.58191317e-01 1.87094033e-01 9.54771414e-02
      2.13892326e-01 2.63203196e-02 1.94855053e-02 1.93497837e-02
      8.52837563e-02 3.15031469e-01 2.51710117e-01 4.35281068e-01
      3.38149428e-01 5.07398844e-01 2.86290318e-01 1.29151106e-01
      9.27870423e-02 2.22465441e-01 1.45834073e-01 4.60901819e-02
      9.86588150e-02 2.45892406e-01 3.87500115e-02 3.95074263e-02
      1.97127819e-01 2.55280942e-01 2.21735284e-01 1.16258383e-01
      2.96028610e-02 3.91357206e-02 1.26767792e-02 3.05528551e-01
      4.18074369e-01 3.31562161e-01 9.47721899e-02 7.33533502e-02
      7.66359493e-02 4.73729223e-02 6.50467649e-02 5.02387546e-02
      1.28864899e-01 1.02462932e-01 1.39741763e-01 1.58322871e-01
      9.20632482e-02 9.23076868e-02 4.40570712e-02 7.07868785e-02
      3.33869606e-02 5.47156893e-02 1.99930798e-02 1.07561499e-01
      1.21061154e-01 1.45380810e-01 1.27151027e-01 7.81135932e-02
      7.55473897e-02 6.47484837e-03 2.42189690e-02 1.62756490e-03
      3.30945067e-02 1.96966827e-01 3.74313325e-01 5.16916931e-01
      1.04812630e-01 3.41327041e-02 8.68812203e-03</_>
    <_>
      7.51278177e-02 1.25976708e-02 6.06143624e-02 8.45877305e-02
      1.46499887e-01 1.07994668e-01 8.21917504e-02 8.48519579e-02
      3.03078089e-02 2.62016863e-01 2.57152021e-01 1.21503800e-01
      3.34408432e-02 3.97611037e-02 3.40391770e-02 2.03474369e-02
      8.24034959e-02 4.02561456e-01 3.58221889e-01 1.52894452e-01
      1.36036485e-01 4.51192632e-02 4.65867445e-02 4.40780371e-02
      1.04683027e-01 2.36103892e-01 3.17325979e-01 2.73865908e-01
      9.00208950e-02 1.04109004e-01 4.77182269e-02 3.65591459e-02
      3.60511020e-02 6.62308559e-02 1.48628622e-01 1.04309827e-01
      2.16036722e-01 8.77344888e-03 5.87968342e-02 2.10434422e-02
      5.42735197e-02 5.73886633e-02 3.63900401e-02 9.88102928e-02
      1.84493244e-01 1.60262063e-01 4.45719436e-03 8.48022178e-02
      2.78936382e-02 7.94196278e-02 7.95072541e-02 2.34023947e-02
      7.22011402e-02 8.91438592e-03 1.12683482e-01 2.56413501e-03
      8.37017968e-02 2.84667984e-02 1.33532092e-01 1.33532092e-01
      4.75450754e-02 1.39829934e-01 0. 1.81545600e-01 4.27355804e-03
      1.00619808e-01 2.07777768e-01 3.02816957e-01 2.26164818e-01
      5.94833344e-02 1.18549399e-01 9.82918218e-03 2.53181130e-01
      1.85779169e-01 1.73679978e-01 2.06690505e-01 2.98275322e-01
      2.33530939e-01 1.47409439e-01 1.65818498e-01 2.14309290e-01
      2.76020944e-01 2.84254611e-01 4.68649209e-01 1.39523327e-01
      9.12935436e-02 2.92058229e-01 1.99397311e-01 1.85558960e-01
      1.27210125e-01 1.88543931e-01 6.79706484e-02 1.14990264e-01
      1.26278669e-01 1.29646018e-01 1.92577615e-01 2.56534040e-01
      2.47917593e-01 8.05738270e-02 1.78136110e-01 9.60066393e-02
      7.83909559e-02 7.62588978e-02 1.12647161e-01 1.21739730e-01
      1.53211474e-01 2.52408504e-01 2.19632342e-01 8.51567984e-02
      4.50945236e-02 5.06984331e-02 4.21418697e-02 8.19833651e-02
      2.10892692e-01 2.50507742e-01 2.20160410e-01 9.88824591e-02
      1.52297169e-01 1.26075186e-02 7.49078020e-02 4.20362316e-02
      5.29713705e-02 4.56033237e-02 2.02032104e-02 5.47940694e-02
      1.41365528e-02 2.02666838e-02 4.76132287e-03 1.04375094e-01
      1.86751440e-01 2.10328028e-01 1.90918550e-01 1.42607242e-01
      7.56335184e-02 4.33211401e-03 7.10991472e-02 5.61150955e-03
      3.79331969e-02 3.55151445e-02 1.55705810e-01 5.98688364e-01
      2.44842291e-01 9.36127603e-02 2.10344661e-02 2.41593063e-01
      7.74037233e-03 1.64782643e-01 2.11346850e-01 2.73685366e-01
      2.18209952e-01 1.18108675e-01 1.70068502e-01 7.64965340e-02
      1.24454856e-01 1.72979850e-02 6.91398233e-02 3.18771601e-02
      1.20473087e-01 1.17616862e-01 6.04091175e-02 1.38451561e-01
      1.89121179e-02 1.11442544e-01 6.71648160e-02 7.98583478e-02
      5.89291826e-02 9.27236453e-02 7.08629712e-02 5.35746180e-02
      6.32276684e-02 2.63944697e-02 5.73777221e-02 1.96140185e-02
      4.75879498e-02 6.47729114e-02 1.48728549e-01 4.46347833e-01
      3.57270867e-01 1.98857963e-01 1.33462042e-01 2.75139481e-01
      2.19252959e-01 1.33065745e-01 2.10099906e-01 1.60192236e-01
      1.54910341e-01 1.75168037e-01 1.92825779e-01 2.68293619e-01
      1.59463018e-01 2.26626873e-01 1.89717203e-01 1.24863654e-01
      1.17318042e-01 9.62869525e-02 8.98032784e-02 1.00971408e-01
      2.05983311e-01 2.55905651e-02 1.52210006e-03 1.92487631e-02
      1.51653513e-02 3.92017722e-01 4.56435651e-01 4.10937592e-02
      3.57151181e-02 0. 1.41181722e-01 5.26488386e-03 2.25464419e-01
      1.52340993e-01 3.14742088e-01 3.10377866e-01 9.70211998e-02
      1.77347600e-01 4.55953553e-02 1.01293184e-01 0. 7.38103390e-02
      3.11914012e-02 9.71909240e-02 9.65380892e-02 2.72407886e-02
      7.14034736e-02 0. 9.58303288e-02 6.60804510e-02 2.84717474e-02
      1.12214871e-01 2.86144048e-01 1.76451355e-01 1.54835567e-01
      6.29601330e-02 3.79005149e-02 3.29027116e-01 1.86753541e-01
      7.56371617e-02 2.33564213e-01 3.87728751e-01 2.58423507e-01
      1.89527661e-01 2.01454476e-01 1.27724349e-01 8.40852559e-02
      1.13142775e-02 5.65224439e-02 8.61528441e-02 2.01989248e-01
      2.20872402e-01 1.18789189e-01 1.36022896e-01 5.72651550e-02
      3.24957147e-02 3.10270558e-03 6.59949854e-02 2.64702678e-01
      4.46417719e-01 3.86074841e-01 2.12031335e-01 9.91988108e-02
      1.62765309e-02 1.35087529e-02 1.18346862e-03 1.98816787e-02
      1.04500465e-01 6.16880953e-01 2.64012247e-01 1.38039477e-02
      1.99527815e-02 0. 1.67835593e-01 6.77587988e-04 1.79898173e-01
      8.51415470e-02 2.98578829e-01 3.00756663e-01 4.86357361e-02
      9.91207957e-02 0. 1.25723153e-01 0. 5.95324449e-02 1.97935179e-02
      4.21494916e-02 4.21494916e-02 1.94522459e-02 5.90977557e-02
      1.21036184e-03 2.76748799e-02 1.43116284e-02 1.00549236e-01
      1.88347742e-01 2.28415012e-01 1.90416440e-01 9.50446799e-02
      5.47674634e-02 1.31873954e-02 5.74199557e-02 2.82815117e-02
      1.38189420e-01 2.12788746e-01 4.05231535e-01 3.22208762e-01
      3.03789198e-01 1.34502396e-01 4.27478030e-02 1.00892447e-01
      8.89220927e-03 1.29539073e-01 1.15247957e-01 1.75223708e-01
      1.61055490e-01 6.72550201e-02 1.09384894e-01 3.23930345e-02
      1.57857072e-02 3.07891722e-04 2.10931972e-02 9.47513357e-02
      5.54381490e-01 4.14553970e-01 1.40421152e-01 7.52841011e-02 0.
      2.40177140e-02 2.75568850e-03 4.39049564e-02 1.02303140e-01
      6.43465579e-01 5.14054775e-01 4.92440201e-02 4.25277762e-02
      1.51861832e-02 1.98184744e-01 1.08149257e-02 2.78521597e-01
      1.09942757e-01 2.22398356e-01 2.18809158e-01 3.74235697e-02
      1.08445756e-01 1.27675873e-03 9.35355276e-02 0. 5.36864325e-02
      1.94935873e-02 7.69261494e-02 7.92099833e-02 4.80869338e-02
      1.15573719e-01 2.13245815e-03 2.91708969e-02 5.68207279e-02
      9.90395248e-02 1.16363734e-01 2.40576237e-01 2.98126459e-01
      2.77838826e-01 2.12242126e-01 6.21470660e-02 1.73093513e-01
      2.73126423e-01 2.67450899e-01 2.36916348e-01 1.72255456e-01
      1.39656246e-01 1.16208017e-01 9.35652182e-02 1.04113750e-01
      1.12328723e-01 3.40154022e-02 1.24835052e-01 1.63024411e-01
      2.31003091e-01 2.24699348e-01 1.57770753e-01 1.89530700e-01
      7.15096965e-02 8.27330425e-02 1.25507161e-03 7.86649063e-02
      7.46117607e-02 2.38417014e-01 2.56881416e-01 1.08284064e-01
      8.15207437e-02 5.96158719e-03 1.48426235e-01 4.58679721e-02
      7.74396956e-02 2.02139691e-01 3.73836756e-01 3.50482851e-01
      2.01122671e-01 1.87262028e-01 1.45291075e-01 1.07736550e-01
      1.12237353e-02 5.46781644e-02 2.42080335e-02 6.15842976e-02
      6.12723716e-02 2.44711600e-02 5.83063662e-02 3.81701882e-03
      1.06601603e-01 5.77320391e-03 9.82158855e-02 3.69612426e-02
      2.97306813e-02 2.98839286e-02 1.77562181e-02 3.87030505e-02
      1.36276772e-02 1.29670158e-01 1.34707047e-02 7.57890418e-02
      4.27117757e-02 4.39679399e-02 4.61920388e-02 5.25463857e-02
      1.79333597e-01 1.31678268e-01 8.47537890e-02 2.82638762e-02
      6.64733276e-02 9.65892673e-02 1.14674322e-01 2.42609680e-01
      6.20553076e-01 3.48690540e-01 1.51968107e-01 3.83860171e-01
      2.33001918e-01 1.65509611e-01 1.21816814e-01 1.13591641e-01
      1.08467080e-01 6.77627474e-02 1.38451785e-01 2.51772463e-01
      1.85855269e-01 3.05835381e-02 8.50563049e-02 4.12988961e-02
      1.56962872e-01 1.79885998e-01 8.87963623e-02 2.08879992e-01
      2.58624613e-01 4.82484922e-02 0. 1.78633984e-02 5.93932066e-03
      4.25159782e-02 8.00263435e-02 1.57542154e-01 1.43079847e-01
      3.36561054e-02 2.07174852e-01 2.65338570e-02 2.96606887e-02
      3.64343859e-02 7.85735846e-02 2.23899901e-01 2.91923553e-01
      2.75695473e-01 1.97786748e-01 4.14170593e-01 8.52757990e-02
      7.41127580e-02 1.02332048e-01 1.21110827e-01 2.30578944e-01
      2.13801816e-01 3.92049342e-01 4.72865969e-01 4.66140270e-01
      5.72326660e-01 1.03075504e-01 2.79209595e-02 5.20322993e-02
      5.20320758e-02 3.78551483e-02 6.18767291e-02 6.69157207e-02
      2.06147730e-01 2.76813269e-01 1.69904649e-01 6.57453015e-02
      2.53781434e-02 2.59909909e-02 2.00666282e-02 3.82106677e-02
      7.26860762e-03 3.40866864e-01 7.24170059e-02 1.32379949e-01
      7.29822367e-02 5.56281656e-02 4.70760502e-02 2.73632165e-02
      1.36588126e-01 1.69352159e-01 4.43678349e-01 1.71204627e-01
      6.01097755e-02 3.47949192e-02 7.59444013e-02 7.49723241e-02
      3.68419476e-02 7.77497292e-02 1.43144757e-01</_>
    <_>
      1.68640211e-01 1.08734734e-01 1.40780151e-01 2.08504394e-01
      2.82940745e-01 2.34737769e-01 1.30972862e-01 9.51704383e-02
      1.57996014e-01 1.18100189e-01 3.47665772e-02 8.78533348e-02
      7.49129802e-02 1.29687458e-01 3.32187206e-01 2.76549339e-01
      1.58025786e-01 1.38970971e-01 1.22122444e-01 1.29340127e-01
      3.59619230e-01 6.45217121e-01 3.35843116e-01 7.36545697e-02
      6.53862506e-02 3.24022584e-02 4.97446693e-02 1.94320843e-01
      2.61007488e-01 1.32174104e-01 1.13326497e-01 1.00263305e-01
      1.82598829e-01 1.89118102e-01 1.67309210e-01 1.59136429e-01
      2.79990226e-01 1.01192266e-01 2.90926769e-02 2.56674010e-02
      3.43815945e-02 6.95615187e-02 1.33706659e-01 2.12107867e-01
      3.17110032e-01 7.59404078e-02 3.56484875e-02 5.76598234e-02
      9.48633328e-02 1.09123729e-01 3.03591728e-01 3.80077064e-01
      1.78022817e-01 1.69841424e-01 8.95924568e-02 1.89202838e-02
      6.73947260e-02 6.02961592e-02 1.20718338e-01 1.14331014e-01
      6.61545619e-02 8.34249407e-02 2.12433580e-02 6.18752129e-02
      5.45733459e-02 1.51063144e-01 1.80878863e-01 3.78881425e-01
      3.39897692e-01 1.36824995e-01 1.17995173e-01 5.34607507e-02
      1.78130001e-01 1.41662449e-01 1.94404781e-01 8.34885910e-02
      1.71028927e-01 2.35135794e-01 2.76471794e-01 1.98713705e-01
      1.67738035e-01 9.00965557e-02 3.31852958e-02 2.70130306e-01
      2.10543185e-01 1.47793174e-01 1.96690097e-01 1.23360433e-01
      1.17815115e-01 3.95924002e-02 3.68286707e-02 2.28347769e-03
      5.26207946e-02 5.11364266e-02 1.96433157e-01 2.00088814e-01
      7.92614296e-02 7.75843114e-02 4.56695305e-03 4.06536832e-02
      1.77544523e-02 4.35080342e-02 6.48624375e-02 1.92035750e-01
      1.83814943e-01 1.37690157e-01 1.08761236e-01 5.86837903e-02
      4.43366244e-02 1.80831775e-02 2.41612773e-02 4.75547388e-02
      1.93316400e-01 4.69187319e-01 3.05043757e-01 1.39877021e-01
      3.94783393e-02 9.86674502e-02 4.64148112e-02 7.55471885e-02
      5.78916669e-02 6.20268099e-02 1.47142649e-01 1.40685931e-01
      7.95656368e-02 4.20641005e-02 8.51264149e-02 5.95420115e-02
      1.03829145e-01 1.61575407e-01 2.64125496e-01 2.34372586e-01
      1.06880717e-01 4.60372269e-02 3.37705165e-02 1.46787137e-01
      1.20804533e-01 1.29784212e-01 1.68733686e-01 2.09466174e-01
      2.52669930e-01 2.35024706e-01 1.77643210e-01 1.35047734e-01
      7.64023960e-02 2.42773294e-02 7.44664222e-02 7.93394521e-02
      1.43174753e-01 3.17492932e-01 7.92792886e-02 5.93158565e-02
      1.90000590e-02 3.43397111e-02 1.06905894e-02 6.86396286e-02
      7.49897137e-02 1.71413988e-01 1.81133240e-01 5.99399582e-02
      3.89420688e-02 1.80703378e-03 2.95545738e-02 3.50928269e-02
      8.36510584e-02 1.27414152e-01 2.70022810e-01 2.10593879e-01
      4.94020879e-02 3.32956687e-02 6.06633350e-03 4.47544232e-02
      1.32278064e-02 4.14707623e-02 1.18795507e-01 2.12058112e-01
      1.87027559e-01 1.25552014e-01 5.44586405e-02 2.68681627e-02
      5.17692208e-01 3.16037446e-01 1.21890128e-01 6.27083480e-02
      7.17007220e-02 4.57713157e-02 4.18218747e-02 1.61623195e-01
      2.56687671e-01 2.90533274e-01 2.26328298e-01 1.33490786e-01
      1.30175292e-01 1.09147787e-01 1.10787116e-01 1.05215862e-01
      6.45476431e-02 5.50994575e-02 1.03309311e-01 1.11528404e-01
      1.41654328e-01 2.31390983e-01 1.60165295e-01 2.18215704e-01
      2.19875589e-01 9.25688744e-02 6.86690211e-02 2.19309330e-01
      2.31732726e-01 2.05804884e-01 1.89910799e-01 4.20992374e-01
      4.44712311e-01 1.08955085e-01 7.04609230e-02 8.01668391e-02
      2.73209393e-01 1.60413176e-01 1.33232489e-01 1.36481196e-01
      1.27665147e-01 6.49060309e-02 6.54908568e-02 8.68930817e-02
      1.48467094e-01 8.66189152e-02 1.13320604e-01 1.16712630e-01
      1.81311727e-01 2.33578950e-01 2.31421217e-01 1.20636448e-01
      6.33245260e-02 3.29912417e-02 5.89061640e-02 3.26736979e-02
      9.07210112e-02 1.64651960e-01 3.83448958e-01 3.05265963e-01
      1.60246998e-01 8.02084431e-02 5.62759042e-02 1.10054791e-01
      9.62174684e-02 6.54680133e-02 1.74630895e-01 3.46675992e-01
      2.43976474e-01 1.66512594e-01 2.56285429e-01 1.08171456e-01
      1.54296756e-01 1.33977011e-01 1.88115463e-01 1.56800896e-01
      8.42659920e-02 8.65945145e-02 8.17472786e-02 9.02463943e-02
      1.42214432e-01 7.46281743e-02 4.39154468e-02 5.66510372e-02
      1.28434256e-01 2.81653345e-01 5.33282995e-01 2.99996167e-01
      1.03143737e-01 5.38710803e-02 1.22197680e-01 1.29041106e-01
      1.41442865e-01 1.74363539e-01 2.01426804e-01 2.28515625e-01
      2.09134400e-01 1.16114683e-01 8.46426189e-02 2.33202234e-01
      1.47285894e-01 1.28093258e-01 1.36721313e-01 1.45244718e-01
      1.28326893e-01 1.02520756e-01 9.31592584e-02 1.07320994e-01
      1.08127862e-01 1.02698006e-01 1.28150791e-01 1.18467174e-01
      2.01310039e-01 1.93771988e-01 1.68866456e-01 1.06646262e-01
      6.98552355e-02 5.65743707e-02 4.12733816e-02 7.86035433e-02
      2.02691093e-01 3.60667139e-01 3.61743063e-01 1.62326276e-01
      8.33113045e-02 6.53596371e-02 1.16269976e-01 1.08017996e-01
      7.81307444e-02 1.38388753e-01 2.79328614e-01 1.92292064e-01
      1.78514659e-01 1.83654159e-01 9.83460248e-02 1.60792723e-01
      1.82104900e-01 1.39845327e-01 2.17117995e-01 2.92072445e-01
      1.54132113e-01 9.72603038e-02 7.55772069e-02 7.21168220e-02
      4.48424295e-02 2.16047075e-02 4.97110635e-02 1.23046912e-01
      2.37324059e-01 3.06811124e-01 2.56653219e-01 1.32654771e-01
      5.78008369e-02 1.83750808e-01 1.03978269e-01 9.37936828e-02
      1.39999494e-01 1.68630138e-01 2.11800054e-01 2.31492579e-01
      2.33463362e-01 2.22423717e-01 1.97107643e-01 1.32280931e-01
      1.49806082e-01 1.46990165e-01 2.40940645e-01 2.30804786e-01
      1.88424990e-01 1.58680171e-01 1.67767033e-01 1.70722067e-01
      1.85364574e-01 1.66058853e-01 1.47185758e-01 1.84381649e-01
      1.18139319e-01 7.47635439e-02 7.17625245e-02 6.81651384e-02
      8.65991861e-02 1.25198826e-01 2.32924268e-01 3.34503740e-01
      3.38675767e-01 2.62243181e-01 1.39439613e-01 1.12858579e-01
      7.89644644e-02 4.62284267e-01 2.29993060e-01 1.56873912e-01
      2.14193344e-01 2.09376097e-01 1.62907541e-01 1.58531263e-01
      1.29044950e-01 1.45857543e-01 1.06631301e-01 3.81483622e-02
      5.99709041e-02 1.30761921e-01 2.34174445e-01 2.45079696e-01
      2.92208701e-01 1.74905494e-01 9.24736336e-02 6.41651750e-02
      7.48654306e-02 6.34106249e-02 5.91283180e-02 2.14116111e-01
      4.61873114e-01 2.66361535e-01 8.96753371e-02 3.31283696e-02
      1.65413648e-01 1.01293273e-01 1.04800671e-01 9.15184841e-02
      1.12727478e-01 1.52904794e-01 1.75157174e-01 1.67802796e-01
      1.64483532e-01 1.91847041e-01 1.07691385e-01 1.01274021e-01
      6.91490099e-02 8.39541927e-02 1.20748229e-01 1.02474600e-01
      1.14820473e-01 7.73672536e-02 1.04930013e-01 7.43613318e-02
      9.43121687e-02 1.38365075e-01 1.04229599e-01 8.51734951e-02
      1.05892465e-01 1.04448125e-01 8.56882036e-02 9.76140127e-02
      6.26390576e-02 7.25983381e-02 8.17216113e-02 1.71779171e-01
      2.97014892e-01 2.32976422e-01 1.76283017e-01 9.23897997e-02
      1.02862030e-01 6.19790852e-02 8.40762034e-02 6.62263855e-02
      8.34563524e-02 1.11033931e-01 1.33864924e-01 1.43877983e-01
      8.39315057e-02 5.50367981e-02 9.81594250e-03 5.47944568e-02
      1.19030312e-01 1.88331783e-01 1.71941683e-01 8.74620229e-02
      5.57843894e-02 1.19758612e-02 1.28524065e-01 1.18692733e-01
      1.58027843e-01 1.72353908e-01 2.98362136e-01 3.50129664e-01
      1.84655726e-01 1.25946850e-01 1.01481274e-01 1.99153230e-01
      1.31274834e-01 1.28757179e-01 1.75204545e-01 2.50199795e-01
      2.99374759e-01 2.48524636e-01 1.76386863e-01 1.71163231e-01
      3.12144756e-01 1.73757210e-01 1.20513916e-01 6.90698698e-02
      9.52124223e-02 1.46685436e-01 1.66039363e-01 2.70245671e-01
      4.18217927e-01 2.26187557e-01 2.26365864e-01 1.79902166e-01
      1.49537906e-01 1.59915537e-01 1.62633762e-01 1.76844701e-01
      1.83117911e-01 1.55990228e-01 3.70447218e-01 1.67054281e-01
      9.23829004e-02 8.69642124e-02 1.03012852e-01 1.06746711e-01
      1.74336180e-01 2.40797862e-01 2.18768522e-01 4.20108020e-01
      5.09729505e-01 1.47132948e-01 9.64430198e-02 4.93006408e-02
      4.20169383e-02 5.77496774e-02 2.66350478e-01 4.21439767e-01
      2.89678514e-01 1.31591856e-01 1.06956787e-01 1.02306955e-01
      8.44370052e-02 7.00607896e-02 5.54659404e-02 7.86014199e-02
      1.21502422e-01</_>
    <_>
      1.49842635e-01 2.56342143e-01 2.84292549e-01 2.10714787e-01
      1.31946921e-01 7.41118938e-02 5.03527187e-02 4.85574752e-02
      5.22696711e-02 1.64702088e-01 3.02154064e-01 3.05097282e-01
      1.59061164e-01 8.20711553e-02 5.97599596e-02 4.83253002e-02
      5.11223562e-02 6.50161430e-02 4.37392518e-02 4.77001257e-02
      9.80027318e-02 1.56780645e-01 3.57928485e-01 2.67564982e-01
      6.25004843e-02 5.92191108e-02 7.04544112e-02 1.27124280e-01
      1.19610362e-01 1.36495098e-01 1.63575083e-01 2.42962390e-01
      2.53939092e-01 2.20982522e-01 1.51228145e-01 1.24566935e-01
      1.74377620e-01 1.81355163e-01 2.00043172e-01 1.92542031e-01
      1.99666694e-01 2.07058340e-01 1.84702113e-01 1.22448891e-01
      1.62566751e-01 1.44552812e-01 1.48766711e-01 1.46975428e-01
      1.25396863e-01 1.46371439e-01 1.13409780e-01 1.31444350e-01
      1.30250067e-01 1.33439124e-01 1.96906999e-01 1.43526837e-01
      1.30234674e-01 1.06748000e-01 1.05757989e-01 1.19033456e-01
      9.62842926e-02 9.29500759e-02 1.45077631e-01 1.30717367e-01
      1.08291022e-01 1.29168600e-01 1.59433410e-01 2.21429497e-01
      2.08685964e-01 1.36821881e-01 1.21034369e-01 1.05884127e-01
      7.79756382e-02 2.80283280e-02 5.72392568e-02 5.74859157e-02
      2.71566715e-02 2.54877880e-02 2.24464890e-02 4.55511250e-02
      1.44634068e-01 2.19028760e-02 9.49587580e-03 2.18619332e-02
      7.28125945e-02 4.67577219e-01 4.19209510e-01 1.41156852e-01
      9.46881175e-02 4.11219224e-02 1.35109618e-01 1.52043149e-01
      1.37435377e-01 1.41067550e-01 1.76243499e-01 2.07990319e-01
      1.60814151e-01 8.08450356e-02 1.03239693e-01 1.49348229e-01
      1.11323446e-01 1.43126115e-01 1.29758850e-01 1.51445925e-01
      1.34362578e-01 1.74606547e-01 2.32816875e-01 2.86172748e-01
      9.40761343e-02 8.03108215e-02 9.62554440e-02 7.81022832e-02
      7.95115158e-02 1.13232985e-01 1.03875853e-01 1.44803822e-01
      1.06889568e-01 1.43676743e-01 1.08317271e-01 1.14702940e-01
      7.27478266e-02 9.98906642e-02 8.60359296e-02 1.09323665e-01
      1.37648121e-01 1.86509997e-01 1.32592782e-01 1.48624316e-01
      1.16133392e-01 1.32101297e-01 1.92084000e-01 2.37141654e-01
      1.89528838e-01 1.99155301e-01 1.67926639e-01 3.30140680e-01
      1.51434422e-01 8.42920989e-02 8.99330080e-02 8.15332085e-02
      1.61900058e-01 1.76969588e-01 1.64872795e-01 2.46440485e-01
      2.44051173e-01 1.07554488e-01 1.02366090e-01 1.29676208e-01
      3.11589748e-01 2.20882639e-01 8.13304931e-02 7.46276453e-02
      1.52126476e-01 4.06654954e-01 1.52047664e-01 6.65613562e-02
      4.58347425e-02 4.20010015e-02 4.92545255e-02 6.44538626e-02
      1.73431322e-01 3.92214864e-01 3.82054448e-01 1.32438421e-01
      8.93164799e-02 7.42530972e-02 6.84099197e-02 9.84838679e-02
      1.65177360e-01 2.29559556e-01 3.61305326e-01 1.15181059e-01
      8.59200060e-02 5.65971360e-02 5.20579554e-02 5.30273803e-02
      6.59657493e-02 7.95299336e-02 6.28670529e-02 9.20065716e-02
      3.20504785e-01 1.74880415e-01 1.07479356e-01 5.61558083e-02
      4.60029319e-02 2.52088793e-02 2.68458873e-02 5.58879711e-02
      1.45303801e-01 2.87318408e-01 2.39791811e-01 1.11429803e-01
      1.17744543e-01 7.73320422e-02 5.63682467e-02 4.86645587e-02
      6.04615659e-02 1.18620053e-01 9.72922519e-02 7.08184242e-02
      1.04150072e-01 2.10916579e-01 4.51095223e-01 2.68436104e-01
      9.43965241e-02 6.76547512e-02 7.60070160e-02 6.52801096e-02
      5.96518181e-02 1.00774489e-01 1.52654365e-01 3.92781615e-01
      4.05980378e-01 1.11216933e-01 4.79542464e-02 4.87273484e-02
      2.27445155e-01 1.18102551e-01 9.57866609e-02 6.97718114e-02
      7.88724869e-02 8.97547379e-02 8.08857232e-02 1.04290597e-01
      1.59244955e-01 2.19118550e-01 1.59588724e-01 1.07218958e-01
      7.65740871e-02 6.58999383e-02 9.41298380e-02 1.30794138e-01
      1.28543541e-01 1.52901500e-01 3.63838434e-01 1.70127586e-01
      6.67879060e-02 4.16695774e-02 4.43195924e-02 5.60913719e-02
      6.05960004e-02 8.85272920e-02 1.25069425e-01 6.01805925e-01
      3.73750001e-01 1.01463452e-01 1.83432270e-02 2.03913078e-02
      6.45674318e-02 8.25916603e-02 1.52662486e-01 2.28581771e-01
      2.47836038e-01 1.46880165e-01 5.35404645e-02 6.94915801e-02
      1.04843050e-01 8.96857008e-02 9.39171761e-02 8.56444538e-02
      9.07038376e-02 5.00287227e-02 5.58684021e-02 6.97839931e-02
      1.18183024e-01 1.94261909e-01 1.64635316e-01 1.24736615e-01
      1.13263272e-01 7.46604055e-02 3.64727378e-02 4.34840433e-02
      4.52908389e-02 1.11801274e-01 4.34322804e-01 3.06311250e-01
      5.91154844e-02 4.02195416e-02 3.03124003e-02 3.27360988e-01
      1.37466639e-01 8.03278461e-02 6.08858131e-02 6.71458468e-02
      7.02163354e-02 1.22151166e-01 2.00490996e-01 3.03941876e-01
      3.32551628e-01 1.91701964e-01 8.22981074e-02 8.27298686e-02
      9.09838453e-02 1.55607522e-01 1.44017905e-01 1.50603116e-01
      1.39426813e-01 1.04232125e-01 7.82349706e-02 7.88558498e-02
      1.25470757e-01 1.87184647e-01 3.09135348e-01 1.53037325e-01
      8.14183578e-02 8.76837596e-02 9.44370553e-02 8.71788114e-02
      6.45517707e-02 6.75616041e-02 5.98809123e-02 8.41569975e-02
      1.55175656e-01 1.88791692e-01 9.74033326e-02 6.75996765e-02
      4.13152017e-02 4.70717587e-02 7.02948943e-02 1.09126732e-01
      2.34321937e-01 3.28582346e-01 1.54686972e-01 8.22223425e-02
      8.71374980e-02 9.78628173e-02 1.48214430e-01 1.56853840e-01
      1.27534032e-01 9.31372344e-02 6.42014071e-02 6.24797679e-02
      9.09770578e-02 7.02704266e-02 6.88602850e-02 6.90330490e-02
      9.61517915e-02 4.06299323e-01 3.69203150e-01 9.60126817e-02
      7.30091482e-02 8.69506299e-02 3.68659556e-01 2.63137281e-01
      9.47374403e-02 7.32595250e-02 8.38146508e-02 7.45676681e-02
      4.93844673e-02 6.76875636e-02 1.53746590e-01 1.16618477e-01
      1.52406737e-01 1.50121003e-01 2.18196899e-01 1.92517221e-01
      1.34761229e-01 9.89981145e-02 7.20594376e-02 8.96079615e-02
      1.05175570e-01 8.94358307e-02 8.32975060e-02 9.86063406e-02
      1.15957700e-01 1.17383257e-01 8.19292292e-02 1.24550477e-01
      1.36843085e-01 2.07444400e-01 3.75801116e-01 2.18133792e-01
      1.16922408e-01 8.84735063e-02 7.68395886e-02 3.44446898e-02
      4.83097434e-02 9.17938352e-02 3.03383678e-01 3.39936078e-01
      1.96109712e-01 1.42803967e-01 1.13103867e-01 8.28170627e-02
      6.11369163e-02 1.57914951e-01 2.27272063e-01 5.68912365e-02
      5.29973805e-02 9.17329192e-02 9.42780226e-02 7.97305778e-02
      6.04315698e-02 7.69854188e-02 8.27356577e-02 5.70553802e-02
      4.40568924e-02 5.12746125e-02 7.71571770e-02 1.06146157e-01
      3.04768860e-01 2.69844651e-01 1.00011051e-01 5.33720329e-02
      3.89909782e-02 1.50051489e-01 1.12312570e-01 1.30333915e-01
      8.61913189e-02 4.93384190e-02 4.83415015e-02 5.15267290e-02
      8.12508836e-02 1.31967515e-01 7.11519197e-02 5.20097353e-02
      8.47487152e-02 6.50904328e-02 8.87875929e-02 1.08340040e-01
      6.68565407e-02 9.40768793e-02 1.02471262e-01 2.95083642e-01
      2.04522178e-01 6.71131164e-02 3.11441794e-02 2.67735533e-02
      2.56769154e-02 2.04584841e-02 5.06003238e-02 1.85990244e-01
      1.26291841e-01 2.80119866e-01 1.62475318e-01 6.63510710e-02
      6.32059425e-02 5.75100556e-02 6.60176352e-02 7.37110078e-02
      9.54526812e-02 1.24178752e-01 1.01606615e-01 1.00160055e-01
      1.38194412e-01 2.00156927e-01 2.09753186e-01 9.37975645e-02
      8.52025375e-02 8.21483955e-02 4.14768606e-01 1.83216974e-01
      7.16524124e-02 8.19295943e-02 8.30226541e-02 1.09083071e-01
      1.63045570e-01 2.84745902e-01 3.23534459e-01 2.62785524e-01
      1.42628834e-01 1.07148230e-01 1.61552206e-01 2.73336947e-01
      2.29223505e-01 1.55530900e-01 7.98252001e-02 1.55136675e-01
      6.37563467e-01 1.58107504e-01 6.83417246e-02 3.72009687e-02
      2.07196102e-02 2.82800067e-02 5.17600961e-02 7.06929490e-02
      2.32272550e-01 3.13243508e-01 1.26100957e-01 8.98630992e-02
      5.47928959e-02 4.81495894e-02 5.27126938e-02 1.05180100e-01
      3.39244395e-01 3.08781594e-01 5.01881897e-01 1.64187640e-01
      7.21466020e-02 4.57577519e-02 5.80984093e-02 7.20555112e-02
      7.13702962e-02 1.23715356e-01 2.50506550e-01 6.42671585e-01
      1.36588261e-01 6.88053221e-02 4.18073870e-02 2.67835408e-02
      2.44985428e-02 3.09037734e-02 7.98872262e-02 2.69997090e-01
      3.83504331e-01 1.71296149e-01 5.79336248e-02 6.87135383e-02
      1.53088033e-01 7.74342641e-02 4.00752053e-02 5.95697276e-02
      1.79154828e-01</_>
    <_>
      1.39711797e-01 1.21188700e-01 7.92287439e-02 1.32786915e-01
      2.76244640e-01 2.38446668e-01 9.47465673e-02 5.35948463e-02
      5.27364872e-02 8.61445218e-02 1.27266109e-01 1.37294501e-01
      2.32984364e-01 4.15475667e-01 2.21893027e-01 1.07810855e-01
      5.12722172e-02 4.00166102e-02 7.18977675e-02 9.23052877e-02
      1.48355603e-01 2.79283315e-01 3.80503327e-01 2.21928194e-01
      1.16841152e-01 8.41953754e-02 5.58432899e-02 4.47510257e-02
      5.62855899e-02 7.99745321e-02 1.18922628e-01 3.67321044e-01
      3.77355695e-01 1.73739567e-01 1.00244306e-01 7.21776634e-02
      5.45193180e-02 5.58178686e-02 6.81847930e-02 1.39861062e-01
      2.07812682e-01 1.96435913e-01 1.25971809e-01 8.51879343e-02
      6.45708144e-02 4.27781567e-02 5.63957058e-02 8.55759159e-02
      1.30801111e-01 3.39271188e-01 3.23773831e-01 1.10340960e-01
      6.62999973e-02 4.32073213e-02 6.01298548e-02 5.65970279e-02
      8.57527554e-02 2.14184254e-01 3.18984896e-01 3.86444956e-01
      1.57220528e-01 8.69267881e-02 6.32976368e-02 8.04049596e-02
      5.94323277e-02 9.27201733e-02 1.41621321e-01 1.86766580e-01
      2.11773008e-01 1.28296807e-01 8.34241956e-02 7.68540502e-02
      5.22864386e-02 1.11548379e-01 1.97139353e-01 3.81451488e-01
      4.29115713e-01 1.33131161e-01 6.96244463e-02 5.20589128e-02
      4.96435054e-02 1.40338466e-01 8.07986706e-02 8.82718042e-02
      1.62129030e-01 2.61124641e-01 2.49496862e-01 1.92223832e-01
      1.91125974e-01 1.50571197e-01 1.88623562e-01 1.19929492e-01
      1.31133690e-01 1.72996655e-01 2.40290388e-01 1.62701890e-01
      1.95964158e-01 2.21913308e-01 2.46210143e-01 1.52831003e-01
      1.48754746e-01 1.45891488e-01 1.94677487e-01 1.87867507e-01
      1.81195974e-01 1.42136395e-01 1.24780409e-01 1.44698352e-01
      5.23876883e-02 7.45734274e-02 7.21177608e-02 1.11395173e-01
      3.29792827e-01 3.46173495e-01 1.12572536e-01 6.06976412e-02
      4.39105593e-02 1.77346274e-01 2.04017967e-01 1.04617946e-01
      1.50932044e-01 2.47687340e-01 2.21412942e-01 1.10693201e-01
      8.11834484e-02 1.04950145e-01 2.13634536e-01 3.24811459e-01
      1.79483667e-01 1.22947566e-01 2.01958865e-01 2.02058464e-01
      9.64025259e-02 6.83077052e-02 8.94694626e-02 1.15825601e-01
      9.01378319e-02 1.23325475e-01 1.67005450e-01 1.23392791e-01
      1.26173496e-01 2.45571971e-01 2.80661136e-01 1.91611379e-01
      7.39864036e-02 6.18769117e-02 5.55798411e-02 7.02895150e-02
      4.48071420e-01 3.85681957e-01 6.46212101e-02 7.64226839e-02
      7.47705176e-02 1.41686991e-01 1.38235614e-01 1.37393817e-01
      1.35610253e-01 2.17896536e-01 1.39047235e-01 1.09424502e-01
      9.90388095e-02 1.05242550e-01 3.09855282e-01 2.35456064e-01
      1.18390426e-01 8.14281181e-02 7.17539787e-02 8.62161443e-02
      9.48439091e-02 7.46847242e-02 1.54386044e-01 1.83553964e-01
      1.88947126e-01 1.96732417e-01 1.53378248e-01 3.09337735e-01
      2.35926136e-01 7.31915087e-02 9.16361213e-02 1.13892727e-01
      2.08098307e-01 2.00822428e-01 1.30479962e-01 1.13828987e-01
      1.83942124e-01 1.72222748e-01 1.18530750e-01 9.21444371e-02
      1.24673456e-01 1.73796490e-01 1.34719089e-01 1.25250593e-01
      1.24674097e-01 2.46639982e-01 3.26064199e-01 1.28922418e-01
      8.65485817e-02 9.39664021e-02 3.29086274e-01 2.11484209e-01
      9.43229496e-02 1.02554083e-01 1.70528069e-01 1.90149829e-01
      1.68297008e-01 1.29428759e-01 1.32570848e-01 1.90502584e-01
      1.40940502e-01 1.19725026e-01 1.19224489e-01 2.67369419e-01
      2.44476005e-01 1.34491012e-01 1.66879877e-01 1.49198696e-01
      2.35032365e-01 2.46562690e-01 2.52600551e-01 1.99831501e-01
      1.60316527e-01 1.19356088e-01 1.02857746e-01 9.99071822e-02
      1.59810528e-01 8.89582559e-02 1.02542743e-01 9.16338339e-02
      1.59233779e-01 2.76879460e-01 2.05111519e-01 7.55043551e-02
      5.76156229e-02 6.82109520e-02 4.58665527e-02 6.38160035e-02
      9.76511389e-02 1.85135171e-01 2.77651459e-01 2.38952637e-01
      8.99964347e-02 6.77621812e-02 4.95904572e-02 1.07388683e-01
      1.29093140e-01 1.53438911e-01 2.65420496e-01 3.54721069e-01
      2.56840914e-01 1.53098360e-01 8.49417225e-02 6.90611154e-02
      7.21715689e-02 9.17981789e-02 1.00025818e-01 1.33829683e-01
      2.27931112e-01 2.05230445e-01 1.13091215e-01 7.13724419e-02
      4.81225438e-02 6.85921684e-02 4.93477546e-02 6.51520193e-02
      9.59576368e-02 1.73349038e-01 2.25123018e-01 1.85849041e-01
      1.22667953e-01 8.32609236e-02 1.23148493e-01 6.31910637e-02
      6.70613348e-02 1.39299676e-01 2.45513827e-01 2.45063141e-01
      1.80729851e-01 1.43827885e-01 1.23056136e-01 1.66150376e-01
      1.09046884e-01 9.89364162e-02 1.46621004e-01 1.51044980e-01
      1.64882451e-01 1.45339280e-01 1.30148903e-01 1.75206617e-01
      1.40216008e-01 1.22816473e-01 7.85477236e-02 8.00672397e-02
      1.02362283e-01 8.69259313e-02 9.01283026e-02 9.05499086e-02
      1.02588005e-01 2.17379883e-01 1.16244905e-01 7.67722502e-02
      1.11630052e-01 3.37724775e-01 3.40880722e-01 1.44342452e-01
      1.18749559e-01 2.05067798e-01 2.34201193e-01 1.54120684e-01
      7.71640018e-02 1.18995503e-01 1.84095591e-01 1.77435786e-01
      1.39234528e-01 1.59077749e-01 2.75337189e-01 2.94053048e-01
      2.71647781e-01 1.73312202e-01 1.21396326e-01 1.43172696e-01
      1.45800337e-01 1.18679114e-01 1.08446196e-01 1.87578201e-01
      6.18029088e-02 5.55888452e-02 8.67263749e-02 1.12777606e-01
      1.74516961e-01 2.11468935e-01 1.92443952e-01 1.10616311e-01
      6.16329424e-02 6.12529926e-02 5.72267361e-02 7.00965673e-02
      1.02172442e-01 2.91154534e-01 3.57518286e-01 1.93127245e-01
      1.21989660e-01 9.21625271e-02 1.71915501e-01 9.89928395e-02
      6.67543709e-02 7.67811015e-02 1.08998470e-01 1.28611282e-01
      1.24350436e-01 1.67653695e-01 2.00644866e-01 1.09413080e-01
      9.76857394e-02 1.03111431e-01 1.50035143e-01 1.90466970e-01
      1.39095306e-01 1.38644561e-01 1.61004886e-01 1.58921346e-01
      5.20023704e-02 4.85433824e-02 6.56916127e-02 1.22630581e-01
      2.95688510e-01 3.12844694e-01 1.53230265e-01 8.72851983e-02
      6.90183118e-02 6.49360344e-02 7.40387067e-02 1.35420039e-01
      1.98604316e-01 2.38495842e-01 2.20226228e-01 1.19854733e-01
      7.36801028e-02 5.23101464e-02 6.01725914e-02 4.27789353e-02
      4.89016101e-02 1.41513586e-01 2.76299208e-01 2.04455435e-01
      9.16884616e-02 4.29073535e-02 4.65267599e-02 5.31085245e-02
      3.85852046e-02 5.99671155e-02 8.06023628e-02 1.27159849e-01
      2.02123180e-01 1.63397342e-01 9.63267460e-02 6.60323948e-02
      9.43813622e-02 7.15140849e-02 5.01281768e-02 9.12535787e-02
      2.40393892e-01 2.71679401e-01 1.59417793e-01 1.08283244e-01
      9.12145227e-02 2.92106390e-01 2.32717469e-01 1.23566203e-01
      8.18163529e-02 6.29141033e-02 4.91924733e-02 6.10062405e-02
      1.23856083e-01 2.03020304e-01 1.64043352e-01 1.19545698e-01
      7.82042369e-02 6.20956309e-02 8.64677876e-02 8.68951678e-02
      9.33094844e-02 1.09813824e-01 1.55459955e-01 1.98294401e-01
      1.41496181e-01 8.41584876e-02 1.04862668e-01 2.71588236e-01
      1.98202640e-01 1.07602850e-01 1.21690147e-01 1.46221995e-01
      4.46563095e-01 2.74029225e-01 1.05595164e-01 6.62468895e-02
      9.84481722e-02 1.36249095e-01 9.01917592e-02 7.93474391e-02
      1.87969849e-01 1.27532095e-01 1.23716213e-01 9.39912945e-02
      1.56310812e-01 1.87697753e-01 1.80025667e-01 1.29933149e-01
      9.18652043e-02 7.71937147e-02 4.88652438e-01 2.94486463e-01
      1.12656541e-01 9.01211277e-02 7.63920322e-02 1.04091465e-01
      1.16093948e-01 1.50237083e-01 1.98209107e-01 1.35801896e-01
      1.27379134e-01 8.43571201e-02 9.55628082e-02 3.00485641e-01
      2.91869640e-01 1.24523088e-01 1.09496050e-01 1.29034922e-01
      1.06651068e-01 1.11738883e-01 1.18518077e-01 1.15821682e-01
      1.21705733e-01 1.95312887e-01 3.30635697e-01 3.36967587e-01
      1.62320584e-01 1.29064679e-01 8.50549862e-02 7.84181505e-02
      9.61351246e-02 1.92120939e-01 2.29320168e-01 1.70621023e-01
      1.81579977e-01 1.99056521e-01 2.35725999e-01 9.48747620e-02
      5.67258410e-02 1.22317329e-01 3.95279586e-01 4.02341515e-01
      1.22397006e-01 9.20542553e-02 1.63740098e-01 2.83153832e-01
      1.54817209e-01 1.20253384e-01 1.45953447e-01 2.10208580e-01
      2.20734045e-01 1.39697596e-01 1.21504053e-01 1.65864989e-01
      6.09200746e-02 5.41028194e-02 7.19463676e-02 1.00442126e-01
      2.27470025e-01 3.16221088e-01 1.93062633e-01 8.77226517e-02
      5.65596335e-02</_>
    <_>
      1.46909311e-01 8.85360837e-02 8.06314126e-02 1.17361240e-01
      2.47550398e-01 3.80329728e-01 2.93012410e-01 2.17283115e-01
      1.54779762e-01 1.77923903e-01 1.16205938e-01 1.12034768e-01
      1.18953183e-01 1.48644418e-01 2.23181620e-01 2.91777462e-01
      2.91401863e-01 2.41294652e-01 1.74392268e-01 1.34693310e-01
      1.20266154e-01 1.27981246e-01 2.01430127e-01 2.29153439e-01
      2.07160681e-01 2.12976635e-01 2.09749535e-01 8.86670053e-02
      7.00123012e-02 7.42306560e-02 9.88859087e-02 1.68944180e-01
      2.47169241e-01 2.48923659e-01 2.37245187e-01 1.61754146e-01
      1.16353780e-01 8.34944993e-02 9.11458582e-02 1.02565803e-01
      2.08304867e-01 2.81867087e-01 2.27970690e-01 1.73952594e-01
      1.40255496e-01 1.40160277e-01 9.90749374e-02 9.56256613e-02
      1.26967549e-01 2.20574617e-01 2.45000884e-01 1.97103471e-01
      1.57465830e-01 1.63646132e-01 9.21944678e-02 8.62342864e-02
      8.53857771e-02 1.13605835e-01 1.96839496e-01 2.77786702e-01
      2.13268772e-01 1.64257973e-01 1.46223709e-01 8.40229094e-02
      7.21357986e-02 8.53620321e-02 1.20383441e-01 2.86907345e-01
      2.73186207e-01 1.60828784e-01 1.22608155e-01 9.44074765e-02
      1.49498478e-01 1.56916618e-01 1.71354651e-01 1.61349371e-01
      1.83603287e-01 1.82332948e-01 1.17863975e-01 1.29145309e-01
      1.55263498e-01 1.95728689e-01 1.16292067e-01 1.03640214e-01
      1.21550754e-01 1.21861674e-01 1.15979426e-01 1.24765031e-01
      1.79205686e-01 2.42169738e-01 1.00358367e-01 5.87809123e-02
      6.21952862e-02 1.16012268e-01 1.63688213e-01 1.92398369e-01
      2.43121147e-01 3.42401624e-01 2.31877923e-01 1.00981079e-01
      8.35269690e-02 8.89546126e-02 1.18773751e-01 1.96342260e-01
      2.78409570e-01 2.23470792e-01 1.68923095e-01 1.55493081e-01
      1.51885897e-01 1.08550414e-01 8.36815834e-02 9.54653770e-02
      1.80089846e-01 2.28673339e-01 2.36951560e-01 1.87929496e-01
      1.70140326e-01 1.26193807e-01 1.23433955e-01 1.21908858e-01
      1.47366747e-01 1.86968356e-01 2.12490618e-01 1.83299765e-01
      1.69401422e-01 1.46054462e-01 9.13679600e-02 6.20084852e-02
      7.18079731e-02 1.09276302e-01 2.46794075e-01 3.59750777e-01
      2.51516551e-01 1.54660910e-01 1.01684369e-01 8.56494531e-02
      9.58982781e-02 1.10645816e-01 2.06187248e-01 3.65267277e-01
      4.03494895e-01 2.15697661e-01 1.69125587e-01 1.20128602e-01
      1.82559222e-01 1.49859607e-01 1.44836172e-01 1.80797309e-01
      2.31642887e-01 2.39265248e-01 1.70667201e-01 1.49439380e-01
      1.69969842e-01 8.63389224e-02 6.97741210e-02 6.48137331e-02
      8.24002996e-02 1.28405482e-01 1.16161369e-01 1.01320885e-01
      9.54058468e-02 8.27375501e-02 1.16764039e-01 7.88209960e-02
      6.76006228e-02 6.74392506e-02 1.12129785e-01 1.97983518e-01
      2.44086877e-01 1.77557066e-01 1.19129300e-01 2.50087172e-01
      1.58005238e-01 9.35467482e-02 1.07084021e-01 1.40600458e-01
      1.74824864e-01 1.92188069e-01 1.84478357e-01 1.60885394e-01
      1.88688338e-01 1.18336961e-01 1.06829189e-01 1.45405322e-01
      2.00170994e-01 1.96941808e-01 1.76081166e-01 1.50645539e-01
      1.54490396e-01 1.66581199e-01 1.09418333e-01 1.05287820e-01
      1.48306444e-01 2.24155784e-01 2.53573388e-01 1.93211228e-01
      1.60571590e-01 1.26273289e-01 6.27133772e-02 6.31548688e-02
      9.42226276e-02 1.52811706e-01 2.42252931e-01 3.47856611e-01
      2.84879982e-01 1.21672206e-01 6.01010770e-02 1.56257719e-01
      1.17332444e-01 1.19552173e-01 1.50101110e-01 2.26503417e-01
      2.13401139e-01 1.49737671e-01 1.42045885e-01 1.55531332e-01
      1.24467239e-01 1.03364602e-01 1.02954485e-01 1.19644091e-01
      1.70152813e-01 1.72811806e-01 1.27894118e-01 9.42229033e-02
      1.11493468e-01 1.05447620e-01 6.89532310e-02 5.07551022e-02
      8.04311186e-02 1.17913760e-01 1.88278228e-01 1.68216988e-01
      1.46428108e-01 1.17831223e-01 2.86276281e-01 1.38447255e-01
      9.37265307e-02 1.05022661e-01 1.43954992e-01 1.38065413e-01
      1.41251624e-01 1.40922308e-01 2.08721712e-01 1.60867587e-01
      1.00099236e-01 9.68956351e-02 1.24126993e-01 1.81214049e-01
      1.87116250e-01 1.51160136e-01 1.56823888e-01 2.15660214e-01
      1.56440035e-01 1.01940431e-01 1.24304421e-01 1.34317994e-01
      1.89932838e-01 2.67710537e-01 1.86216623e-01 1.27856061e-01
      1.29107714e-01 1.14018545e-01 1.00032739e-01 9.59084406e-02
      1.45185784e-01 2.38958463e-01 2.78624922e-01 2.47165918e-01
      2.04129755e-01 1.82740867e-01 1.15572959e-01 1.20255396e-01
      1.14351973e-01 1.51071966e-01 1.92904979e-01 2.19981939e-01
      1.52600288e-01 1.23939224e-01 1.13149524e-01 1.29907534e-01
      1.27799347e-01 1.21284835e-01 1.33201301e-01 1.83526441e-01
      1.85502395e-01 1.39253289e-01 1.09981380e-01 1.12611063e-01
      9.82832834e-02 9.56350788e-02 8.99447128e-02 9.65375006e-02
      1.31290108e-01 1.04355596e-01 8.58802199e-02 8.04290548e-02
      8.59638453e-02 1.07975610e-01 8.01632479e-02 8.30371603e-02
      1.23151280e-01 2.07929552e-01 1.88769117e-01 1.64879709e-01
      1.54749706e-01 1.37405917e-01 1.01868153e-01 9.28576291e-02
      1.15030505e-01 1.70319423e-01 1.89759195e-01 2.14688540e-01
      2.64791965e-01 2.09365815e-01 1.52705163e-01 1.25197053e-01
      9.86340344e-02 1.00257620e-01 1.33484244e-01 2.15205252e-01
      3.01064849e-01 2.16229871e-01 1.45002410e-01 1.10663071e-01
      9.04530883e-02 7.66069666e-02 8.44270885e-02 1.22336052e-01
      2.13947356e-01 3.15491349e-01 2.47555122e-01 2.42162824e-01
      1.51071787e-01 1.19496927e-01 1.33932814e-01 1.57339692e-01
      2.08441660e-01 2.19538301e-01 1.67962208e-01 1.20238759e-01
      9.32302624e-02 1.00220993e-01 1.76928177e-01 1.58562288e-01
      1.30005985e-01 1.42889783e-01 1.60518214e-01 1.50502086e-01
      1.05642483e-01 8.61202404e-02 1.32303521e-01 1.12733990e-01
      8.55874792e-02 6.74296096e-02 8.30863267e-02 1.10609673e-01
      1.50302768e-01 1.26933366e-01 1.06157571e-01 1.08735994e-01
      1.75303161e-01 1.60834268e-01 1.79469496e-01 1.91163346e-01
      1.74462840e-01 1.49676308e-01 1.39319882e-01 1.50815889e-01
      1.65084079e-01 1.51052311e-01 1.23857930e-01 8.65299925e-02
      1.04377031e-01 1.73312351e-01 2.55299360e-01 2.55155832e-01
      1.69672355e-01 1.24534272e-01 1.57983661e-01 1.41120344e-01
      1.33630291e-01 1.61968961e-01 2.15336621e-01 2.46423855e-01
      1.71241820e-01 1.51201770e-01 1.34189188e-01 7.56256357e-02
      6.98911473e-02 8.96958709e-02 1.01712219e-01 2.18292862e-01
      2.74795949e-01 1.73439339e-01 1.01587825e-01 8.06626603e-02
      1.27658904e-01 1.36293590e-01 1.40284210e-01 1.35489866e-01
      1.80322185e-01 1.81615710e-01 1.56064555e-01 1.29706457e-01
      1.26330346e-01 1.97609156e-01 2.13801712e-01 1.61781177e-01
      1.31690815e-01 1.13359444e-01 8.55529457e-02 6.39536455e-02
      7.57823214e-02 1.32195741e-01 1.83354512e-01 1.43209890e-01
      1.15134999e-01 1.37248263e-01 1.45358190e-01 1.36750787e-01
      1.34588182e-01 1.60794765e-01 2.02058747e-01 1.85996532e-01
      1.60247743e-01 1.36766732e-01 1.40624553e-01 1.53704882e-01
      1.58767089e-01 1.74083501e-01 1.84470490e-01 1.90491006e-01
      1.82017416e-01 1.93336070e-01 1.15390852e-01 7.84360394e-02
      9.62758958e-02 1.33736953e-01 1.27703905e-01 1.36210263e-01
      1.54270172e-01 1.60044447e-01 1.26758292e-01 9.47973654e-02
      1.25965908e-01 2.61595905e-01 3.29600245e-01 2.61474252e-01
      1.86220437e-01 1.47557676e-01 8.65168646e-02 7.92536139e-02
      7.65104517e-02 9.16539803e-02 1.51223138e-01 2.92146415e-01
      3.97883981e-01 2.65893102e-01 1.29490405e-01 1.97909355e-01
      1.42077148e-01 1.13947153e-01 9.59578678e-02 9.10234451e-02
      1.78924307e-01 2.69165426e-01 2.83435076e-01 2.43911922e-01
      3.00652474e-01 2.42663816e-01 1.65309817e-01 1.49417788e-01
      1.88105211e-01 1.58943027e-01 1.46730959e-01 1.64854020e-01
      2.18806162e-01 3.49786222e-01 2.51996189e-01 1.96633905e-01
      1.23875141e-01 1.02075867e-01 8.50860924e-02 9.39824209e-02
      1.67598501e-01 2.81736046e-01 2.49874026e-01 1.40701219e-01
      1.14761814e-01 1.34661645e-01 1.51945353e-01 1.28599167e-01
      1.76743641e-01 2.75688350e-01 3.27770501e-01 2.47193769e-01
      1.95750296e-01 1.56444982e-01 1.05690077e-01 9.52646881e-02
      1.05569363e-01 1.17904812e-01 1.22018196e-01 1.97913110e-01
      2.25831524e-01 1.95266277e-01 1.61190838e-01 1.50445610e-01
      2.19845623e-01 2.46321186e-01 1.62423626e-01 1.44115552e-01
      1.44510299e-01</_>
    <_>
      1.35676920e-01 1.09731831e-01 9.47894379e-02 9.06278640e-02
      1.28821194e-01 1.51256651e-01 1.48114383e-01 1.38978109e-01
      1.23354867e-01 2.27399930e-01 2.41638750e-01 1.67177379e-01
      1.24044582e-01 9.08587351e-02 7.90626109e-02 6.86605424e-02
      8.37120265e-02 1.53644815e-01 2.23238587e-01 1.91091850e-01
      1.23695470e-01 1.00694813e-01 7.81252235e-02 7.61623308e-02
      7.71789253e-02 8.69432092e-02 1.49124473e-01 1.93420410e-01
      1.42155409e-01 1.08893178e-01 1.19731374e-01 1.26738936e-01
      1.34676561e-01 1.45773649e-01 1.96668342e-01 2.21170366e-01
      1.85530275e-01 1.63337305e-01 1.42161563e-01 1.61684498e-01
      1.69049814e-01 1.49479061e-01 1.24787331e-01 1.26828760e-01
      1.54076025e-01 1.63223118e-01 1.30686179e-01 7.88305625e-02
      7.06980899e-02 1.05744176e-01 1.28963843e-01 1.33498549e-01
      1.57917783e-01 1.76118076e-01 1.36533991e-01 8.65002424e-02
      6.38132989e-02 8.32286179e-02 1.10306293e-01 1.44382328e-01
      1.24491148e-01 1.34926677e-01 1.53730363e-01 9.31001902e-02
      8.50685462e-02 1.05374828e-01 1.53294578e-01 3.10376376e-01
      3.54264796e-01 1.78645954e-01 1.19239926e-01 9.64760408e-02
      3.41879308e-01 1.97363004e-01 1.25437766e-01 1.08707249e-01
      1.67585269e-01 1.57131255e-01 1.32047400e-01 1.30150035e-01
      2.07014456e-01 3.25418442e-01 2.56567657e-01 1.78028300e-01
      1.19525589e-01 1.06367171e-01 1.08858421e-01 1.09895781e-01
      1.55086204e-01 2.30053678e-01 3.92354578e-01 1.98911548e-01
      1.22674525e-01 8.05812478e-02 8.00467804e-02 9.06687528e-02
      1.12046361e-01 1.97878018e-01 3.62316757e-01 2.25726739e-01
      1.30849376e-01 9.96450856e-02 9.28630382e-02 1.08132772e-01
      8.64068195e-02 1.15701228e-01 2.05936000e-01 2.81284422e-01
      2.38967136e-01 1.49817094e-01 1.17434300e-01 8.02013427e-02
      5.60284890e-02 7.89975673e-02 9.77114514e-02 9.61960182e-02
      1.56406447e-01 2.78676778e-01 2.17313722e-01 1.27869561e-01
      9.25691798e-02 9.74641964e-02 1.10471942e-01 1.12254396e-01
      1.31388366e-01 1.63216010e-01 1.45302936e-01 1.40827641e-01
      1.09404355e-01 1.37434274e-01 2.05055237e-01 2.79871047e-01
      1.94524556e-01 1.31460488e-01 1.25756428e-01 1.80034354e-01
      2.86550283e-01 3.49575311e-01 3.68627638e-01 2.65395314e-01
      1.51562080e-01 9.22652259e-02 6.83109462e-02 7.89232254e-02
      2.50215501e-01 1.77191436e-01 1.53916508e-01 1.45439327e-01
      1.70857102e-01 1.96073696e-01 1.76334798e-01 1.82980835e-01
      2.13441789e-01 1.66688994e-01 1.30365491e-01 1.07311308e-01
      1.06792741e-01 1.18586726e-01 1.28840715e-01 1.26168251e-01
      1.27906829e-01 1.61046982e-01 7.75758699e-02 7.62874261e-02
      8.62069726e-02 1.68873012e-01 2.37917915e-01 1.95521027e-01
      1.08608685e-01 8.52171555e-02 8.39674100e-02 1.05878800e-01
      8.37678015e-02 1.06548972e-01 1.77840546e-01 2.52021164e-01
      2.39556417e-01 1.92401946e-01 1.45029381e-01 1.20783076e-01
      1.22173697e-01 1.02681525e-01 8.70628878e-02 1.01223923e-01
      1.63517341e-01 2.72805750e-01 2.75301397e-01 1.96030363e-01
      1.56103477e-01 1.19510196e-01 8.06619003e-02 9.43321958e-02
      1.30736813e-01 2.36603498e-01 3.07387292e-01 2.02303872e-01
      1.28287420e-01 1.13090366e-01 2.15835482e-01 2.25386575e-01
      2.04119295e-01 1.75533712e-01 1.67615995e-01 1.65456399e-01
      1.38917983e-01 1.46529302e-01 1.79980800e-01 1.89608380e-01
      1.33336961e-01 1.11352429e-01 1.23206951e-01 1.41907483e-01
      1.62199736e-01 1.39322981e-01 1.48419082e-01 1.77036539e-01
      1.35864511e-01 1.10380508e-01 9.00271088e-02 9.60820317e-02
      1.31538346e-01 1.38497978e-01 1.15314089e-01 1.23400412e-01
      1.40346333e-01 1.09236546e-01 7.81382322e-02 7.21074492e-02
      1.02488302e-01 1.65382653e-01 1.83207318e-01 1.31757393e-01
      1.01862647e-01 1.15523987e-01 1.54046774e-01 9.28545222e-02
      7.24620968e-02 1.06893457e-01 1.90303266e-01 2.27777839e-01
      1.61936820e-01 1.43431664e-01 1.40952319e-01 2.05145627e-01
      1.47885904e-01 1.14587449e-01 1.25008658e-01 1.70607492e-01
      1.82689950e-01 1.37833312e-01 1.32450193e-01 1.61863178e-01
      1.33311838e-01 1.28722936e-01 1.09233357e-01 1.31594434e-01
      2.37441048e-01 3.07248294e-01 2.30816960e-01 1.26866847e-01
      1.01272188e-01 1.56728968e-01 1.48252398e-01 1.38367131e-01
      1.30724907e-01 1.41119301e-01 1.23452470e-01 1.03294469e-01
      9.88402143e-02 1.32043511e-01 1.91235155e-01 1.72465548e-01
      1.16555668e-01 1.03008531e-01 1.03482485e-01 1.02978103e-01
      1.07797816e-01 1.28455341e-01 1.54207259e-01 1.08877532e-01
      1.10328570e-01 9.97737646e-02 1.02790430e-01 1.11592770e-01
      1.17209017e-01 1.18196048e-01 1.17402114e-01 1.17086090e-01
      1.31648153e-01 1.12262212e-01 1.10092305e-01 1.20614812e-01
      1.81480676e-01 2.50118911e-01 1.97378099e-01 1.38219699e-01
      1.34524763e-01 2.11949795e-01 1.13673627e-01 9.15606990e-02
      8.55444893e-02 8.51477608e-02 1.59123302e-01 2.27644861e-01
      2.06510946e-01 2.04603210e-01 2.54151613e-01 1.16913438e-01
      8.89837295e-02 9.92224887e-02 1.22009113e-01 1.38974220e-01
      1.32934719e-01 1.54673249e-01 2.58953303e-01 1.63001597e-01
      1.49574474e-01 9.81863439e-02 9.87016484e-02 2.02974096e-01
      2.85101682e-01 2.14783922e-01 1.25329658e-01 1.10988736e-01
      2.32938871e-01 1.85026959e-01 1.39440373e-01 1.12491481e-01
      1.24766126e-01 1.20904505e-01 1.13170981e-01 1.45644739e-01
      2.06825033e-01 2.54893452e-01 1.78802907e-01 1.02291994e-01
      9.57240835e-02 1.36975795e-01 1.45355612e-01 1.48810983e-01
      1.73929304e-01 2.24408820e-01 1.57913700e-01 1.43208131e-01
      1.04876898e-01 1.04686551e-01 1.12921074e-01 1.15192026e-01
      1.11533530e-01 1.32126540e-01 1.59064770e-01 1.61936179e-01
      1.15642324e-01 8.96617398e-02 1.05907813e-01 1.40446857e-01
      1.49450034e-01 1.62123844e-01 2.05462888e-01 1.95975646e-01
      1.66688964e-01 1.52381048e-01 1.17903195e-01 1.38716727e-01
      1.71315819e-01 1.71391249e-01 1.88938662e-01 2.15652093e-01
      1.87328562e-01 1.05596341e-01 1.25475034e-01 1.63545877e-01
      1.89906880e-01 1.68958545e-01 2.39947677e-01 2.16022104e-01
      1.49922431e-01 1.12839192e-01 1.10215038e-01 1.29642874e-01
      1.18949465e-01 1.18899159e-01 1.90576643e-01 2.51861513e-01
      2.36850396e-01 1.74607322e-01 1.07566163e-01 2.60629684e-01
      1.90281063e-01 1.24850191e-01 1.11393027e-01 1.22299574e-01
      1.36012495e-01 1.47696331e-01 1.61314651e-01 2.39030927e-01
      1.96130693e-01 1.60537288e-01 1.17726780e-01 1.07074954e-01
      1.58151835e-01 2.09941298e-01 2.13803798e-01 2.17591345e-01
      2.10839123e-01 1.75252587e-01 1.23288177e-01 1.07617438e-01
      1.06759749e-01 1.41315907e-01 1.93554640e-01 1.66696802e-01
      1.76470086e-01 1.92012236e-01 2.41583720e-01 1.58200562e-01
      9.81746539e-02 9.78632197e-02 1.19693235e-01 1.04616486e-01
      1.00823402e-01 1.19475625e-01 1.86887622e-01 1.89612478e-01
      1.47836819e-01 1.06633998e-01 7.70608708e-02 7.98502043e-02
      1.17294103e-01 1.55851409e-01 1.96380094e-01 2.05347419e-01
      1.56023815e-01 2.13961840e-01 1.54178321e-01 1.14071026e-01
      1.39020592e-01 1.74804211e-01 1.51496381e-01 1.34651572e-01
      1.30341962e-01 1.68745011e-01 1.20397046e-01 1.25004902e-01
      1.57027945e-01 2.08282024e-01 2.18349800e-01 1.84982657e-01
      1.47135124e-01 1.44776553e-01 1.66986167e-01 9.88237485e-02
      7.32020363e-02 6.06537163e-02 6.87739998e-02 1.07894272e-01
      1.46401703e-01 2.25917369e-01 2.41197363e-01 2.96744764e-01
      2.05723405e-01 1.13051414e-01 9.13406089e-02 1.04266323e-01
      1.39717743e-01 1.39850527e-01 1.54340655e-01 1.92771032e-01
      3.43651474e-01 2.20486268e-01 1.26111269e-01 8.31462964e-02
      6.56201243e-02 7.55249485e-02 1.19619936e-01 1.72932744e-01
      2.80603051e-01 2.37970471e-01 2.11008906e-01 1.49444327e-01
      1.21405698e-01 1.14001811e-01 9.65881720e-02 1.05411135e-01
      1.49522513e-01 2.38705426e-01 4.25144076e-01 1.55429438e-01
      6.96229711e-02 4.87784222e-02 7.70161897e-02 1.06504977e-01
      1.34794518e-01 1.84030533e-01 3.25115085e-01 2.75795370e-01
      1.04220852e-01 7.24085793e-02 8.86873603e-02 1.21814705e-01
      1.73871025e-01 1.91509515e-01 2.26225242e-01 2.62999445e-01
      2.92518705e-01 1.25395209e-01 8.67315978e-02 9.62439477e-02
      1.63511217e-01 2.14827999e-01 2.24702418e-01 1.63706720e-01
      1.98732987e-01</_>
    <_>
      4.35824022e-02 3.19170207e-02 9.40534696e-02 1.41002312e-01
      1.56373754e-01 8.91690627e-02 2.68542860e-02 3.38852741e-02
      1.74736250e-02 1.75328061e-01 1.85534403e-01 1.60395056e-01
      8.76340717e-02 9.52640697e-02 8.28937441e-02 4.80477512e-02
      6.63913488e-02 9.42460299e-02 1.17337376e-01 1.12050384e-01
      1.56804219e-01 2.92482913e-01 4.76684749e-01 3.69147360e-01
      2.14316636e-01 1.30659595e-01 9.83331501e-02 1.08382501e-01
      8.40958301e-03 1.23203091e-01 1.37115851e-01 4.34238136e-01
      4.14635211e-01 1.09194882e-01 1.23045728e-01 1.90222748e-02
      1.89626440e-01 1.84928032e-03 1.30937353e-01 6.03396408e-02
      1.96864933e-01 1.93793088e-01 3.22621875e-02 9.01737064e-02 0.
      8.95919353e-02 0. 6.63921162e-02 3.13445963e-02 2.65980154e-01
      2.66387105e-01 3.63015942e-02 7.73406476e-02 3.98085872e-03
      1.95632234e-01 6.10688282e-03 1.42525688e-01 8.95782635e-02
      2.09892675e-01 2.08307937e-01 5.11127040e-02 1.00143969e-01
      4.74979822e-03 1.50903389e-01 6.10688282e-03 9.55327079e-02
      5.37699834e-02 2.68378526e-01 2.58170873e-01 3.43170576e-02
      9.12925228e-02 1.35708507e-03 6.75958991e-02 1.09505169e-01
      1.38454407e-01 1.78684592e-01 2.38185287e-01 1.94927692e-01
      1.75860941e-01 1.07964367e-01 7.57379308e-02 6.35529980e-02
      2.47787777e-02 9.86459553e-02 2.44278327e-01 2.34315485e-01
      1.54978946e-01 2.15390354e-01 2.68712610e-01 1.04834683e-01
      9.39187482e-02 1.76538881e-02 8.73077810e-02 7.86383078e-02
      2.04223126e-01 1.94561109e-01 6.88174143e-02 7.83331022e-02
      2.63417531e-02 5.66706508e-02 1.85695477e-03 4.96813059e-02
      2.38051917e-02 1.10628717e-01 1.09796211e-01 2.39643417e-02
      5.23568280e-02 6.18984923e-04 5.15291840e-02 2.99956504e-04
      5.33526726e-02 2.42456123e-02 1.14912622e-01 1.14624202e-01
      2.28690207e-02 4.94877324e-02 1.49978208e-03 5.79842180e-02
      3.09101748e-03 6.93229884e-02 4.76956815e-02 1.25407383e-01
      1.21301919e-01 3.59122157e-02 5.43808043e-02 5.65022405e-04
      6.86600283e-02 2.26009008e-03 6.23968393e-02 4.75854389e-02
      1.67265341e-01 1.64157182e-01 2.80191023e-02 3.11952047e-02
      3.60434898e-03 9.84476730e-02 7.05157295e-02 6.89784288e-02
      5.28390855e-02 9.52086672e-02 1.33669719e-01 2.68974900e-01
      5.07273912e-01 2.06595346e-01 1.63518548e-01 8.67660269e-02
      9.55872461e-02 1.16280593e-01 1.40221968e-01 2.05159619e-01
      3.99113119e-01 3.58322829e-01 2.49972433e-01 1.28602654e-01
      7.29379579e-02 8.64567086e-02 8.02122951e-02 8.70560482e-02
      1.29751444e-01 2.97697753e-01 3.43638182e-01 1.90788209e-01
      1.47830278e-01 2.83122398e-02 2.51840297e-02 1.73330344e-02
      3.96289378e-02 3.26881744e-02 1.25587443e-02 3.37598883e-02
      1.46607652e-01 2.63803959e-01 1.28516600e-01 7.87680075e-02
      2.63794214e-02 1.01290040e-01 1.08241461e-01 2.68855114e-02
      7.74103105e-02 2.54267305e-01 1.30322114e-01 7.69635364e-02
      1.29268169e-01 1.31394207e-01 1.50060967e-01 1.12332821e-01
      3.80009785e-02 5.39304651e-02 6.77898154e-02 1.79458752e-01
      1.89092264e-01 1.59461170e-01 1.35193944e-01 2.73900747e-01
      2.47257859e-01 2.11176842e-01 1.70416906e-01 1.10016935e-01
      7.75239989e-02 8.62366930e-02 1.53319821e-01 2.17936620e-01
      2.10101560e-01 2.08641186e-01 1.52948081e-01 9.39257815e-02
      4.75401320e-02 1.89686611e-01 1.49869129e-01 1.18336588e-01
      1.37927875e-01 1.37647554e-01 2.08301753e-01 2.15051442e-01
      2.05655679e-01 2.10872859e-01 9.11132395e-02 8.35120678e-02
      1.18543088e-01 1.97138280e-01 3.58869672e-01 2.34864831e-01
      1.71202615e-01 1.83573589e-01 1.02986254e-01 1.50969982e-01
      1.56487346e-01 1.16050906e-01 1.10217102e-01 2.07146093e-01
      1.24110080e-01 1.03269264e-01 1.15428291e-01 7.55993873e-02
      2.48647034e-01 3.07468235e-01 1.91765919e-01 9.81257930e-02
      1.21727720e-01 3.25569868e-01 2.67564803e-01 1.25642821e-01
      1.37274846e-01 1.66562974e-01 1.14368148e-01 1.22241557e-01
      1.83185399e-01 2.02790454e-01 1.38454720e-01 7.38222301e-02
      7.09657893e-02 7.95920044e-02 4.27196547e-02 4.30317037e-02
      1.34142622e-01 3.11694801e-01 3.81432116e-01 1.66617736e-01
      4.06267010e-02 2.29589529e-02 8.01943149e-03 1.29160255e-01
      1.13492168e-01 1.09786488e-01 1.80164754e-01 2.35305548e-01
      1.96639538e-01 2.26216182e-01 1.56110510e-01 9.20164734e-02
      1.14661194e-01 1.01762414e-01 1.10055171e-01 1.34228885e-01
      1.71314567e-01 1.88448474e-01 2.11208165e-01 1.73569024e-01
      1.47751287e-01 2.08554953e-01 1.40958592e-01 1.02857567e-01
      1.57333046e-01 2.39405170e-01 2.32286319e-01 2.00544685e-01
      2.10318074e-01 1.58327430e-01 1.29458755e-01 6.81516603e-02
      1.43336803e-01 1.80048957e-01 1.70529172e-01 8.91074017e-02
      6.09149709e-02 1.01390354e-01 5.60482293e-02 2.11900815e-01
      1.01174287e-01 5.39353900e-02 5.14815971e-02 1.96235254e-01
      4.32721674e-01 2.50542849e-01 1.47739157e-01 1.19102120e-01
      1.29486665e-01 3.79810631e-02 5.65144084e-02 1.05173968e-01
      2.07017943e-01 3.65075946e-01 2.92471141e-01 2.85936177e-01
      2.24485710e-01 3.82393673e-02 2.60857050e-03 4.40773852e-02
      8.91456828e-02 3.22953790e-01 1.64310724e-01 2.07287297e-02
      2.57226676e-02 6.85297512e-03 9.98450592e-02 7.21851289e-02
      1.09101623e-01 1.56856045e-01 2.27960110e-01 2.89521515e-01
      2.42192104e-01 1.44487336e-01 1.05751462e-01 1.26190022e-01
      8.59087259e-02 1.11436434e-01 1.26975954e-01 2.04632476e-01
      2.68509865e-01 2.41318777e-01 1.86256289e-01 1.47638947e-01
      7.76940584e-02 4.19259518e-02 1.17301047e-01 3.44041795e-01
      5.51441014e-01 3.27745736e-01 1.39092669e-01 9.77172032e-02
      7.06288666e-02 8.77352506e-02 3.84713127e-03 5.42811416e-02
      1.86884720e-02 5.95819280e-02 6.00944571e-02 1.53961983e-02
      3.95883396e-02 9.15472221e-04 5.23544885e-02 9.61122382e-03
      6.25742376e-02 5.26802205e-02 8.93149301e-02 8.76489803e-02
      2.99093984e-02 3.91698554e-02 8.51721782e-03 9.96958092e-02
      8.81531537e-02 1.06303811e-01 1.65755510e-01 3.98841977e-01
      3.51192266e-01 1.54853195e-01 1.03220649e-01 5.79239503e-02
      7.12178573e-02 1.65962856e-02 6.52561262e-02 8.75310004e-02
