<?xml version="1.0"?>
<opencv_storage>
<opencv_ml_svm>
  <format>3</format>
  <svmType>C_SVC</svmType>
  <kernel>
    <type>LINEAR</type></kernel>
  <C>1.1000000000000001e+00</C>
  <term_criteria><iterations>10000</iterations></term_criteria>
  <var_count>513</var_count>
  <class_count>2</class_count>
  <class_labels type_id="opencv-matrix">
    <rows>2</rows>
    <cols>1</cols>
    <dt>i</dt>
    <data>
      -1 1</data></class_labels>
  <sv_total>1</sv_total>
  <support_vectors>
    <_>
      3.74567181e-01 1.33000076e-01 -1.25823274e-01 -2.48444840e-01
      -3.63456309e-01 -1.93795487e-01 -2.94135183e-01 -1.69294789e-01
      2.32661963e-01 3.64940256e-01 1.17727712e-01 -1.48641929e-01
      -7.78138191e-02 1.00479620e-02 -1.35311648e-01 -6.28181919e-02
      2.72783607e-01 4.91655946e-01 1.05694346e-01 -6.93752468e-02
      -2.16242686e-01 -2.40297437e-01 1.05438381e-01 1.91168383e-01
      -2.89978802e-01 -2.25817963e-01 -9.76577867e-03 1.54544681e-01
      1.56242162e-01 2.20799372e-01 3.24984789e-01 1.68436006e-01
      -1.36845410e-01 -2.95007408e-01 -4.43168491e-01 -4.76128668e-01
      7.55745918e-02 3.84752512e-01 1.88110590e-01 -6.87191337e-02
      -2.89486289e-01 -9.03590322e-02 -1.21840477e-01 8.35207924e-02
      9.38431770e-02 6.48785651e-01 4.23848391e-01 -3.81762609e-02
      -2.03561828e-01 -2.87617475e-01 -4.17417765e-01 -9.36183259e-02
      -3.99860030e-04 3.92123222e-01 3.84824760e-02 5.84691167e-01
      4.16563421e-01 2.29164332e-01 -1.23231998e-02 -3.21438015e-01
      -4.08787094e-03 8.22193474e-02 1.18153077e-02 2.02572554e-01
      7.43534863e-02 5.34970034e-03 2.40110382e-02 -1.32134810e-01
      -2.42203563e-01 -1.72039732e-01 -5.93170375e-02 2.15456575e-01
      1.74504995e-01 -1.12073071e-01 -2.92047173e-01 -2.42297016e-02
      2.24792451e-01 -1.24597877e-01 -1.02633074e-01 -3.84482443e-02
      -6.66235685e-02 2.52330657e-02 -4.90081429e-01 -6.32642865e-01
      -4.83132094e-01 8.21400210e-02 2.42045611e-01 6.96029812e-02
      -4.95297700e-01 -5.09056687e-01 -2.98150241e-01 -4.23929125e-01
      -3.53301197e-01 -5.76744795e-01 -6.72091722e-01 1.98546976e-01
      8.43684301e-02 -4.18060981e-02 -2.49947876e-01 4.00494218e-01
      1.95765138e-01 -7.99960718e-02 -4.19379592e-01 -2.41487771e-01
      2.87531734e-01 -1.75112516e-01 -1.17600471e-01 1.65729418e-01
      7.10661471e-01 6.91636026e-01 5.43174803e-01 1.93413988e-01
      1.89884096e-01 4.59523350e-02 3.18495296e-02 2.03923523e-01
      4.68793780e-01 -8.97265226e-03 -9.44048911e-03 3.02858800e-01
      2.77288496e-01 4.11228418e-01 1.15035504e-01 -1.16856769e-02
      1.55655062e-02 3.24405432e-01 -8.77456143e-02 -2.78758734e-01
      2.98816245e-03 -4.75529907e-03 -3.15432101e-02 -6.22398928e-02
      1.07217014e-01 4.76052463e-01 3.82168114e-01 -1.60388187e-01
      -4.43151891e-01 -6.07756436e-01 -5.54222643e-01 2.24912316e-02
      1.47199184e-01 -3.92940462e-01 -5.01342535e-01 -8.13752264e-02
      -2.52466023e-01 -5.00292361e-01 -4.10828948e-01 -5.21475852e-01
      -1.91627331e-02 2.29037534e-02 -1.16021857e-01 -3.77178997e-01
      -3.92584532e-01 -4.65195656e-01 -2.67821312e-01 -4.59534079e-02
      -3.50244969e-01 -4.49941635e-01 -4.43901904e-02 2.88312286e-01
      1.96286768e-01 -3.76207456e-02 -1.62342876e-01 3.85578908e-02
      2.31318191e-01 -3.97376269e-01 -4.09217894e-01 -6.52884319e-02
      7.34634548e-02 1.02203950e-01 -7.72115588e-02 -2.11285159e-01
      2.73345679e-01 6.23034239e-01 4.90821630e-01 4.86125737e-01
      5.33275604e-02 -2.78803736e-01 -2.23359674e-01 -3.04233849e-01
      -2.82557070e-01 -2.46070907e-01 -1.46690339e-01 -1.22347616e-01
      3.21076989e-01 2.42383376e-01 -2.20656574e-01 -1.66120037e-01
      4.38512452e-02 -3.49509157e-02 4.48001660e-02 3.61574106e-02
      1.65951774e-01 2.23963797e-01 -1.34019494e-01 -1.44056141e-01
      7.89827108e-02 3.82247150e-01 9.19118673e-02 3.42765488e-02
      -2.26294756e-01 -6.70922995e-01 -5.31114221e-01 -2.38998011e-01
      -3.03935111e-01 6.11372516e-02 4.07031953e-01 3.00149351e-01
      -1.69321224e-01 -7.98942000e-02 -3.31980169e-01 -6.27436340e-02
      -3.56495202e-01 -3.72612536e-01 -1.16697708e-02 1.95009768e-01
      -5.07306993e-01 -2.16364220e-01 9.73002762e-02 -1.42411098e-01
      -1.06347077e-01 -4.41015325e-02 -3.62744212e-01 -4.42975670e-01
      -3.18458319e-01 -3.90749812e-01 -3.71752173e-01 1.86339766e-02
      1.87972248e-01 9.67606455e-02 1.88899249e-01 -1.36117488e-01
      -2.81925976e-01 -1.67162105e-01 -1.15988098e-01 1.30002096e-01
      3.65841359e-01 3.74138862e-01 6.36175573e-01 6.24986649e-01
      6.51734173e-02 -1.86602678e-03 4.19614553e-01 -7.90924907e-01
      -4.45322156e-01 -2.23478228e-01 -2.93039382e-01 3.80316526e-02
      1.18310206e-01 7.08475485e-02 1.03919521e-01 9.51473117e-02
      1.45893514e-01 -2.68908083e-01 -2.39900537e-02 6.08254410e-02
      -1.36261269e-01 -2.26352423e-01 -7.08420668e-03 3.00446182e-01
      4.74055260e-01 8.12530369e-02 1.90126240e-01 9.40534323e-02
      -2.38800988e-01 3.53430696e-02 -1.97611656e-02 -2.62274832e-01
      1.23055570e-03 5.94717227e-02 7.57859694e-03 -1.32283038e-02
      -2.19220631e-02 -1.87928841e-01 2.71487199e-02 -5.70458956e-02
      -1.09680869e-01 1.37225628e-01 3.96698453e-02 -7.09406212e-02
      3.65956426e-02 -1.99276432e-01 -6.90371692e-02 2.16372237e-01
      -2.16044523e-02 -6.24783874e-01 -4.94319856e-01 -3.97243470e-01
      1.58669308e-01 -2.28109494e-01 -2.59264678e-01 -1.73238605e-01
      3.31969827e-01 3.34512174e-01 -1.77931517e-01 -2.16732949e-01
      -2.48356491e-01 1.04430363e-01 3.69479768e-02 -1.45975828e-01
      -3.36608231e-01 5.95034771e-02 1.73901141e-01 -3.08813483e-01
      -2.24474519e-01 -8.82905126e-02 2.84225136e-01 -2.15399683e-01
      -3.62390161e-01 -3.68349195e-01 -1.26177073e-01 -1.79904833e-01
      -2.81366318e-01 3.59924920e-02 5.95697403e-01 -2.98242033e-01
      -7.87892044e-02 1.17430039e-01 1.34606972e-01 2.48085231e-01
      1.61844105e-01 -1.15013920e-01 1.36548430e-01 1.37440458e-01
      2.60090560e-01 1.76935658e-01 1.44454435e-01 2.05105245e-01
      1.05372034e-01 -7.59419978e-01 -5.28242469e-01 1.98710337e-01
      2.22125232e-01 2.14422032e-01 2.18541846e-01 2.05656603e-01
      5.44517115e-03 1.92622632e-01 -1.22011878e-01 -2.18834907e-01
      3.42084840e-02 3.72285485e-01 1.54657871e-01 -2.35635802e-01
      -2.40378864e-02 -1.73206225e-01 -1.30057871e-01 6.10950515e-02
      -1.49761707e-01 -1.28041968e-01 1.60816714e-01 -3.10177803e-01
      1.05777420e-01 3.32222581e-01 2.52021581e-01 7.46391565e-02
      1.88113794e-01 -1.81539640e-01 -6.18855506e-02 -5.06763868e-02
      2.66283005e-01 -1.78592317e-02 8.82150754e-02 -1.25110716e-01
      1.03006326e-01 1.84577465e-01 -2.72392422e-01 -2.45003805e-01
      2.34278329e-02 -4.54353154e-01 -7.80218363e-01 -4.32302535e-01
      -3.32221031e-01 2.94256862e-02 1.09480113e-01 -1.79119363e-01
      7.20096081e-02 3.16003144e-01 -4.19747263e-01 -4.26174939e-01
      5.18124271e-03 7.09541561e-03 -1.72429770e-01 2.80719642e-02
      -1.83634445e-01 1.73799649e-01 1.52412146e-01 -6.17920011e-02
      2.23825604e-01 2.10489735e-01 5.06826222e-01 5.87668955e-01
      -7.38970578e-01 -1.13455439e+00 -5.51201701e-01 -1.06684096e-01
      -4.06112760e-01 2.20539376e-01 4.02535766e-01 4.32755172e-01
      5.23189008e-01 1.29655600e-01 -2.83970833e-01 -1.22005351e-01
      -2.76186526e-01 -1.03818201e-01 1.99040815e-01 2.25634083e-01
      3.51268232e-01 6.55785680e-01 6.29664421e-01 2.83414811e-01
      9.26785264e-03 -3.52588654e-01 1.75628200e-01 -3.91833782e-01
      7.94412494e-02 2.87878722e-01 3.08066279e-01 4.80435602e-02
      -1.86339751e-01 -5.89407325e-01 -4.69626971e-02 4.50724810e-01
      1.18540861e-01 -2.92392336e-02 5.38269989e-02 -6.12070039e-02
      -7.81661570e-02 -1.23965755e-01 1.63984045e-01 4.44158345e-01
      -8.79384279e-01 -2.97155470e-01 -1.05208255e-01 2.14063227e-02
      1.53729161e-02 -9.63934585e-02 -2.32854724e-01 9.50581282e-02
      -2.48862375e-02 -1.80807352e-01 7.46831074e-02 7.64069036e-02
      6.36022165e-02 6.75402582e-02 -2.65819222e-01 -1.85214445e-01
      4.50173393e-02 1.48840114e-01 1.91879943e-01 5.56301586e-02
      9.55033004e-02 2.34131888e-01 4.25716937e-01 9.59039629e-02
      -1.59877196e-01 -4.06654596e-01 -6.51583970e-02 3.87555242e-01
      5.61635137e-01 5.58806956e-01 2.86492676e-01 5.18046141e-01
      -9.62770730e-02 -4.00264740e-01 -2.11958826e-01 -3.80603939e-01
      -7.76060343e-01 2.92705204e-02 3.33278589e-02 3.74867655e-02
      1.04743332e-01 -6.80130050e-02 -1.52026504e-01 -3.69733572e-01
      -7.05710590e-01 5.58621995e-02 6.68660253e-02 3.50188017e-02
      -6.93629682e-02 -7.87578151e-02 3.15116823e-01 2.27911100e-01
      3.06670934e-01 3.84069055e-01 -2.45156437e-01 2.85705142e-02
      6.37063533e-02 2.44727656e-01 2.12107357e-02 -1.17243916e-01
      -7.18270764e-02 -7.49930888e-02 -1.23644909e-02 1.97246447e-01
      2.50806332e-01 3.02908998e-02 2.14901250e-02 1.68584988e-01
      3.15135062e-01 -1.64643064e-01 -1.59809530e-01 -7.27125257e-02
      -4.55355830e-02 2.00702474e-01 1.60445482e-01 1.49018541e-01
      6.15502428e-03 -2.71453023e-01 -4.59582984e-01 -2.23317355e-01
      -1.00793742e-01</_></support_vectors>
  <uncompressed_sv_total>96</uncompressed_sv_total>
  <uncompressed_support_vectors>
    <_>
      5.36298603e-02 4.66275141e-02 7.19630420e-02 1.17698781e-01
      2.52574801e-01 3.44667912e-01 1.66694611e-01 8.33540633e-02
      5.10618836e-02 1.75122678e-01 1.28793195e-01 1.42238244e-01
      1.97546095e-01 2.71666348e-01 2.99457937e-01 1.87199146e-01
      1.62101671e-01 1.66501343e-01 1.87732011e-01 1.86155170e-01
      1.30505741e-01 1.37410879e-01 2.01716170e-01 2.33983278e-01
      1.60984904e-01 1.45577580e-01 1.66664138e-01 2.26631075e-01
      1.83361560e-01 1.32268399e-01 1.18873961e-01 1.35703459e-01
      1.43168971e-01 1.15669116e-01 1.25105038e-01 1.75974354e-01
      1.98665112e-01 1.48379430e-01 1.22597598e-01 1.26253083e-01
      1.35078639e-01 1.17587134e-01 1.10221714e-01 1.29233167e-01
      1.52474344e-01 2.20835790e-01 1.84631839e-01 1.62885889e-01
      2.04800591e-01 2.21999899e-01 2.14925781e-01 1.53617293e-01
      1.51449457e-01 1.90058962e-01 1.97145537e-01 1.51465908e-01
      1.36525705e-01 1.53329328e-01 1.98596492e-01 1.70020774e-01
      1.35399848e-01 1.61923870e-01 1.67656764e-01 2.11055398e-01
      1.97033599e-01 1.83662698e-01 1.83133408e-01 1.83553934e-01
      1.53655797e-01 1.16205677e-01 1.07592538e-01 1.45343438e-01
      1.23166822e-01 1.20924227e-01 1.09704420e-01 1.38406932e-01
      1.71123296e-01 1.95685506e-01 1.52250409e-01 1.17321648e-01
      1.03012733e-01 3.87837440e-01 3.13936353e-01 1.99497655e-01
      1.51396155e-01 1.53168082e-01 1.07713416e-01 1.32339284e-01
      2.41330370e-01 3.23251665e-01 1.76678404e-01 1.79912716e-01
      1.34790763e-01 1.24979466e-01 1.02871507e-01 8.62786323e-02
      8.63137990e-02 9.35874656e-02 1.29616499e-01 2.08223894e-01
      1.54835522e-01 1.31160036e-01 1.26197025e-01 1.42101809e-01
      1.50250912e-01 1.47114694e-01 1.46836042e-01 1.75819084e-01
      1.66669607e-01 1.46394804e-01 1.29909709e-01 1.50018781e-01
      1.57889754e-01 1.43404946e-01 1.26926258e-01 1.22576907e-01
      1.48497269e-01 2.21585497e-01 1.80239692e-01 1.58497840e-01
      1.52061105e-01 1.54057294e-01 1.40389636e-01 9.60621908e-02
      1.05821505e-01 1.44478843e-01 2.22089425e-01 1.70948818e-01
      1.43321708e-01 1.19830519e-01 1.27965972e-01 1.35317251e-01
      1.23037256e-01 1.08583912e-01 1.45674050e-01 1.82834327e-01
      1.15547247e-01 1.09329611e-01 1.42380774e-01 2.66073018e-01
      3.43233436e-01 2.52394587e-01 1.83286592e-01 1.39695928e-01
      1.96633384e-01 2.09113762e-01 1.70773447e-01 1.37540594e-01
      1.55526087e-01 1.47102043e-01 1.38608575e-01 1.33103549e-01
      1.69651166e-01 2.54563481e-01 3.16847056e-01 2.57269770e-01
      1.99133784e-01 1.15357101e-01 8.15448835e-02 6.39307722e-02
      7.50544816e-02 1.20419614e-01 1.56333700e-01 2.15649977e-01
      1.73177719e-01 1.45078942e-01 1.40543744e-01 1.28442287e-01
      1.07172951e-01 1.06650665e-01 1.24653876e-01 1.80115655e-01
      1.03927486e-01 6.30164072e-02 6.17821217e-02 6.62583932e-02
      7.21617863e-02 7.57240206e-02 9.21285376e-02 1.41858593e-01
      1.75302669e-01 1.64422899e-01 1.35055393e-01 1.22939490e-01
      1.20594904e-01 1.04045786e-01 8.40850696e-02 9.18488130e-02
      1.20283149e-01 1.52438000e-01 1.42626509e-01 1.24034919e-01
      1.25135705e-01 1.27513796e-01 1.15107335e-01 8.83814394e-02
      7.84146190e-02 1.02501564e-01 1.31631345e-01 1.54446959e-01
      1.22432388e-01 1.35007143e-01 1.74735531e-01 2.35766515e-01
      2.35781044e-01 1.95175648e-01 1.48890629e-01 1.76398024e-01
      1.29448965e-01 1.03030004e-01 1.11221395e-01 1.53209969e-01
      1.90486714e-01 1.98683038e-01 1.84730619e-01 1.98543146e-01
      2.14900300e-01 1.50026366e-01 1.23646960e-01 1.13392413e-01
      1.35819003e-01 1.47371292e-01 1.74097866e-01 2.01852515e-01
      2.28851959e-01 1.59876913e-01 1.46412298e-01 9.76881236e-02
      8.32952410e-02 9.63646546e-02 1.28178269e-01 1.35432079e-01
      1.10699236e-01 1.35663018e-01 3.66368175e-01 3.32899123e-01
      2.05925062e-01 1.39702365e-01 1.12364046e-01 8.62127692e-02
      8.71873945e-02 1.17231593e-01 1.97794169e-01 4.30875987e-01
      3.52609307e-01 1.91182330e-01 1.40253603e-01 1.15187846e-01
      1.46148622e-01 1.39633864e-01 1.65558606e-01 2.57093489e-01
      1.47793993e-01 1.34811446e-01 1.13119349e-01 1.11805730e-01
      1.00480005e-01 1.04975179e-01 9.27937403e-02 8.37575644e-02
      1.03709705e-01 1.66276336e-01 1.10297211e-01 9.02714059e-02
      1.46634668e-01 2.01241076e-01 2.31345758e-01 2.33266458e-01
      2.20133409e-01 2.48250857e-01 1.18877597e-01 7.88957477e-02
      8.00044239e-02 1.06889129e-01 1.75091401e-01 2.49299109e-01
      2.34302610e-01 1.92853466e-01 1.52020007e-01 2.81923890e-01
      2.23929584e-01 1.11583143e-01 7.29054362e-02 6.11158200e-02
      7.19899237e-02 9.53164473e-02 1.12272017e-01 2.02630982e-01
      2.03509286e-01 2.53941417e-01 1.96940914e-01 1.83921307e-01
      2.10944861e-01 1.67164102e-01 1.41730234e-01 1.07925385e-01
      9.24106166e-02 2.16897145e-01 1.85941860e-01 1.56141311e-01
      1.61909670e-01 1.53989121e-01 1.48395330e-01 1.34642437e-01
      1.49430513e-01 1.75456285e-01 2.29434669e-01 2.91888952e-01
      2.04471946e-01 1.50954738e-01 1.70485735e-01 1.71300054e-01
      1.32261261e-01 1.46999970e-01 1.93607986e-01 1.45591050e-01
      1.27680182e-01 1.08490661e-01 1.13456801e-01 1.11711517e-01
      1.04561239e-01 1.02856286e-01 9.91741046e-02 1.16749890e-01
      1.72196314e-01 1.35908693e-01 1.01123221e-01 1.05595134e-01
      1.78027213e-01 2.12029755e-01 2.19019189e-01 2.05301493e-01
      2.37308443e-01 1.51874289e-01 1.15521871e-01 9.36649889e-02
      1.10185243e-01 1.96945682e-01 2.26973638e-01 1.81702405e-01
      1.83948696e-01 1.79529056e-01 2.70135224e-01 2.68658549e-01
      1.67892069e-01 8.80057365e-02 6.41480088e-02 5.71950711e-02
      8.44746679e-02 1.07600071e-01 1.80859149e-01 2.78218895e-01
      2.16438726e-01 1.28078356e-01 7.67675042e-02 7.16149434e-02
      1.15224525e-01 1.47854626e-01 1.82409406e-01 2.30982035e-01
      1.81996465e-01 1.74766913e-01 1.48052156e-01 1.20945945e-01
      8.69376361e-02 1.08207382e-01 1.30001023e-01 1.53345183e-01
      1.64052650e-01 2.93039054e-01 2.07977712e-01 1.49786860e-01
      1.03986762e-01 8.65861773e-02 8.56595039e-02 9.52768549e-02
      1.72918901e-01 2.87408948e-01 2.16411054e-01 1.48216695e-01
      1.06400423e-01 1.04418159e-01 1.05676576e-01 1.05620146e-01
      1.22290753e-01 1.33311972e-01 1.76247969e-01 2.38585696e-01
      1.41518280e-01 1.21366687e-01 1.45621926e-01 2.43261725e-01
      2.71261632e-01 2.08317146e-01 1.84188336e-01 2.06587240e-01
      1.00035347e-01 7.39607811e-02 9.52805057e-02 1.33686036e-01
      1.92652643e-01 2.03679144e-01 1.84167683e-01 1.56331062e-01
      1.35851860e-01 2.08848476e-01 1.35809258e-01 8.55661258e-02
      8.77405033e-02 1.17327951e-01 1.88483596e-01 2.39307448e-01
      2.44642079e-01 2.55576670e-01 1.89463556e-01 9.13156047e-02
      5.54197468e-02 5.95273450e-02 9.60284397e-02 2.39746034e-01
      3.06898564e-01 2.57488370e-01 2.35376447e-01 9.83958617e-02
      5.18017374e-02 4.01191041e-02 4.36065644e-02 7.25338012e-02
      1.39074042e-01 2.29483902e-01 2.45244384e-01 1.84757337e-01
      2.47039974e-01 1.85341313e-01 1.37493253e-01 1.20927520e-01
      1.27870828e-01 1.12246633e-01 1.09156214e-01 1.30629718e-01
      2.47354925e-01 2.36399889e-01 1.89967811e-01 1.31213188e-01
      1.08789481e-01 1.02370948e-01 9.32744592e-02 7.73480982e-02
      9.39068347e-02 1.37436286e-01 2.39972472e-01 1.56713784e-01
      1.26931712e-01 1.30258277e-01 1.90107182e-01 2.23273411e-01
      1.99365914e-01 2.06166208e-01 2.35972300e-01 2.44502693e-01
      2.42072448e-01 2.08281174e-01 2.30115056e-01 2.59680539e-01
      2.60069817e-01 2.82232523e-01 2.44960845e-01 2.37692595e-01
      2.90672243e-01 1.77499354e-01 1.17071442e-01 1.00876123e-01
      9.53614041e-02 1.02721363e-01 1.43368021e-01 1.98562324e-01
      2.54324138e-01 2.43953973e-01 1.95494562e-01 1.22628897e-01
      9.18226689e-02 1.03532620e-01 1.07634798e-01 1.36295050e-01
      1.71500087e-01 2.37588599e-01 2.23539725e-01 1.42886117e-01
      1.13560170e-01 1.03659555e-01 1.50068954e-01 1.47770420e-01
      1.82128832e-01 2.11648107e-01 2.15450272e-01 4.77313042e-01
      1.79802492e-01 1.12573430e-01 1.18268557e-01 1.17911309e-01
      8.93277004e-02 8.90859142e-02 1.18097000e-01 3.01520795e-01
      2.69747764e-01 1.86986342e-01 1.43404856e-01 1.18557580e-01
      1.27592042e-01 1.25473857e-01 1.07606173e-01 1.10579655e-01
      1.78053886e-01</_>
    <_>
      2.43457600e-01 6.09574616e-02 1.42998859e-01 1.15637884e-01
      1.85714170e-01 2.63996810e-01 1.79056242e-01 1.41110539e-01
      8.09902102e-02 1.31881490e-01 5.29197343e-02 8.70502368e-02
      8.58230069e-02 2.27141395e-01 2.60673314e-01 1.23395465e-01
      1.17327332e-01 7.78342783e-02 1.71009168e-01 7.93508515e-02
      1.25867590e-01 1.19847603e-01 1.93015397e-01 1.75151378e-01
      9.91762504e-02 1.21681824e-01 1.05443843e-01 9.14190710e-02
      3.84780318e-02 5.49879521e-02 6.03405051e-02 1.16381764e-01
      1.17232315e-01 5.50781339e-02 4.38686386e-02 4.95845750e-02
      4.39101085e-02 3.46535668e-02 5.23204207e-02 4.67958935e-02
      4.88934927e-02 5.55088967e-02 3.73512134e-02 3.45906876e-02
      2.06787679e-02 9.16029885e-02 4.91624735e-02 4.78725322e-02
      3.67621928e-02 4.02225591e-02 3.80597711e-02 3.23182307e-02
      3.75602357e-02 8.84165615e-02 5.84233515e-02 6.36795759e-02
      8.26928839e-02 7.42779300e-02 9.32433084e-02 1.38364151e-01
      7.21181333e-02 4.79124524e-02 4.35054265e-02 1.06941044e-01
      5.96949048e-02 6.88013658e-02 6.74595758e-02 7.56944716e-02
      7.07034618e-02 7.11205900e-02 5.64588420e-02 4.83493321e-02
      8.12668800e-02 6.18665442e-02 8.75538960e-02 1.06019199e-01
      1.20258383e-01 1.15673415e-01 8.48371983e-02 1.03515193e-01
      5.51344119e-02 1.34804711e-01 5.96631728e-02 6.67501837e-02
      6.07441254e-02 7.82099366e-02 7.54977092e-02 6.70340210e-02
      7.52588287e-02 8.03328454e-02 1.26520470e-01 1.91554502e-01
      2.09677160e-01 1.05084822e-01 7.79842138e-02 7.29230791e-02
      6.25029728e-02 5.57511412e-02 7.05984682e-02 7.98950195e-02
      1.00602120e-01 1.99513063e-01 1.61928281e-01 1.98631942e-01
      1.25499338e-01 5.34793362e-02 6.01335056e-02 1.29215151e-01
      2.52708226e-01 2.51921475e-01 2.32171834e-01 1.69686526e-01
      2.30342433e-01 2.37540290e-01 1.28147095e-01 1.62176549e-01
      1.48276225e-01 1.57689288e-01 1.06923565e-01 1.70441687e-01
      1.52206808e-01 3.31617266e-01 4.55637872e-01 3.91802639e-01
      2.47008234e-01 2.12760970e-01 8.27456415e-02 6.57612160e-02
      5.84746487e-02 4.77774814e-02 5.88348806e-02 8.67256895e-02
      5.71543165e-02 4.02110033e-02 4.15656045e-02 6.21408969e-02
      2.65877489e-02 5.30047938e-02 5.31837270e-02 6.55810386e-02
      6.53872862e-02 5.26186526e-02 5.77421077e-02 4.23616469e-02
      4.46343571e-02 1.14962488e-01 2.25759014e-01 1.94396973e-01
      1.59349725e-01 1.05604239e-01 7.61724040e-02 3.76800671e-02
      3.22484747e-02 3.44328910e-01 5.24131417e-01 2.76105255e-01
      1.79778501e-01 1.29751563e-01 1.00356013e-01 7.07696378e-02
      8.18091631e-02 1.12726495e-01 1.19141236e-01 7.55466819e-02
      5.28444536e-02 3.49295586e-02 3.96156982e-02 6.70690238e-02
      8.81383494e-02 9.96676013e-02 7.58366436e-02 1.67453647e-01
      1.44871518e-01 7.78471977e-02 4.37910035e-02 5.07405549e-02
      1.05884120e-01 1.48361653e-01 1.54691443e-01 2.05062404e-01
      1.44325063e-01 1.37748018e-01 1.15648866e-01 1.70366034e-01
      1.89367995e-01 1.36533707e-01 8.55598301e-02 5.78631572e-02
      5.46957105e-02 5.93000166e-02 4.84016649e-02 6.34387434e-02
      3.75217646e-02 4.48407903e-02 4.29223031e-02 5.91241457e-02
      6.94969371e-02 3.72758992e-02 4.18024547e-02 2.46319771e-02
      4.42518219e-02 4.85711545e-02 6.02876619e-02 5.53141274e-02
      6.54112324e-02 5.78738935e-02 3.27878334e-02 1.12393782e-01
      1.08349547e-01 1.38852745e-01 2.74274617e-01 3.73123586e-01
      2.00473681e-01 1.38011873e-01 1.50516868e-01 1.49793446e-01
      1.52706593e-01 1.28020376e-01 1.06289372e-01 9.03490409e-02
      1.26080617e-01 2.26416677e-01 1.73412099e-01 1.56039745e-01
      1.47476539e-01 7.91389123e-02 5.30176535e-02 7.58786127e-02
      7.02835619e-02 5.08512296e-02 5.15240617e-02 8.65138769e-02
      6.97667599e-02 7.67534152e-02 2.02003300e-01 1.48372814e-01
      1.32583126e-01 1.57314360e-01 1.18608929e-01 7.01618716e-02
      4.66509908e-02 6.46277666e-02 1.15114897e-01 7.57806242e-01
      4.48580056e-01 1.75148547e-01 1.00268312e-01 1.25684604e-01
      7.90255815e-02 5.89306541e-02 7.09546208e-02 1.92827076e-01
      6.15648441e-02 2.83954274e-02 4.41525131e-02 4.95112799e-02
      6.04465976e-02 6.04975559e-02 4.11261134e-02 2.38927919e-02
      1.90932807e-02 6.02397621e-02 3.17795910e-02 3.90926525e-02
      4.03133780e-02 6.59760758e-02 7.16174096e-02 5.79421930e-02
      6.97115138e-02 3.84940282e-02 1.80796400e-01 2.09876239e-01
      1.32240474e-01 3.57448548e-01 5.38266063e-01 2.36127540e-01
      7.42334574e-02 8.63223672e-02 1.79845959e-01 1.79928482e-01
      1.58562496e-01 1.16407529e-01 9.70432684e-02 1.12821817e-01
      1.27803594e-01 1.44766137e-01 1.66751653e-01 1.66459337e-01
      1.79741159e-01 1.74259543e-01 1.15408629e-01 1.13957755e-01
      9.81258228e-02 9.04032364e-02 4.91379201e-02 5.54901436e-02
      9.74680483e-02 2.59903073e-01 2.90301114e-01 1.96033970e-01
      1.70798361e-01 1.24968641e-01 1.23996504e-01 6.65527955e-02
      8.50922242e-02 1.46439344e-01 3.73442098e-02 3.43020149e-02
      7.62012228e-02 1.57429457e-01 2.23168239e-01 2.22326592e-01
      9.20013040e-02 4.31841128e-02 3.07258684e-02 9.26917791e-02
      2.74553839e-02 5.10333404e-02 5.72880842e-02 5.01942188e-02
      4.76346090e-02 4.69698273e-02 4.99710366e-02 3.46093960e-02
      7.53794834e-02 4.39171866e-02 8.67634863e-02 1.72976539e-01
      5.41491926e-01 3.39322001e-01 9.19641703e-02 5.34906462e-02
      3.15464735e-02 2.31412232e-01 1.28495619e-01 1.11560591e-01
      1.06664620e-01 1.43919453e-01 1.04240894e-01 8.77230540e-02
      9.71419811e-02 1.50100127e-01 1.70940056e-01 1.13943294e-01
      9.57553163e-02 6.11085594e-02 4.87040617e-02 8.21295679e-02
      1.35839581e-01 8.85239467e-02 1.65145710e-01 2.04325691e-01
      1.62014440e-01 1.17082365e-01 6.76430911e-02 6.08914979e-02
      5.23160473e-02 6.17323034e-02 8.02822262e-02 1.62559271e-01
      2.71790981e-01 1.92397356e-01 1.31599769e-01 9.86698046e-02
      1.19185239e-01 1.32271081e-01 6.95819557e-02 8.15227926e-02
      1.52688384e-01 2.60068417e-01 4.60196912e-01 3.33597511e-01
      2.16759279e-01 1.77673906e-01 1.43223003e-01 1.01753250e-01
      7.97629282e-02 5.48277646e-02 8.59278962e-02 4.51846793e-02
      3.53613645e-02 3.15494388e-02 5.20565324e-02 4.06639874e-02
      2.61006374e-02 2.56325956e-02 2.05525346e-02 1.55016765e-01
      5.61020002e-02 9.72846821e-02 7.03105032e-02 1.18984163e-01
      2.40649521e-01 2.84798115e-01 1.61060199e-01 7.79781491e-02
      2.63832241e-01 2.26393938e-01 1.22143745e-01 9.82264727e-02
      1.10946417e-01 1.16785228e-01 1.11753516e-01 8.80284756e-02
      1.40101954e-01 3.44296157e-01 2.90136725e-01 2.54681647e-01
      1.22659549e-01 7.94989467e-02 8.28549340e-02 1.01532750e-01
      2.06719637e-01 4.15626198e-01 2.26982534e-01 2.89019227e-01
      2.23335996e-01 8.65514204e-02 7.13984668e-02 5.01503460e-02
      3.64303626e-02 7.74911642e-02 1.06416926e-01 2.63027132e-01
      4.08444047e-01 2.53836721e-01 1.89639211e-01 9.94362161e-02
      8.07452202e-02 3.43036316e-02 5.71645536e-02 1.55280679e-01
      6.75528884e-01 3.64931405e-01 1.76657185e-01 1.65599898e-01
      2.22229034e-01 1.31546810e-01 8.78763646e-02 1.13936946e-01
      1.32782474e-01 1.61012188e-01 7.09110871e-02 4.38270196e-02
      5.29785231e-02 5.23477681e-02 5.01033366e-02 5.67660891e-02
      5.95345683e-02 5.93216307e-02 2.48761430e-01 8.75824317e-02
      1.48589388e-01 1.24764450e-01 1.48881629e-01 1.53548360e-01
      1.30277529e-01 1.48178697e-01 1.09437674e-01 1.16415255e-01
      5.81571311e-02 1.18178390e-01 1.34861514e-01 1.62857115e-01
      1.55967057e-01 8.71083662e-02 9.78092924e-02 5.98045662e-02
      7.54916444e-02 4.50808033e-02 8.34030509e-02 9.34618711e-02
      9.20730829e-02 9.12693143e-02 6.92467168e-02 8.72664750e-02
      5.93600832e-02 1.16959244e-01 1.08411230e-01 7.81459957e-02
      9.46853980e-02 1.22650348e-01 1.05772786e-01 7.71126375e-02
      6.66390210e-02 6.71066418e-02 2.11861089e-01 1.27809033e-01
      8.19476023e-02 9.64007154e-02 2.12885886e-01 1.96595162e-01
      1.27238259e-01 9.37299058e-02 1.29285246e-01 4.14320938e-02
      4.08660099e-02 5.24971709e-02 9.26446617e-02 3.04324180e-01
      1.89030051e-01 7.95464218e-02 5.14330827e-02 2.05465555e-02
      1.13326244e-01 3.53402756e-02 3.85642909e-02 6.38599023e-02
      1.06970184e-01 8.88843462e-02 7.48362616e-02 5.95168956e-02
      5.30264266e-02</_>
    <_>
      6.66013211e-02 6.62758946e-02 9.80859101e-02 1.76030323e-01
      3.62584502e-01 4.42858487e-01 1.49784103e-01 8.00326690e-02
      5.41930981e-02 6.37489557e-02 5.87758496e-02 9.07057822e-02
      1.49360523e-01 3.81878376e-01 5.15532315e-01 2.48847514e-01
      9.95862186e-02 5.94632439e-02 9.40147191e-02 9.60920900e-02
      1.27314523e-01 1.80294022e-01 2.53770590e-01 2.65281200e-01
      1.59625962e-01 1.00103870e-01 8.22683945e-02 8.26705247e-02
      6.40913621e-02 6.89027905e-02 1.28833354e-01 2.69895911e-01
      3.03525776e-01 1.30329773e-01 7.90062025e-02 6.90358579e-02
      1.07040688e-01 1.04585372e-01 1.15341142e-01 1.61044553e-01
      3.73934984e-01 4.10684586e-01 2.13366687e-01 1.45686686e-01
      1.04923733e-01 7.30746612e-02 7.89099932e-02 1.03707708e-01
      1.79376900e-01 3.17936510e-01 2.98557878e-01 1.58479884e-01
      8.75121281e-02 7.44773000e-02 6.36489987e-02 7.98098594e-02
      1.07343785e-01 2.01715648e-01 3.41295630e-01 3.04259390e-01
      1.85230047e-01 9.29531455e-02 6.91257492e-02 7.07106963e-02
      6.45131543e-02 8.22827816e-02 1.43169075e-01 2.58289099e-01
      2.46960714e-01 1.16678797e-01 8.54864344e-02 6.96515217e-02
      5.18279746e-02 5.85574955e-02 9.38958675e-02 1.70139715e-01
      3.63456219e-01 5.48650682e-01 2.60648161e-01 5.75167239e-02
      4.43700925e-02 7.69550726e-02 1.33619681e-01 1.63368627e-01
      1.29739374e-01 1.53857321e-01 1.23853438e-01 6.54481798e-02
      5.80002889e-02 5.31566702e-02 9.69290957e-02 6.17863871e-02
      8.96387622e-02 2.23299235e-01 4.52805877e-01 3.94950509e-01
      2.28373900e-01 1.29292637e-01 1.10312060e-01 6.43924996e-02
      6.97216913e-02 9.85123515e-02 1.81137532e-01 1.49751619e-01
      8.56472328e-02 5.75063899e-02 4.51074280e-02 3.99620272e-02
      5.31355143e-02 7.36398771e-02 8.79561976e-02 1.46968126e-01
      2.68121719e-01 2.66543776e-01 1.67427644e-01 1.11096442e-01
      7.19661862e-02 6.95791245e-02 6.54230490e-02 9.46222097e-02
      1.90889806e-01 3.21950912e-01 3.27819109e-01 1.65167764e-01
      1.11724421e-01 8.24391916e-02 5.89365363e-02 5.53527214e-02
      6.97773695e-02 1.08206436e-01 2.18219534e-01 3.13930303e-01
      1.78151533e-01 8.99659023e-02 5.08214459e-02 4.19582278e-02
      4.44567800e-02 5.40168323e-02 8.40484425e-02 1.98136985e-01
      2.20991686e-01 1.03235498e-01 5.89399263e-02 3.97286303e-02
      5.65905869e-02 8.25607777e-02 1.28018767e-01 2.17917144e-01
      3.09127450e-01 2.49226287e-01 1.02411091e-01 6.51595891e-02
      4.96567823e-02 5.69164604e-02 7.11699128e-02 1.21808536e-01
      3.09813321e-01 5.22183955e-01 2.52166301e-01 1.33652762e-01
      8.42012614e-02 6.00781925e-02 7.98774436e-02 9.35746878e-02
      1.48810014e-01 2.36458808e-01 2.49520302e-01 1.70405507e-01
      1.01022512e-01 7.10815936e-02 6.56018257e-02 6.66963607e-02
      5.44459410e-02 7.81162754e-02 1.17456697e-01 1.88681871e-01
      1.96963698e-01 1.15020655e-01 7.88602233e-02 7.10432902e-02
      5.25479130e-02 5.19973077e-02 7.68465847e-02 1.46516353e-01
      2.80072987e-01 2.80306965e-01 1.74193054e-01 9.50690284e-02
      6.41094297e-02 5.81443608e-02 4.95495126e-02 7.84067884e-02
      1.24622874e-01 2.66855955e-01 2.94292182e-01 1.28795221e-01
      7.05730096e-02 5.30497879e-02 5.96672408e-02 4.98984419e-02
      8.55610296e-02 1.77894041e-01 3.37730318e-01 3.87226909e-01
      1.61433920e-01 8.00437033e-02 5.80236651e-02 9.73825231e-02
      8.66529197e-02 1.56446263e-01 2.68583298e-01 3.07975471e-01
      2.40389243e-01 1.27969325e-01 9.47160199e-02 9.22487080e-02
      1.04189686e-01 9.43531394e-02 1.16179794e-01 1.76959485e-01
      2.96245456e-01 2.80806363e-01 2.07482725e-01 1.55108541e-01
      1.10250540e-01 1.90547109e-01 2.18210146e-01 2.36600816e-01
      2.35893384e-01 1.98664546e-01 1.63785905e-01 1.01279274e-01
      9.24582183e-02 1.17507264e-01 7.45315403e-02 6.47072420e-02
      5.75607307e-02 6.32738322e-02 8.71791542e-02 8.28336477e-02
      6.56985268e-02 5.67321330e-02 5.63993603e-02 2.67318666e-01
      1.65912479e-01 1.03555672e-01 9.65416655e-02 1.49082646e-01
      1.73002943e-01 1.32856727e-01 1.47074118e-01 2.26639837e-01
      2.23489836e-01 1.57644078e-01 1.13002203e-01 1.46042213e-01
      1.65579394e-01 1.89113751e-01 1.71621948e-01 1.56349450e-01
      1.93886861e-01 5.08929268e-02 5.78386784e-02 8.94083455e-02
      1.56922847e-01 3.50820094e-01 4.23023134e-01 2.30186820e-01
      1.00324407e-01 6.25055954e-02 1.35702401e-01 1.28613338e-01
      1.20043576e-01 1.49800211e-01 2.68425435e-01 3.86509925e-01
      3.13919783e-01 1.63095981e-01 1.47787690e-01 1.94224596e-01
      1.52237535e-01 1.61143348e-01 1.52570367e-01 2.44873092e-01
      2.71458149e-01 2.14719161e-01 2.10131571e-01 1.87332481e-01
      1.15968920e-01 1.15246035e-01 1.16830967e-01 1.18385032e-01
      1.55067489e-01 1.54087454e-01 1.52339086e-01 1.27017632e-01
      1.15378574e-01 1.11656129e-01 1.14055671e-01 9.63903740e-02
      1.19488269e-01 1.42242938e-01 9.73941684e-02 7.06286952e-02
      5.37357815e-02 7.52046406e-02 2.59503007e-01 1.67399913e-01
      1.14250839e-01 8.72656554e-02 1.35574281e-01 1.49443001e-01
      1.20797969e-01 1.22352287e-01 2.28563040e-01 1.33231118e-01
      7.04347864e-02 6.89731687e-02 1.37615383e-01 2.42378607e-01
      2.64416784e-01 1.72857508e-01 1.21256471e-01 1.09738350e-01
      5.89524992e-02 5.55186346e-02 9.10886526e-02 1.47076517e-01
      3.93441558e-01 4.04350907e-01 1.63827956e-01 8.70299488e-02
      5.73271625e-02 1.01031229e-01 7.01283365e-02 8.63334909e-02
      1.20983452e-01 3.33414137e-01 5.88311195e-01 3.33481580e-01
      1.54159784e-01 1.06559791e-01 9.66585428e-02 4.95547615e-02
      6.64971545e-02 8.92457515e-02 1.76510736e-01 2.65807122e-01
      2.20110536e-01 1.70348912e-01 1.00676551e-01 5.85911274e-02
      5.23201041e-02 5.26237823e-02 4.95390780e-02 8.19637626e-02
      1.25955492e-01 1.45640805e-01 1.08409353e-01 8.43521282e-02
      4.37107272e-02 3.88833284e-02 4.89439815e-02 1.01238899e-01
      1.78540587e-01 1.97402969e-01 1.41770929e-01 7.82318339e-02
      4.98942323e-02 7.93285295e-02 7.07915798e-02 8.19120482e-02
      1.32051319e-01 2.53331333e-01 2.83789843e-01 1.84566602e-01
      1.15302503e-01 8.27514529e-02 1.04075380e-01 8.29671621e-02
      7.91757703e-02 1.10788934e-01 2.34840155e-01 3.31168950e-01
      2.51980901e-01 1.44295067e-01 1.22041874e-01 2.94067450e-02
      1.53571814e-02 1.86924245e-02 3.26173641e-02 1.14944689e-01
      1.79528013e-01 1.42114207e-01 4.44975048e-02 3.30482014e-02
      3.46650258e-02 1.71219297e-02 3.25711817e-02 4.04560827e-02
      5.79569452e-02 6.14319965e-02 5.95287606e-02 4.44363020e-02
      2.34836806e-02 3.91470678e-02 2.33363640e-02 3.60438153e-02
      3.28569040e-02 5.30802235e-02 7.35340863e-02 6.23707846e-02
      4.39697057e-02 2.47787703e-02 1.08066544e-01 8.04154575e-02
      1.06382348e-01 1.27656847e-01 1.31432533e-01 9.88809913e-02
      8.07463303e-02 6.71507567e-02 6.11466840e-02 3.96471061e-02
      5.91464750e-02 1.16220854e-01 2.18501970e-01 2.99201906e-01
      2.05016926e-01 1.05856881e-01 6.38606027e-02 3.98750715e-02
      5.92509657e-02 5.14240041e-02 6.17497973e-02 1.02835566e-01
      2.42286906e-01 2.76623666e-01 1.60393640e-01 9.12223160e-02
      7.53453895e-02 8.40469822e-02 5.65015972e-02 6.68359101e-02
      1.24698430e-01 2.23652691e-01 2.81712741e-01 2.06248701e-01
      1.33930907e-01 8.89423192e-02 9.80591923e-02 8.84775668e-02
      9.95527133e-02 1.66551232e-01 3.54305536e-01 5.16780317e-01
      3.84548217e-01 1.96672723e-01 1.23891570e-01 1.14985839e-01
      1.22587331e-01 1.06219515e-01 1.76181421e-01 3.84034604e-01
      3.79293114e-01 2.06792712e-01 1.71066225e-01 1.27902538e-01
      1.34565562e-01 1.61009803e-01 2.06107616e-01 2.35142574e-01
      3.22247654e-01 3.23080212e-01 1.88298211e-01 1.24401957e-01
      1.19049385e-01 1.48239464e-01 1.80620208e-01 2.04443514e-01
      2.76630878e-01 4.31535155e-01 3.59357804e-01 2.36241490e-01
      1.45910561e-01 1.35623798e-01 4.79489379e-02 4.34136949e-02
      6.18832447e-02 1.02983415e-01 2.12507665e-01 2.83118844e-01
      1.19726866e-01 6.58939108e-02 4.39277105e-02 7.91981816e-02
      1.03077300e-01 1.08611263e-01 1.61928102e-01 2.93090314e-01
      3.61474156e-01 2.31653512e-01 1.21112384e-01 8.48797634e-02
      8.97234082e-02 6.93287477e-02 8.25379789e-02 1.15765408e-01
      2.96653003e-01 3.53426844e-01 2.00491533e-01 1.26545668e-01
      7.99338594e-02</_>
    <_>
      3.97824831e-02 3.58382575e-02 4.66993116e-02 8.15044045e-02
      1.87910825e-01 5.33698648e-02 5.71347214e-02 6.22095801e-02
      3.63715701e-02 6.82515576e-02 7.89549053e-02 1.48826808e-01
      1.82145953e-01 1.30785659e-01 1.24640062e-01 1.51492625e-01
      7.86780417e-02 5.92952147e-02 1.78651750e-01 2.35689461e-01
      2.60351151e-01 2.60740072e-01 1.83061540e-01 1.37793481e-01
      1.01889066e-01 9.69773978e-02 9.75932032e-02 1.62270382e-01
      2.04283923e-01 2.63963282e-01 2.83062696e-01 1.92343548e-01
      1.40877277e-01 1.12410769e-01 1.04124367e-01 1.19667672e-01
      1.73527345e-01 1.96141288e-01 2.13655367e-01 2.70902544e-01
      3.10189307e-01 2.41419509e-01 1.53181881e-01 1.37392461e-01
      1.42653629e-01 7.39294291e-02 8.67136195e-02 1.01995021e-01
      1.04236580e-01 1.14713036e-01 1.44220144e-01 1.07669167e-01
      8.55573341e-02 8.58675838e-02 9.47407261e-03 9.92921460e-03
      2.46118288e-02 7.35375434e-02 2.57543832e-01 2.40234554e-01
      3.82395498e-02 1.77462790e-02 1.29611753e-02 6.00168891e-02
      5.33768572e-02 8.01776648e-02 1.52837828e-01 3.60530585e-01
      3.27078819e-01 1.33632973e-01 7.28579685e-02 4.07425798e-02
      1.50883958e-01 1.73102513e-01 2.47156978e-01 2.89450437e-01
      2.72742301e-01 2.86588550e-01 1.97788313e-01 1.24374397e-01
      1.36701062e-01 9.36474651e-02 1.17266767e-01 1.66041419e-01
      2.07811907e-01 2.38536119e-01 1.81985155e-01 1.58823490e-01
      1.20803833e-01 9.21652764e-02 1.05274439e-01 1.37263566e-01
      1.85325503e-01 2.94164568e-01 2.64996052e-01 1.58840045e-01
      1.05275467e-01 7.79930651e-02 7.79729187e-02 1.56743199e-01
      2.28055745e-01 2.70711929e-01 2.98052907e-01 2.09347814e-01
      1.09135181e-01 7.22822621e-02 7.61175454e-02 9.40113887e-02
      1.05051093e-01 1.04359828e-01 8.76914263e-02 7.94763714e-02
      8.76288638e-02 1.04903586e-01 9.92535353e-02 9.45778713e-02
      1.01676345e-01 3.81010212e-02 4.54071611e-02 6.88959509e-02
      1.12116717e-01 2.44347155e-01 2.78172910e-01 8.23010579e-02
      5.23017757e-02 4.03035432e-02 6.19820207e-02 3.80085632e-02
      7.25394338e-02 1.87737301e-01 5.25829017e-01 4.14187163e-01
      1.80221066e-01 7.54122287e-02 4.75348271e-02 7.12539852e-02
      6.90949112e-02 1.23057246e-01 1.96323052e-01 2.91937977e-01
      2.64264017e-01 1.88381210e-01 1.38796389e-01 9.13447067e-02
      5.31372242e-02 6.01593480e-02 1.19311087e-01 2.78708726e-01
      4.07728910e-01 3.41718882e-01 1.88330710e-01 8.90223384e-02
      5.63197806e-02 1.01380713e-01 1.31980255e-01 1.75588906e-01
      2.39612356e-01 2.12527499e-01 1.26381442e-01 9.02835503e-02
      8.10783803e-02 8.23959932e-02 1.70455053e-01 2.23098487e-01
      2.26380885e-01 2.32524142e-01 1.51208416e-01 9.21008214e-02
      8.33385214e-02 7.61765912e-02 1.02819286e-01 1.25656158e-01
      1.18961088e-01 9.18196887e-02 8.14972296e-02 6.55369014e-02
      5.65968193e-02 4.11400720e-02 4.10829559e-02 6.85025677e-02
      1.21856935e-01 1.24959730e-01 9.67105031e-02 1.03824697e-01
      1.87574998e-01 1.76530629e-01 1.05579101e-01 7.03449249e-02
      7.68633261e-02 1.19386442e-01 1.46724373e-01 1.71984047e-01
      2.20245883e-01 2.90867388e-01 2.93009192e-01 1.65705860e-01
      8.49904940e-02 8.35166797e-02 9.06827524e-02 8.19625556e-02
      1.01519756e-01 2.47082070e-01 2.22706705e-01 2.96144813e-01
      2.34127447e-01 1.65932685e-01 1.23579666e-01 7.41762966e-02
      6.45831153e-02 8.53363127e-02 1.16516016e-01 1.69650316e-01
      2.35187903e-01 1.88413441e-01 1.37849092e-01 8.76726881e-02
      9.78705138e-02 8.67972448e-02 9.93412063e-02 1.24601789e-01
      1.39898360e-01 1.68811202e-01 1.78051367e-01 1.41012639e-01
      1.08850077e-01 2.05310792e-01 1.72679380e-01 1.34473965e-01
      1.09367773e-01 9.75406393e-02 1.36790603e-01 2.23594457e-01
      2.54766285e-01 2.40091503e-01 1.15009852e-01 1.21440858e-01
      1.04606412e-01 9.50394124e-02 6.08787090e-02 5.53818382e-02
      6.33888766e-02 6.02894612e-02 7.06151202e-02 9.79428664e-02
      7.00147375e-02 7.51005858e-02 1.05837077e-01 3.12470853e-01
      2.60379374e-01 1.03876241e-01 7.66402334e-02 1.16220243e-01
      9.85023752e-02 1.31311417e-01 1.20598838e-01 2.03161672e-01
      3.81156802e-01 4.09647107e-01 1.83514372e-01 1.01695754e-01
      7.35485181e-02 5.46937175e-02 4.68094423e-02 5.12513854e-02
      9.49692652e-02 1.74287573e-01 3.43136281e-01 3.84996116e-01
      2.04489455e-01 8.11743587e-02 8.69534984e-02 6.58571720e-02
      5.58359735e-02 7.27273375e-02 1.12686351e-01 2.23931387e-01
      3.42067659e-01 2.49692440e-01 1.53459653e-01 2.02066734e-01
      1.17382795e-01 7.76006430e-02 7.39298537e-02 8.35406855e-02
      1.44287109e-01 2.17473179e-01 2.32122630e-01 2.29641050e-01
      1.28154472e-01 1.01093411e-01 9.29483995e-02 9.18035284e-02
      1.31783947e-01 2.01348111e-01 2.77294934e-01 2.72430360e-01
      1.90629750e-01 5.50815910e-02 4.29079942e-02 4.36445586e-02
      6.25032559e-02 8.04305822e-02 1.04817674e-01 9.32429805e-02
      6.72322288e-02 5.73674776e-02 1.52433112e-01 6.68284670e-02
      4.88042571e-02 5.36455736e-02 1.08963773e-01 1.33000806e-01
      7.31131434e-02 8.96908641e-02 1.20013416e-01 9.31021497e-02
      7.21343160e-02 7.41146430e-02 1.05745360e-01 2.30388716e-01
      2.37866864e-01 1.47819564e-01 9.48789418e-02 9.96961221e-02
      6.50840700e-02 6.61124140e-02 8.06315616e-02 1.27918154e-01
      2.87702590e-01 3.47959220e-01 1.54358432e-01 6.23097830e-02
      6.21637516e-02 3.54118161e-02 2.44108811e-02 3.32469195e-02
      5.94310090e-02 1.71162471e-01 2.84478098e-01 2.11131588e-01
      1.35373786e-01 7.25052878e-02 1.17439352e-01 9.70556512e-02
      7.95741901e-02 7.88137987e-02 1.30472079e-01 2.50287324e-01
      2.72009432e-01 2.04676002e-01 1.43422082e-01 1.12221561e-01
      7.56792501e-02 7.03828111e-02 8.49743113e-02 1.57800451e-01
      2.98011392e-01 3.23364884e-01 2.33159155e-01 1.53971240e-01
      4.76261526e-02 3.31234895e-02 3.29139307e-02 4.43180948e-02
      8.19123685e-02 1.06741630e-01 1.08226053e-01 8.57555419e-02
      6.02854043e-02 1.74494445e-01 5.16764745e-02 4.81432565e-02
      7.81738684e-02 2.15345010e-01 2.13199735e-01 5.19970208e-02
      5.43309674e-02 1.09362163e-01 7.61782452e-02 7.60707557e-02
      8.11640248e-02 1.50221959e-01 4.17547822e-01 3.64114970e-01
      1.19975932e-01 5.84123731e-02 5.16503304e-02 6.00092895e-02
      3.86128128e-02 5.29042445e-02 8.34100917e-02 2.77653635e-01
      3.53270799e-01 1.28024161e-01 7.50542283e-02 6.04932494e-02
      4.15333100e-02 2.76101902e-02 2.89056078e-02 3.93754654e-02
      1.06260762e-01 2.35391095e-01 2.38313541e-01 1.29375026e-01
      6.90157488e-02 6.01099245e-02 4.67749424e-02 4.37538773e-02
      6.01190627e-02 1.11156955e-01 2.49774903e-01 2.73085654e-01
      1.78140730e-01 9.42837596e-02 8.71146470e-02 6.77461997e-02
      6.18710816e-02 7.60510713e-02 1.33455932e-01 2.21291184e-01
      2.06452310e-01 1.51220798e-01 1.12042673e-01 6.06149845e-02
      6.44355267e-02 7.63410255e-02 9.37696323e-02 1.46121353e-01
      1.80388436e-01 1.54664412e-01 8.79003182e-02 5.94179519e-02
      1.23118587e-01 6.49530813e-02 5.09892181e-02 6.33546859e-02
      1.52172029e-01 1.79936841e-01 7.95371011e-02 5.74663132e-02
      7.35093132e-02 6.29878938e-02 5.04869409e-02 5.65869100e-02
      1.67720377e-01 4.63528574e-01 3.86904866e-01 1.57824963e-01
      9.19409618e-02 8.70169625e-02 1.71143971e-02 1.03115411e-02
      1.59304384e-02 2.58811973e-02 4.13419843e-01 5.14331639e-01
      2.53266711e-02 1.53299682e-02 8.61362740e-03 1.35287315e-01
      1.10543840e-01 1.10185131e-01 1.20933153e-01 1.64317146e-01
      2.28048816e-01 2.06139699e-01 1.42252102e-01 1.12223364e-01
      1.16881385e-01 1.12253286e-01 1.41764969e-01 1.76213965e-01
      2.44922176e-01 3.78484070e-01 3.21616769e-01 2.29358673e-01
      1.52285814e-01 1.91513151e-01 1.89729974e-01 1.60432369e-01
      1.73708946e-01 2.41787091e-01 2.70403951e-01 2.88525164e-01
      2.65214950e-01 1.94049701e-01 1.88520432e-01 2.02692315e-01
      2.03621686e-01 2.08756492e-01 2.34444186e-01 2.27858096e-01
      1.62303686e-01 1.40597001e-01 1.53993115e-01 5.45713976e-02
      3.52460109e-02 3.80426310e-02 7.66114742e-02 2.31093884e-01
      2.09756628e-01 4.77860831e-02 3.93847078e-02 4.70087640e-02
      3.98178063e-02 3.97599936e-02 6.93367794e-02 1.50691479e-01
      3.64764363e-01 4.48426366e-01 1.60132915e-01 6.40173703e-02
      3.92159820e-02</_>
    <_>
      6.61697313e-02 5.44710346e-02 8.44296217e-02 1.24923415e-01
      2.14470133e-01 2.13841423e-01 9.92237031e-02 6.61714673e-02
      5.25621027e-02 6.94603994e-02 5.86272925e-02 1.07134081e-01
      1.90930888e-01 3.03286046e-01 2.76580125e-01 1.39887631e-01
      9.83749479e-02 7.22981319e-02 7.31635466e-02 6.75517619e-02
      7.41898119e-02 1.04160011e-01 1.96323052e-01 2.10233048e-01
      1.11629941e-01 8.36479217e-02 6.77276179e-02 9.05597880e-02
      8.95253792e-02 9.12698433e-02 1.55256614e-01 2.38865077e-01
      2.36666679e-01 1.38210699e-01 1.02983624e-01 8.19154754e-02
      6.71823919e-02 7.09451139e-02 8.64082947e-02 1.72312737e-01
      3.67305726e-01 3.26833785e-01 1.25405088e-01 7.90408328e-02
      6.85987175e-02 9.83429477e-02 8.99579823e-02 1.20935142e-01
      1.82434455e-01 2.34340742e-01 2.59146333e-01 1.56838328e-01
      1.20649710e-01 1.01341195e-01 1.22126311e-01 1.19805239e-01
      1.45537287e-01 1.70165852e-01 2.39519447e-01 2.67905712e-01
      2.08639577e-01 1.87387496e-01 9.69010368e-02 8.85123834e-02
      7.02104047e-02 8.87499377e-02 1.31545663e-01 2.44025171e-01
      2.31163248e-01 1.18826218e-01 7.69709423e-02 6.75704628e-02
      8.48799571e-02 7.87380040e-02 1.08585276e-01 1.85005784e-01
      2.21677646e-01 1.59507766e-01 9.92936715e-02 6.26796931e-02
      6.42277151e-02 8.30687433e-02 1.01386942e-01 1.80037647e-01
      3.44388366e-01 3.96699607e-01 2.17045784e-01 8.61781463e-02
      5.21579757e-02 5.18708788e-02 7.65650421e-02 1.18924066e-01
      2.04570413e-01 3.76450747e-01 4.09261763e-01 2.04783112e-01
      1.23813644e-01 7.62120634e-02 6.73723742e-02 8.29234198e-02
      6.98577762e-02 8.03041682e-02 1.44934043e-01 3.41946095e-01
      3.76952648e-01 1.67145923e-01 9.09448266e-02 8.40589255e-02
      1.71079293e-01 1.26296028e-01 1.36284605e-01 1.90360576e-01
      2.84768730e-01 3.48906249e-01 1.98964536e-01 1.43334374e-01
      1.52870610e-01 8.54656994e-02 8.29384476e-02 1.19441055e-01
      2.00749367e-01 3.14747959e-01 2.58117825e-01 2.16777936e-01
      1.94741488e-01 1.07077301e-01 1.09245472e-01 8.59349445e-02
      8.53211805e-02 1.23598821e-01 2.25047439e-01 2.64606178e-01
      1.66315913e-01 1.16060950e-01 1.00751698e-01 4.86802496e-02
      7.62647167e-02 1.17199302e-01 2.12863848e-01 2.85919905e-01
      1.77764162e-01 7.61389732e-02 5.55948243e-02 3.89758050e-02
      6.33742288e-02 9.18293670e-02 1.42279729e-01 2.29872242e-01
      3.86826366e-01 3.94590855e-01 1.87906474e-01 9.55384374e-02
      5.77838086e-02 1.02096476e-01 8.47821981e-02 1.35517910e-01
      2.38324136e-01 2.46626377e-01 2.59617031e-01 1.60886869e-01
      1.11784466e-01 7.65800476e-02 8.69603083e-02 6.96438029e-02
      8.78856182e-02 1.47666529e-01 2.85165817e-01 2.98310131e-01
      1.84531972e-01 1.03372596e-01 6.75692633e-02 6.30645901e-02
      5.41745126e-02 9.65031534e-02 2.00330660e-01 3.08526009e-01
      2.78801680e-01 1.66350707e-01 8.35703686e-02 6.36966601e-02
      3.76925796e-01 1.85342669e-01 1.36563107e-01 1.12264276e-01
      1.11084990e-01 9.92042497e-02 1.31656766e-01 2.34407261e-01
      2.97846735e-01 2.05923855e-01 1.32872552e-01 1.07101366e-01
      1.31591931e-01 1.84739575e-01 2.16214076e-01 1.59365952e-01
      1.46205381e-01 1.40965477e-01 6.41365573e-02 7.66731128e-02
      9.92567390e-02 1.55341193e-01 2.76494712e-01 2.33635724e-01
      8.83307531e-02 7.09019154e-02 5.37341833e-02 1.23796023e-01
      1.36273995e-01 1.58255756e-01 2.33799130e-01 3.49574327e-01
      4.25113231e-01 2.56738573e-01 1.74765587e-01 1.32652462e-01
      1.00758664e-01 6.19935729e-02 8.78537521e-02 1.41734853e-01
      1.87518254e-01 2.86026895e-01 2.42229015e-01 2.00014025e-01
      1.41852960e-01 3.94324213e-02 3.00579276e-02 9.00205225e-02
      1.95951656e-01 2.89156467e-01 1.30056441e-01 5.34897894e-02
      4.22540456e-02 2.35414356e-02 5.60118929e-02 2.62778793e-02
      5.14897294e-02 6.35809898e-02 9.93815511e-02 1.23236343e-01
      7.39763379e-02 5.14220707e-02 3.28476466e-02 3.19396555e-01
      2.71921486e-01 1.97656870e-01 2.40796283e-01 2.05755502e-01
      1.86405122e-01 1.60408914e-01 1.17171764e-01 1.78620994e-01
      1.17723010e-01 7.94117451e-02 9.38293338e-02 1.11073159e-01
      1.79501414e-01 1.89325318e-01 1.19855411e-01 8.22600648e-02
      6.87562823e-02 6.82039261e-02 6.75910562e-02 7.99627230e-02
      1.52810097e-01 2.53504753e-01 2.51721859e-01 1.51325837e-01
      9.58276913e-02 5.92975952e-02 1.07551597e-01 7.72971883e-02
      7.63246790e-02 1.04075216e-01 1.86516985e-01 3.34541380e-01
      2.95168728e-01 2.10695595e-01 1.60186574e-01 2.03188330e-01
      8.25201273e-02 7.61755407e-02 8.64974633e-02 1.39013782e-01
      1.82645008e-01 1.91536441e-01 1.87520608e-01 2.44424552e-01
      4.39103507e-02 2.42574494e-02 3.38949785e-02 5.25623970e-02
      1.28155053e-01 2.22405747e-01 1.25738114e-01 7.47132227e-02
      4.95492294e-02 2.57531255e-01 4.19522583e-01 2.70883977e-01
      1.52152479e-01 1.07895695e-01 8.58759582e-02 5.39623201e-02
      5.44808954e-02 6.69177920e-02 3.14551920e-01 2.36136541e-01
      1.75264642e-01 1.40884772e-01 1.86897367e-01 1.76699907e-01
      1.29904404e-01 1.37848049e-01 1.44698903e-01 8.72771144e-02
      4.96912412e-02 6.43870234e-02 7.29262829e-02 1.34997115e-01
      1.92273259e-01 1.22346640e-01 9.01971832e-02 6.94937035e-02
      6.83908686e-02 5.05817831e-02 5.22024222e-02 1.04866885e-01
      2.86468387e-01 3.49434793e-01 1.88612118e-01 1.17455490e-01
      8.08935761e-02 7.40510970e-02 4.82008047e-02 6.42645210e-02
      1.01641290e-01 1.84324041e-01 3.36656362e-01 3.72133374e-01
      2.42264226e-01 1.17246427e-01 1.70205697e-01 7.18982294e-02
      6.71353787e-02 8.21236745e-02 1.60620406e-01 2.97799230e-01
      2.47161746e-01 2.28438258e-01 1.82484716e-01 4.96850647e-02
      1.84571538e-02 4.65763472e-02 5.96161447e-02 9.40776095e-02
      8.98648873e-02 5.11221103e-02 3.63711938e-02 1.95461046e-02
      1.56994119e-01 1.50971338e-01 1.70740828e-01 2.07997769e-01
      3.05943519e-01 3.25888753e-01 2.07314745e-01 1.81180432e-01
      1.76502034e-01 1.00269191e-01 8.63570720e-02 1.12911478e-01
      1.32972762e-01 2.15746954e-01 2.97445595e-01 2.13670254e-01
      1.34211376e-01 1.04506440e-01 1.61480024e-01 7.26644248e-02
      7.42062107e-02 9.44943503e-02 1.57663554e-01 2.35903412e-01
      2.36121565e-01 1.71559900e-01 1.70316324e-01 8.43920112e-02
      7.65740052e-02 9.47687253e-02 1.65974349e-01 2.44138643e-01
      2.89937645e-01 1.96931645e-01 1.37547404e-01 1.07613586e-01
      1.56816423e-01 8.86873305e-02 9.47721899e-02 1.23853914e-01
      1.79667324e-01 2.33927712e-01 2.64869153e-01 2.80240268e-01
      2.14128375e-01 1.74991503e-01 9.64326337e-02 7.52766505e-02
      6.75476789e-02 7.98267722e-02 1.45643085e-01 1.69960782e-01
      1.78799853e-01 1.72417745e-01 6.25958964e-02 7.73871467e-02
      1.13568328e-01 9.25144553e-02 9.48179513e-02 1.27566084e-01
      1.13307640e-01 8.69644433e-02 7.18429238e-02 1.13382824e-01
      1.00434288e-01 9.05134529e-02 1.63948536e-01 2.37736851e-01
      2.38256276e-01 2.02660739e-01 1.53034240e-01 1.32812202e-01
      9.37457532e-02 7.24582002e-02 6.56193644e-02 1.03473037e-01
      2.35268250e-01 3.35229933e-01 1.49086311e-01 9.94066149e-02
      9.13882032e-02 1.17650859e-01 6.67056218e-02 6.40405267e-02
      8.73964429e-02 1.84388578e-01 2.30416730e-01 1.48594156e-01
      1.15862243e-01 1.05336741e-01 6.06990606e-02 6.86411783e-02
      1.01170592e-01 2.04877377e-01 4.05914396e-01 4.28790540e-01
      2.24277318e-01 9.65438336e-02 6.44575953e-02 1.16767272e-01
      1.12766512e-01 1.12582497e-01 1.72558725e-01 3.01667541e-01
      3.16484958e-01 2.54518330e-01 2.02037528e-01 1.77044079e-01
      3.02641600e-01 2.16231987e-01 1.50594950e-01 1.42806828e-01
      1.66187644e-01 2.35014081e-01 2.51219720e-01 1.87459141e-01
      2.13271514e-01 1.81299567e-01 9.45090801e-02 1.09327592e-01
      1.42568126e-01 1.87539384e-01 2.03911841e-01 1.46461934e-01
      1.43152431e-01 1.59065157e-01 2.72715241e-01 1.18609279e-01
      8.99531171e-02 9.57740024e-02 1.78684428e-01 2.00303391e-01
      1.86859578e-01 2.49504209e-01 4.25309360e-01 1.78730935e-01
      1.46963254e-01 1.47459164e-01 2.08740607e-01 3.48357707e-01
      3.36354911e-01 2.13091761e-01 1.78953558e-01 1.64962962e-01
      1.40574887e-01 1.16507992e-01 1.25349358e-01 1.44096851e-01
      1.74210906e-01 2.18586817e-01 1.95544302e-01 1.20362878e-01
      1.23939775e-01</_>
    <_>
      1.47661353e-02 3.67473252e-03 1.10574095e-02 1.96675994e-02
      6.07411861e-02 3.51648368e-02 8.11414700e-03 8.32734164e-03
      3.11767729e-03 6.88876957e-02 7.27758110e-02 1.03235625e-01
      1.16237119e-01 1.10085219e-01 7.02073723e-02 5.57088554e-02
      6.22232221e-02 6.56666160e-02 1.72691822e-01 2.24334866e-01
      3.20734352e-01 2.42611170e-01 1.64731830e-01 1.44123092e-01
      1.10496990e-01 1.09902956e-01 1.38634950e-01 1.47086635e-01
      1.12056099e-01 1.29000947e-01 2.02673033e-01 2.59170920e-01
      2.71746606e-01 1.99867308e-01 2.03212127e-01 1.82928398e-01
      7.00050294e-02 5.83634786e-02 6.72571138e-02 9.48010087e-02
      1.89605400e-01 2.41038933e-01 1.25665888e-01 6.53330684e-02
      5.60026392e-02 1.22474097e-01 1.06027447e-01 1.11437388e-01
      1.15463197e-01 1.43464357e-01 1.47943124e-01 1.11172222e-01
      9.87667218e-02 1.08679496e-01 8.80774781e-02 8.00370723e-02
      9.84613374e-02 1.12875052e-01 1.33142695e-01 1.23872101e-01
      9.00128335e-02 8.68048817e-02 8.71163681e-02 1.87328681e-01
      1.92220077e-01 2.16795161e-01 2.44291306e-01 2.45943680e-01
      2.19875291e-01 1.59080923e-01 1.37307495e-01 1.60771161e-01
      1.19192138e-01 1.37912065e-01 1.82433024e-01 2.73776412e-01
      2.97661036e-01 2.54229069e-01 1.78789511e-01 1.30313292e-01
      1.20666198e-01 2.18361363e-01 2.28361934e-01 2.41486579e-01
      2.02366367e-01 1.41445860e-01 1.12362035e-01 1.10151827e-01
      1.39805660e-01 1.85774699e-01 1.10856257e-01 8.55759829e-02
      6.68927431e-02 7.11221695e-02 8.68282467e-02 1.07095115e-01
      9.48020890e-02 9.62837860e-02 1.00684613e-01 2.59276807e-01
      1.94884792e-01 1.89024091e-01 1.53264701e-01 1.67214662e-01
      2.24669620e-01 1.93410829e-01 1.87616736e-01 2.12003961e-01
      1.31032690e-01 1.40531644e-01 1.47493526e-01 1.62993476e-01
      1.45953625e-01 1.45786434e-01 1.16463199e-01 1.07199535e-01
      1.09119304e-01 8.11912864e-02 8.40187669e-02 8.97776783e-02
      9.67158079e-02 1.31923139e-01 1.01369783e-01 7.98858702e-02
      6.48953468e-02 7.38417581e-02 2.18599409e-01 2.43384987e-01
      2.74473310e-01 3.19336116e-01 3.10314715e-01 2.37120330e-01
      1.94377482e-01 1.51114181e-01 1.56899378e-01 9.29489210e-02
      9.49930400e-02 1.05792001e-01 1.52207389e-01 2.02929482e-01
      2.02242747e-01 1.29419237e-01 7.26748109e-02 6.18405901e-02
      2.61017412e-01 2.36635745e-01 1.48632258e-01 8.15083906e-02
      5.56849726e-02 4.14620265e-02 3.97409238e-02 5.96006624e-02
      1.35879129e-01 3.46971631e-01 2.00703710e-01 1.07262455e-01
      6.47117794e-02 5.77304289e-02 5.83140068e-02 8.89089257e-02
      1.47112638e-01 2.64276892e-01 1.88037276e-01 1.28691986e-01
      7.69544765e-02 5.89436218e-02 6.11494072e-02 6.85689822e-02
      8.63492712e-02 1.39181152e-01 1.87399268e-01 1.22662455e-01
      1.29398957e-01 1.23728193e-01 1.28298372e-01 1.57188833e-01
      1.48589596e-01 1.11505322e-01 9.71937105e-02 1.11826897e-01
      8.14313740e-02 8.88839588e-02 8.98863375e-02 1.02330178e-01
      1.09445259e-01 1.10635787e-01 8.02150741e-02 7.06336647e-02
      6.99034929e-02 2.31168061e-01 2.16665387e-01 2.11718515e-01
      2.32270822e-01 2.37308413e-01 1.91911057e-01 1.58303335e-01
      1.35668412e-01 1.72958568e-01 5.29439934e-02 7.36475438e-02
      1.13453276e-01 2.07017347e-01 2.72179991e-01 1.73497245e-01
      6.76416755e-02 3.52959074e-02 3.49786878e-02 1.59109548e-01
      2.84615189e-01 2.81964421e-01 1.97260693e-01 1.12108961e-01
      6.22892715e-02 4.68271673e-02 5.02898395e-02 7.07196966e-02
      3.55689675e-01 3.00540596e-01 2.13878199e-01 1.45973742e-01
      8.57056975e-02 6.60690963e-02 9.65866074e-02 1.35156885e-01
      2.24430531e-01 4.03276443e-01 2.35440984e-01 1.34385511e-01
      1.15995198e-01 1.20842747e-01 1.49476081e-01 2.16763332e-01
      3.65807950e-01 4.61697310e-01 1.81501165e-01 1.29345596e-01
      7.77354091e-02 7.76991099e-02 8.39804485e-02 1.00800365e-01
      9.45072621e-02 1.05303831e-01 1.57084480e-01 1.74245059e-01
      1.54545978e-01 1.61809862e-01 1.47453889e-01 1.30369738e-01
      1.08368732e-01 9.22680795e-02 8.83246213e-02 1.01000912e-01
      2.23776445e-01 2.18817741e-01 2.24182442e-01 2.48882726e-01
      2.53980070e-01 1.93335369e-01 1.57373056e-01 1.41720042e-01
      1.56329080e-01 8.55525583e-02 1.04720190e-01 1.19230621e-01
      1.47151664e-01 1.70565248e-01 1.14680097e-01 8.03816095e-02
      5.97543530e-02 5.48410937e-02 1.68295950e-01 2.32734025e-01
      2.60598719e-01 2.29215071e-01 1.71406791e-01 1.01596169e-01
      6.46879971e-02 5.58583550e-02 8.61130655e-02 3.55727464e-01
      4.26479846e-01 3.28552812e-01 2.11834460e-01 1.38897389e-01
      1.13727108e-01 1.19021274e-01 1.38432682e-01 2.02287972e-01
      2.39103854e-01 2.56735355e-01 1.82796493e-01 1.17527425e-01
      7.08538368e-02 6.98603913e-02 8.69556665e-02 1.14151031e-01
      1.71341270e-01 1.39376745e-01 9.25722197e-02 8.05893317e-02
      8.49203393e-02 1.01098999e-01 1.29779115e-01 1.45598039e-01
      1.57815605e-01 1.57197222e-01 1.35917827e-01 1.27240315e-01
      1.30380854e-01 1.35942534e-01 1.42461970e-01 1.34483695e-01
      1.07772894e-01 1.01164043e-01 1.38234690e-01 2.12646112e-01
      1.95764884e-01 2.22776175e-01 2.56039053e-01 2.64826864e-01
      2.31189266e-01 1.89255401e-01 1.74146786e-01 1.60607606e-01
      9.65373889e-02 1.11937575e-01 1.04396768e-01 9.84540954e-02
      1.12804137e-01 1.02360383e-01 8.53085443e-02 6.84120357e-02
      7.18873367e-02 3.29171330e-01 4.19504076e-01 3.59740555e-01
      2.67965585e-01 1.41641140e-01 1.11596964e-01 8.38848129e-02
      9.87278447e-02 1.96107492e-01 3.23938757e-01 3.34882200e-01
      2.58797258e-01 1.84433639e-01 1.34472087e-01 1.08185001e-01
      1.04224786e-01 1.31989643e-01 2.20734715e-01 3.24883282e-01
      2.28779197e-01 1.24325372e-01 6.72044232e-02 6.62796125e-02
      6.57283887e-02 8.18912238e-02 1.51440307e-01 2.74278343e-01
      2.06179485e-01 1.51331633e-01 1.23229705e-01 1.32469326e-01
      1.52465940e-01 1.52486101e-01 1.58547923e-01 1.95273861e-01
      2.14208037e-01 2.41919488e-01 2.39870206e-01 2.16830060e-01
      2.08641157e-01 2.28806645e-01 2.29390383e-01 2.16337636e-01
      2.00382501e-01 2.11371571e-01 1.98783040e-01 1.59410477e-01
      1.43238455e-01 1.82202801e-01 1.99384287e-01 2.00318292e-01
      1.84453487e-01 1.73842877e-01 1.50228977e-01 1.51498795e-01
      1.68561026e-01 1.80852547e-01 1.98644295e-01 2.86171347e-01
      3.52818877e-01 2.74429947e-01 1.73762187e-01 1.31617263e-01
      4.15765047e-01 3.99193704e-01 2.71557122e-01 1.88763127e-01
      1.49658322e-01 1.16330363e-01 1.18810698e-01 1.66899726e-01
      2.68047988e-01 2.97867209e-01 2.01309815e-01 1.25537544e-01
      9.18827206e-02 6.38456568e-02 7.03148842e-02 9.33223665e-02
      1.56243876e-01 2.49482140e-01 1.56916946e-01 1.16268970e-01
      1.14109442e-01 1.16733432e-01 1.02732867e-01 9.46223065e-02
      1.12477988e-01 1.30591899e-01 1.52119622e-01 1.79266080e-01
      1.90075830e-01 1.13561191e-01 8.63072500e-02 6.95329309e-02
      6.88886642e-02 6.52135983e-02 9.40784141e-02 1.15366280e-01
      1.87658235e-01 2.28005990e-01 1.33539513e-01 9.24460441e-02
      8.04575607e-02 7.76209608e-02 7.59414285e-02 7.89929181e-02
      1.13196090e-01 1.25095442e-01 1.02644019e-01 9.17618126e-02
      8.94533917e-02 1.02701940e-01 1.00734495e-01 9.59214941e-02
      8.28656778e-02 7.75661245e-02 5.25704995e-02 3.59757058e-02
      5.32878861e-02 7.96078220e-02 1.39915854e-01 1.87639073e-01
      2.67098606e-01 1.94716230e-01 8.55178684e-02 1.85509324e-01
      1.16435438e-01 7.36859068e-02 6.51896372e-02 7.83383250e-02
      9.63376537e-02 1.31494805e-01 1.66509435e-01 2.11737037e-01
      3.00010532e-01 2.43824810e-01 1.41549259e-01 9.16953161e-02
      9.24574211e-02 8.59311596e-02 8.44953731e-02 1.45370618e-01
      2.40279615e-01 1.56481028e-01 1.44335404e-01 1.87436491e-01
      2.44295031e-01 2.12197989e-01 1.75343797e-01 1.22288905e-01
      1.11305296e-01 1.45215407e-01 2.32240915e-01 2.51280248e-01
      2.38643512e-01 1.66422367e-01 1.18519060e-01 1.22281663e-01
      1.43594250e-01 1.81107983e-01 2.09334612e-01 2.20677018e-01
      2.08575621e-01 2.59592384e-01 3.00944865e-01 3.12887490e-01
      2.70272672e-01 2.42386743e-01 2.81654537e-01 2.60518700e-01
      2.09704176e-01 1.64637208e-01 1.58726141e-01 1.17802136e-01
      1.38123170e-01 1.22569285e-01 9.54102054e-02 1.06152147e-01
      1.59923851e-01</_>
    <_>
      1.15556180e-01 1.27290040e-01 1.40888214e-01 1.56065509e-01
      1.83725983e-01 2.27271542e-01 2.33797416e-01 1.56252041e-01
      1.12646252e-01 1.48820177e-01 1.87954381e-01 2.37148225e-01
      2.58723587e-01 2.60815680e-01 2.53975928e-01 2.02446148e-01
      1.79548174e-01 1.48548439e-01 9.63456929e-02 9.36720371e-02
      1.05429336e-01 1.65391400e-01 2.21891537e-01 1.91095665e-01
      1.82949781e-01 1.43159181e-01 1.16182216e-01 9.79103372e-02
      9.90074500e-02 1.08597189e-01 1.13409564e-01 1.35141879e-01
      1.45615533e-01 1.31583452e-01 1.28347561e-01 1.15279131e-01
      2.04981059e-01 1.59371570e-01 1.53907999e-01 1.43464461e-01
      1.54616058e-01 1.64536655e-01 1.93150118e-01 2.32749864e-01
      2.31202498e-01 1.28610432e-01 1.23381145e-01 1.28498808e-01
      1.22818671e-01 1.38846874e-01 1.47827670e-01 1.47694990e-01
      1.41622990e-01 1.60079852e-01 1.63579822e-01 1.45976439e-01
      1.55400202e-01 1.59780174e-01 1.60452336e-01 1.76115811e-01
      1.78558722e-01 1.83128133e-01 2.01827049e-01 1.47850141e-01
      1.35646090e-01 1.38745070e-01 1.54417679e-01 1.79977044e-01
      1.78812280e-01 1.68384671e-01 1.69730887e-01 1.34397268e-01
      1.08111843e-01 9.74764228e-02 1.24814287e-01 1.72267243e-01
      1.74637794e-01 1.89506963e-01 1.74924865e-01 1.54001385e-01
      1.10119134e-01 1.17917456e-01 1.31076515e-01 1.75778523e-01
      1.78298935e-01 1.51360109e-01 1.40083596e-01 1.43940464e-01
      1.26806527e-01 1.12539321e-01 1.63574561e-01 1.95004731e-01
      1.94916546e-01 1.61784023e-01 1.48097649e-01 1.67970911e-01
      1.70351774e-01 1.41135395e-01 1.47043034e-01 1.60971701e-01
      1.89112350e-01 1.79820865e-01 1.99501380e-01 1.87413141e-01
      1.95240453e-01 1.94010392e-01 1.77956775e-01 1.63851783e-01
      9.43112597e-02 8.54563266e-02 1.06504604e-01 1.25954434e-01
      1.39718384e-01 1.61306247e-01 1.52878493e-01 1.24571376e-01
      1.03144005e-01 1.28528789e-01 1.17729463e-01 1.26475751e-01
      1.48518458e-01 1.64271921e-01 1.66618615e-01 1.67765275e-01
      1.58867598e-01 1.32683590e-01 1.59058943e-01 1.32532641e-01
      1.53360531e-01 1.64144784e-01 1.60528973e-01 1.73412442e-01
      1.71003044e-01 1.43332526e-01 1.35121405e-01 1.11608110e-01
      1.10536009e-01 1.22200571e-01 1.64624244e-01 1.66207090e-01
      1.75996140e-01 1.76851958e-01 1.79487735e-01 1.56753525e-01
      1.41832486e-01 2.19602451e-01 2.99556077e-01 2.90645063e-01
      1.89091116e-01 1.29163504e-01 9.79580507e-02 1.05380133e-01
      1.15111269e-01 1.28986284e-01 2.16335192e-01 3.28363925e-01
      3.54697168e-01 2.21431792e-01 1.33170605e-01 8.60790536e-02
      6.89696148e-02 8.45637247e-02 1.48471758e-01 1.50773183e-01
      1.91163436e-01 2.26470873e-01 1.98868066e-01 1.49283051e-01
      1.45435378e-01 1.37787133e-01 1.46540076e-01 1.14094160e-01
      1.38538182e-01 1.52299330e-01 1.55266613e-01 1.22488320e-01
      1.23219863e-01 1.07224524e-01 9.40356553e-02 9.11877453e-02
      1.36511654e-01 1.22421324e-01 1.45489797e-01 1.66192025e-01
      1.92577451e-01 2.01603517e-01 2.42131427e-01 2.08733723e-01
      1.69551075e-01 1.91507474e-01 1.69949234e-01 1.70229599e-01
      1.65056348e-01 1.38037905e-01 1.33434728e-01 1.51311010e-01
      1.67079866e-01 1.79077178e-01 1.41807869e-01 1.34183973e-01
      1.54208109e-01 1.93084523e-01 2.61404037e-01 3.29325497e-01
      2.86495626e-01 2.16880783e-01 1.49257988e-01 1.11066073e-01
      1.50204748e-01 1.85060605e-01 2.29144007e-01 2.29870692e-01
      1.52854264e-01 1.26567885e-01 9.22339931e-02 8.34690109e-02
      2.10921600e-01 2.14159325e-01 2.12425202e-01 2.11464256e-01
      1.79634824e-01 1.67717293e-01 1.52325317e-01 1.46047816e-01
      1.54967561e-01 1.91777408e-01 2.32441708e-01 2.21341416e-01
      1.52931124e-01 1.13255091e-01 9.87647697e-02 1.02114312e-01
      1.33471608e-01 1.62395820e-01 1.61408350e-01 1.38091505e-01
      1.43217713e-01 1.39030501e-01 1.41613230e-01 1.41765133e-01
      1.35496169e-01 1.39018103e-01 1.60037592e-01 1.52420253e-01
      1.67943314e-01 1.63778976e-01 1.83268130e-01 2.13279143e-01
      1.87664434e-01 1.97708115e-01 2.10965917e-01 1.94123104e-01
      2.13596031e-01 1.51954651e-01 1.70698598e-01 1.76887929e-01
      1.92519307e-01 1.80513516e-01 1.89416230e-01 1.68468833e-01
      1.70386702e-01 1.65035516e-01 1.51955262e-01 1.70824423e-01
      1.93424374e-01 2.32090652e-01 2.47385040e-01 2.43016049e-01
      1.99461430e-01 1.67727634e-01 8.70395303e-02 1.14607416e-01
      1.68970078e-01 2.03404874e-01 2.15019628e-01 2.59286106e-01
      2.10142300e-01 1.18509084e-01 8.27677026e-02 1.40837193e-01
      1.74529076e-01 2.01859370e-01 2.31166959e-01 2.08270863e-01
      1.66446656e-01 1.27091900e-01 1.10449098e-01 1.11723110e-01
      1.59982905e-01 1.76331267e-01 1.62248760e-01 1.47645786e-01
      1.28151610e-01 1.25092074e-01 1.32889524e-01 1.35553777e-01
      1.51353046e-01 1.31577149e-01 1.48535058e-01 1.60960928e-01
      1.69037864e-01 2.01946393e-01 2.28555068e-01 2.39753619e-01
      1.92024678e-01 1.37068987e-01 1.29769370e-01 1.14953972e-01
      1.44182980e-01 1.82332829e-01 1.99362829e-01 1.58926457e-01
      1.53389320e-01 1.33629173e-01 1.37748882e-01 1.57136619e-01
      1.23677872e-01 1.51192829e-01 1.89371616e-01 2.18426853e-01
      2.11139932e-01 2.45346829e-01 2.13715568e-01 1.52792290e-01
      1.52730823e-01 1.71780020e-01 1.94895282e-01 2.49974787e-01
      2.44414225e-01 2.40214273e-01 1.89379022e-01 1.53351277e-01
      1.33177787e-01 1.33244351e-01 1.29676357e-01 1.32190377e-01
      1.79912612e-01 2.19481438e-01 2.77977705e-01 1.97475955e-01
      1.61501378e-01 1.34456843e-01 1.14095144e-01 1.07223883e-01
      1.40906885e-01 1.92824215e-01 2.21728638e-01 1.92587793e-01
      1.56142071e-01 1.23875633e-01 1.06208883e-01 1.90826103e-01
      2.34736875e-01 2.07188576e-01 1.67320251e-01 1.22218087e-01
      1.28831804e-01 1.41656786e-01 1.49863183e-01 1.60923868e-01
      1.86670512e-01 1.87699169e-01 1.86598226e-01 1.66380629e-01
      1.36450171e-01 1.29867330e-01 1.15027867e-01 1.28751084e-01
      1.43016621e-01 1.27978310e-01 1.09891720e-01 1.09015271e-01
      1.54464826e-01 1.57918826e-01 1.97746649e-01 2.36005291e-01
      2.00800627e-01 1.44820660e-01 1.84122995e-01 1.81285098e-01
      1.97396964e-01 2.07301959e-01 2.56511092e-01 2.21695110e-01
      2.29061857e-01 2.05306202e-01 1.64785698e-01 1.09046184e-01
      1.20476522e-01 1.40073314e-01 1.70517504e-01 1.93052083e-01
      1.86158761e-01 1.71787649e-01 1.43671647e-01 1.27384320e-01
      1.19884618e-01 1.41271666e-01 1.55745327e-01 2.22478762e-01
      2.44073197e-01 3.06688607e-01 2.13665619e-01 1.62356824e-01
      1.19347766e-01 7.58443251e-02 7.51019865e-02 1.20081358e-01
      1.63974851e-01 2.12139517e-01 2.25845218e-01 1.73775405e-01
      1.03032559e-01 8.71887356e-02 1.61750793e-01 1.44698933e-01
      1.43717706e-01 1.48055196e-01 1.50962979e-01 1.76098064e-01
      2.06227183e-01 2.00596362e-01 1.71888456e-01 1.17471069e-01
      1.38326854e-01 1.68692976e-01 1.48754567e-01 1.18937835e-01
      8.91302153e-02 9.11742225e-02 9.47608575e-02 1.00367486e-01
      1.00944087e-01 1.25948057e-01 1.76559612e-01 2.09184229e-01
      1.24770053e-01 9.09335390e-02 8.12540799e-02 6.78810403e-02
      7.63549060e-02 1.64630607e-01 1.67040795e-01 1.68669462e-01
      1.62808895e-01 1.54769987e-01 1.87866405e-01 1.70301557e-01
      1.55033603e-01 1.25327200e-01 9.72579345e-02 1.28756374e-01
      1.60910398e-01 2.02639759e-01 2.36369476e-01 1.96134672e-01
      1.51118919e-01 1.18585512e-01 9.96556729e-02 1.36834711e-01
      1.68533728e-01 2.26545274e-01 2.97124833e-01 2.97090381e-01
      2.29020625e-01 1.71786934e-01 1.17506564e-01 1.01258077e-01
      1.26110762e-01 1.53411537e-01 1.72291279e-01 2.56847590e-01
      3.16833287e-01 3.31758082e-01 3.83142829e-01 3.21062267e-01
      1.67535186e-01 1.24208219e-01 9.46194157e-02 1.01431720e-01
      1.16094343e-01 1.43238753e-01 1.90637931e-01 2.08372220e-01
      2.24526614e-01 1.56056032e-01 2.08578303e-01 2.18177006e-01
      1.81090519e-01 1.63339213e-01 1.55480415e-01 1.44266427e-01
      1.57263532e-01 1.50474429e-01 1.64609507e-01 1.14487961e-01
      1.42434731e-01 2.30902940e-01 2.53801703e-01 2.06803411e-01
      1.85417950e-01 1.95881858e-01 1.87206522e-01 1.35726511e-01
      2.25729927e-01 1.94459230e-01 1.78791448e-01 1.94279373e-01
      2.08548397e-01 2.03656793e-01 2.15565950e-01 2.14944839e-01
      2.00318441e-01</_>
    <_>
      1.91642359e-01 1.68464839e-01 1.41489968e-01 1.05294093e-01
      1.15673840e-01 1.22982495e-01 9.36961621e-02 9.59052220e-02
      1.21903762e-01 2.12114662e-01 2.40762174e-01 2.00764805e-01
      1.40119329e-01 1.45768836e-01 1.46995202e-01 1.04408696e-01
      8.40649605e-02 1.16972618e-01 3.06232989e-01 1.78019926e-01
      1.29205644e-01 1.27288312e-01 1.58511266e-01 1.54474795e-01
      1.77226141e-01 2.44770393e-01 3.13980967e-01 2.70169228e-01
      1.72038808e-01 1.17943719e-01 9.96889174e-02 1.22629195e-01
      1.42975524e-01 1.20999418e-01 1.96103483e-01 2.88257539e-01
      2.14855894e-01 1.65571749e-01 1.10182121e-01 1.09746180e-01
      1.19545393e-01 1.14580922e-01 1.00585975e-01 1.18395500e-01
      1.52063161e-01 2.38162294e-01 2.00395539e-01 1.30205408e-01
      1.18224807e-01 1.22897401e-01 1.19396105e-01 9.45916325e-02
      1.16416633e-01 1.77787006e-01 2.55369931e-01 2.23878443e-01
      1.51189536e-01 1.23863965e-01 1.47870123e-01 1.69000372e-01
      1.36255085e-01 1.58947840e-01 2.00659439e-01 1.84101060e-01
      1.21682838e-01 9.21652541e-02 9.12780389e-02 1.21232226e-01
      1.36754349e-01 9.78992954e-02 1.03089601e-01 1.37954891e-01
      1.95064560e-01 2.00827345e-01 1.91157818e-01 1.65911868e-01
      1.67589471e-01 1.84088409e-01 2.01161727e-01 1.72890320e-01
      2.01195240e-01 1.77239820e-01 1.67890772e-01 1.35536045e-01
      1.13577522e-01 9.25669149e-02 9.18356478e-02 8.96371305e-02
      9.82803777e-02 1.21640734e-01 2.11312592e-01 2.10471481e-01
      1.75555989e-01 1.62383318e-01 1.67155057e-01 1.21023245e-01
      1.12338401e-01 1.15925536e-01 1.53318956e-01 3.64459753e-01
      1.98627591e-01 1.43819213e-01 1.08857661e-01 9.44420472e-02
      7.16387406e-02 9.18079540e-02 1.36637375e-01 2.53049046e-01
      1.70665741e-01 1.09660558e-01 7.83070102e-02 6.27672821e-02
      8.03348646e-02 1.22447968e-01 1.65395766e-01 1.85478345e-01
      1.53307125e-01 1.82135373e-01 1.54107153e-01 1.26888305e-01
      8.61688480e-02 8.21060315e-02 8.58341828e-02 9.43029374e-02
      1.10577814e-01 1.57317430e-01 1.87377796e-01 1.27974600e-01
      9.13792998e-02 7.63432011e-02 7.90033787e-02 9.87157598e-02
      1.01558425e-01 1.07270986e-01 1.54213876e-01 2.80037075e-01
      1.73386902e-01 1.43713295e-01 1.52349591e-01 2.17427537e-01
      2.16979727e-01 1.95644900e-01 2.19691321e-01 2.54977167e-01
      2.63068199e-01 2.14035109e-01 1.82343900e-01 1.94956347e-01
      2.48547822e-01 2.57653773e-01 2.53769040e-01 2.39447758e-01
      2.66977578e-01 2.18832627e-01 2.00394362e-01 1.57289237e-01
      1.54282525e-01 1.43044114e-01 1.02303743e-01 1.14314824e-01
      1.16565704e-01 1.47858009e-01 2.17705682e-01 1.76748782e-01
      1.23617455e-01 1.03470162e-01 7.99902976e-02 8.01034346e-02
      7.09225982e-02 8.31849873e-02 1.26677915e-01 8.96321535e-02
      7.57495388e-02 6.83018267e-02 6.21510409e-02 5.61965778e-02
      5.86341210e-02 5.59039079e-02 6.00266345e-02 7.94352517e-02
      5.58919311e-01 1.91602007e-01 6.39780834e-02 4.24000882e-02
      3.96294706e-02 4.68471833e-02 4.67641056e-02 7.11797774e-02
      2.20893174e-01 2.50582188e-01 2.04589784e-01 1.29357263e-01
      1.14712156e-01 1.24457560e-01 1.01964347e-01 1.06958292e-01
      1.11830786e-01 1.54181808e-01 1.41964734e-01 1.14737041e-01
      1.07896812e-01 1.19174920e-01 1.72405124e-01 1.78004041e-01
      1.38717547e-01 1.46243945e-01 1.51459947e-01 1.50170565e-01
      1.19311072e-01 1.08353615e-01 1.25776619e-01 1.79979622e-01
      1.82262629e-01 1.38989761e-01 1.30048618e-01 1.61140949e-01
      1.94551125e-01 1.98379487e-01 1.53404057e-01 1.48935840e-01
      1.36541590e-01 1.16103277e-01 9.66157094e-02 1.10899709e-01
      1.34965464e-01 2.62292683e-01 1.88850582e-01 1.28569871e-01
      9.25083458e-02 7.70483762e-02 7.78516978e-02 8.91920775e-02
      1.13916002e-01 1.97280273e-01 1.46606222e-01 8.25139210e-02
      6.74150586e-02 8.65001604e-02 1.03641234e-01 1.22674234e-01
      1.39632657e-01 1.17623329e-01 1.36978284e-01 2.42810264e-01
      2.03845426e-01 1.23865746e-01 1.01983450e-01 9.36868414e-02
      1.40544415e-01 1.27979368e-01 1.34520367e-01 1.59081668e-01
      2.71894574e-01 2.01355800e-01 1.70412615e-01 1.48689747e-01
      1.46399379e-01 1.58806726e-01 1.51008293e-01 1.63539663e-01
      2.04568297e-01 9.27502960e-02 7.94665441e-02 8.10081065e-02
      8.44694003e-02 1.37405589e-01 1.51426122e-01 1.12197325e-01
      8.52590725e-02 9.44712833e-02 1.73164383e-01 1.39403194e-01
      1.32625371e-01 1.39787495e-01 1.54709294e-01 1.66916177e-01
      1.70629442e-01 1.82036012e-01 2.10230529e-01 3.19366932e-01
      2.42640316e-01 1.89990416e-01 1.56948686e-01 1.47881478e-01
      1.59666151e-01 2.17924014e-01 3.18673015e-01 3.41471016e-01
      2.47501642e-01 1.94586724e-01 1.37500569e-01 1.16774380e-01
      1.34804294e-01 1.33266851e-01 1.13334075e-01 1.37902752e-01
      2.00626850e-01 1.12370156e-01 9.49025080e-02 7.20235482e-02
      5.17816730e-02 4.41976339e-02 4.26452607e-02 3.61502096e-02
      3.95151041e-02 6.75964132e-02 1.49312481e-01 1.35118261e-01
      1.13255680e-01 1.01317555e-01 1.28315523e-01 1.93618163e-01
      1.60192445e-01 1.03203237e-01 1.12471469e-01 2.48704299e-01
      2.01198176e-01 1.52698055e-01 1.30492449e-01 1.11854605e-01
      1.20048307e-01 1.28291234e-01 1.39365673e-01 1.86698556e-01
      1.87611714e-01 1.62827432e-01 1.48314700e-01 1.70907199e-01
      2.22927615e-01 1.89979002e-01 1.30775243e-01 1.11373000e-01
      1.48383215e-01 1.98007897e-01 1.86892882e-01 1.93199635e-01
      1.72809795e-01 1.86971873e-01 1.70457557e-01 1.71355516e-01
      1.69781059e-01 1.85200676e-01 3.11733037e-01 1.96403623e-01
      1.37797728e-01 1.34158626e-01 1.43720537e-01 1.31054059e-01
      1.48362920e-01 1.99681327e-01 2.55221993e-01 2.02450648e-01
      1.19640008e-01 6.78668767e-02 6.12494536e-02 7.00691640e-02
      1.00037210e-01 1.08632647e-01 1.41502738e-01 1.65633172e-01
      1.85081035e-01 1.46777943e-01 8.64192918e-02 5.00456132e-02
      4.11702767e-02 4.44426313e-02 4.39752713e-02 5.41540124e-02
      7.56117627e-02 3.26320559e-01 2.49430895e-01 1.37892410e-01
      1.06133051e-01 9.77753848e-02 1.07427351e-01 9.57168266e-02
      1.02137126e-01 1.64178252e-01 2.64685243e-01 1.83417931e-01
      1.21802621e-01 1.27250299e-01 1.27696753e-01 1.30101457e-01
      1.25212789e-01 1.38870195e-01 2.01745927e-01 1.20596163e-01
      1.07749969e-01 9.92755592e-02 1.33644387e-01 2.05126941e-01
      2.13391393e-01 1.37711942e-01 1.10319771e-01 1.04830466e-01
      1.08930878e-01 8.20835307e-02 9.48890448e-02 1.25258014e-01
      1.90460235e-01 2.49531388e-01 2.14601517e-01 1.59777880e-01
      1.22036435e-01 2.00813770e-01 1.05905347e-01 5.58841266e-02
      5.65690659e-02 6.84194714e-02 9.66210440e-02 1.18984520e-01
      1.44691333e-01 2.05101520e-01 1.33774921e-01 7.31128678e-02
      4.76720966e-02 4.21162881e-02 4.75806594e-02 5.76204881e-02
      6.87750205e-02 1.06187306e-01 1.32851630e-01 9.05466303e-02
      6.72014803e-02 3.91352177e-02 3.50675993e-02 3.77115905e-02
      4.26073708e-02 4.49228063e-02 5.92255853e-02 7.47883841e-02
      3.57820153e-01 1.66430369e-01 1.06298864e-01 8.04666206e-02
      8.92760977e-02 8.39349255e-02 8.25953111e-02 1.20305657e-01
      2.42952511e-01 2.59587139e-01 2.03692660e-01 1.31467715e-01
      1.21332638e-01 1.16035931e-01 1.05427474e-01 1.05987959e-01
      1.20275192e-01 1.65550441e-01 3.55754733e-01 2.14725420e-01
      1.57788366e-01 1.55418664e-01 1.61701709e-01 1.81662351e-01
      1.38611659e-01 1.42769337e-01 2.18128189e-01 2.46917665e-01
      1.47370055e-01 8.79990682e-02 6.33941293e-02 8.01578984e-02
      1.07095279e-01 1.58854648e-01 1.95961013e-01 2.25528866e-01
      3.62769872e-01 2.21891120e-01 1.34274632e-01 9.18917507e-02
      8.52636620e-02 9.50398371e-02 1.22152358e-01 1.77305594e-01
      3.03604662e-01 4.18551266e-01 2.67771482e-01 1.22535683e-01
      7.48843029e-02 7.17928112e-02 7.87664130e-02 9.15463194e-02
      1.39530420e-01 2.71368295e-01 4.70215291e-01 2.83257008e-01
      1.36715591e-01 9.17644650e-02 7.80590177e-02 8.18563029e-02
      1.07631579e-01 1.82768762e-01 3.16263348e-01 3.76982838e-01
      1.95568696e-01 1.32799149e-01 9.52440873e-02 8.08250606e-02
      9.04632434e-02 1.17055297e-01 1.89968228e-01 3.01476538e-01
      2.93627024e-01 1.82352245e-01 1.16756327e-01 1.03316203e-01
      9.63141993e-02 9.09381136e-02 1.04274496e-01 1.35736093e-01
      1.96791023e-01</_>
    <_>
      1.15324289e-01 8.29155222e-02 8.37625861e-02 1.14368208e-01
      2.05652758e-01 1.79318994e-01 1.27723292e-01 8.38158652e-02
      5.78105003e-02 9.89129096e-02 9.88097265e-02 1.54885307e-01
      1.83300138e-01 3.08551878e-01 2.47507885e-01 1.56757221e-01
      1.00349449e-01 9.08424854e-02 1.10360302e-01 1.07577495e-01
      1.15859695e-01 2.00001389e-01 3.53797793e-01 3.26257318e-01
      1.56718403e-01 8.31483454e-02 7.95400366e-02 1.09783262e-01
      1.70252040e-01 1.96910173e-01 2.16040343e-01 3.18539768e-01
      2.66035408e-01 1.31902114e-01 1.21013865e-01 9.40586403e-02
      7.44100884e-02 6.91934898e-02 6.15308285e-02 6.33156672e-02
      1.75205588e-01 1.97471157e-01 7.85470158e-02 5.89132123e-02
      5.54266050e-02 4.97155525e-02 7.82350376e-02 9.59186330e-02
      1.24049544e-01 1.85158432e-01 1.72155097e-01 1.01659484e-01
      9.94205922e-02 4.68482338e-02 1.14669740e-01 1.29974782e-01
      1.41624093e-01 1.61769241e-01 2.13301331e-01 2.02452332e-01
      1.40057206e-01 1.03832468e-01 7.38491118e-02 1.50295243e-01
      9.95806456e-02 1.42955586e-01 2.01780632e-01 3.61383170e-01
      3.29247802e-01 1.02999248e-01 6.72752485e-02 7.10948482e-02
      1.30186409e-01 1.49767697e-01 1.73736006e-01 2.30212748e-01
      2.02553347e-01 2.83070505e-01 2.11122647e-01 1.16145723e-01
      1.09088123e-01 1.16456866e-01 1.15942731e-01 1.44403532e-01
      1.33184507e-01 1.72618091e-01 1.47469297e-01 9.27510932e-02
      6.29151762e-02 9.43384916e-02 1.41238704e-01 1.12013079e-01
      9.87926275e-02 9.51545015e-02 9.85924900e-02 1.48687363e-01
      1.48282468e-01 1.47265270e-01 1.97564915e-01 7.99660087e-02
      7.56255984e-02 7.55648538e-02 1.01453893e-01 1.48050085e-01
      1.00498155e-01 6.22019432e-02 5.37927076e-02 4.77795340e-02
      3.17756683e-02 4.05835919e-02 1.01986371e-01 2.04676673e-01
      3.26669037e-01 2.83039540e-01 1.47280410e-01 6.73634261e-02
      4.02522162e-02 8.63461047e-02 4.04847153e-02 4.05552797e-02
      5.96142299e-02 1.20775335e-01 8.54398981e-02 3.93870622e-02
      3.81090343e-02 4.40252125e-02 7.69365579e-02 5.15413694e-02
      6.78570494e-02 9.73781869e-02 1.06840745e-01 7.60948360e-02
      5.11907972e-02 4.43139151e-02 4.89436500e-02 9.53399613e-02
      1.13293663e-01 1.89774305e-01 1.66815594e-01 1.35447145e-01
      1.36460602e-01 1.28023148e-01 1.48085266e-01 1.35034278e-01
      2.76752919e-01 3.88514251e-01 2.76709527e-01 2.70846128e-01
      1.59700990e-01 1.31572500e-01 7.93267116e-02 6.28208593e-02
      7.34217241e-02 4.77128595e-01 2.66049623e-01 1.10143706e-01
      5.08781187e-02 4.95053232e-02 4.88497354e-02 3.70813198e-02
      5.61617129e-02 1.91443175e-01 4.87765580e-01 2.90129960e-01
      1.16020083e-01 7.45920911e-02 6.19509965e-02 4.92965430e-02
      5.42904995e-02 4.60292101e-02 1.51526228e-01 1.49498582e-01
      8.20723027e-02 1.37469947e-01 1.77884907e-01 1.74557596e-01
      1.10287003e-01 7.77363330e-02 8.44202638e-02 1.51625887e-01
      4.93604779e-01 1.60351872e-01 1.20816007e-01 1.59189314e-01
      1.91468343e-01 1.38676733e-01 1.17337048e-01 1.43570215e-01
      2.55916566e-01 8.38906541e-02 4.64893766e-02 1.14401624e-01
      1.48787126e-01 2.35291407e-01 1.93511516e-01 1.28626317e-01
      1.16270870e-01 1.03840724e-01 7.45672733e-02 1.34001389e-01
      2.74954647e-01 5.40061533e-01 2.87896723e-01 1.43125683e-01
      1.29350245e-01 8.49143192e-02 5.29441535e-02 2.04013318e-01
      2.00674906e-01 2.14109719e-01 1.97021469e-01 2.00188398e-01
      1.35853663e-01 8.50685462e-02 9.58426595e-02 1.71111867e-01
      1.17611609e-01 8.08379799e-02 1.27524599e-01 1.98796079e-01
      1.75573766e-01 2.10195601e-01 1.83286607e-01 1.11304261e-01
      1.07553869e-01 1.01088353e-01 9.17008221e-02 7.31459260e-02
      8.31549093e-02 1.26561940e-01 1.38226181e-01 9.36186537e-02
      6.21711463e-02 4.92556728e-02 1.44320339e-01 1.19393736e-01
      8.16588178e-02 8.63198489e-02 1.03801221e-01 1.06177345e-01
      1.20502189e-01 1.11322440e-01 1.25325963e-01 1.39969960e-01
      1.68766186e-01 2.60753512e-01 2.73142546e-01 1.29171059e-01
      2.17158958e-01 1.74185693e-01 8.80839154e-02 9.34093446e-02
      8.99457708e-02 7.05363229e-02 1.30631134e-01 8.95652771e-02
      9.74944755e-02 6.65940866e-02 4.64905836e-02 4.69533838e-02
      7.00552315e-02 9.36147273e-02 8.44617784e-02 1.33418933e-01
      1.75055057e-01 3.64587635e-01 2.10519969e-01 9.14212316e-02
      5.93762286e-02 6.01211525e-02 1.28166467e-01 8.82656500e-02
      1.62127063e-01 1.64995745e-01 1.72303796e-01 2.34913349e-01
      1.82745144e-01 1.28022999e-01 1.56004667e-01 1.25668779e-01
      1.00816950e-01 9.25500542e-02 1.25318542e-01 1.43753871e-01
      1.55727372e-01 1.32666215e-01 9.19594318e-02 9.73136574e-02
      8.40553716e-02 5.82410991e-02 6.83615953e-02 9.80968103e-02
      1.02502920e-01 1.07731052e-01 8.98571238e-02 1.04570024e-01
      9.60753486e-02 5.25734648e-02 7.94250295e-02 2.19580904e-01
      2.73126364e-01 1.82136625e-01 1.09267421e-01 7.79575408e-02
      1.22913137e-01 9.63731185e-02 6.00294888e-01 5.08381128e-01
      1.29563302e-01 1.24527708e-01 1.35829374e-01 7.75293708e-02
      7.35877752e-02 1.56314269e-01 2.58276105e-01 1.49991259e-01
      7.74506778e-02 7.35420361e-02 1.03215411e-01 9.91348624e-02
      1.08365037e-01 1.10679179e-01 1.03744619e-01 7.78306574e-02
      1.20085537e-01 9.92106423e-02 1.34245709e-01 1.49901167e-01
      1.86503619e-01 1.88291296e-01 2.03419238e-01 1.28454879e-01
      1.14359230e-01 1.16436534e-01 9.73722637e-02 1.01632386e-01
      6.88032061e-02 9.41134542e-02 1.76167175e-01 1.56697527e-01
      1.46709025e-01 1.65433466e-01 2.53628373e-01 2.21845821e-01
      1.44970506e-01 7.78103396e-02 6.73353299e-02 6.35309666e-02
      5.73508888e-02 7.40557164e-02 8.13636109e-02 4.89563227e-01
      1.53786927e-01 9.67753008e-02 9.75974128e-02 8.42197761e-02
      5.66568412e-02 7.57710338e-02 6.93453327e-02 1.58803925e-01
      1.45220786e-01 2.04144225e-01 3.00822049e-01 4.61138874e-01
      4.51994717e-01 2.14156851e-01 4.52371240e-02 4.99316156e-02
      8.12053680e-02 3.18730891e-01 4.15335089e-01 1.65494785e-01
      1.20489314e-01 1.85226738e-01 1.49373412e-01 7.89643303e-02
      4.65799905e-02 6.22958727e-02 1.98044702e-01 1.53529271e-01
      2.02962250e-01 2.31071547e-01 1.84709176e-01 8.96634012e-02
      9.70992595e-02 1.16851747e-01 1.18545443e-01 1.71877399e-01
      1.53318197e-01 1.15871616e-01 1.41231239e-01 2.22585633e-01
      2.35089242e-01 1.49322540e-01 1.69973180e-01 1.29426554e-01
      1.59725830e-01 1.49859667e-01 1.03125483e-01 1.40374109e-01
      1.34249792e-01 1.45491883e-01 1.77782208e-01 2.05199018e-01
      1.76336408e-01 1.68319196e-01 1.58426195e-01 2.22083628e-01
      1.94699988e-01 9.31794345e-02 1.13174327e-01 1.42492801e-01
      1.74908981e-01 1.72429845e-01 1.85014263e-01 2.05007881e-01
      1.97309107e-01 1.83619797e-01 2.47909591e-01 2.48018116e-01
      9.85101536e-02 1.29547253e-01 1.97854146e-01 1.46320015e-01
      1.38428763e-01 2.21807003e-01 2.80426234e-01 2.76216686e-01
      1.98120028e-01 1.25413075e-01 1.06789887e-01 9.54618230e-02
      5.44064678e-02 5.85609637e-02 8.70825425e-02 1.72249183e-01
      2.63860315e-01 2.89722234e-01 1.33698985e-01 9.21661481e-02
      2.31188461e-02 1.98967621e-01 1.81595013e-01 2.05264881e-01
      1.92930102e-01 2.25917414e-01 2.53781885e-01 2.30431259e-01
      1.50923148e-01 1.29054904e-01 7.34430030e-02 8.91525000e-02
      1.83701068e-01 2.49559492e-01 2.79499829e-01 2.60635972e-01
      1.99968621e-01 2.06040666e-01 1.18896320e-01 1.15401030e-01
      1.34829387e-01 1.81345388e-01 2.55416214e-01 3.02482039e-01
      3.27187240e-01 2.41210446e-01 1.05927207e-01 7.85899758e-02
      2.42548004e-01 1.80053994e-01 2.04427332e-01 2.32344940e-01
      2.12514341e-01 2.29003593e-01 2.15328291e-01 1.54575393e-01
      1.76211745e-01 1.27638370e-01 1.07742593e-01 1.22183770e-01
      1.56203017e-01 2.55446553e-01 3.55956346e-01 1.78420767e-01
      1.25373617e-01 9.85129029e-02 1.40466154e-01 1.63070858e-01
      2.02745810e-01 2.60150790e-01 3.97032946e-01 3.32920700e-01
      2.14280367e-01 1.14369273e-01 7.90212974e-02 7.42241889e-02
      2.58134007e-02 9.66746956e-02 1.80344924e-01 2.43960381e-01
      1.71712235e-01 1.24623381e-01 9.34156775e-02 1.64806899e-02
      2.97517210e-01 1.98596433e-01 1.61616057e-01 1.50529101e-01
      1.59306183e-01 1.81996986e-01 1.95852146e-01 1.58678323e-01
      1.17455423e-01</_>
    <_>
      6.58902451e-02 4.93812375e-02 1.16053566e-01 1.81107432e-01
      2.34342337e-01 2.68228173e-01 8.41769353e-02 5.85887283e-02
      5.06800972e-02 1.34430602e-01 1.15146287e-01 1.16404757e-01
      1.43640131e-01 2.29619622e-01 1.55326515e-01 8.70027542e-02
      1.38232395e-01 1.61076814e-01 1.09195985e-01 7.06632361e-02
      7.22558126e-02 1.16946749e-01 2.76315093e-01 2.10011899e-01
      7.80720264e-02 1.00387171e-01 1.12449422e-01 3.78452018e-02
      3.57882902e-02 6.59566075e-02 1.25918821e-01 3.11617345e-01
      3.38776112e-01 1.62817940e-01 9.77530777e-02 3.17988209e-02
      4.32277136e-02 4.57924828e-02 6.42620176e-02 8.40789154e-02
      1.19536214e-01 1.01824746e-01 7.67218769e-02 4.15112264e-02
      3.08032054e-02 3.68502326e-02 2.55814865e-02 6.27866387e-02
      8.85172561e-02 1.43685579e-01 2.02895299e-01 7.56772310e-02
      3.83180007e-02 2.83261724e-02 2.27506578e-01 2.21499234e-01
      1.85539022e-01 1.24380402e-01 1.69404283e-01 2.03160271e-01
      1.24369375e-01 1.69518605e-01 1.90706119e-01 1.67672962e-01
      1.26997620e-01 1.37548327e-01 1.49739504e-01 1.91020429e-01
      1.71415567e-01 9.88773406e-02 1.03051603e-01 9.20741186e-02
      1.22354016e-01 2.25972474e-01 2.50018984e-01 1.92234218e-01
      1.15353599e-01 1.29247427e-01 1.49274930e-01 8.34529847e-02
      6.41386360e-02 2.34217972e-01 3.92494172e-01 3.09315801e-01
      1.32442862e-01 9.57751721e-02 6.21577762e-02 6.86804801e-02
      7.80464932e-02 6.81281909e-02 3.90928179e-01 1.80874154e-01
      1.12614684e-01 1.19859271e-01 3.88191864e-02 3.84329930e-02
      9.50118005e-02 2.13123381e-01 2.73472697e-01 3.19176525e-01
      9.59744826e-02 5.27663901e-02 3.89347374e-02 3.11932862e-02
      5.65905869e-02 6.41225055e-02 1.05460912e-01 2.78878808e-01
      6.60959557e-02 8.77101868e-02 1.58164293e-01 2.89627612e-01
      4.91478324e-01 3.36698174e-01 1.24762885e-01 1.07512601e-01
      5.35864085e-02 5.07470742e-02 3.09401415e-02 5.42763956e-02
      6.37432560e-02 1.19111232e-01 1.00803599e-01 5.28597012e-02
      4.81387712e-02 3.09645608e-02 9.98704955e-02 5.90757914e-02
      8.11379626e-02 1.25790954e-01 1.75665691e-01 1.67295992e-01
      6.95001855e-02 2.68343519e-02 1.86398868e-02 3.96677479e-02
      8.84819180e-02 2.27617621e-01 4.84400868e-01 4.42739040e-01
      1.49191678e-01 5.73612601e-02 2.70957593e-02 2.38162372e-02
      1.20799124e-01 1.65077150e-01 1.26698211e-01 1.52710453e-01
      1.53476179e-01 1.86402589e-01 1.17924161e-01 6.25916645e-02
      4.78242710e-02 7.03130364e-02 6.15241192e-02 1.38682634e-01
      2.47096255e-01 2.55988419e-01 2.23394796e-01 1.44164011e-01
      8.12097117e-02 4.55950201e-02 9.09883678e-02 9.06299949e-02
      8.83330107e-02 1.17665224e-01 1.53622210e-01 1.22522138e-01
      8.81443098e-02 7.17961937e-02 6.34944215e-02 1.20821878e-01
      9.51339081e-02 6.59345388e-02 8.66775215e-02 2.35157117e-01
      1.79638684e-01 1.09262362e-01 1.21734232e-01 1.03844389e-01
      2.36684397e-01 3.11131440e-02 2.96322182e-02 3.39011848e-02
      5.58557585e-02 8.13748091e-02 2.12971672e-01 3.78813565e-01
      2.48870090e-01 4.78547141e-02 2.89945733e-02 6.17927425e-02
      9.60440710e-02 1.40293553e-01 2.32331544e-01 1.10391796e-01
      6.87857494e-02 3.02718598e-02 8.10066238e-02 6.49284124e-02
      1.12724572e-01 1.63508281e-01 2.80225247e-01 3.10318261e-01
      1.77835941e-01 8.04286376e-02 6.18243627e-02 9.04324502e-02
      9.87122059e-02 9.91837084e-02 1.56355336e-01 2.72402197e-01
      3.95658553e-01 2.17998162e-01 1.35718912e-01 1.02163702e-01
      1.02987319e-01 8.51878151e-02 8.01125988e-02 1.71444967e-01
      2.52343297e-01 2.68361032e-01 2.44979888e-01 2.02148393e-01
      9.99929830e-02 5.28233536e-02 4.36605774e-02 5.89177087e-02
      9.58608612e-02 1.43726990e-01 2.42924273e-01 1.22622550e-01
      5.96016049e-02 3.77540179e-02 5.45430258e-02 7.06333891e-02
      1.41514465e-01 1.59634575e-01 1.48623109e-01 7.29577765e-02
      9.26034823e-02 8.54415223e-02 4.46116142e-02 1.10223539e-01
      3.09030414e-01 3.25940430e-01 2.79466510e-01 3.24836284e-01
      1.99979156e-01 3.67359072e-02 3.45365442e-02 4.54913937e-02
      1.78856730e-01 9.99365747e-02 1.23256363e-01 1.44337669e-01
      1.37873247e-01 1.38141960e-01 1.00413725e-01 7.61379674e-02
      8.77882838e-02 8.15893710e-02 1.04059480e-01 1.73701793e-01
      1.69069186e-01 1.92833945e-01 2.27651060e-01 1.93180934e-01
      1.04120977e-01 6.19444177e-02 1.55264422e-01 8.71601403e-02
      1.16878830e-01 1.87067926e-01 2.25739986e-01 2.43959323e-01
      1.44086719e-01 1.24912962e-01 1.00886948e-01 1.54320538e-01
      6.78898171e-02 1.00724235e-01 1.82281002e-01 1.97357789e-01
      3.08792263e-01 3.33397567e-01 1.93230525e-01 1.58753753e-01
      9.59497169e-02 5.51634543e-02 4.73165363e-02 7.29861334e-02
      1.01628050e-01 7.69263133e-02 5.29997908e-02 6.49506599e-02
      6.26577213e-02 9.36914384e-02 1.09954208e-01 2.03303471e-01
      2.18278930e-01 2.79043555e-01 1.91960320e-01 2.36505568e-01
      1.21928431e-01 1.65332004e-01 2.11145952e-01 3.89497489e-01
      2.79593408e-01 1.68852791e-01 2.88402349e-01 1.70282006e-01
      7.47968033e-02 1.04203850e-01 1.64578885e-01 2.23433271e-01
      1.61127836e-01 1.00131251e-01 1.75593138e-01 3.07110637e-01
      1.99069589e-01 1.69810042e-01 1.17650762e-01 1.14155389e-01
      1.15428984e-01 1.21712856e-01 1.05336621e-01 9.56016555e-02
      1.50663674e-01 1.40664607e-01 1.02483191e-01 8.94085467e-02
      1.03119813e-01 7.36794323e-02 6.67356923e-02 6.91477656e-02
      1.19699337e-01 1.48568168e-01 1.42495126e-01 9.21465307e-02
      8.74274224e-02 8.12492222e-02 5.29296175e-02 3.88675071e-02
      4.79861461e-02 5.50701320e-02 4.43524756e-02 5.15033156e-02
      4.00396958e-02 5.14371991e-02 4.82267141e-02 6.10865802e-02
      4.55903485e-02 5.72380871e-02 1.26654357e-01 8.93875286e-02
      5.08933626e-02 5.40170148e-02 4.57802787e-02 4.18970734e-02
      1.87080696e-01 1.68250754e-01 1.60083085e-01 3.95616621e-01
      3.77973884e-01 8.36667418e-02 1.32204667e-01 8.99773911e-02
      8.86523426e-02 2.22749189e-01 1.27952173e-01 1.80121914e-01
      1.88033909e-01 1.37527466e-01 8.78105387e-02 8.78915116e-02
      3.44513208e-02 7.05302507e-02 1.97299272e-01 6.07519485e-02
      1.41099721e-01 3.64955813e-01 2.45513052e-01 1.74761340e-01
      1.75300375e-01 1.08547524e-01 9.47453678e-02 9.86972302e-02
      1.05120681e-01 1.68475419e-01 1.19421996e-01 1.53545573e-01
      2.86517948e-01 1.36383370e-01 1.36860117e-01 6.16051592e-02
      2.20407188e-01 1.31765559e-01 7.47636855e-02 1.14302702e-01
      1.28827706e-01 1.23306699e-01 9.49738771e-02 1.27339587e-01
      2.08893344e-01 4.65654284e-01 3.76038194e-01 9.84020159e-02
      4.03570607e-02 3.98602337e-02 2.90493537e-02 3.19112502e-02
      4.83888946e-02 1.70746982e-01 4.51396525e-01 5.39882481e-01
      2.35284045e-01 6.48191497e-02 3.47234122e-02 2.97437683e-02
      5.16453087e-02 7.09991157e-02 1.03107549e-01 2.07393318e-01
      2.68655688e-01 2.57296979e-01 2.62406558e-01 2.47928888e-01
      1.82370439e-01 9.15160328e-02 3.79548967e-02 4.60627414e-02
      7.55364075e-02 4.18584123e-02 1.38926148e-01 3.88718575e-01
      4.39431429e-01 1.39487296e-01 4.15634140e-02 3.21874544e-02
      3.51711065e-02 1.75343558e-01 7.12513477e-02 8.71875584e-02
      1.12509586e-01 1.76025033e-01 1.38401896e-01 8.14612508e-02
      7.16799051e-02 5.82976453e-02 9.25726965e-02 1.55660719e-01
      1.39781475e-01 1.93511873e-01 4.23171252e-01 2.07818985e-01
      1.07984796e-01 1.43372744e-01 1.06726035e-01 1.04588374e-01
      1.14502661e-01 1.74252868e-01 1.95876107e-01 1.91037133e-01
      2.89879769e-01 2.52561718e-01 1.84951648e-01 1.66314989e-01
      6.06042109e-02 8.58626440e-02 1.19315170e-01 1.27007842e-01
      1.21924698e-01 2.13442549e-01 1.29197881e-01 4.78293486e-02
      3.87074724e-02 4.99878116e-02 5.19487560e-02 5.48040047e-02
      6.62503019e-02 8.02709386e-02 9.13292840e-02 9.42992344e-02
      7.21416101e-02 3.42549048e-02 2.18229257e-02 2.96089780e-02
      7.56206065e-02 7.69683644e-02 2.54371643e-01 4.18120295e-01
      3.14249635e-01 1.03529818e-01 2.72632837e-02 1.66369900e-01
      1.79613248e-01 2.28237838e-01 2.73080289e-01 2.22260937e-01
      2.21538752e-01 2.11769566e-01 1.23095721e-01 8.60301554e-02
      1.94092348e-01 1.39070675e-01 1.62724495e-01 1.49818644e-01
      1.25614613e-01 1.24684893e-01 1.25603214e-01 1.06330089e-01
      1.00735746e-01</_>
    <_>
      1.73835665e-01 1.28593966e-01 1.27033934e-01 1.21093199e-01
      2.02603072e-01 2.04826698e-01 1.48539141e-01 1.33948982e-01
      1.41097054e-01 1.23519443e-01 9.29362103e-02 8.45368877e-02
      1.02649711e-01 1.15438677e-01 1.15327671e-01 1.11517355e-01
      9.02304575e-02 1.06281973e-01 1.47807166e-01 1.83255121e-01
      1.58863157e-01 1.29794464e-01 1.04598559e-01 9.51435491e-02
      1.07346795e-01 1.34438619e-01 1.52092427e-01 1.97913155e-01
      3.45577031e-01 2.09610477e-01 9.14436355e-02 1.11671247e-01
      1.18290775e-01 8.22082683e-02 9.41981375e-02 1.21519819e-01
      2.00173751e-01 1.90572560e-01 2.48997927e-01 2.83979088e-01
      2.68547475e-01 1.74827322e-01 1.67378753e-01 1.24493368e-01
      1.45287484e-01 1.73327774e-01 1.71809077e-01 1.73037663e-01
      1.79478362e-01 2.15310067e-01 1.78380862e-01 1.31448343e-01
      1.30219251e-01 1.29181713e-01 2.57350445e-01 2.20096156e-01
      1.76889896e-01 1.53014317e-01 1.95734844e-01 1.66489646e-01
      1.26641363e-01 1.42184213e-01 2.11136043e-01 2.27925628e-01
      1.88760981e-01 1.52166560e-01 1.47119343e-01 1.61760047e-01
      1.49775282e-01 1.10399373e-01 1.54269010e-01 2.03471646e-01
      9.48911831e-02 1.21133432e-01 1.06558628e-01 9.94806662e-02
      1.29381925e-01 1.14809789e-01 9.79216471e-02 7.86034614e-02
      7.16840923e-02 2.08119154e-01 1.92600340e-01 2.11705133e-01
      2.08969727e-01 2.26430178e-01 2.77142406e-01 2.90400982e-01
      2.34046474e-01 2.21525803e-01 2.39970639e-01 2.32196584e-01
      2.67132640e-01 2.81872034e-01 2.22687408e-01 1.13728069e-01
      9.10900533e-02 1.08612575e-01 1.48500234e-01 1.45351574e-01
      1.33076310e-01 1.31475225e-01 1.95451096e-01 2.37256393e-01
      1.58745766e-01 1.22511104e-01 9.08861682e-02 1.07075460e-01
      1.03554122e-01 9.83173698e-02 8.46281052e-02 9.37133729e-02
      9.65804681e-02 8.55056047e-02 7.63045475e-02 7.76165649e-02
      9.16456133e-02 1.43035412e-01 1.20207287e-01 1.02982178e-01
      8.29559043e-02 7.80161768e-02 7.97933638e-02 8.29002857e-02
      8.07012022e-02 9.39293951e-02 1.47847578e-01 1.01566590e-01
      8.75049829e-02 9.12313014e-02 9.30716246e-02 8.37571397e-02
      7.66638145e-02 7.16467127e-02 9.91186425e-02 1.11774758e-01
      9.42351073e-02 1.12427026e-01 1.41605198e-01 1.87664643e-01
      1.63522139e-01 1.29391953e-01 1.03800930e-01 9.26682055e-02
      1.95330888e-01 2.40416750e-01 2.33475417e-01 2.28803813e-01
      2.98997968e-01 2.82094866e-01 1.96557581e-01 1.70120984e-01
      1.45288259e-01 2.02050641e-01 1.23540342e-01 1.03002585e-01
      1.08995855e-01 1.11550592e-01 1.18637964e-01 1.25994295e-01
      1.30440190e-01 1.53076380e-01 1.06147014e-01 1.15594074e-01
      1.21615671e-01 1.50091514e-01 1.82555974e-01 1.87119141e-01
      1.40597850e-01 1.13465868e-01 1.12857990e-01 3.38518858e-01
      2.07690582e-01 8.62127766e-02 7.95974433e-02 1.03245698e-01
      8.86705294e-02 9.37817171e-02 1.33403838e-01 1.85147375e-01
      2.36243367e-01 5.74955225e-01 3.64828944e-01 1.99430510e-01
      1.71691656e-01 1.03900127e-01 8.04058388e-02 6.52296022e-02
      8.93285424e-02 1.58063501e-01 1.78785279e-01 2.18438447e-01
      1.53976575e-01 1.00773878e-01 1.18237637e-01 8.58886018e-02
      8.78639445e-02 9.87272188e-02 1.70276940e-01 2.11504042e-01
      3.37316304e-01 4.36659843e-01 3.41241091e-01 2.36984953e-01
      1.41278625e-01 1.30992129e-01 1.52813062e-01 1.42618075e-01
      1.18344173e-01 1.43130198e-01 1.74894750e-01 2.10206330e-01
      2.15656146e-01 1.54929653e-01 1.03018068e-01 1.23241708e-01
      9.87054929e-02 8.86279270e-02 9.39611495e-02 1.08341210e-01
      1.30934581e-01 1.21838793e-01 1.02465138e-01 1.07164785e-01
      9.66401696e-02 1.27319306e-01 1.26276970e-01 1.42324969e-01
      1.78324893e-01 2.15410724e-01 1.79667205e-01 1.08535379e-01
      1.01174705e-01 1.32794082e-01 1.15419567e-01 1.20001338e-01
      1.81083500e-01 1.74383298e-01 1.99350163e-01 1.80186465e-01
      1.13304362e-01 8.29605609e-02 9.34333950e-02 1.02443814e-01
      1.45982698e-01 1.64603919e-01 2.45827213e-01 2.27381736e-01
      1.83374420e-01 1.06145851e-01 7.01207221e-02 6.61334917e-02
      1.99824423e-01 1.40814677e-01 1.18388616e-01 1.18269600e-01
      1.43978626e-01 1.15293689e-01 8.79376903e-02 8.59351009e-02
      1.19634010e-01 1.12243943e-01 9.20193419e-02 1.49234563e-01
      2.55067289e-01 4.40303236e-01 2.79653311e-01 1.30610734e-01
      9.76411104e-02 8.59932825e-02 1.49084419e-01 1.20129623e-01
      9.54449847e-02 9.29270312e-02 1.35088831e-01 1.56691596e-01
      1.32878095e-01 1.32875606e-01 1.36171341e-01 1.18577667e-01
      1.13660872e-01 1.14412852e-01 1.08866006e-01 1.24620609e-01
      1.51314884e-01 1.29186437e-01 1.24737546e-01 1.18201442e-01
      2.05484048e-01 1.62624329e-01 2.04059511e-01 2.05719963e-01
      1.80485770e-01 1.22311756e-01 1.00648761e-01 1.74041286e-01
      2.13505223e-01 1.36401057e-01 8.56553689e-02 9.57862362e-02
      1.56549305e-01 2.02854753e-01 1.89877182e-01 2.76368052e-01
      2.62954324e-01 2.39915147e-01 1.18070252e-01 8.22555646e-02
      9.51289758e-02 1.27498150e-01 1.29024610e-01 2.41741747e-01
      3.15602571e-01 3.02083522e-01 1.48960039e-01 1.61488816e-01
      1.06119528e-01 9.83008668e-02 1.18062340e-01 1.26653180e-01
      1.15920603e-01 1.01932779e-01 8.86008665e-02 9.30846483e-02
      1.35735765e-01 9.93208811e-02 1.01727486e-01 1.10789292e-01
      1.55526444e-01 1.64507672e-01 1.41346231e-01 1.24340817e-01
      1.19722374e-01 7.71312639e-02 7.69809559e-02 7.97748342e-02
      9.30630416e-02 1.23474441e-01 1.02312863e-01 6.85267821e-02
      5.48525378e-02 6.06087334e-02 8.78839269e-02 1.19980179e-01
      1.78147018e-01 2.35828876e-01 1.79363564e-01 1.06662162e-01
      6.94536194e-02 5.30103818e-02 5.33349290e-02 2.36892104e-01
